{"learner":{"attributes":{"best_iteration":"99","best_ntree_limit":"100"},"feature_names":["trk_score","trk_dEdx_trunk_max","trk_bragg_mip_max","trk_daughters","trk_llr_pid_score","trk_end_spacepoints","trk_bragg_pion_max"],"feature_types":["float","float","float","float","float","float","float"],"gradient_booster":{"gbtree":{"model":{"gbtree_model_param":{"num_parallel_tree":"1","num_trees":"100","size_leaf_vector":"0"},"tree_info":[0,0,0,0,0,0,0,0,0,0,0,0,0,0,0,0,0,0,0,0,0,0,0,0,0,0,0,0,0,0,0,0,0,0,0,0,0,0,0,0,0,0,0,0,0,0,0,0,0,0,0,0,0,0,0,0,0,0,0,0,0,0,0,0,0,0,0,0,0,0,0,0,0,0,0,0,0,0,0,0,0,0,0,0,0,0,0,0,0,0,0,0,0,0,0,0,0,0,0,0],"trees":[{"base_weights":[5.323624E-3,-1.3812269E0,8.8836485E-1,-1.5532387E0,-4.7133434E-1,1.5225755E0,3.524255E-1,-1.7346712E0,-1.0178081E0,2.2325689E-1,-1.545983E0,7.011454E-1,1.5537404E0,1.4703573E-1,1.2834092E0,-8.7678033E-1,-1.7939893E0,-6.581914E-1,-1.4483979E0,5.184483E-1,-8.8013977E-1,-2.4755332E-3,-1.6913099E0,-9.358732E-2,1.3172666E0,1.7094373E0,1.3277059E0,5.03625E-1,-6.193037E-1,1.4915335E0,6.6797465E-1,-3.3691612E-1,1.3377789E-2,-3.8764873E-1,-4.572123E-1,-3.0478787E-1,-8.389497E-3,1.0914532E-2,-4.1840827E-1,-3.0893376E-1,1.7588349E-1,-3.1847262E-1,2.805058E-2,-4.51182E-1,-2.3719072E-1,1.1584636E-1,3.832343E-1,1.0838801E-1,4.140136E-1,3.826215E-1,2.5263977E-1,2.3905285E-1,7.015027E-2,-8.9633584E-2,-3.2555702E-1,2.1555634E-1,3.669033E-1,1.9562119E-1,-9.259084E-2],"categories":[],"categories_nodes":[],"categories_segments":[],"categories_sizes":[],"default_left":[0,0,0,0,0,0,0,0,0,0,0,0,0,0,1,0,0,0,0,0,0,0,0,0,0,0,0,0,0,0,0,0,0,0,0,0,0,0,0,0,0,0,0,0,0,0,0,0,0,0,0,0,0,0,0,0,0,0,0],"id":0,"left_children":[1,3,5,7,9,11,13,15,17,19,21,23,25,27,29,31,33,35,37,39,41,-1,43,-1,45,47,49,51,53,55,57,-1,-1,-1,-1,-1,-1,-1,-1,-1,-1,-1,-1,-1,-1,-1,-1,-1,-1,-1,-1,-1,-1,-1,-1,-1,-1,-1,-1],"loss_changes":[6.0504673E3,3.001902E2,1.0256086E3,1.5527417E2,2.2959338E2,3.4300293E1,3.1293622E2,5.9798096E1,6.2775146E1,6.150199E1,2.6919647E1,3.5708275E1,4.457422E1,3.67233E2,3.6897614E1,3.937176E1,1.9301758E1,8.615813E1,8.224411E1,5.8430218E1,1.7943155E1,0E0,1.276236E1,0E0,7.088642E0,1.4637207E1,3.8451233E1,9.512518E1,7.6844666E1,3.493103E0,1.2185436E1,0E0,0E0,0E0,0E0,0E0,0E0,0E0,0E0,0E0,0E0,0E0,0E0,0E0,0E0,0E0,0E0,0E0,0E0,0E0,0E0,0E0,0E0,0E0,0E0,0E0,0E0,0E0,0E0],"parents":[2147483647,0,0,1,1,2,2,3,3,4,4,5,5,6,6,7,7,8,8,9,9,10,10,11,11,12,12,13,13,14,14,15,15,16,16,17,17,18,18,19,19,20,20,22,22,24,24,25,25,26,26,27,27,28,28,29,29,30,30],"right_children":[2,4,6,8,10,12,14,16,18,20,22,24,26,28,30,32,34,36,38,40,42,-1,44,-1,46,48,50,52,54,56,58,-1,-1,-1,-1,-1,-1,-1,-1,-1,-1,-1,-1,-1,-1,-1,-1,-1,-1,-1,-1,-1,-1,-1,-1,-1,-1,-1,-1],"split_conditions":[1.156177E-1,5.0416064E-1,2.0867763E0,6.278835E-2,7.7476877E-1,1.6001706E-1,6.3783973E-1,2.1900964E0,7.859747E-1,1E0,2.1275728E0,2.3867077E-1,4.4162083E-1,8.770486E-1,4.9493328E-1,1.5783739E0,5.29135E-1,3.0591986E-1,2.359675E0,1.9246683E-2,6.173176E-1,-2.4755332E-3,8.040545E-2,-9.358732E-2,2.5E1,5.250055E-1,1.9409714E0,2.367236E0,1E0,6.652482E-1,6.9E1,-3.3691612E-1,1.3377789E-2,-3.8764873E-1,-4.572123E-1,-3.0478787E-1,-8.389497E-3,1.0914532E-2,-4.1840827E-1,-3.0893376E-1,1.7588349E-1,-3.1847262E-1,2.805058E-2,-4.51182E-1,-2.3719072E-1,1.1584636E-1,3.832343E-1,1.0838801E-1,4.140136E-1,3.826215E-1,2.5263977E-1,2.3905285E-1,7.015027E-2,-8.9633584E-2,-3.2555702E-1,2.1555634E-1,3.669033E-1,1.9562119E-1,-9.259084E-2],"split_indices":[2,6,1,2,4,2,2,1,4,3,1,6,6,4,6,1,4,6,1,2,6,0,2,0,5,1,1,1,3,2,5,0,0,0,0,0,0,0,0,0,0,0,0,0,0,0,0,0,0,0,0,0,0,0,0,0,0,0,0],"split_type":[0,0,0,0,0,0,0,0,0,0,0,0,0,0,0,0,0,0,0,0,0,0,0,0,0,0,0,0,0,0,0,0,0,0,0,0,0,0,0,0,0,0,0,0,0,0,0,0,0,0,0,0,0,0,0,0,0,0,0],"sum_hessian":[4.939651E3,1.9216749E3,3.017976E3,1.6155533E3,3.0612155E2,1.3814175E3,1.6365587E3,1.2049963E3,4.1055698E2,1.8642159E2,1.1969996E2,5.135382E1,1.3300636E3,1.3417134E3,2.948453E2,7.895049E1,1.1260459E3,2.2509358E2,1.8546341E2,1.4749297E2,3.892862E1,1.0440994E1,1.09258965E2,1.8665707E1,3.2688114E1,7.836842E2,5.4637946E2,9.1588245E2,4.25831E2,2.1927017E2,7.557512E1,5.011908E1,2.8831413E1,4.3742627E2,6.886196E2,1.1306904E2,1.1202454E2,3.0721298E1,1.5474211E2,1.5123026E1,1.3236993E2,2.6652796E1,1.2275822E1,8.48264E1,2.4432566E1,8.885937E0,2.3802177E1,9.979194E0,7.73705E2,2.750363E2,2.7134317E2,2.7391507E2,6.4196735E2,3.2046982E2,1.0536118E2,1.44286175E1,2.0484155E2,6.651558E1,9.059539E0],"tree_param":{"num_deleted":"0","num_feature":"7","num_nodes":"59","size_leaf_vector":"0"}},{"base_weights":[-1.400207E-2,-1.1232077E0,6.6165584E-1,-7.1387345E-1,-1.450783E0,1.1263398E0,1.8370584E-1,-1.2442079E0,1.9211884E-1,9.975987E-2,-1.5153552E0,1.2657923E0,7.9219854E-1,5.1945317E-1,-2.5074852E-1,-1.353246E0,-7.5028294E-1,3.899016E-1,-6.6488165E-1,-2.2896618E-1,5.263191E-1,-1.1082736E0,-1.5533417E0,5.2145714E-1,1.3176727E0,9.078237E-1,-7.430987E-2,6.3766605E-1,-5.546084E-2,-5.7183295E-1,9.4672614E-1,-2.775942E-1,-3.4663793E-1,-2.5586775E-1,-6.8512015E-2,1.864538E-1,1.4822514E-2,-2.273944E-1,1.6719031E-1,1.7914903E-1,2.706608E-2,-3.3860382E-1,-5.3305767E-2,-3.76062E-1,-5.2439246E-2,-1.2213404E-2,2.92046E-1,3.254204E-1,2.4583685E-1,2.4657157E-1,6.264879E-2,-1.3394086E-1,1.9860667E-1,1.874778E-1,-4.5688725E-3,-1.3643657E-1,1.5250981E-1,4.462855E-2,-1.8437573E-1,2.758208E-1,1.0554461E-1],"categories":[],"categories_nodes":[],"categories_segments":[],"categories_sizes":[],"default_left":[0,0,0,0,0,0,0,0,0,0,1,0,0,0,0,0,0,0,0,0,0,0,0,0,0,0,0,0,0,0,0,0,0,0,0,0,0,0,0,0,0,0,0,0,0,0,0,0,0,0,0,0,0,0,0,0,0,0,0,0,0],"id":1,"left_children":[1,3,5,7,9,11,13,15,17,19,21,23,25,27,29,31,33,35,37,-1,39,41,43,45,47,49,51,53,55,57,59,-1,-1,-1,-1,-1,-1,-1,-1,-1,-1,-1,-1,-1,-1,-1,-1,-1,-1,-1,-1,-1,-1,-1,-1,-1,-1,-1,-1,-1,-1],"loss_changes":[3.6055684E3,2.4316406E2,6.638174E2,3.901646E2,1.0134009E2,6.962634E1,2.15293E2,2.656073E1,5.1195515E1,1.9086416E1,1.3282715E1,4.0545776E1,4.5052277E1,5.6605545E1,2.4803229E2,5.817627E0,1.3618225E1,3.1037308E1,2.2482677E1,0E0,2.6537466E0,2.2828094E1,1.5704346E1,2.8411627E1,9.802856E0,3.0370148E1,2.392706E1,6.5081055E1,5.1006943E1,7.577869E1,1.3507095E1,0E0,0E0,0E0,0E0,0E0,0E0,0E0,0E0,0E0,0E0,0E0,0E0,0E0,0E0,0E0,0E0,0E0,0E0,0E0,0E0,0E0,0E0,0E0,0E0,0E0,0E0,0E0,0E0,0E0,0E0],"parents":[2147483647,0,0,1,1,2,2,3,3,4,4,5,5,6,6,7,7,8,8,9,9,10,10,11,11,12,12,13,13,14,14,15,15,16,16,17,17,18,18,20,20,21,21,22,22,23,23,24,24,25,25,26,26,27,27,28,28,29,29,30,30],"right_children":[2,4,6,8,10,12,14,16,18,20,22,24,26,28,30,32,34,36,38,-1,40,42,44,46,48,50,52,54,56,58,60,-1,-1,-1,-1,-1,-1,-1,-1,-1,-1,-1,-1,-1,-1,-1,-1,-1,-1,-1,-1,-1,-1,-1,-1,-1,-1,-1,-1,-1,-1],"split_conditions":[1.1145434E-1,9.5132315E-1,2.1592615E0,3.5718155E-1,2.0540552E0,1.9988087E0,9.428201E-1,7.6020494E-2,1E0,9.799403E-1,2.319873E0,1.8470155E-1,6.3E1,1.9404007E2,6.310616E-1,8.409377E-1,2.9E1,3.0092957E0,5.910439E-1,-2.2896618E-1,1.9328495E0,6.80785E-2,6.291865E-1,3.538215E-1,6.2E1,9.982969E-1,7.3661685E-1,1E0,3.334957E-1,4.0348724E-1,4.8529768E-1,-2.775942E-1,-3.4663793E-1,-2.5586775E-1,-6.8512015E-2,1.864538E-1,1.4822514E-2,-2.273944E-1,1.6719031E-1,1.7914903E-1,2.706608E-2,-3.3860382E-1,-5.3305767E-2,-3.76062E-1,-5.2439246E-2,-1.2213404E-2,2.92046E-1,3.254204E-1,2.4583685E-1,2.4657157E-1,6.264879E-2,-1.3394086E-1,1.9860667E-1,1.874778E-1,-4.5688725E-3,-1.3643657E-1,1.5250981E-1,4.462855E-2,-1.8437573E-1,2.758208E-1,1.0554461E-1],"split_indices":[2,0,1,6,1,1,0,2,3,0,1,2,5,1,2,0,5,1,6,0,1,2,6,6,5,0,2,3,2,6,6,0,0,0,0,0,0,0,0,0,0,0,0,0,0,0,0,0,0,0,0,0,0,0,0,0,0,0,0,0,0],"split_type":[0,0,0,0,0,0,0,0,0,0,0,0,0,0,0,0,0,0,0,0,0,0,0,0,0,0,0,0,0,0,0,0,0,0,0,0,0,0,0,0,0,0,0,0,0,0,0,0,0,0,0,0,0,0,0,0,0,0,0,0,0],"sum_hessian":[4.809003E3,1.8201914E3,2.9888115E3,8.1053534E2,1.009656E3,1.5147491E3,1.4740623E3,5.110262E2,2.9950916E2,4.034419E1,9.693118E2,1.0667551E3,4.479941E2,8.313768E2,6.4268555E2,4.1718848E2,9.383772E1,2.4379092E2,5.5718224E1,1.1268806E1,2.9075382E1,8.530606E1,8.8400574E2,7.0228546E1,9.9652655E2,3.9521036E2,5.2783756E1,6.894948E2,1.4188194E2,5.0720798E2,1.3547755E2,1.36417E2,2.8077148E2,5.5102875E1,3.8734848E1,1.1123716E2,1.3255376E2,4.639298E1,9.325244E0,1.8449455E1,1.0625926E1,6.3151352E1,2.2154707E1,8.7492865E2,9.077144E0,3.903106E1,3.1197487E1,8.7838513E2,1.1814139E2,3.3305673E2,6.2153614E1,3.4602787E1,1.818097E1,5.656986E2,1.2379623E2,8.152483E1,6.035711E1,1.0440929E2,4.0279868E2,9.589923E1,3.957832E1],"tree_param":{"num_deleted":"0","num_feature":"7","num_nodes":"61","size_leaf_vector":"0"}},{"base_weights":[3.4126015E-3,-8.567547E-1,6.133393E-1,-4.4805187E-1,-1.1491729E0,3.7710622E-1,1.0528419E0,-1.0519722E0,9.9549524E-2,-1.286466E0,-7.689872E-1,7.3552173E-1,1.04888685E-1,1.1753747E0,7.610195E-1,-1.2186538E0,-8.401672E-1,4.8967975E-1,-3.831071E-1,-3.1198E-1,-3.0642638E-2,-5.375557E-1,-1.3361126E0,7.892064E-2,9.239081E-1,2.3497978E-1,-1.0111042E0,1.186681E0,1.03093155E-1,8.92263E-1,6.513221E-2,-7.656968E-2,-3.0205905E-1,-2.3979513E-1,-1.10335454E-1,-9.468438E-2,1.5613532E-1,-2.0062596E-1,2.9060079E-2,-1.7886691E-1,-6.8556163E-3,-1.6150434E-1,-3.3708122E-1,-1.3072814E-1,7.169714E-2,2.3720993E-2,2.4809389E-1,9.8733805E-2,-1.1931052E-1,-2.7770525E-1,-2.8923305E-2,2.1015386E-1,2.8995982E-1,2.2297207E-1,8.294666E-2,-1.18412785E-1,1.0359688E-1],"categories":[],"categories_nodes":[],"categories_segments":[],"categories_sizes":[],"default_left":[0,0,0,0,0,0,1,0,0,0,0,0,0,0,0,0,0,0,0,0,0,0,0,0,0,0,0,0,0,0,0,0,0,0,0,0,0,0,0,0,0,0,0,0,0,0,0,0,0,0,0,0,0,0,0,0,0],"id":2,"left_children":[1,3,5,7,9,11,13,15,17,19,21,23,25,27,29,31,33,35,37,-1,-1,39,41,43,45,47,49,51,-1,53,55,-1,-1,-1,-1,-1,-1,-1,-1,-1,-1,-1,-1,-1,-1,-1,-1,-1,-1,-1,-1,-1,-1,-1,-1,-1,-1],"loss_changes":[2.382485E3,2.2465735E2,2.7547583E2,2.6051797E2,5.6304688E1,1.6868913E2,3.2301147E1,1.219928E1,7.812284E1,1.2380493E1,3.7830826E1,9.226422E1,1.4313252E2,4.988098E0,2.5273941E1,7.047119E0,9.711739E0,3.287867E1,4.246911E1,0E0,0E0,2.2209232E1,2.8850403E0,2.3126944E1,5.244702E1,1.1415651E2,1.324617E1,3.2302246E0,0E0,4.3700714E0,9.443172E0,0E0,0E0,0E0,0E0,0E0,0E0,0E0,0E0,0E0,0E0,0E0,0E0,0E0,0E0,0E0,0E0,0E0,0E0,0E0,0E0,0E0,0E0,0E0,0E0,0E0,0E0],"parents":[2147483647,0,0,1,1,2,2,3,3,4,4,5,5,6,6,7,7,8,8,9,9,10,10,11,11,12,12,13,13,14,14,15,15,16,16,17,17,18,18,21,21,22,22,23,23,24,24,25,25,26,26,27,27,29,29,30,30],"right_children":[2,4,6,8,10,12,14,16,18,20,22,24,26,28,30,32,34,36,38,-1,-1,40,42,44,46,48,50,52,-1,54,56,-1,-1,-1,-1,-1,-1,-1,-1,-1,-1,-1,-1,-1,-1,-1,-1,-1,-1,-1,-1,-1,-1,-1,-1,-1,-1],"split_conditions":[1.3719933E-1,9.371912E-1,6.3783973E-1,2.8844115E-1,6.615829E-2,4.111596E-1,4.6850786E-1,4.560125E-2,5.778449E-1,6.845266E-1,1E0,1.966286E-1,6.3E1,1.01E2,6.1E1,2.83491E-4,3.1E1,2.6186807E-2,4.4651476E-1,-3.1198E-1,-3.0642638E-2,4.9286163E-1,5.0757027E-1,2.2359896E-1,3.1471825E-1,1E0,6.212939E-1,5.843022E-1,1.03093155E-1,9.9995744E-1,7.3661685E-1,-7.656968E-2,-3.0205905E-1,-2.3979513E-1,-1.10335454E-1,-9.468438E-2,1.5613532E-1,-2.0062596E-1,2.9060079E-2,-1.7886691E-1,-6.8556163E-3,-1.6150434E-1,-3.3708122E-1,-1.3072814E-1,7.169714E-2,2.3720993E-2,2.4809389E-1,9.8733805E-2,-1.1931052E-1,-2.7770525E-1,-2.8923305E-2,2.1015386E-1,2.8995982E-1,2.2297207E-1,8.294666E-2,-1.18412785E-1,1.0359688E-1],"split_indices":[2,0,2,6,2,6,6,2,4,6,3,2,5,5,5,6,5,2,6,0,0,6,4,6,4,3,6,4,0,0,2,0,0,0,0,0,0,0,0,0,0,0,0,0,0,0,0,0,0,0,0,0,0,0,0,0,0],"split_type":[0,0,0,0,0,0,0,0,0,0,0,0,0,0,0,0,0,0,0,0,0,0,0,0,0,0,0,0,0,0,0,0,0,0,0,0,0,0,0,0,0,0,0,0,0,0,0,0,0,0,0,0,0,0,0,0,0],"sum_hessian":[4.5391875E3,1.8830938E3,2.6560938E3,7.864425E2,1.0966512E3,1.7287479E3,9.273458E2,3.7355148E2,4.1289105E2,8.039458E2,2.9270544E2,7.4549255E2,9.8325543E2,6.5097943E2,2.7636633E2,2.0638306E2,1.6716843E2,2.2832329E2,1.8456775E2,7.9460065E2,9.3451805E0,2.0925919E2,8.344624E1,1.6652075E2,5.789718E2,8.8131067E2,1.01944786E2,6.406759E2,1.0303534E1,2.3227701E2,4.4089344E1,9.152291E0,1.9723077E2,1.1675271E2,5.041571E1,3.4925438E1,1.9339786E2,9.6889404E1,8.7678345E1,1.482805E2,6.0978672E1,8.814509E0,7.463174E1,4.301354E1,1.2350722E2,6.823207E1,5.1073972E2,7.105356E2,1.7077512E2,8.732904E1,1.4615747E1,4.4092773E1,5.965831E2,2.1697594E2,1.53010645E1,1.733203E1,2.6757315E1],"tree_param":{"num_deleted":"0","num_feature":"7","num_nodes":"57","size_leaf_vector":"0"}},{"base_weights":[-2.7532448E-4,-8.110342E-1,4.3767136E-1,-4.5133337E-1,-1.0874627E0,8.2474357E-1,3.9418083E-2,-9.644769E-2,-7.041569E-1,2.8269273E-1,-1.1501834E0,9.7000283E-1,5.304234E-1,2.7443513E-1,-3.4249392E-1,3.2736284E-1,-4.5552197E-1,-5.487116E-1,-1.0591357E0,-9.729596E-2,6.748884E-1,-8.290728E-1,-1.2195436E0,2.2261558E-1,1.0047162E0,1.0514718E0,3.9480904E-1,1.6296282E-1,6.558853E-1,-6.427993E-1,4.7891456E-1,-1.6269104E-1,1.7251782E-1,-5.648891E-3,-2.3582453E-1,-2.1671441E-1,-5.7586394E-2,-2.7072203E-1,-8.5430905E-2,2.5212184E-1,5.1834505E-2,9.7418904E-2,-2.2298667E-1,-2.0127085E-1,-2.996064E-1,-1.2139798E-1,2.0422238E-1,2.4958102E-1,1.6848955E-1,2.8575388E-1,-5.9719045E-2,1.8529482E-1,4.756695E-2,1.4256015E-1,-1.001658E-2,8.825581E-2,1.878982E-1,-1.7611739E-1,7.8605756E-2,1.7627958E-2,1.7813404E-1],"categories":[],"categories_nodes":[],"categories_segments":[],"categories_sizes":[],"default_left":[0,0,0,0,0,0,0,0,0,0,0,0,0,0,0,0,0,0,0,0,0,0,0,0,0,0,0,0,0,1,0,0,0,0,0,0,0,0,0,0,0,0,0,0,0,0,0,0,0,0,0,0,0,0,0,0,0,0,0,0,0],"id":3,"left_children":[1,3,5,7,9,11,13,15,17,19,21,23,25,27,29,31,33,35,37,-1,39,41,43,45,47,49,51,53,55,57,59,-1,-1,-1,-1,-1,-1,-1,-1,-1,-1,-1,-1,-1,-1,-1,-1,-1,-1,-1,-1,-1,-1,-1,-1,-1,-1,-1,-1,-1,-1],"loss_changes":[1.5223287E3,1.4902283E2,4.2908728E2,5.871277E1,7.3333374E1,5.983661E1,1.2333762E2,4.1802357E1,2.0520721E1,1.0525806E1,1.7086426E1,2.426654E1,3.2702652E1,3.6060593E1,1.2944687E2,5.0117584E1,3.3809505E1,2.910231E1,5.1866455E0,0E0,4.00891E0,1.8595291E1,6.2647095E0,2.0194124E1,8.878845E0,1.7703194E1,2.7549839E1,5.8219017E1,6.740616E0,3.4137543E1,1.4970322E1,0E0,0E0,0E0,0E0,0E0,0E0,0E0,0E0,0E0,0E0,0E0,0E0,0E0,0E0,0E0,0E0,0E0,0E0,0E0,0E0,0E0,0E0,0E0,0E0,0E0,0E0,0E0,0E0,0E0,0E0],"parents":[2147483647,0,0,1,1,2,2,3,3,4,4,5,5,6,6,7,7,8,8,9,9,10,10,11,11,12,12,13,13,14,14,15,15,16,16,17,17,18,18,20,20,21,21,22,22,23,23,24,24,25,25,26,26,27,27,28,28,29,29,30,30],"right_children":[2,4,6,8,10,12,14,16,18,20,22,24,26,28,30,32,34,36,38,-1,40,42,44,46,48,50,52,54,56,58,60,-1,-1,-1,-1,-1,-1,-1,-1,-1,-1,-1,-1,-1,-1,-1,-1,-1,-1,-1,-1,-1,-1,-1,-1,-1,-1,-1,-1,-1,-1],"split_conditions":[1.0665267E-1,9.435864E-1,2.195395E0,3.1153462E0,2.0757163E0,2.007621E0,9.505905E-1,5.9059477E-1,4.8570165E-1,9.8453933E-1,9.677874E-1,1.523123E-1,2.633867E-1,4.4763836E-1,5.096163E-1,2.413368E0,2.7676911E0,2.7E1,8.259962E-2,-9.729596E-2,1.9142469E0,2.6297724E0,2.3520696E0,7.025904E-1,6.3E1,1E0,9.2906815E-1,2.4795702E0,2.4367E0,3.7244706E0,2.497547E0,-1.6269104E-1,1.7251782E-1,-5.648891E-3,-2.3582453E-1,-2.1671441E-1,-5.7586394E-2,-2.7072203E-1,-8.5430905E-2,2.5212184E-1,5.1834505E-2,9.7418904E-2,-2.2298667E-1,-2.0127085E-1,-2.996064E-1,-1.2139798E-1,2.0422238E-1,2.4958102E-1,1.6848955E-1,2.8575388E-1,-5.9719045E-2,1.8529482E-1,4.756695E-2,1.4256015E-1,-1.001658E-2,8.825581E-2,1.878982E-1,-1.7611739E-1,7.8605756E-2,1.7627958E-2,1.7813404E-1],"split_indices":[2,0,1,1,1,1,0,4,4,0,0,2,2,2,2,1,1,5,2,0,1,1,1,4,5,3,0,1,1,1,1,0,0,0,0,0,0,0,0,0,0,0,0,0,0,0,0,0,0,0,0,0,0,0,0,0,0,0,0,0,0],"split_type":[0,0,0,0,0,0,0,0,0,0,0,0,0,0,0,0,0,0,0,0,0,0,0,0,0,0,0,0,0,0,0,0,0,0,0,0,0,0,0,0,0,0,0,0,0,0,0,0,0,0,0,0,0,0,0,0,0,0,0,0,0],"sum_hessian":[4.285415E3,1.5026842E3,2.7827307E3,6.541318E2,8.485524E2,1.4106318E3,1.3720989E3,2.7271127E2,3.814205E2,3.6989857E1,8.1156256E2,9.4295074E2,4.676811E2,8.495766E2,5.225223E2,1.2512098E2,1.475903E2,2.6703265E2,1.14387856E2,1.3416842E1,2.3573015E1,1.4646056E2,6.6510205E2,4.2181683E1,9.0076904E2,9.5191055E1,3.7249002E2,6.58553E2,1.9102367E2,3.8279175E2,1.397305E2,3.4863247E1,9.025774E1,8.168636E1,6.590393E1,1.2345834E2,1.4357431E2,1.0363326E2,1.075459E1,1.2253987E1,1.1319028E1,1.0745731E1,1.3571481E2,4.889386E1,6.162082E2,1.96246E1,2.2557085E1,8.047335E2,9.603554E1,8.606408E1,9.126977E0,1.2661678E2,2.4587325E2,2.1143283E2,4.4712012E2,5.9635662E1,1.31388E2,3.501856E2,3.260614E1,5.5518326E1,8.421217E1],"tree_param":{"num_deleted":"0","num_feature":"7","num_nodes":"61","size_leaf_vector":"0"}},{"base_weights":[-4.390907E-3,-7.820038E-1,3.1705448E-1,-9.343518E-1,-3.4303713E-1,7.633026E-1,8.3205685E-2,-3.9621463E-1,-9.954385E-1,2.202522E-1,-1.0413862E0,6.982728E-2,8.0851364E-1,-1.2588593E-2,6.2021965E-1,-8.2403255E-1,7.694095E-2,-8.8891363E-1,-1.1398263E0,-2.4723357E-1,3.1925607E-1,-3.078333E-2,-2.6496562E-1,-2.0628744E-1,2.652151E-1,9.609135E-1,6.5249294E-1,2.2593126E-1,-4.2736515E-1,7.818997E-1,-3.0161956E-2,-2.3221442E-1,-7.6362476E-2,-1.3444091E-1,8.708456E-2,-2.6006365E-1,-1.1267642E-1,-2.78357E-1,-1.0146407E-1,2.2435036E-1,3.188104E-2,-1.2247663E-1,9.5993124E-2,7.528913E-2,2.4084704E-1,1.7235653E-1,4.5561604E-2,8.303908E-2,-7.108893E-2,-1.3368194E-1,1.0604507E-1,1.9623797E-1,3.9802562E-2,6.027721E-2,-1.4759012E-1],"categories":[],"categories_nodes":[],"categories_segments":[],"categories_sizes":[],"default_left":[0,0,0,0,0,0,0,0,0,0,0,0,0,0,1,0,0,0,0,0,0,0,0,0,0,0,0,0,0,0,0,0,0,0,0,0,0,0,0,0,0,0,0,0,0,0,0,0,0,0,0,0,0,0,0],"id":4,"left_children":[1,3,5,7,9,11,13,15,17,19,21,23,25,27,29,31,33,35,37,-1,39,-1,-1,41,-1,43,45,47,49,51,53,-1,-1,-1,-1,-1,-1,-1,-1,-1,-1,-1,-1,-1,-1,-1,-1,-1,-1,-1,-1,-1,-1,-1,-1],"loss_changes":[1.00054456E3,7.7971924E1,2.9548007E2,2.8156189E1,1.195026E2,3.0471252E1,9.5661766E1,1.8322021E1,1.0973267E1,2.1207678E1,7.611145E0,1.7575445E1,2.1105713E1,1.5630325E2,2.9624199E1,3.1375542E0,8.171734E0,3.6481354E1,4.202423E0,0E0,1.789659E1,0E0,0E0,9.190349E0,0E0,1.2379486E1,1.3677795E1,6.2987503E1,6.524622E1,4.8317566E0,9.533137E0,0E0,0E0,0E0,0E0,0E0,0E0,0E0,0E0,0E0,0E0,0E0,0E0,0E0,0E0,0E0,0E0,0E0,0E0,0E0,0E0,0E0,0E0,0E0,0E0],"parents":[2147483647,0,0,1,1,2,2,3,3,4,4,5,5,6,6,7,7,8,8,9,9,10,10,11,11,12,12,13,13,14,14,15,15,16,16,17,17,18,18,20,20,23,23,25,25,26,26,27,27,28,28,29,29,30,30],"right_children":[2,4,6,8,10,12,14,16,18,20,22,24,26,28,30,32,34,36,38,-1,40,-1,-1,42,-1,44,46,48,50,52,54,-1,-1,-1,-1,-1,-1,-1,-1,-1,-1,-1,-1,-1,-1,-1,-1,-1,-1,-1,-1,-1,-1,-1,-1],"split_conditions":[8.259962E-2,4.4305316E-1,2.0439787E0,2.3745055E0,6.7347836E-1,1.1745025E0,6.3783973E-1,7.3084867E-1,6.905718E-1,1.0346894E-2,2.0867763E0,4E1,1.8818899E0,8.577143E-1,5.2333415E-1,1.7523687E-1,9.080508E-2,3.433606E-2,7.3866153E0,-2.4723357E-1,2.8963706E0,-3.078333E-2,-2.6496562E-1,1.7336807E-1,2.652151E-1,1.9978987E-1,6.2E1,1E0,6.3350755E-1,8.3E1,5.5E1,-2.3221442E-1,-7.6362476E-2,-1.3444091E-1,8.708456E-2,-2.6006365E-1,-1.1267642E-1,-2.78357E-1,-1.0146407E-1,2.2435036E-1,3.188104E-2,-1.2247663E-1,9.5993124E-2,7.528913E-2,2.4084704E-1,1.7235653E-1,4.5561604E-2,8.303908E-2,-7.108893E-2,-1.3368194E-1,1.0604507E-1,1.9623797E-1,3.9802562E-2,6.027721E-2,-1.4759012E-1],"split_indices":[2,6,1,1,4,1,2,4,4,2,1,5,1,4,6,6,6,2,1,0,1,0,0,2,0,2,5,3,6,5,5,0,0,0,0,0,0,0,0,0,0,0,0,0,0,0,0,0,0,0,0,0,0,0,0],"split_type":[0,0,0,0,0,0,0,0,0,0,0,0,0,0,0,0,0,0,0,0,0,0,0,0,0,0,0,0,0,0,0,0,0,0,0,0,0,0,0,0,0,0,0,0,0,0,0,0,0,0,0,0,0,0,0],"sum_hessian":[4.0008254E3,1.1697162E3,2.8311091E3,8.675094E2,3.0220673E2,9.726878E2,1.8584214E3,8.919969E1,7.783097E2,1.676581E2,1.3454863E2,5.9688683E1,9.129991E2,1.577923E3,2.804984E2,4.64547E1,4.274499E1,4.5199673E2,3.2631296E2,1.161087E1,1.5604723E2,8.832761E0,1.2571587E2,4.7752914E1,1.1935769E1,4.5924905E2,4.5375006E2,1.0021092E3,5.7581384E2,2.2448972E2,5.6008686E1,3.547623E1,1.0978471E1,1.2943365E1,2.9801626E1,3.0762418E2,1.4437256E2,3.1686017E2,9.452793E0,3.5340733E1,1.207065E2,3.190911E1,1.5843805E1,2.8887936E1,4.303611E2,3.9687384E2,5.687622E1,8.150304E2,1.870788E2,5.0139117E2,7.4422646E1,2.1186493E2,1.2624798E1,3.8202072E1,1.7806614E1],"tree_param":{"num_deleted":"0","num_feature":"7","num_nodes":"55","size_leaf_vector":"0"}},{"base_weights":[1.9759733E-4,-5.1268286E-1,3.3453807E-1,-2.0296183E-1,-8.1108165E-1,5.8185685E-1,8.035599E-2,-7.8592324E-1,1.7140083E-1,1.3294874E-1,-9.5856583E-1,7.4754757E-1,3.8210517E-1,4.1725394E-1,-1.8611571E-1,-4.7582772E-1,-9.4845045E-1,4.2342812E-1,-2.5741202E-1,-9.355468E-2,7.649727E-1,-6.3668615E-1,-1.0673566E0,1.4879106E-1,8.0997354E-1,1.0378294E0,2.7878302E-1,-3.3462292E-1,4.9807665E-1,-3.5426524E-1,3.5773078E-1,-2.1254698E-2,-1.5037645E-1,-2.4857076E-1,-6.416561E-2,1.6171987E-1,2.5229817E-2,1.6188295E-1,-1.6030756E-1,-1.5142651E-1,2.4250427E-2,3.2838556E-1,-2.391806E-2,-2.3301296E-1,-3.3515237E-2,-2.60859E-1,-1.2846988E-1,-1.1161345E-1,1.2029358E-1,1.5606198E-1,2.1204452E-1,1.5133515E-1,2.849988E-1,1.7004652E-1,2.608116E-2,8.1879005E-2,-1.2566914E-1,-9.2040915E-3,1.4282453E-1,-1.243302E-1,6.355148E-2,1.0909185E-1,-2.0030265E-1],"categories":[],"categories_nodes":[],"categories_segments":[],"categories_sizes":[],"default_left":[0,0,0,0,0,0,1,0,0,0,0,0,0,0,0,0,1,0,0,0,0,0,1,0,0,0,0,0,0,0,0,0,0,0,0,0,0,0,0,0,0,0,0,0,0,0,0,0,0,0,0,0,0,0,0,0,0,0,0,0,0,0,0],"id":5,"left_children":[1,3,5,7,9,11,13,15,17,19,21,23,25,27,29,31,33,35,37,39,41,43,45,47,49,51,53,55,57,59,61,-1,-1,-1,-1,-1,-1,-1,-1,-1,-1,-1,-1,-1,-1,-1,-1,-1,-1,-1,-1,-1,-1,-1,-1,-1,-1,-1,-1,-1,-1,-1,-1],"loss_changes":[6.4302637E2,1.3660306E2,1.4266016E2,1.5889911E2,1.0501807E2,3.7789764E1,1.0068454E2,1.3895294E1,4.8073627E1,1.4769629E1,2.2141113E1,2.3344452E1,3.5187897E1,3.0261826E1,5.7412247E1,5.7761784E0,1.0763611E1,2.2239174E1,6.3543533E1,8.061145E0,1.4323037E1,2.762178E1,4.470825E0,1.3320959E1,6.1006775E0,3.573532E0,3.3092762E1,6.394476E0,2.3317772E1,4.8701344E1,1.75151E1,0E0,0E0,0E0,0E0,0E0,0E0,0E0,0E0,0E0,0E0,0E0,0E0,0E0,0E0,0E0,0E0,0E0,0E0,0E0,0E0,0E0,0E0,0E0,0E0,0E0,0E0,0E0,0E0,0E0,0E0,0E0,0E0],"parents":[2147483647,0,0,1,1,2,2,3,3,4,4,5,5,6,6,7,7,8,8,9,9,10,10,11,11,12,12,13,13,14,14,15,15,16,16,17,17,18,18,19,19,20,20,21,21,22,22,23,23,24,24,25,25,26,26,27,27,28,28,29,29,30,30],"right_children":[2,4,6,8,10,12,14,16,18,20,22,24,26,28,30,32,34,36,38,40,42,44,46,48,50,52,54,56,58,60,62,-1,-1,-1,-1,-1,-1,-1,-1,-1,-1,-1,-1,-1,-1,-1,-1,-1,-1,-1,-1,-1,-1,-1,-1,-1,-1,-1,-1,-1,-1,-1,-1],"split_conditions":[1.3719933E-1,9.435864E-1,2.1900964E0,2.7034906E-1,2.2965102E0,4.5233658E-1,4.1623825E-1,3.0986776E0,6.3334185E-1,3.7E1,9.7038877E-1,2.3232466E-1,2.4023545E-1,1.838813E-1,5.997451E-1,7.6687884E-1,5.594292E0,3.2835438E0,2.6297724E0,7.981908E-1,9.996781E-1,4.0805545E-1,4.273276E0,5.843022E-1,7.7476877E-1,5.2706563E-1,1.9181671E0,4.273276E0,1.7590608E-1,5.711692E-1,6.8E1,-2.1254698E-2,-1.5037645E-1,-2.4857076E-1,-6.416561E-2,1.6171987E-1,2.5229817E-2,1.6188295E-1,-1.6030756E-1,-1.5142651E-1,2.4250427E-2,3.2838556E-1,-2.391806E-2,-2.3301296E-1,-3.3515237E-2,-2.60859E-1,-1.2846988E-1,-1.1161345E-1,1.2029358E-1,1.5606198E-1,2.1204452E-1,1.5133515E-1,2.849988E-1,1.7004652E-1,2.608116E-2,8.1879005E-2,-1.2566914E-1,-9.2040915E-3,1.4282453E-1,-1.243302E-1,6.355148E-2,1.0909185E-1,-2.0030265E-1],"split_indices":[2,0,1,6,1,6,6,1,4,5,0,2,2,4,6,0,1,1,1,4,0,6,1,4,4,6,1,1,2,2,5,0,0,0,0,0,0,0,0,0,0,0,0,0,0,0,0,0,0,0,0,0,0,0,0,0,0,0,0,0,0,0,0],"split_type":[0,0,0,0,0,0,0,0,0,0,0,0,0,0,0,0,0,0,0,0,0,0,0,0,0,0,0,0,0,0,0,0,0,0,0,0,0,0,0,0,0,0,0,0,0,0,0,0,0,0,0,0,0,0,0,0,0,0,0,0,0,0,0],"sum_hessian":[3.7479338E3,1.478844E3,2.2690896E3,7.2647955E2,7.523645E2,1.1494185E3,1.1196713E3,2.8366074E2,4.4281882E2,1.01671936E2,6.5069257E2,6.2677576E2,5.226427E2,4.942408E2,6.254304E2,9.889692E1,1.8476381E2,2.7890802E2,1.6391078E2,7.547525E1,2.6196688E1,1.6610114E2,4.8459143E2,5.9496864E1,5.672789E2,6.991148E1,4.527312E2,4.766675E1,4.4657407E2,4.7799106E2,1.4743938E2,2.8154087E1,7.0742836E1,1.6331888E2,2.1444925E1,1.5547853E2,1.2342949E2,4.9928715E1,1.1398207E2,1.9468916E1,5.6006336E1,1.5087099E1,1.1109589E1,9.874992E1,6.7351204E1,4.6640594E2,1.8185495E1,2.1583807E1,3.7913055E1,1.8196182E2,3.8531705E2,2.0188416E1,4.9723064E1,1.274913E2,3.252399E2,1.02416115E1,3.742514E1,6.8494125E1,3.7807993E2,3.7812006E2,9.9870995E1,1.3693854E2,1.0500847E1],"tree_param":{"num_deleted":"0","num_feature":"7","num_nodes":"63","size_leaf_vector":"0"}},{"base_weights":[6.3693253E-3,-5.919427E-1,3.9378718E-1,-7.5137025E-1,-1.1422945E-1,6.789927E-1,1.775526E-1,-9.6133107E-1,-5.51121E-1,1.3041613E-1,-8.1021464E-1,8.223358E-1,4.9676856E-1,4.5991477E-1,-5.4249294E-2,-4.874694E-1,-1.0104189E0,-3.4071293E-1,-8.3658683E-1,-2.18067E-1,2.6925415E-1,1.2638779E-1,-9.723331E-1,2.3626463E-1,8.816335E-1,5.8056647E-1,-1.6357443E-1,1.7961703E-1,7.4046296E-1,8.561836E-2,-8.414133E-1,-1.9417924E-1,-2.6511835E-2,-2.559659E-1,-1.8006235E-1,-1.7967443E-1,2.6811525E-2,5.2940777E-5,-2.538013E-1,1.13658436E-1,-1.1963684E-1,-2.667449E-1,-1.1816121E-1,-4.8512485E-2,1.3416415E-1,1.4046185E-1,2.2373384E-1,1.5278473E-1,-4.607726E-2,-8.266787E-2,1.4178224E-1,9.079847E-2,-1.01314776E-1,1.3267392E-1,2.4918154E-1,6.2087078E-2,-1.3310155E-1,-2.3728561E-1,1.2016155E-1],"categories":[],"categories_nodes":[],"categories_segments":[],"categories_sizes":[],"default_left":[0,0,0,0,0,0,1,0,0,0,0,0,0,0,0,0,0,0,0,0,0,0,0,0,0,0,0,0,0,0,0,0,0,0,0,0,0,0,0,0,0,0,0,0,0,0,0,0,0,0,0,0,0,0,0,0,0,0,0],"id":6,"left_children":[1,3,5,7,9,11,13,15,17,19,21,23,25,27,29,31,33,35,37,-1,39,-1,41,43,45,47,49,51,53,55,57,-1,-1,-1,-1,-1,-1,-1,-1,-1,-1,-1,-1,-1,-1,-1,-1,-1,-1,-1,-1,-1,-1,-1,-1,-1,-1,-1,-1],"loss_changes":[8.884672E2,1.1464691E2,1.4335736E2,4.695221E1,6.448978E1,2.5787628E1,8.6722855E1,1.2299835E1,3.457483E1,4.0729557E1,2.185627E1,1.924649E1,2.4668678E1,4.6835236E1,8.025944E1,6.40403E0,6.460022E0,6.2058372E1,4.5399017E1,0E0,3.919177E1,0E0,5.3408356E0,7.5842285E0,7.0713806E0,1.719191E1,7.1331344E0,3.6043655E1,1.6089386E1,6.877028E1,2.223333E1,0E0,0E0,0E0,0E0,0E0,0E0,0E0,0E0,0E0,0E0,0E0,0E0,0E0,0E0,0E0,0E0,0E0,0E0,0E0,0E0,0E0,0E0,0E0,0E0,0E0,0E0,0E0,0E0],"parents":[2147483647,0,0,1,1,2,2,3,3,4,4,5,5,6,6,7,7,8,8,9,9,10,10,11,11,12,12,13,13,14,14,15,15,16,16,17,17,18,18,20,20,22,22,23,23,24,24,25,25,26,26,27,27,28,28,29,29,30,30],"right_children":[2,4,6,8,10,12,14,16,18,20,22,24,26,28,30,32,34,36,38,-1,40,-1,42,44,46,48,50,52,54,56,58,-1,-1,-1,-1,-1,-1,-1,-1,-1,-1,-1,-1,-1,-1,-1,-1,-1,-1,-1,-1,-1,-1,-1,-1,-1,-1,-1,-1],"split_conditions":[1.3719933E-1,4.7201458E-1,2.1049685E0,4.1559342E-2,9.0653616E-1,4.4162083E-1,4.333719E-1,2.336517E0,7.6145625E-1,2.0276833E-2,2.0934865E0,2.3232466E-1,6.2E1,3.277296E-1,6.1E1,1.5783739E0,4.8612E0,2.930302E-1,2.428531E0,-2.18067E-1,1E0,1.2638779E-1,1.0176591E-1,2.6E1,6.469467E-1,9.689283E-1,8.2640094E-1,2.5887238E1,8.221849E-1,1E0,7.3661685E-1,-1.9417924E-1,-2.6511835E-2,-2.559659E-1,-1.8006235E-1,-1.7967443E-1,2.6811525E-2,5.2940777E-5,-2.538013E-1,1.13658436E-1,-1.1963684E-1,-2.667449E-1,-1.1816121E-1,-4.8512485E-2,1.3416415E-1,1.4046185E-1,2.2373384E-1,1.5278473E-1,-4.607726E-2,-8.266787E-2,1.4178224E-1,9.079847E-2,-1.01314776E-1,1.3267392E-1,2.4918154E-1,6.2087078E-2,-1.3310155E-1,-2.3728561E-1,1.2016155E-1],"split_indices":[2,6,1,2,4,6,6,1,4,2,1,2,5,2,5,1,1,6,1,0,3,0,2,5,4,4,2,1,4,3,2,0,0,0,0,0,0,0,0,0,0,0,0,0,0,0,0,0,0,0,0,0,0,0,0,0,0,0,0],"split_type":[0,0,0,0,0,0,0,0,0,0,0,0,0,0,0,0,0,0,0,0,0,0,0,0,0,0,0,0,0,0,0,0,0,0,0,0,0,0,0,0,0,0,0,0,0,0,0,0,0,0,0,0,0,0,0,0,0,0,0],"sum_hessian":[3.8309521E3,1.5054576E3,2.3254944E3,1.1283275E3,3.7713022E2,1.0018934E3,1.3236011E3,5.489521E2,5.793754E2,2.7964493E2,9.74853E1,5.5880646E2,4.430869E2,5.962788E2,7.2732227E2,5.255459E1,4.963975E2,3.3479895E2,2.4457646E2,3.2308895E1,2.4733601E2,1.0300332E1,8.718497E1,5.1802177E1,5.0700427E2,3.9329797E2,4.9788925E1,2.9909305E2,2.9718576E2,6.1834296E2,1.08979355E2,2.7742325E1,2.4812262E1,4.0578644E2,9.061103E1,1.7571297E2,1.5908598E2,5.1291332E1,1.9328513E2,1.9564992E2,5.1686108E1,6.657561E1,2.060936E1,2.2124218E1,2.9677958E1,7.575842E1,4.3124585E2,3.668638E2,2.6434172E1,4.059773E1,9.191197E0,2.2512502E2,7.396802E1,1.8405782E2,1.13127945E2,4.8722064E2,1.311223E2,9.844013E1,1.0539223E1],"tree_param":{"num_deleted":"0","num_feature":"7","num_nodes":"59","size_leaf_vector":"0"}},{"base_weights":[-4.0780674E-3,-5.6313086E-1,1.8626392E-1,-2.8196284E-1,-8.565731E-1,5.2061325E-1,5.1906798E-2,-6.61816E-1,-1.412376E-1,1.4210731E-1,-9.4083E-1,1.417475E-1,5.699167E-1,1.3010593E-1,-4.549189E-1,-2.3317178E-1,-4.7414201E-1,9.252803E-2,-6.057993E-1,-7.7388895E-1,-2.423834E-1,-2.121203E-1,5.4577464E-1,7.083472E-1,4.3201646E-1,2.5297064E-1,-1.8112625E-1,-6.1459565E-1,4.8392978E-1,-1.2942242E-2,-1.3987038E-1,1.2541218E-1,-6.1842497E-2,-4.1704614E-2,-2.0471305E-1,-4.8391417E-2,-2.0704241E-1,-4.958606E-3,-1.6603209E-1,2.1579991E-1,4.0294994E-2,8.4051885E-2,1.8250419E-1,8.696357E-2,2.0361187E-1,-1.4015842E-2,8.441711E-2,-7.848157E-2,1.2621963E-1,-1.1518791E-2,-1.7506786E-1,1.9258232E-1,-4.237008E-2],"categories":[],"categories_nodes":[],"categories_segments":[],"categories_sizes":[],"default_left":[0,0,0,0,0,0,0,0,0,0,0,0,0,0,0,0,0,0,0,0,0,0,0,0,0,0,0,0,0,0,0,0,0,0,0,0,0,0,0,0,0,0,0,0,0,0,0,0,0,0,0,0,0],"id":7,"left_children":[1,3,5,7,9,11,13,15,17,-1,19,21,23,25,27,-1,29,31,33,35,-1,37,39,41,43,45,47,49,51,-1,-1,-1,-1,-1,-1,-1,-1,-1,-1,-1,-1,-1,-1,-1,-1,-1,-1,-1,-1,-1,-1,-1,-1],"loss_changes":[3.5951266E2,7.0559296E1,1.1319551E2,2.3411602E1,5.175055E1,1.3412811E1,7.13609E1,6.4331512E0,3.503809E1,0E0,3.795105E0,1.219873E1,1.1889694E1,5.9674065E1,3.6380688E1,0E0,3.4294605E0,3.2536797E1,1.1380699E1,5.944725E0,0E0,4.189473E0,5.1558275E0,5.651779E0,9.050671E0,3.4415154E1,4.5754204E1,1.338044E1,7.619033E0,0E0,0E0,0E0,0E0,0E0,0E0,0E0,0E0,0E0,0E0,0E0,0E0,0E0,0E0,0E0,0E0,0E0,0E0,0E0,0E0,0E0,0E0,0E0,0E0],"parents":[2147483647,0,0,1,1,2,2,3,3,4,4,5,5,6,6,7,7,8,8,10,10,11,11,12,12,13,13,14,14,16,16,17,17,18,18,19,19,21,21,22,22,23,23,24,24,25,25,26,26,27,27,28,28],"right_children":[2,4,6,8,10,12,14,16,18,-1,20,22,24,26,28,-1,30,32,34,36,-1,38,40,42,44,46,48,50,52,-1,-1,-1,-1,-1,-1,-1,-1,-1,-1,-1,-1,-1,-1,-1,-1,-1,-1,-1,-1,-1,-1,-1,-1],"split_conditions":[8.040545E-2,9.540644E-1,2.0299873E0,2.4E1,2.0299873E0,6.174682E-1,6E1,2.4533348E-2,5.843022E-1,1.4210731E-1,9.8225814E-1,3.1661674E-1,1.8775033E0,9.691175E-1,7.3661685E-1,-2.3317178E-1,7.6687884E-1,3.4748826E0,2.8963706E0,2.8067775E0,-2.423834E-1,2.1849993E-1,5.487433E-1,2.0290667E-1,8.470561E-1,2.4E1,6.711706E-1,8.667699E-1,8.1E1,-1.2942242E-2,-1.3987038E-1,1.2541218E-1,-6.1842497E-2,-4.1704614E-2,-2.0471305E-1,-4.8391417E-2,-2.0704241E-1,-4.958606E-3,-1.6603209E-1,2.1579991E-1,4.0294994E-2,8.4051885E-2,1.8250419E-1,8.696357E-2,2.0361187E-1,-1.4015842E-2,8.441711E-2,-7.848157E-2,1.2621963E-1,-1.1518791E-2,-1.7506786E-1,1.9258232E-1,-4.237008E-2],"split_indices":[2,0,1,5,1,4,5,2,4,0,0,2,1,0,2,0,0,1,1,1,0,2,4,2,2,5,2,0,5,0,0,0,0,0,0,0,0,0,0,0,0,0,0,0,0,0,0,0,0,0,0,0,0],"split_type":[0,0,0,0,0,0,0,0,0,0,0,0,0,0,0,0,0,0,0,0,0,0,0,0,0,0,0,0,0,0,0,0,0,0,0,0,0,0,0,0,0,0,0,0,0,0,0,0,0,0,0,0,0],"sum_hessian":[3.3765366E3,8.571236E2,2.519413E3,4.3871768E2,4.1840588E2,7.2137866E2,1.7980343E3,1.17595276E2,3.211224E2,2.2666008E1,3.9573987E2,8.351266E1,6.37866E2,1.5583385E3,2.396958E2,4.2793324E1,7.4801956E1,2.1415918E2,1.06963234E2,1.194235E2,2.7631638E2,4.4773075E1,3.8739582E1,3.1625674E2,3.2160925E2,1.1174081E3,4.409305E2,2.0514986E2,3.454594E1,1.5674823E1,5.9127132E1,9.590441E1,1.1825477E2,3.954528E1,6.741795E1,1.6479595E1,1.029439E2,3.274594E1,1.2027137E1,1.9305552E1,1.9434032E1,4.113705E1,2.751197E2,2.7711194E2,4.4497307E1,2.6918738E2,8.482207E2,3.659611E2,7.496941E1,3.4815365E1,1.703345E2,2.3161798E1,1.1384144E1],"tree_param":{"num_deleted":"0","num_feature":"7","num_nodes":"53","size_leaf_vector":"0"}},{"base_weights":[-8.400789E-3,-4.6562698E-1,1.4686167E-1,-2.1217401E-1,-7.2389466E-1,3.2537866E-1,-6.2254485E-2,-4.7358815E-2,-4.443345E-1,2.932596E-1,-8.154881E-1,3.9852995E-1,-7.396736E-2,-1.9924782E-1,2.792701E-1,3.3867458E-1,-2.971903E-1,-2.2235475E-1,-6.358306E-1,-4.253352E-2,1.453732E-1,-6.141327E-1,-9.257808E-1,4.400833E-1,-6.8728216E-3,-5.136607E-1,4.2322472E-1,1.0983167E-2,-7.138574E-1,-4.0556672E-1,3.4115455E-1,-2.1024886E-1,1.1681727E-1,-1.02477714E-1,2.1456592E-2,-9.0732284E-2,7.40185E-2,-1.1915785E-1,-2.577266E-1,-6.978512E-2,-2.0020041E-1,-1.1559697E-1,-2.3421788E-1,-7.4960645E-3,1.1434458E-1,4.723344E-2,-1.5732953E-1,7.2808415E-2,-1.7977352E-1,1.3595831E-1,2.1982221E-2,8.279097E-2,-5.738376E-2,-2.208342E-1,-1.4139575E-2,-1.747285E-1,6.791971E-3,-1.7968976E-1,9.1030784E-2],"categories":[],"categories_nodes":[],"categories_segments":[],"categories_sizes":[],"default_left":[0,0,0,0,0,0,0,0,0,0,0,0,0,0,0,0,0,0,0,0,0,0,0,0,0,0,0,0,0,0,0,0,0,0,0,0,0,0,0,0,0,0,0,0,0,0,0,0,0,0,0,0,0,0,0,0,0,0,0],"id":8,"left_children":[1,3,5,7,9,11,13,15,17,19,21,23,25,27,29,31,33,35,37,-1,-1,39,41,43,45,47,49,51,53,55,57,-1,-1,-1,-1,-1,-1,-1,-1,-1,-1,-1,-1,-1,-1,-1,-1,-1,-1,-1,-1,-1,-1,-1,-1,-1,-1,-1,-1],"loss_changes":[2.2872682E2,5.3309387E1,8.981009E1,1.5805866E1,3.7888382E1,3.79393E1,5.1920013E1,2.3538183E1,7.153454E0,5.123164E0,7.670517E0,1.848233E1,4.43233E1,8.5665504E1,1.360585E1,1.7683422E1,7.4682627E0,6.8116736E0,5.0572166E0,0E0,0E0,9.310638E0,4.822464E0,1.7062653E1,1.3733249E1,2.0906017E1,4.4729195E0,4.7114048E1,3.0973213E1,3.7690778E0,1.2421001E1,0E0,0E0,0E0,0E0,0E0,0E0,0E0,0E0,0E0,0E0,0E0,0E0,0E0,0E0,0E0,0E0,0E0,0E0,0E0,0E0,0E0,0E0,0E0,0E0,0E0,0E0,0E0,0E0],"parents":[2147483647,0,0,1,1,2,2,3,3,4,4,5,5,6,6,7,7,8,8,9,9,10,10,11,11,12,12,13,13,14,14,15,15,16,16,17,17,18,18,21,21,22,22,23,23,24,24,25,25,26,26,27,27,28,28,29,29,30,30],"right_children":[2,4,6,8,10,12,14,16,18,20,22,24,26,28,30,32,34,36,38,-1,-1,40,42,44,46,48,50,52,54,56,58,-1,-1,-1,-1,-1,-1,-1,-1,-1,-1,-1,-1,-1,-1,-1,-1,-1,-1,-1,-1,-1,-1,-1,-1,-1,-1,-1,-1],"split_conditions":[8.641214E-2,9.435864E-1,2.3442676E0,4.9407285E-1,2.0650918E0,9.5007825E-1,3.334957E-1,3.4748826E0,2.9456513E0,2.3E1,9.7928184E-1,6.4E1,6.085399E-1,8.359233E-1,2.3899267E0,1.7014056E0,4E1,4.3E1,1E0,-4.253352E-2,1.453732E-1,4.7716254E-1,2.336517E0,5.2168334E-1,2.1592615E0,1.9449551E0,5.6E1,2.7270665E0,2.849251E0,5.791729E-1,1.5927333E-1,-2.1024886E-1,1.1681727E-1,-1.02477714E-1,2.1456592E-2,-9.0732284E-2,7.40185E-2,-1.1915785E-1,-2.577266E-1,-6.978512E-2,-2.0020041E-1,-1.1559697E-1,-2.3421788E-1,-7.4960645E-3,1.1434458E-1,4.723344E-2,-1.5732953E-1,7.2808415E-2,-1.7977352E-1,1.3595831E-1,2.1982221E-2,8.279097E-2,-5.738376E-2,-2.208342E-1,-1.4139575E-2,-1.747285E-1,6.791971E-3,-1.7968976E-1,9.1030784E-2],"split_indices":[2,0,1,4,1,4,2,1,1,5,0,5,2,4,1,1,5,5,3,0,0,4,1,4,1,1,5,1,1,2,4,0,0,0,0,0,0,0,0,0,0,0,0,0,0,0,0,0,0,0,0,0,0,0,0,0,0,0,0],"split_type":[0,0,0,0,0,0,0,0,0,0,0,0,0,0,0,0,0,0,0,0,0,0,0,0,0,0,0,0,0,0,0,0,0,0,0,0,0,0,0,0,0,0,0,0,0,0,0,0,0,0,0,0,0,0,0,0,0,0,0],"sum_hessian":[3.2199922E3,8.157434E2,2.4042488E3,4.1262863E2,4.0311475E2,1.2967184E3,1.1075304E3,2.4201881E2,1.7060983E2,3.3119347E1,3.699954E2,1.0959642E3,2.0075423E2,7.9075653E2,3.1677393E2,9.494954E1,1.4706927E2,8.001669E1,9.059314E1,1.3390191E1,1.9729156E1,1.3326636E2,2.3672903E2,9.939952E2,1.0196901E2,1.06519905E2,9.423433E1,5.6210223E2,2.2865427E2,2.5792341E1,2.909816E2,9.7819805E0,8.516756E1,1.100238E2,3.7045467E1,6.209056E1,1.792613E1,7.0348434E1,2.024471E1,5.490306E1,7.83633E1,2.5084908E1,2.1164412E2,7.118668E1,9.2280853E2,7.813236E1,2.3836649E1,2.3760704E1,8.27592E1,6.531111E1,2.8923216E1,2.405173E2,3.2158493E2,1.7357805E2,5.5076214E1,1.440666E1,1.1385681E1,9.208832E0,2.8177277E2],"tree_param":{"num_deleted":"0","num_feature":"7","num_nodes":"59","size_leaf_vector":"0"}},{"base_weights":[9.025946E-3,-4.1512764E-1,2.6490083E-1,-2.1944784E-1,-7.3790276E-1,5.055954E-1,7.291867E-2,-5.217654E-1,-8.286784E-2,2.481122E-1,-9.036143E-1,5.821355E-1,1.2591231E-1,1.7087251E-1,-2.6559073E-1,-2.5705454E-1,-7.462417E-1,3.32541E-2,-6.796418E-1,-1.3816435E-2,2.065464E-1,-9.471809E-1,-4.0779823E-1,7.387145E-1,4.8060477E-1,4.3326923E-1,-2.2238228E-1,7.6130934E-2,5.124745E-1,-4.9039048E-1,2.6236963E-1,-1.3299364E-1,7.620087E-2,-1.9606E-1,3.0499236E-3,-4.404891E-2,1.0672559E-1,-5.070774E-2,-2.1103182E-1,5.5453043E-2,-1.3600065E-1,-1.1341615E-1,-2.3649788E-1,-1.4848475E-1,1.8508632E-2,8.972371E-2,1.9765407E-1,1.288897E-1,-7.6051033E-3,1.3768022E-1,-5.8775824E-2,-1.5714362E-1,4.6915866E-2,5.3772092E-2,-5.8033433E-2,-1.9668845E-2,1.559686E-1,-4.9017865E-2,-1.9068441E-1,-1.009965E-1,1.0019943E-1],"categories":[],"categories_nodes":[],"categories_segments":[],"categories_sizes":[],"default_left":[0,0,0,0,0,0,0,0,0,0,0,0,0,1,0,0,1,0,1,0,0,0,0,0,0,0,0,0,0,0,0,0,0,0,0,0,0,0,0,0,0,0,0,0,0,0,0,0,0,0,0,0,0,0,0,0,0,0,0,0,0],"id":9,"left_children":[1,3,5,7,9,11,13,15,17,19,21,23,25,27,29,31,33,35,37,39,-1,41,43,45,47,49,51,53,55,57,59,-1,-1,-1,-1,-1,-1,-1,-1,-1,-1,-1,-1,-1,-1,-1,-1,-1,-1,-1,-1,-1,-1,-1,-1,-1,-1,-1,-1,-1,-1],"loss_changes":[3.6656067E2,8.010646E1,9.730818E1,3.2684692E1,7.8528625E1,2.708583E1,3.8942238E1,1.445359E1,3.7939873E1,1.1199944E1,8.4809265E0,1.2005188E1,1.7017393E1,2.9425318E1,3.1421032E1,1.9741362E1,7.135971E0,4.1021206E1,8.152824E0,6.8771133E0,0E0,6.3667297E0,3.6179934E0,9.102142E0,1.3736061E1,8.167641E0,1.3635269E1,3.362862E1,1.6183231E1,1.5960995E1,8.589442E0,0E0,0E0,0E0,0E0,0E0,0E0,0E0,0E0,0E0,0E0,0E0,0E0,0E0,0E0,0E0,0E0,0E0,0E0,0E0,0E0,0E0,0E0,0E0,0E0,0E0,0E0,0E0,0E0,0E0,0E0],"parents":[2147483647,0,0,1,1,2,2,3,3,4,4,5,5,6,6,7,7,8,8,9,9,10,10,11,11,12,12,13,13,14,14,15,15,16,16,17,17,18,18,19,19,21,21,22,22,23,23,24,24,25,25,26,26,27,27,28,28,29,29,30,30],"right_children":[2,4,6,8,10,12,14,16,18,20,22,24,26,28,30,32,34,36,38,40,-1,42,44,46,48,50,52,54,56,58,60,-1,-1,-1,-1,-1,-1,-1,-1,-1,-1,-1,-1,-1,-1,-1,-1,-1,-1,-1,-1,-1,-1,-1,-1,-1,-1,-1,-1,-1,-1],"split_conditions":[1.3719933E-1,9.643342E-1,2.1520977E0,4.0229395E-2,2.223447E0,9.4915116E-1,5.4E1,2.735461E-1,1E0,1.0176591E-1,4.12123E0,1.8818899E0,1.96675E0,2.8838208E0,5.1664954E-1,2.4533348E-2,5.17078E0,3.4E1,2.6869342E0,9.9999493E-1,2.065464E-1,2.367236E0,6.442479E-2,8.409377E-1,6.5E1,9.736661E-1,6.1659414E-1,8.7426525E-1,1.8470155E-1,8.440443E-1,2.223447E0,-1.3299364E-1,7.620087E-2,-1.9606E-1,3.0499236E-3,-4.404891E-2,1.0672559E-1,-5.070774E-2,-2.1103182E-1,5.5453043E-2,-1.3600065E-1,-1.1341615E-1,-2.3649788E-1,-1.4848475E-1,1.8508632E-2,8.972371E-2,1.9765407E-1,1.288897E-1,-7.6051033E-3,1.3768022E-1,-5.8775824E-2,-1.5714362E-1,4.6915866E-2,5.3772092E-2,-5.8033433E-2,-1.9668845E-2,1.559686E-1,-4.9017865E-2,-1.9068441E-1,-1.009965E-1,1.0019943E-1],"split_indices":[2,0,1,2,1,4,5,4,3,2,1,1,1,1,2,2,1,5,1,0,0,1,2,0,5,4,2,4,2,4,1,0,0,0,0,0,0,0,0,0,0,0,0,0,0,0,0,0,0,0,0,0,0,0,0,0,0,0,0,0,0],"split_type":[0,0,0,0,0,0,0,0,0,0,0,0,0,0,0,0,0,0,0,0,0,0,0,0,0,0,0,0,0,0,0,0,0,0,0,0,0,0,0,0,0,0,0,0,0,0,0,0,0,0,0,0,0,0,0,0,0,0,0,0,0],"sum_hessian":[3.3754846E3,1.2698622E3,2.1056223E3,7.9162555E2,4.7823666E2,9.3355676E2,1.1720656E3,2.4546738E2,5.461582E2,6.8737595E1,4.0949905E2,7.764912E2,1.570656E2,9.094072E2,2.6265823E2,1.1362346E2,1.3184392E2,4.579862E2,8.817196E1,4.8832363E1,1.9905235E1,3.755865E2,3.3912582E1,3.029739E2,4.735173E2,8.330663E1,7.375896E1,7.1290857E2,1.964987E2,1.8426949E2,7.838876E1,7.492017E1,3.8703285E1,1.20542366E2,1.1301545E1,3.003052E2,1.5768103E2,2.6968071E1,6.1203888E1,3.4246086E1,1.4586278E1,2.8992062E1,3.4659442E2,2.3441936E1,1.0470644E1,5.818028E1,2.4479362E2,4.2648605E2,4.7031235E1,6.914577E1,1.4160864E1,3.5971146E1,3.778781E1,4.8674622E2,2.2616234E2,3.696704E1,1.5953166E2,9.580221E1,8.846728E1,1.4188679E1,6.420009E1],"tree_param":{"num_deleted":"0","num_feature":"7","num_nodes":"61","size_leaf_vector":"0"}},{"base_weights":[-7.743405E-3,-4.059974E-1,1.0390468E-1,-1.1205992E-1,-6.2947387E-1,3.6260962E-1,5.695297E-3,-4.742313E-1,2.9133296E-1,-6.7238384E-1,8.09928E-2,-1.2345715E-1,4.005472E-1,9.509878E-2,-3.2669473E-1,-5.378627E-1,7.3538213E-3,-9.845473E-2,3.7001136E-1,-2.6966375E-1,-7.6768297E-1,-4.4729218E-1,1.2496865E-1,5.455382E-1,2.5687838E-1,-6.518317E-1,1.449983E-1,-6.1894596E-1,6.0034577E-2,-7.945198E-3,-1.4350918E-1,1.14708744E-1,-4.349863E-2,-2.0507932E-2,-1.4359987E-1,-1.9804974E-1,-9.68535E-2,-1.1693104E-2,-1.4403215E-1,5.9432987E-2,1.5020879E-1,8.753377E-2,-1.592065E-2,-2.7473244E-1,-7.322216E-2,7.785961E-2,-3.7960338E-3,9.733795E-2,-1.6438717E-1,1.0758407E-1,-1.2249744E-1],"categories":[],"categories_nodes":[],"categories_segments":[],"categories_sizes":[],"default_left":[0,0,0,0,0,0,0,1,0,1,0,0,0,0,0,0,0,0,0,0,0,0,0,0,0,0,0,0,0,0,0,0,0,0,0,0,0,0,0,0,0,0,0,0,0,0,0,0,0,0,0],"id":10,"left_children":[1,3,5,7,9,11,13,15,17,19,-1,21,23,25,27,29,-1,-1,31,33,35,37,-1,39,41,43,45,47,49,-1,-1,-1,-1,-1,-1,-1,-1,-1,-1,-1,-1,-1,-1,-1,-1,-1,-1,-1,-1,-1,-1],"loss_changes":[1.3530852E2,4.369803E1,6.0386528E1,4.2360638E1,1.5923416E1,1.2109276E1,5.125777E1,4.920868E0,7.732643E0,1.3707886E1,0E0,1.0269423E1,1.2501656E1,5.0754616E1,4.1359013E1,4.0941086E0,0E0,0E0,7.4660473E0,4.242806E0,5.796753E0,1.9539752E0,0E0,7.0520782E0,1.0715673E1,1.422876E1,3.679029E1,1.4364807E1,3.5281868E1,0E0,0E0,0E0,0E0,0E0,0E0,0E0,0E0,0E0,0E0,0E0,0E0,0E0,0E0,0E0,0E0,0E0,0E0,0E0,0E0,0E0,0E0],"parents":[2147483647,0,0,1,1,2,2,3,3,4,4,5,5,6,6,7,7,8,8,9,9,11,11,12,12,13,13,14,14,15,15,18,18,19,19,20,20,21,21,23,23,24,24,25,25,26,26,27,27,28,28],"right_children":[2,4,6,8,10,12,14,16,18,20,-1,22,24,26,28,30,-1,-1,32,34,36,38,-1,40,42,44,46,48,50,-1,-1,-1,-1,-1,-1,-1,-1,-1,-1,-1,-1,-1,-1,-1,-1,-1,-1,-1,-1,-1,-1],"split_conditions":[7.6020494E-2,9.2311543E-1,2.0439787E0,3.3034742E-1,6.3350755E-1,9.73313E-1,1E0,5.17078E0,1.9E1,2.319873E0,8.09928E-2,3.2E1,1.8947219E0,1.56011E-1,3.616276E-1,3.119334E-2,7.3538213E-3,-9.845473E-2,1E0,4.759504E-1,5.760839E-2,1.8E1,1.2496865E-1,3.490432E-1,1E0,2.0933609E-1,9.24696E-1,2.2045252E-1,4.9493328E-1,-7.945198E-3,-1.4350918E-1,1.14708744E-1,-4.349863E-2,-2.0507932E-2,-1.4359987E-1,-1.9804974E-1,-9.68535E-2,-1.1693104E-2,-1.4403215E-1,5.9432987E-2,1.5020879E-1,8.753377E-2,-1.592065E-2,-2.7473244E-1,-7.322216E-2,7.785961E-2,-3.7960338E-3,9.733795E-2,-1.6438717E-1,1.0758407E-1,-1.2249744E-1],"split_indices":[2,0,1,6,6,1,3,1,5,1,0,5,1,6,2,6,0,0,3,6,2,5,0,2,3,2,0,6,6,0,0,0,0,0,0,0,0,0,0,0,0,0,0,0,0,0,0,0,0,0,0],"split_type":[0,0,0,0,0,0,0,0,0,0,0,0,0,0,0,0,0,0,0,0,0,0,0,0,0,0,0,0,0,0,0,0,0,0,0,0,0,0,0,0,0,0,0,0,0,0,0,0,0,0,0],"sum_hessian":[3.0411338E3,6.6530896E2,2.3758247E3,2.8800235E2,3.773066E2,6.529967E2,1.722828E3,1.5166232E2,1.3634001E2,3.6156607E2,1.574055E1,4.711334E1,6.0588336E2,1.3582195E3,3.6460858E2,1.3462904E2,1.7033274E1,1.3323429E1,1.2301659E2,6.9920815E1,2.9164523E2,3.1555323E1,1.5558017E1,3.0016193E2,3.0572147E2,8.429973E1,1.2739197E3,2.0732939E2,1.572792E2,1.4487658E1,1.2014139E2,1.0298416E2,2.0032425E1,4.5614544E1,2.430627E1,2.5076369E2,4.0881557E1,9.112112E0,2.244321E1,6.461767E1,2.3554428E2,2.2913757E2,7.658388E1,3.3862755E1,5.043697E1,6.016542E2,6.722655E2,1.2236614E1,1.9509277E2,9.3713524E1,6.356569E1],"tree_param":{"num_deleted":"0","num_feature":"7","num_nodes":"51","size_leaf_vector":"0"}},{"base_weights":[-3.5742085E-2,-3.909342E-1,4.6967734E-2,-1.2745441E-1,-6.1959964E-1,1.1333405E-2,5.636112E-1,-6.363996E-1,3.1343207E-1,-1.0794955E-1,-6.7850995E-1,-6.1637696E-2,3.5419253E-1,1.8050121E-1,2.1151658E-2,-2.6467362E-1,-7.9321724E-1,4.8683292E-1,-1.542525E-1,-1.1001113E-1,7.979157E-2,-1.7463031E-1,-3.4097984E-1,1.2792976E-2,-3.638294E-1,4.1377634E-1,-1.944298E-1,4.2477152E-1,-3.307772E-1,-1.4197457E-1,5.6314886E-2,-2.0470564E-1,-6.812967E-2,1.3767084E-1,-2.030136E-2,5.906075E-2,-1.8278319E-1,-7.936831E-2,1.8664476E-2,1.6974708E-1,-1.0487915E-1,1.1761197E-1,1.5936079E-2,-1.4464054E-1,-8.862923E-3,2.0876043E-1,-1.3472098E-2,-2.0442165E-1,3.4756202E-2],"categories":[],"categories_nodes":[],"categories_segments":[],"categories_sizes":[],"default_left":[0,0,0,0,0,0,1,0,0,0,0,0,0,0,0,0,0,0,0,0,0,0,0,0,0,0,0,0,0,0,0,0,0,0,0,0,0,0,0,0,0,0,0,0,0,0,0,0,0],"id":11,"left_children":[1,3,5,7,9,11,13,15,17,19,21,23,25,-1,27,29,31,33,-1,-1,-1,-1,35,37,39,41,43,45,47,-1,-1,-1,-1,-1,-1,-1,-1,-1,-1,-1,-1,-1,-1,-1,-1,-1,-1,-1,-1],"loss_changes":[8.505635E1,3.2867256E1,4.32354E1,5.7493546E1,8.743172E0,5.501969E1,1.5476624E1,6.718212E0,2.3107685E1,4.996944E0,4.0972443E0,4.0791237E1,1.2695316E1,0E0,5.8367853E0,6.1393476E0,2.285328E0,5.848833E0,0E0,0E0,0E0,0E0,8.874008E0,3.252081E1,2.8396969E1,9.199036E0,2.4523277E0,4.1404862E0,5.5706615E0,0E0,0E0,0E0,0E0,0E0,0E0,0E0,0E0,0E0,0E0,0E0,0E0,0E0,0E0,0E0,0E0,0E0,0E0,0E0,0E0],"parents":[2147483647,0,0,1,1,2,2,3,3,4,4,5,5,6,6,7,7,8,8,9,9,10,10,11,11,12,12,14,14,15,15,16,16,17,17,22,22,23,23,24,24,25,25,26,26,27,27,28,28],"right_children":[2,4,6,8,10,12,14,16,18,20,22,24,26,-1,28,30,32,34,-1,-1,-1,-1,36,38,40,42,44,46,48,-1,-1,-1,-1,-1,-1,-1,-1,-1,-1,-1,-1,-1,-1,-1,-1,-1,-1,-1,-1],"split_conditions":[6.615829E-2,4.8570165E-1,6.517532E-1,3.1372985E-1,1.5145403E-1,7.073105E-1,4.0579003E-1,8.409377E-1,9.677874E-1,6.985184E-1,5.760839E-2,1E0,5.414596E-1,1.8050121E-1,9.0327686E-1,1.6444638E-1,4.560125E-2,5.6E1,-1.542525E-1,-1.1001113E-1,7.979157E-2,-1.7463031E-1,6.8224263E-1,2.2942077E-1,1.712804E-1,6.3E1,5.5468446E-1,3.2E1,9.330345E-1,-1.4197457E-1,5.6314886E-2,-2.0470564E-1,-6.812967E-2,1.3767084E-1,-2.030136E-2,5.906075E-2,-1.8278319E-1,-7.936831E-2,1.8664476E-2,1.6974708E-1,-1.0487915E-1,1.1761197E-1,1.5936079E-2,-1.4464054E-1,-8.862923E-3,2.0876043E-1,-1.3472098E-2,-2.0442165E-1,3.4756202E-2],"split_indices":[2,4,6,6,6,2,2,0,0,4,2,3,6,0,4,6,2,5,0,0,0,0,4,6,6,5,6,5,4,0,0,0,0,0,0,0,0,0,0,0,0,0,0,0,0,0,0,0,0],"split_type":[0,0,0,0,0,0,0,0,0,0,0,0,0,0,0,0,0,0,0,0,0,0,0,0,0,0,0,0,0,0,0,0,0,0,0,0,0,0,0,0,0,0,0,0,0,0,0,0,0],"sum_hessian":[2.893627E3,5.4583716E2,2.3477898E3,2.543359E2,2.9150122E2,2.1972605E3,1.505292E2,1.1785009E2,1.3648582E2,3.0389927E1,2.611113E2,1.8123551E3,3.8490543E2,1.114274E2,3.910181E1,3.5763298E1,8.208679E1,1.1594897E2,2.0536856E1,1.6901167E1,1.3488759E1,2.2693295E2,3.417835E1,1.4549536E3,3.5740155E2,3.4741928E2,3.7486134E1,1.8116917E1,2.0984894E1,2.1501963E1,1.4261336E1,7.286808E1,9.218715E0,1.00656044E2,1.529292E1,1.4439577E1,1.9738771E1,2.307902E2,1.2241635E3,2.2298735E1,3.351028E2,2.8453342E2,6.2885864E1,9.649191E0,2.783694E1,8.98906E0,9.127856E0,9.637155E0,1.1347738E1],"tree_param":{"num_deleted":"0","num_feature":"7","num_nodes":"49","size_leaf_vector":"0"}},{"base_weights":[4.8273757E-2,-5.7221794E-1,3.4178188E-1,-7.1540743E-1,-1.0697799E-2,6.496706E-1,1.0194332E-1,-3.3172974E-1,-7.8230006E-1,4.337313E-1,-7.080128E-1,7.977187E-1,5.208056E-1,2.9277104E-1,-1.8961284E-1,-7.014259E-1,2.2125682E-1,-5.4261047E-1,-9.4434226E-1,-9.813902E-2,4.9985528E-1,-4.7264078E-1,-2.5015712E-1,7.660919E-2,8.5220504E-1,5.729888E-1,-1.3270818E-1,5.733054E-1,1.2088349E-1,-4.9169022E-1,5.070615E-1,-2.3020463E-1,-8.660213E-2,1.616855E-1,-4.6605796E-2,-1.7858434E-1,-3.383752E-3,-2.4289696E-1,-1.8448128E-1,7.3286206E-2,2.2541782E-1,8.7972805E-2,-1.5579817E-1,-8.168877E-2,9.705234E-2,1.7198002E-1,2.2919804E-1,2.3352592E-1,1.22763716E-1,9.6239E-2,-1.14074685E-1,2.2099535E-1,8.6651616E-2,-1.1265206E-2,1.2449098E-1,1.20339915E-1,-1.3856338E-1,1.8394718E-1,5.6792904E-2],"categories":[],"categories_nodes":[],"categories_segments":[],"categories_sizes":[],"default_left":[0,0,0,0,0,0,0,0,0,0,0,0,0,0,0,0,0,0,0,0,0,0,0,0,0,0,0,0,0,0,0,0,0,0,0,0,0,0,0,0,0,0,0,0,0,0,0,0,0,0,0,0,0,0,0,0,0,0,0],"id":12,"left_children":[1,3,5,7,9,11,13,15,17,19,21,23,25,27,29,31,33,35,37,-1,39,41,-1,43,45,47,49,51,53,55,57,-1,-1,-1,-1,-1,-1,-1,-1,-1,-1,-1,-1,-1,-1,-1,-1,-1,-1,-1,-1,-1,-1,-1,-1,-1,-1,-1,-1],"loss_changes":[6.5576117E2,9.296417E1,1.8043237E2,2.3386993E1,7.3434395E1,2.0000946E1,7.656743E1,2.847405E1,2.9931213E1,8.268873E0,6.764679E0,1.9427612E1,1.9685532E1,4.002945E1,1.1486561E2,6.963093E0,1.0705991E1,3.390809E1,4.770111E0,0E0,1.1220528E1,8.52655E0,0E0,5.0513725E0,5.744446E0,1.2601837E1,8.113781E0,2.2951729E1,3.453502E1,3.2649628E1,1.1407627E1,0E0,0E0,0E0,0E0,0E0,0E0,0E0,0E0,0E0,0E0,0E0,0E0,0E0,0E0,0E0,0E0,0E0,0E0,0E0,0E0,0E0,0E0,0E0,0E0,0E0,0E0,0E0,0E0],"parents":[2147483647,0,0,1,1,2,2,3,3,4,4,5,5,6,6,7,7,8,8,9,9,10,10,11,11,12,12,13,13,14,14,15,15,16,16,17,17,18,18,20,20,21,21,23,23,24,24,25,25,26,26,27,27,28,28,29,29,30,30],"right_children":[2,4,6,8,10,12,14,16,18,20,22,24,26,28,30,32,34,36,38,-1,40,42,-1,44,46,48,50,52,54,56,58,-1,-1,-1,-1,-1,-1,-1,-1,-1,-1,-1,-1,-1,-1,-1,-1,-1,-1,-1,-1,-1,-1,-1,-1,-1,-1,-1,-1],"split_conditions":[1.1347349E-1,4.9493328E-1,2.1395423E0,2.3745055E0,9.643342E-1,4.1324216E-1,8.577143E-1,2.446723E-1,9.1991025E-1,1.9246683E-2,9.999085E-1,1.7590608E-1,7E1,2.4888005E0,5.711692E-1,6.5599763E-1,2.0650918E0,3.636455E-1,5.9418734E-2,-9.813902E-2,6.291865E-1,2.2524362E0,-2.5015712E-1,2.4E1,7.9339874E-1,2.3504503E-1,1.96675E0,2.1849993E-1,3.334957E-1,3.6834744E-1,4.6850786E-1,-2.3020463E-1,-8.660213E-2,1.616855E-1,-4.6605796E-2,-1.7858434E-1,-3.383752E-3,-2.4289696E-1,-1.8448128E-1,7.3286206E-2,2.2541782E-1,8.7972805E-2,-1.5579817E-1,-8.168877E-2,9.705234E-2,1.7198002E-1,2.2919804E-1,2.3352592E-1,1.22763716E-1,9.6239E-2,-1.14074685E-1,2.2099535E-1,8.6651616E-2,-1.1265206E-2,1.2449098E-1,1.20339915E-1,-1.3856338E-1,1.8394718E-1,5.6792904E-2],"split_indices":[2,6,1,1,0,6,4,6,0,2,0,2,5,1,2,4,1,6,2,0,6,1,0,5,4,2,1,2,2,6,6,0,0,0,0,0,0,0,0,0,0,0,0,0,0,0,0,0,0,0,0,0,0,0,0,0,0,0,0],"split_type":[0,0,0,0,0,0,0,0,0,0,0,0,0,0,0,0,0,0,0,0,0,0,0,0,0,0,0,0,0,0,0,0,0,0,0,0,0,0,0,0,0,0,0,0,0,0,0,0,0,0,0,0,0,0,0,0,0,0,0],"sum_hessian":[3.5986487E3,1.1553109E3,2.443338E3,9.203456E2,2.3496527E2,1.0691394E3,1.3741986E3,1.3752116E2,7.8282446E2,1.4373483E2,9.123044E1,4.95122E2,5.7401733E2,8.3057263E2,5.436259E2,8.225895E1,5.526221E1,3.1751346E2,4.6531097E2,1.0081268E1,1.3365356E2,5.4953716E1,3.6276726E1,3.4951797E1,4.6017023E2,5.316854E2,4.2331932E1,3.1467014E2,5.1590247E2,3.7940884E2,1.6421712E2,4.5788826E1,3.6470123E1,2.6156036E1,2.9106173E1,2.2957997E2,8.79335E1,3.3239667E2,1.329143E2,9.381909E1,3.9834476E1,9.363182E0,4.5590534E1,1.5365801E1,1.9585999E1,2.0183356E2,2.5833667E2,6.8845634E1,4.6283975E2,1.6483555E1,2.584838E1,1.180537E2,1.9661642E2,3.634607E2,1.524418E2,2.9740849E1,3.49668E2,8.288316E1,8.1333954E1],"tree_param":{"num_deleted":"0","num_feature":"7","num_nodes":"59","size_leaf_vector":"0"}},{"base_weights":[6.915697E-3,1.8893763E-1,-1.4937067E-1,2.552842E-1,-1.4005315E-1,3.554566E-2,-3.1851596E-1,-2.6144806E-1,2.887563E-1,3.132341E-1,-3.4211406E-1,1.4475457E-1,-2.912188E-1,-4.291619E-1,3.6038548E-1,-1.058613E-1,1.9066355E-1,5.046277E-1,2.2009802E-1,1.7377162E-1,1.6358791E-1,-5.94475E-1,-8.57913E-2,2.2628339E-1,-2.7703178E-1,-1.472464E-1,-2.1747026E-1,-5.133116E-1,-6.288716E-2,1.3760033E-1,4.5525882E-1,-1.4298093E-2,1.7839068E-1,1.1507255E-1,1.8418146E-2,6.9336556E-2,-8.406201E-2,-5.5102542E-2,-2.0164238E-1,-2.0984845E-1,7.517326E-3,1.05045E-1,1.9756766E-2,-9.719817E-2,1.2207205E-1,-7.943052E-2,1.6739782E-2,-8.513322E-2,-1.8506286E-1,-5.8705494E-2,1.0397672E-1,1.2426591E-1,-2.1956868E-3,1.3788706E-1,2.2819204E-2],"categories":[],"categories_nodes":[],"categories_segments":[],"categories_sizes":[],"default_left":[0,0,0,0,0,0,0,0,0,0,0,0,0,0,0,0,0,0,0,0,0,0,0,0,0,0,0,0,0,0,0,0,0,0,0,0,0,0,0,0,0,0,0,0,0,0,0,0,0,0,0,0,0,0,0],"id":13,"left_children":[1,3,5,7,9,11,13,15,17,19,21,23,25,27,29,-1,-1,31,33,-1,35,37,39,41,43,-1,45,47,49,51,53,-1,-1,-1,-1,-1,-1,-1,-1,-1,-1,-1,-1,-1,-1,-1,-1,-1,-1,-1,-1,-1,-1,-1,-1],"loss_changes":[8.021399E1,2.8467941E1,4.746377E1,1.8830399E1,2.0188627E1,2.593836E1,5.9682083E1,1.2962469E1,1.4989662E1,4.0695095E0,9.789492E0,1.8789108E1,4.195283E0,2.098391E1,2.296113E0,0E0,0E0,3.3045826E1,2.8770962E1,0E0,3.3997076E0,6.6643486E0,7.1053214E0,1.3869673E1,9.119408E0,0E0,4.90439E0,2.2388596E1,1.1693295E1,1.944186E0,3.2890148E0,0E0,0E0,0E0,0E0,0E0,0E0,0E0,0E0,0E0,0E0,0E0,0E0,0E0,0E0,0E0,0E0,0E0,0E0,0E0,0E0,0E0,0E0,0E0,0E0],"parents":[2147483647,0,0,1,1,2,2,3,3,4,4,5,5,6,6,7,7,8,8,9,9,10,10,11,11,12,12,13,13,14,14,17,17,18,18,20,20,21,21,22,22,23,23,24,24,26,26,27,27,28,28,29,29,30,30],"right_children":[2,4,6,8,10,12,14,16,18,20,22,24,26,28,30,-1,-1,32,34,-1,36,38,40,42,44,-1,46,48,50,52,54,-1,-1,-1,-1,-1,-1,-1,-1,-1,-1,-1,-1,-1,-1,-1,-1,-1,-1,-1,-1,-1,-1,-1,-1],"split_conditions":[2.3821366E0,9.472539E-1,9.1627353E-1,7.242727E-1,1.9449551E0,4.134737E1,4.5920834E-1,4.1E1,2.1849993E-1,9.548801E-1,4.2208526E-1,1E0,6.931197E-1,4.12123E0,2.746249E0,-1.058613E-1,1.9066355E-1,2.4E1,1.9617066E0,1.7377162E-1,6E1,9.60602E-1,9.5103645E-1,8.2728297E-1,4.4763836E-1,-1.472464E-1,3.9E1,9.771264E-1,2.4023545E-1,9.5132315E-1,5.7E1,-1.4298093E-2,1.7839068E-1,1.1507255E-1,1.8418146E-2,6.9336556E-2,-8.406201E-2,-5.5102542E-2,-2.0164238E-1,-2.0984845E-1,7.517326E-3,1.05045E-1,1.9756766E-2,-9.719817E-2,1.2207205E-1,-7.943052E-2,1.6739782E-2,-8.513322E-2,-1.8506286E-1,-5.8705494E-2,1.0397672E-1,1.2426591E-1,-2.1956868E-3,1.3788706E-1,2.2819204E-2],"split_indices":[1,4,0,1,1,1,2,5,2,4,2,3,0,1,1,0,0,5,1,0,5,4,4,0,2,0,5,0,2,0,5,0,0,0,0,0,0,0,0,0,0,0,0,0,0,0,0,0,0,0,0,0,0,0,0],"split_type":[0,0,0,0,0,0,0,0,0,0,0,0,0,0,0,0,0,0,0,0,0,0,0,0,0,0,0,0,0,0,0,0,0,0,0,0,0,0,0,0,0,0,0,0,0,0,0,0,0,0,0,0,0,0,0],"sum_hessian":[2.8177234E3,1.3015912E3,1.5161322E3,1.0833412E3,2.1825E2,7.2467676E2,7.9145544E2,6.549159E1,1.0178496E3,6.712252E1,1.5112749E2,5.435667E2,1.8111003E2,6.8085846E2,1.1059704E2,5.646692E1,9.024672E0,2.440794E2,7.737702E2,1.6897223E1,5.0225296E1,7.548751E1,7.563998E1,4.5590625E2,8.7660484E1,3.23611E1,1.4874893E2,5.533319E2,1.27526535E2,3.3763256E1,7.683378E1,7.277984E1,1.7129958E2,2.7459885E2,4.9917136E2,4.0730015E1,9.495279E0,3.1154993E1,4.4332516E1,8.944782E0,6.66952E1,1.8386633E2,2.7203992E2,7.579959E1,1.1860891E1,1.0651063E2,4.2238304E1,3.4404785E2,2.0928404E2,9.37097E1,3.381683E1,8.698988E0,2.506427E1,5.727309E1,1.956069E1],"tree_param":{"num_deleted":"0","num_feature":"7","num_nodes":"55","size_leaf_vector":"0"}},{"base_weights":[-2.3590105E-2,-4.127573E-1,2.42877E-2,-1.8366972E-1,-5.278356E-1,-3.2763768E-3,5.085793E-1,-4.65136E-1,1.553743E-1,4.1690003E-2,-6.1417973E-1,-3.955687E-2,4.4134957E-1,2.2791833E-2,5.668353E-1,5.442253E-2,-6.053676E-1,-4.9421623E-2,5.7264125E-1,-6.764102E-1,-2.3137167E-1,7.5447233E-3,-4.034997E-1,6.1776596E-1,-7.119583E-2,2.0579416E-1,4.6885744E-1,-1.718346E-1,-2.9714905E-2,4.1531473E-2,2.0536573E-1,-2.0199682E-1,-1.1779168E-1,-1.3069059E-1,5.1222645E-2,-3.444146E-2,2.0067662E-2,1.4100172E-2,-1.4337267E-1,1.6342197E-1,-1.56049235E-2,6.2648796E-2,-6.8957776E-2,1.5412255E-1,6.4811096E-2],"categories":[],"categories_nodes":[],"categories_segments":[],"categories_sizes":[],"default_left":[0,0,0,0,0,0,0,0,1,0,0,0,0,0,0,0,1,0,0,0,0,0,0,0,1,0,0,0,0,0,0,0,0,0,0,0,0,0,0,0,0,0,0,0,0],"id":14,"left_children":[1,3,5,7,9,11,13,15,17,-1,19,21,23,-1,25,-1,27,-1,29,31,33,35,37,39,41,-1,43,-1,-1,-1,-1,-1,-1,-1,-1,-1,-1,-1,-1,-1,-1,-1,-1,-1,-1],"loss_changes":[5.0816837E1,7.7795944E0,3.242673E1,9.752043E0,1.2120884E1,3.7106495E1,3.0981483E0,5.5390253E0,7.167411E0,0E0,4.0558395E0,3.645896E1,1.5735588E1,0E0,2.8573914E0,0E0,2.3915615E0,0E0,2.3361511E0,4.2359695E0,3.7721725E0,2.1659588E1,2.1877655E1,5.6161385E0,3.3301425E0,0E0,2.8523254E0,0E0,0E0,0E0,0E0,0E0,0E0,0E0,0E0,0E0,0E0,0E0,0E0,0E0,0E0,0E0,0E0,0E0,0E0],"parents":[2147483647,0,0,1,1,2,2,3,3,4,4,5,5,6,6,7,7,8,8,10,10,11,11,12,12,14,14,16,16,18,18,19,19,20,20,21,21,22,22,23,23,24,24,26,26],"right_children":[2,4,6,8,10,12,14,16,18,-1,20,22,24,-1,26,-1,28,-1,30,32,34,36,38,40,42,-1,44,-1,-1,-1,-1,-1,-1,-1,-1,-1,-1,-1,-1,-1,-1,-1,-1,-1,-1],"split_conditions":[3.8818724E-2,9.0091753E-1,8.3859664E-1,2.7034906E-1,2.059496E0,6.4156765E-1,1.7523687E-1,3.119334E-2,3.146242E0,4.1690003E-2,7.3866153E0,6.1E1,4.0579003E-1,2.2791833E-2,9.2647445E-1,5.442253E-2,4.628127E0,-4.9421623E-2,3.7618396E-1,3.408079E-1,9.4820297E-1,2.7E1,3.6980522E-1,4.8612E0,2.0757163E0,2.0579416E-1,4.280697E-1,-1.718346E-1,-2.9714905E-2,4.1531473E-2,2.0536573E-1,-2.0199682E-1,-1.1779168E-1,-1.3069059E-1,5.1222645E-2,-3.444146E-2,2.0067662E-2,1.4100172E-2,-1.4337267E-1,1.6342197E-1,-1.56049235E-2,6.2648796E-2,-6.8957776E-2,1.5412255E-1,6.4811096E-2],"split_indices":[2,0,2,6,1,6,6,6,1,0,1,5,2,0,0,0,1,0,6,6,0,5,6,1,1,0,6,0,0,0,0,0,0,0,0,0,0,0,0,0,0,0,0,0,0],"split_type":[0,0,0,0,0,0,0,0,0,0,0,0,0,0,0,0,0,0,0,0,0,0,0,0,0,0,0,0,0,0,0,0,0,0,0,0,0,0,0,0,0,0,0,0,0],"sum_hessian":[2.7257888E3,2.9777234E2,2.4280166E3,1.0043381E2,1.9733853E2,2.2982046E3,1.2981203E2,5.467337E1,4.5760433E1,2.151531E1,1.7582323E2,2.125666E3,1.725386E2,1.6351032E1,1.1346099E2,9.109663E0,4.556371E1,2.4796474E1,2.0963959E1,1.5057785E2,2.5245367E1,1.8829529E3,2.4271307E2,1.2820543E2,4.4333168E1,2.6651264E1,8.680973E1,3.665704E1,8.906669E0,9.360579E0,1.1603379E1,7.778986E1,7.2787994E1,1.4683103E1,1.0562265E1,6.3036694E2,1.2525859E3,7.192693E1,1.7078615E2,1.1735282E2,1.0852614E1,1.7391365E1,2.6941805E1,4.5186718E1,4.162301E1],"tree_param":{"num_deleted":"0","num_feature":"7","num_nodes":"45","size_leaf_vector":"0"}},{"base_weights":[-3.3111006E-4,-2.7329233E-1,5.1822104E-2,-1.6919203E-1,-5.228749E-1,1.0519355E-1,-1.4451958E-1,-3.886027E-1,1.1400433E-1,2.1157011E-1,-6.683742E-1,-1.6293165E-1,1.469212E-1,-4.4689587E-1,5.475935E-2,-1.2546195E-1,-5.223109E-1,-5.267799E-2,4.0930277E-1,1.3995191E-1,-3.2551125E-2,-1.7657799E-1,-2.2900706E-2,-5.365922E-1,1.7649268E-1,3.7348863E-1,7.100851E-2,-5.7630205E-1,1.2336988E-1,3.8763517E-1,-2.6537532E-1,-8.057399E-2,6.9968584E-3,1.2848006E-2,-1.4912005E-1,3.0088387E-2,-6.683241E-2,1.9904025E-1,-2.4390403E-2,3.2104887E-2,-1.5332067E-1,-7.382568E-2,7.5871035E-2,1.6996423E-2,1.1451407E-1,4.544257E-3,1.0238791E-1,-1.6009533E-1,-2.8598156E-2,-7.0785254E-2,9.258443E-2,-1.1374004E-1,1.0866175E-1,-1.510478E-1,-1.7092621E-2],"categories":[],"categories_nodes":[],"categories_segments":[],"categories_sizes":[],"default_left":[0,0,0,0,0,0,0,0,0,0,1,0,1,0,0,0,0,0,0,0,0,0,0,0,0,0,0,0,0,0,0,0,0,0,0,0,0,0,0,0,0,0,0,0,0,0,0,0,0,0,0,0,0,0,0],"id":15,"left_children":[1,3,5,7,9,11,13,15,17,19,21,23,25,27,29,31,33,35,37,-1,-1,-1,-1,39,41,43,45,47,49,51,53,-1,-1,-1,-1,-1,-1,-1,-1,-1,-1,-1,-1,-1,-1,-1,-1,-1,-1,-1,-1,-1,-1,-1,-1],"loss_changes":[3.8158512E1,1.108326E1,2.3598072E1,1.8989998E1,1.3614498E1,1.9827805E1,2.903342E1,5.987093E0,6.611182E0,2.8665352E0,4.0009117E0,3.038755E1,2.6326561E1,1.4191895E1,3.1120703E1,1.9368587E0,6.51952E0,3.5107412E0,1.0474921E1,0E0,0E0,0E0,0E0,7.894783E0,8.608497E0,1.2022804E1,2.1267443E1,6.398739E0,4.0887804E0,8.243435E0,1.048288E1,0E0,0E0,0E0,0E0,0E0,0E0,0E0,0E0,0E0,0E0,0E0,0E0,0E0,0E0,0E0,0E0,0E0,0E0,0E0,0E0,0E0,0E0,0E0,0E0],"parents":[2147483647,0,0,1,1,2,2,3,3,4,4,5,5,6,6,7,7,8,8,9,9,10,10,11,11,12,12,13,13,14,14,15,15,16,16,17,17,18,18,23,23,24,24,25,25,26,26,27,27,28,28,29,29,30,30],"right_children":[2,4,6,8,10,12,14,16,18,20,22,24,26,28,30,32,34,36,38,-1,-1,-1,-1,40,42,44,46,48,50,52,54,-1,-1,-1,-1,-1,-1,-1,-1,-1,-1,-1,-1,-1,-1,-1,-1,-1,-1,-1,-1,-1,-1,-1,-1],"split_conditions":[6.278835E-2,9.771264E-1,1E0,3.6980522E-1,2.0650918E0,2.2045252E-1,2.9919437E-1,8.409377E-1,4.2E1,3.6834744E-1,3.414325E0,2.0933609E-1,3.7125036E-1,3.2436268E0,4.4162083E-1,1.2158806E-1,2.5669332E0,3.4748826E0,5.5E1,1.3995191E-1,-3.2551125E-2,-1.7657799E-1,-2.2900706E-2,4.2144766E-1,7.4695146E-1,2.2E1,6.3350755E-1,5.885963E-1,3.0985722E-1,2.6E1,5.0296724E-1,-8.057399E-2,6.9968584E-3,1.2848006E-2,-1.4912005E-1,3.0088387E-2,-6.683241E-2,1.9904025E-1,-2.4390403E-2,3.2104887E-2,-1.5332067E-1,-7.382568E-2,7.5871035E-2,1.6996423E-2,1.1451407E-1,4.544257E-3,1.0238791E-1,-1.6009533E-1,-2.8598156E-2,-7.0785254E-2,9.258443E-2,-1.1374004E-1,1.0866175E-1,-1.510478E-1,-1.7092621E-2],"split_indices":[2,0,3,6,1,6,2,0,5,6,1,2,6,1,6,6,1,1,5,0,0,0,0,1,0,5,6,6,6,5,2,0,0,0,0,0,0,0,0,0,0,0,0,0,0,0,0,0,0,0,0,0,0,0,0],"split_type":[0,0,0,0,0,0,0,0,0,0,0,0,0,0,0,0,0,0,0,0,0,0,0,0,0,0,0,0,0,0,0,0,0,0,0,0,0,0,0,0,0,0,0,0,0,0,0,0,0,0,0,0,0,0,0],"sum_hessian":[2.6784656E3,4.2898572E2,2.24948E3,3.039054E2,1.25080315E2,1.7690613E3,4.8041864E2,1.7102725E2,1.3287816E2,2.0607008E1,1.04473305E2,2.3784706E2,1.5312142E3,1.9034926E2,2.9006937E2,5.8276375E1,1.1275088E2,8.546099E1,4.7417164E1,9.626009E0,1.0980998E1,9.322757E1,1.1245731E1,1.1293735E2,1.2490971E2,3.8330133E2,1.147913E3,1.5513503E2,3.521423E1,1.4210149E2,1.479679E2,2.4197975E1,3.40784E1,1.6611235E1,9.613964E1,4.8031033E1,3.7429955E1,2.568144E1,2.1735725E1,1.4904915E1,9.803243E1,2.76944E1,9.721531E1,9.820974E1,2.8509158E2,1.0022062E3,1.4570673E2,1.2905338E2,2.6081648E1,1.3526559E1,2.168767E1,9.5450535E0,1.3255643E2,5.0692154E1,9.727574E1],"tree_param":{"num_deleted":"0","num_feature":"7","num_nodes":"55","size_leaf_vector":"0"}},{"base_weights":[2.226813E-2,-2.1415344E-1,1.4600864E-1,-4.553181E-1,-2.7443774E-2,2.97723E-1,-5.329623E-2,-1.7519853E-1,-5.793906E-1,3.9976227E-1,-2.212887E-1,-1.651291E-1,3.9076927E-1,4.0009913E-1,-1.2938875E-1,-3.858196E-1,8.088856E-2,-7.1342E-1,-2.920692E-1,-2.3532692E-1,5.3611434E-1,-9.92467E-2,-7.1591926E-1,-6.209267E-1,-3.170069E-2,2.4539942E-3,4.460033E-1,8.5595906E-1,6.0115583E-2,-2.179208E-1,2.916205E-1,-1.215227E-1,8.719345E-2,8.851684E-2,-1.06497556E-1,-1.3525504E-1,-2.2844025E-1,-1.06532544E-1,4.6176244E-2,-1.3011351E-1,2.564033E-2,1.9960223E-1,5.0856974E-2,-1.4163658E-1,9.0199E-3,-1.9555223E-1,-5.505794E-2,-1.979665E-1,1.4630844E-2,8.662823E-2,-1.008873E-1,3.497208E-2,-5.0354023E-2,1.2479636E-1,6.280785E-2,2.7472854E-1,6.97825E-2,-7.095686E-2,1.0455491E-1,-8.251051E-2,1.3719356E-2,1.5325671E-1,1.0621187E-2],"categories":[],"categories_nodes":[],"categories_segments":[],"categories_sizes":[],"default_left":[0,0,1,0,0,0,0,0,0,0,0,0,0,1,0,0,0,0,0,0,0,0,0,0,0,1,0,0,0,0,0,0,0,0,0,0,0,0,0,0,0,0,0,0,0,0,0,0,0,0,0,0,0,0,0,0,0,0,0,0,0,0,0],"id":16,"left_children":[1,3,5,7,9,11,13,15,17,19,21,23,25,27,29,31,33,35,37,39,41,43,45,47,49,51,53,55,57,59,61,-1,-1,-1,-1,-1,-1,-1,-1,-1,-1,-1,-1,-1,-1,-1,-1,-1,-1,-1,-1,-1,-1,-1,-1,-1,-1,-1,-1,-1,-1,-1,-1],"loss_changes":[8.1554054E1,4.3115395E1,5.5345108E1,1.4422302E1,4.488271E1,4.481546E1,2.7366096E1,7.0274563E0,1.092778E1,1.4777239E1,2.2428894E1,1.0600606E1,1.856189E1,1.7620253E1,2.5360516E1,6.625742E0,9.131E0,6.4841537E0,6.975578E0,3.270203E0,1.3199886E1,2.0181646E1,3.35392E0,5.5418186E0,2.0927717E1,3.3385434E0,1.019519E1,7.6042023E0,8.998305E0,1.9456713E1,1.0128956E1,0E0,0E0,0E0,0E0,0E0,0E0,0E0,0E0,0E0,0E0,0E0,0E0,0E0,0E0,0E0,0E0,0E0,0E0,0E0,0E0,0E0,0E0,0E0,0E0,0E0,0E0,0E0,0E0,0E0,0E0,0E0,0E0],"parents":[2147483647,0,0,1,1,2,2,3,3,4,4,5,5,6,6,7,7,8,8,9,9,10,10,11,11,12,12,13,13,14,14,15,15,16,16,17,17,18,18,19,19,20,20,21,21,22,22,23,23,24,24,25,25,26,26,27,27,28,28,29,29,30,30],"right_children":[2,4,6,8,10,12,14,16,18,20,22,24,26,28,30,32,34,36,38,40,42,44,46,48,50,52,54,56,58,60,62,-1,-1,-1,-1,-1,-1,-1,-1,-1,-1,-1,-1,-1,-1,-1,-1,-1,-1,-1,-1,-1,-1,-1,-1,-1,-1,-1,-1,-1,-1,-1,-1],"split_conditions":[1.3719933E-1,3.5718155E-1,4.7772086E-1,2.7676911E0,4.7716254E-1,1.9013533E-1,1.8470155E-1,1.9047673E-1,4.8612E0,2.4533348E-2,1E0,2.2655845E-1,4.1283572E-1,2.3745055E0,6.4156765E-1,4.1E1,8.4070486E-1,6.5599763E-1,2.6815876E-1,4.9092275E-1,3.3586082E0,4.8389137E-2,5.616754E-1,6.0739475E-1,6.3808125E-1,2.1458857E-1,4.1324216E-1,9.292586E-1,5.502454E-1,6.1659414E-1,3.2192075E-1,-1.215227E-1,8.719345E-2,8.851684E-2,-1.06497556E-1,-1.3525504E-1,-2.2844025E-1,-1.06532544E-1,4.6176244E-2,-1.3011351E-1,2.564033E-2,1.9960223E-1,5.0856974E-2,-1.4163658E-1,9.0199E-3,-1.9555223E-1,-5.505794E-2,-1.979665E-1,1.4630844E-2,8.662823E-2,-1.008873E-1,3.497208E-2,-5.0354023E-2,1.2479636E-1,6.280785E-2,2.7472854E-1,6.97825E-2,-7.095686E-2,1.0455491E-1,-8.251051E-2,1.3719356E-2,1.5325671E-1,1.0621187E-2],"split_indices":[2,6,6,1,4,2,2,6,1,2,3,6,4,1,6,5,4,4,6,6,1,2,6,4,4,6,6,4,6,2,2,0,0,0,0,0,0,0,0,0,0,0,0,0,0,0,0,0,0,0,0,0,0,0,0,0,0,0,0,0,0,0,0],"split_type":[0,0,0,0,0,0,0,0,0,0,0,0,0,0,0,0,0,0,0,0,0,0,0,0,0,0,0,0,0,0,0,0,0,0,0,0,0,0,0,0,0,0,0,0,0,0,0,0,0,0,0,0,0,0,0,0,0,0,0,0,0,0,0],"sum_hessian":[2.7856343E3,9.568065E2,1.8288279E3,4.1688974E2,5.3991675E2,1.0381082E3,7.907198E2,1.2871066E2,2.8817908E2,1.6818942E2,3.7172733E2,1.7362888E2,8.6447925E2,1.1302215E2,6.7769763E2,7.034675E1,5.8363907E1,1.9549962E2,9.267945E1,2.9599144E1,1.3859029E2,2.9912402E2,7.260331E1,3.849037E1,1.351385E2,1.07781364E2,7.566979E2,4.763461E1,6.5387535E1,5.603472E2,1.1735039E2,6.0876553E1,9.470196E0,3.7874336E1,2.048957E1,1.2211012E2,7.3389496E1,7.063015E1,2.2049305E1,1.5297544E1,1.43016E1,7.1679474E1,6.691081E1,6.447893E1,2.346451E2,5.977871E1,1.2824599E1,2.946773E1,9.022642E0,6.725979E1,6.787872E1,6.453682E1,4.324455E1,5.386548E2,2.1804308E2,3.0849302E1,1.6785307E1,3.3686424E1,3.1701115E1,3.8426562E2,1.760816E2,4.8185307E1,6.916508E1],"tree_param":{"num_deleted":"0","num_feature":"7","num_nodes":"63","size_leaf_vector":"0"}},{"base_weights":[5.434199E-2,-4.3399298E-1,2.6986805E-1,-5.9495807E-1,-1.0271354E-1,1.6375557E-1,5.4753345E-1,-6.980407E-1,-4.3503708E-1,2.2775891E-1,-5.77933E-1,2.1736123E-1,-4.2195135E-1,6.3746333E-1,1.7459212E-1,-7.190047E-1,4.515539E-2,-2.858368E-1,-7.446693E-1,3.642881E-1,-3.9404824E-1,-2.586889E-1,-7.417775E-1,3.8159963E-1,1.0338617E-1,1.778832E-1,-6.005668E-1,6.553662E-1,2.7195644E-2,2.1669161E-1,-7.7692956E-2,-1.22258864E-1,-1.8704803E-1,-1.340268E-1,-4.8789857E-3,-1.993958E-1,-1.1617837E-2,1.0365881E-1,-1.583681E-1,-1.5625563E-1,6.448954E-2,-9.409881E-2,5.6771297E-2,-2.0559044E-1,-9.058747E-2,-1.9157782E-2,1.1964259E-1,7.832266E-2,-8.908387E-3,-5.7115234E-2,1.1479864E-1,-9.633396E-2,-1.859827E-1,1.626749E-2,1.5995316E-1,7.339404E-2,-1.0844149E-2],"categories":[],"categories_nodes":[],"categories_segments":[],"categories_sizes":[],"default_left":[0,0,0,0,0,0,1,0,0,0,0,0,0,0,0,0,0,0,0,0,0,0,0,0,0,0,0,0,0,0,0,0,0,0,0,0,0,0,0,0,0,0,0,0,0,0,0,0,0,0,0,0,0,0,0,0,0],"id":17,"left_children":[1,3,5,7,9,11,13,15,17,19,21,23,25,27,29,31,-1,33,35,37,39,41,43,45,47,49,51,53,-1,55,-1,-1,-1,-1,-1,-1,-1,-1,-1,-1,-1,-1,-1,-1,-1,-1,-1,-1,-1,-1,-1,-1,-1,-1,-1,-1,-1],"loss_changes":[3.427586E2,5.311644E1,6.647749E1,1.0756744E1,5.1534706E1,5.1458633E1,2.0825302E1,7.6837616E0,1.2058193E1,1.6593956E1,6.8452187E0,2.8030083E1,1.4840649E1,4.6419525E0,2.6434338E0,4.627243E0,0E0,1.30801115E1,5.103153E0,1.1325066E1,6.1993337E0,3.2084208E0,3.3743973E0,3.3158676E1,2.7785793E1,4.152692E0,3.3769112E0,3.1246948E0,0E0,2.6674147E0,0E0,0E0,0E0,0E0,0E0,0E0,0E0,0E0,0E0,0E0,0E0,0E0,0E0,0E0,0E0,0E0,0E0,0E0,0E0,0E0,0E0,0E0,0E0,0E0,0E0,0E0,0E0],"parents":[2147483647,0,0,1,1,2,2,3,3,4,4,5,5,6,6,7,7,8,8,9,9,10,10,11,11,12,12,13,13,14,14,15,15,17,17,18,18,19,19,20,20,21,21,22,22,23,23,24,24,25,25,26,26,27,27,29,29],"right_children":[2,4,6,8,10,12,14,16,18,20,22,24,26,28,30,32,-1,34,36,38,40,42,44,46,48,50,52,54,-1,56,-1,-1,-1,-1,-1,-1,-1,-1,-1,-1,-1,-1,-1,-1,-1,-1,-1,-1,-1,-1,-1,-1,-1,-1,-1,-1,-1],"split_conditions":[1.156177E-1,4.3489298E-1,6.3783973E-1,5.760839E-2,9.582204E-1,6.3E1,5.213823E-1,9.9999815E-1,8.137732E-1,1E0,9.8281735E-1,4.049514E-1,3.459321E-1,9.2E1,9.999438E-1,8.409377E-1,4.515539E-2,2.8E1,9.9784994E-1,6.8E1,5.910439E-1,8.1778145E-1,7.836159E-2,1.6001706E-1,9.347451E-1,4.5427456E-1,7.2E1,4.7685783E-2,2.7195644E-2,5.6E1,-7.7692956E-2,-1.22258864E-1,-1.8704803E-1,-1.340268E-1,-4.8789857E-3,-1.993958E-1,-1.1617837E-2,1.0365881E-1,-1.583681E-1,-1.5625563E-1,6.448954E-2,-9.409881E-2,5.6771297E-2,-2.0559044E-1,-9.058747E-2,-1.9157782E-2,1.1964259E-1,7.832266E-2,-8.908387E-3,-5.7115234E-2,1.1479864E-1,-9.633396E-2,-1.859827E-1,1.626749E-2,1.5995316E-1,7.339404E-2,-1.0844149E-2],"split_indices":[2,6,2,2,0,5,6,0,4,3,0,6,6,5,0,0,0,5,0,5,6,4,2,2,0,4,5,6,0,5,0,0,0,0,0,0,0,0,0,0,0,0,0,0,0,0,0,0,0,0,0,0,0,0,0,0,0],"split_type":[0,0,0,0,0,0,0,0,0,0,0,0,0,0,0,0,0,0,0,0,0,0,0,0,0,0,0,0,0,0,0,0,0,0,0,0,0,0,0,0,0,0,0,0,0,0,0,0,0,0,0,0,0,0,0,0,0],"sum_hessian":[3.2545347E3,9.962457E2,2.258289E3,6.699354E2,3.2631027E2,1.6350347E3,6.232543E2,4.0531238E2,2.6462305E2,1.92774E2,1.3353629E2,1.498515E3,1.3651968E2,5.0159253E2,1.2166175E2,3.9613004E2,9.182338E0,1.7987236E2,8.475068E1,1.58407E2,3.4367016E1,4.616486E1,8.7371414E1,6.1293115E2,8.8558386E2,3.1325397E1,1.0519428E2,4.8478384E2,1.6808681E1,1.1270512E2,8.956637E0,9.068563E1,3.0544443E2,8.8205086E1,9.166728E1,7.5247284E1,9.503391E0,1.491379E2,9.269103E0,2.4776358E1,9.590659E0,3.6533134E1,9.631727E0,6.54029E1,2.1968513E1,1.2396896E2,4.8896216E2,3.418305E2,5.4375336E2,1.3226168E1,1.809923E1,5.0644463E1,5.4549824E1,9.124186E0,4.7565967E2,8.396415E1,2.8740965E1],"tree_param":{"num_deleted":"0","num_feature":"7","num_nodes":"57","size_leaf_vector":"0"}},{"base_weights":[-2.495623E-3,2.0279121E-1,-1.2354209E-1,-8.157502E-2,2.510405E-1,-3.9700042E-2,-4.6342635E-1,-2.9206955E-1,2.0671609E-1,5.211906E-1,1.6596408E-1,-2.5331968E-1,2.6094992E-2,-6.349668E-1,2.181161E-2,-4.2073074E-1,1.0896391E-1,1.5727732E-1,4.8062813E-2,2.0853652E-1,7.003306E-1,4.8941392E-1,3.7106074E-2,-5.6149644E-1,9.304231E-2,2.1468906E-1,-2.0917106E-1,-7.2142154E-1,2.4853702E-1,2.8022665E-1,-3.1277013E-1,-5.8366447E-3,-1.3377523E-1,-4.429962E-2,1.1513812E-1,-4.0853765E-2,8.358138E-2,8.712035E-2,1.8118806E-1,1.5471576E-1,-9.427238E-3,6.325755E-2,-2.8567733E-2,-4.8409533E-2,-1.9184296E-1,9.078631E-2,-2.017242E-2,-2.7616043E-2,7.053228E-2,-7.024343E-2,8.97054E-2,-1.8004486E-1,-1.2842301E-2,1.15633756E-1,-2.8493242E-2,1.135574E-1,8.603577E-3,-1.6644292E-1,6.0276575E-2],"categories":[],"categories_nodes":[],"categories_segments":[],"categories_sizes":[],"default_left":[0,0,0,0,0,0,0,0,0,0,0,0,0,1,0,0,0,0,0,0,0,0,0,0,0,0,0,0,0,0,0,0,0,0,0,0,0,0,0,0,0,0,0,0,0,0,0,0,0,0,0,0,0,0,0,0,0,0,0],"id":18,"left_children":[1,3,5,7,9,11,13,15,17,19,21,23,25,27,29,31,-1,-1,33,35,37,39,41,43,45,47,49,51,53,55,57,-1,-1,-1,-1,-1,-1,-1,-1,-1,-1,-1,-1,-1,-1,-1,-1,-1,-1,-1,-1,-1,-1,-1,-1,-1,-1,-1,-1],"loss_changes":[6.800599E1,1.39486885E1,4.9041122E1,9.042253E0,1.9866081E1,1.9431297E1,2.8360954E1,8.442798E0,4.455838E0,1.147295E1,2.7560102E1,3.479933E1,4.6966362E1,1.9400383E1,7.8617435E0,3.986703E0,0E0,0E0,4.8744884E0,4.133552E0,2.148079E0,1.5489662E1,1.6801176E1,1.4592178E1,7.8172154E0,1.5375696E1,2.3040314E1,4.368561E0,2.0424533E0,2.3997931E0,8.6885395E0,0E0,0E0,0E0,0E0,0E0,0E0,0E0,0E0,0E0,0E0,0E0,0E0,0E0,0E0,0E0,0E0,0E0,0E0,0E0,0E0,0E0,0E0,0E0,0E0,0E0,0E0,0E0,0E0],"parents":[2147483647,0,0,1,1,2,2,3,3,4,4,5,5,6,6,7,7,8,8,9,9,10,10,11,11,12,12,13,13,14,14,15,15,18,18,19,19,20,20,21,21,22,22,23,23,24,24,25,25,26,26,27,27,28,28,29,29,30,30],"right_children":[2,4,6,8,10,12,14,16,18,20,22,24,26,28,30,32,-1,-1,34,36,38,40,42,44,46,48,50,52,54,56,58,-1,-1,-1,-1,-1,-1,-1,-1,-1,-1,-1,-1,-1,-1,-1,-1,-1,-1,-1,-1,-1,-1,-1,-1,-1,-1,-1,-1],"split_conditions":[2.2314255E0,2.2359896E-1,9.7821665E-1,2.0933609E-1,3.745449E-1,2.6815876E-1,3.5529274E-1,3.9E1,4.291816E-1,7.640538E-1,3.1058708E-1,1.5726118E-1,7.4980277E-1,3.8473682E0,5.081938E-1,5.9590094E-2,1.0896391E-1,1.5727732E-1,9.3791395E-1,2.1E1,2.7485785E-1,9.996781E-1,9.54742E-1,8.409377E-1,2.5887238E1,2.2E1,6.1659414E-1,6.5756416E-1,4.8529768E-1,7.3661685E-1,5.997451E-1,-5.8366447E-3,-1.3377523E-1,-4.429962E-2,1.1513812E-1,-4.0853765E-2,8.358138E-2,8.712035E-2,1.8118806E-1,1.5471576E-1,-9.427238E-3,6.325755E-2,-2.8567733E-2,-4.8409533E-2,-1.9184296E-1,9.078631E-2,-2.017242E-2,-2.7616043E-2,7.053228E-2,-7.024343E-2,8.97054E-2,-1.8004486E-1,-1.2842301E-2,1.15633756E-1,-2.8493242E-2,1.135574E-1,8.603577E-3,-1.6644292E-1,6.0276575E-2],"split_indices":[1,6,0,2,6,6,2,5,2,4,2,2,4,1,6,6,0,0,0,5,6,0,0,0,1,5,2,6,6,2,6,0,0,0,0,0,0,0,0,0,0,0,0,0,0,0,0,0,0,0,0,0,0,0,0,0,0,0,0],"split_type":[0,0,0,0,0,0,0,0,0,0,0,0,0,0,0,0,0,0,0,0,0,0,0,0,0,0,0,0,0,0,0,0,0,0,0,0,0,0,0,0,0,0,0,0,0,0,0,0,0,0,0,0,0,0,0,0,0,0,0],"sum_hessian":[2.7347336E3,1.0141414E3,1.7205923E3,1.4701137E2,8.6713007E2,1.3810372E3,3.3955505E2,8.496294E1,6.204843E1,2.0644911E2,6.606809E2,3.2452795E2,1.0565093E3,2.506405E2,8.891456E1,7.28382E1,1.2124738E1,1.5392959E1,4.665547E1,7.598906E1,1.3046004E2,1.8742429E2,4.7325665E2,1.7140163E2,1.5312631E2,5.864703E2,4.7003906E2,2.284674E2,2.2173094E1,5.0259197E1,3.8655357E1,1.897566E1,5.386254E1,3.0688797E1,1.5966676E1,2.0418594E1,5.557047E1,1.9245636E1,1.1121441E2,1.4471404E2,4.2710243E1,1.928516E2,2.8040506E2,6.895013E1,1.024515E2,5.8219658E1,9.490666E1,1.13485115E2,4.7298514E2,4.115764E2,5.8462677E1,2.1891603E2,9.551377E0,1.3369404E1,8.80369E0,2.7562944E1,2.2696253E1,2.2938341E1,1.5717017E1],"tree_param":{"num_deleted":"0","num_feature":"7","num_nodes":"59","size_leaf_vector":"0"}},{"base_weights":[1.0518279E-2,6.31708E-2,-1.9507264E-1,1.5668075E-1,-3.6503904E-2,-4.214519E-1,-3.57527E-2,3.0485895E-1,7.677852E-2,-8.2257904E-2,3.7257907E-1,2.1267E-2,-5.724433E-1,2.6048473E-1,-1.753478E-1,1.3708721E-1,7.523829E-1,2.6324266E-1,3.1301677E-3,4.2302515E-2,-3.167621E-1,4.4647124E-1,-5.421919E-2,1.5827404E-1,-1.6737717E-1,-4.0426013E-1,-7.3930067E-1,4.4624165E-1,3.7452355E-2,-2.4550307E-1,3.3177504E-1,5.4223627E-2,-7.5482026E-2,-5.593927E-2,2.0500508E-1,-3.0728472E-2,8.255665E-2,5.189537E-2,-2.643101E-2,7.83911E-2,-1.8612841E-2,-9.547565E-2,7.735262E-2,1.9998377E-2,1.3383481E-1,-8.585083E-4,-1.2982145E-1,-1.9105937E-1,-5.949635E-2,-5.6563925E-2,-2.1747392E-1,2.0185521E-1,6.574128E-2,-9.5130384E-2,7.4206926E-2,-8.047599E-2,3.2208603E-2,-1.531025E-3,1.4709505E-1],"categories":[],"categories_nodes":[],"categories_segments":[],"categories_sizes":[],"default_left":[0,0,0,0,1,0,1,0,0,0,0,0,0,0,0,0,0,0,0,0,0,0,0,0,1,0,0,0,0,0,0,0,0,0,0,0,0,0,0,0,0,0,0,0,0,0,0,0,0,0,0,0,0,0,0,0,0,0,0],"id":19,"left_children":[1,3,5,7,9,11,13,15,17,19,21,23,25,27,29,31,33,35,37,39,41,43,-1,-1,45,47,49,51,53,55,57,-1,-1,-1,-1,-1,-1,-1,-1,-1,-1,-1,-1,-1,-1,-1,-1,-1,-1,-1,-1,-1,-1,-1,-1,-1,-1,-1,-1],"loss_changes":[2.769481E1,1.8988531E1,1.8798985E1,1.2420345E1,1.849783E1,1.4409782E1,1.2752026E1,2.7516422E1,9.394507E0,2.595801E1,4.4981146E0,6.821139E0,4.209175E0,4.0772696E0,7.5329804E0,1.08549385E1,1.0239712E1,6.1636124E0,1.1885373E1,1.9823837E1,1.6094528E1,3.5402126E0,0E0,0E0,2.6793015E0,4.8392115E0,6.4606667E0,3.431446E0,5.5449038E0,6.3392467E0,2.4640033E0,0E0,0E0,0E0,0E0,0E0,0E0,0E0,0E0,0E0,0E0,0E0,0E0,0E0,0E0,0E0,0E0,0E0,0E0,0E0,0E0,0E0,0E0,0E0,0E0,0E0,0E0,0E0,0E0],"parents":[2147483647,0,0,1,1,2,2,3,3,4,4,5,5,6,6,7,7,8,8,9,9,10,10,11,11,12,12,13,13,14,14,15,15,16,16,17,17,18,18,19,19,20,20,21,21,24,24,25,25,26,26,27,27,28,28,29,29,30,30],"right_children":[2,4,6,8,10,12,14,16,18,20,22,24,26,28,30,32,34,36,38,40,42,44,-1,-1,46,48,50,52,54,56,58,-1,-1,-1,-1,-1,-1,-1,-1,-1,-1,-1,-1,-1,-1,-1,-1,-1,-1,-1,-1,-1,-1,-1,-1,-1,-1,-1,-1],"split_conditions":[1E0,2.4795702E0,2.4807104E-1,2.2177576E-1,5.594292E0,4.219827E-1,1.9575593E0,3.7E1,1.9409714E0,7.4075764E-1,6E1,2.9456513E0,7.957348E-1,9.5685476E-1,3.4748826E0,9.367851E-1,7.6089E-1,6.8224263E-1,9.282913E-1,2.9456513E0,6.0146207E-1,2.3E1,-5.421919E-2,1.5827404E-1,3.414325E0,6.1185215E-2,2.281529E0,1.7954657E0,9.8050505E-1,7.6685774E-1,8.6374915E-1,5.4223627E-2,-7.5482026E-2,-5.593927E-2,2.0500508E-1,-3.0728472E-2,8.255665E-2,5.189537E-2,-2.643101E-2,7.83911E-2,-1.8612841E-2,-9.547565E-2,7.735262E-2,1.9998377E-2,1.3383481E-1,-8.585083E-4,-1.2982145E-1,-1.9105937E-1,-5.949635E-2,-5.6563925E-2,-2.1747392E-1,2.0185521E-1,6.574128E-2,-9.5130384E-2,7.4206926E-2,-8.047599E-2,3.2208603E-2,-1.531025E-3,1.4709505E-1],"split_indices":[3,1,2,2,1,4,1,5,1,4,5,1,4,0,1,4,0,4,0,1,2,5,0,0,1,2,1,1,0,2,4,0,0,0,0,0,0,0,0,0,0,0,0,0,0,0,0,0,0,0,0,0,0,0,0,0,0,0,0],"split_type":[0,0,0,0,0,0,0,0,0,0,0,0,0,0,0,0,0,0,0,0,0,0,0,0,0,0,0,0,0,0,0,0,0,0,0,0,0,0,0,0,0,0,0,0,0,0,0,0,0,0,0,0,0,0,0,0,0,0,0],"sum_hessian":[2.5563018E3,2.0356562E3,5.206456E2,1.0500131E3,9.856431E2,2.1438235E2,3.0626328E2,3.668593E2,6.831538E2,8.872116E2,9.843152E1,5.473985E1,1.596425E2,9.781731E1,2.0844597E2,2.6777847E2,9.908085E1,1.9269957E2,4.9045422E2,5.7997095E2,3.0724066E2,8.784041E1,1.0591108E1,1.1919326E1,4.2820522E1,8.1210014E1,7.843249E1,5.282237E1,4.499494E1,1.8356721E2,2.4878752E1,2.2417513E2,4.360334E1,9.156571E0,8.992428E1,3.286276E1,1.598368E2,1.6989087E2,3.2056335E2,1.7147237E2,4.0849857E2,2.7299408E2,3.424659E1,2.0998661E1,6.684175E1,3.0469288E1,1.2351236E1,2.1996758E1,5.9213257E1,2.0117958E1,5.8314526E1,1.4870346E1,3.7952026E1,1.7152653E1,2.7842287E1,1.4854747E2,3.5019753E1,1.17374E1,1.3141353E1],"tree_param":{"num_deleted":"0","num_feature":"7","num_nodes":"59","size_leaf_vector":"0"}},{"base_weights":[1.69246E-2,2.5030482E-1,-1.1270701E-1,-7.4812844E-2,2.9318243E-1,1.2896405E-2,-3.400597E-1,-1.5198871E-1,1.1381818E-1,3.1455398E-1,-2.845274E-1,2.1811955E-1,-9.164593E-2,-4.481908E-1,1.0142754E-1,-2.5533232E-1,1.4151533E-1,4.365787E-1,2.0594293E-1,1.15907185E-1,-1.4753708E-1,4.0881845E-1,4.662292E-4,-1.4058955E-1,3.0967325E-1,-5.064502E-1,5.567046E-4,3.430387E-1,-1.5028122E-1,-3.1621415E-2,-1.3722917E-1,-6.449116E-2,1.3685371E-1,1.2050993E-1,2.5810495E-2,1.0983345E-1,2.52191E-2,-8.020159E-2,1.2423495E-1,-2.1100983E-2,9.54307E-2,1.617156E-4,-1.0102111E-1,1.1414705E-1,-3.2344256E-2,-1.3218886E-1,3.3015963E-2,-7.1816064E-2,1.4555255E-1,-7.805146E-4,1.2938857E-1,-1.19343646E-1,-2.2228302E-3],"categories":[],"categories_nodes":[],"categories_segments":[],"categories_sizes":[],"default_left":[0,0,0,0,0,0,0,0,0,0,0,0,0,0,0,0,0,0,0,0,0,0,0,0,1,1,1,0,0,0,0,0,0,0,0,0,0,0,0,0,0,0,0,0,0,0,0,0,0,0,0,0,0],"id":20,"left_children":[1,3,5,7,9,11,13,15,-1,17,19,21,23,25,27,29,31,33,35,-1,-1,37,39,41,43,45,47,49,51,-1,-1,-1,-1,-1,-1,-1,-1,-1,-1,-1,-1,-1,-1,-1,-1,-1,-1,-1,-1,-1,-1,-1,-1],"loss_changes":[8.203744E1,1.35205345E1,4.9790054E1,4.886669E0,1.0654366E1,2.4134207E1,2.9664986E1,3.0807285E0,0E0,1.0852531E1,8.16607E0,1.5756533E1,1.4683649E1,1.3034782E1,7.5247355E0,2.8417697E0,4.863435E0,8.312225E0,1.1089777E1,0E0,0E0,1.6533684E1,6.2934136E0,2.633529E1,6.062322E0,1.2675957E1,1.0769454E1,4.2797456E0,2.9742956E0,0E0,0E0,0E0,0E0,0E0,0E0,0E0,0E0,0E0,0E0,0E0,0E0,0E0,0E0,0E0,0E0,0E0,0E0,0E0,0E0,0E0,0E0,0E0,0E0],"parents":[2147483647,0,0,1,1,2,2,3,3,4,4,5,5,6,6,7,7,9,9,10,10,11,11,12,12,13,13,14,14,15,15,16,16,17,17,18,18,21,21,22,22,23,23,24,24,25,25,26,26,27,27,28,28],"right_children":[2,4,6,8,10,12,14,16,-1,18,20,22,24,26,28,30,32,34,36,-1,-1,38,40,42,44,46,48,50,52,-1,-1,-1,-1,-1,-1,-1,-1,-1,-1,-1,-1,-1,-1,-1,-1,-1,-1,-1,-1,-1,-1,-1,-1],"split_conditions":[2.195395E0,1.7523687E-1,9.5132315E-1,1E0,9.736661E-1,2.6566164E0,4.4763836E-1,7.5574076E-1,1.1381818E-1,4.9642807E-1,4.4485945E-1,2.2177576E-1,4.5360616E-1,6.173176E-1,4.8336193E-1,1.7115791E0,8.4401555E-2,1E0,9.2647445E-1,1.15907185E-1,-1.4753708E-1,3.1951973E-1,6.0146207E-1,5.960758E-1,7.457116E-1,4.12123E0,2.5047815E0,2.523734E0,5.251388E-1,-3.1621415E-2,-1.3722917E-1,-6.449116E-2,1.3685371E-1,1.2050993E-1,2.5810495E-2,1.0983345E-1,2.52191E-2,-8.020159E-2,1.2423495E-1,-2.1100983E-2,9.54307E-2,1.617156E-4,-1.0102111E-1,1.1414705E-1,-3.2344256E-2,-1.3218886E-1,3.3015963E-2,-7.1816064E-2,1.4555255E-1,-7.805146E-4,1.2938857E-1,-1.19343646E-1,-2.2228302E-3],"split_indices":[1,6,0,3,4,1,2,4,0,2,6,2,2,6,6,1,6,3,0,0,0,6,2,4,2,1,1,1,2,0,0,0,0,0,0,0,0,0,0,0,0,0,0,0,0,0,0,0,0,0,0,0,0],"split_type":[0,0,0,0,0,0,0,0,0,0,0,0,0,0,0,0,0,0,0,0,0,0,0,0,0,0,0,0,0,0,0,0,0,0,0,0,0,0,0,0,0,0,0,0,0,0,0,0,0,0,0,0,0],"sum_hessian":[2.7097393E3,9.6731616E2,1.7424231E3,1.1262178E2,8.5469434E2,1.1229697E3,6.1945337E2,9.937648E1,1.32452965E1,8.246434E2,3.005097E1,3.786229E2,7.4434686E2,4.975708E2,1.2188257E2,7.359392E1,2.5782568E1,3.8691925E2,4.3772415E2,8.900927E0,2.1150043E1,2.0133934E2,1.7728355E2,6.640153E2,8.033153E1,4.4028192E2,5.7288876E1,6.2003536E1,5.9879032E1,5.394477E1,1.9649147E1,1.3365963E1,1.2416604E1,3.2220728E2,6.471198E1,1.24215935E2,3.135082E2,2.5458292E1,1.7588104E2,1.4564857E2,3.1634972E1,4.4218784E2,2.2182748E2,5.8441338E1,2.1890188E1,4.1205887E2,2.8223064E1,3.8664692E1,1.8624184E1,2.2771313E1,3.9232227E1,1.657337E1,4.330566E1],"tree_param":{"num_deleted":"0","num_feature":"7","num_nodes":"53","size_leaf_vector":"0"}},{"base_weights":[2.2218896E-2,-2.338058E-1,8.384305E-2,-4.2243564E-1,-2.5000544E-2,1.2450448E-1,-4.5656154E-1,-6.0163057E-1,-1.800862E-1,1.6506322E-1,-1.8250743E-1,1.9764704E-1,-1.5058118E-1,-1.6397837E-1,-6.743582E-1,-4.043005E-1,-7.53139E-1,1.0253246E-1,-2.569013E-1,-2.787632E-1,3.1777313E-1,-5.9936327E-1,2.0789212E-2,1.36561E-1,4.1122153E-1,7.863213E-2,-3.339642E-1,1.04535535E-1,-3.5281956E-1,-7.824099E-1,1.192037E-2,2.2633823E-3,-1.1503116E-1,-2.1080567E-1,-9.128737E-2,-7.78091E-2,7.6694004E-2,-1.3034213E-1,4.884047E-2,4.3453444E-2,1.206054E-1,5.8067985E-2,-1.9491258E-1,-1.1312263E-1,4.924804E-2,5.8930308E-2,3.4757757E-3,1.917447E-1,8.0647334E-2,4.3174412E-2,-6.63864E-2,-9.398323E-2,3.2450177E-2,-1.5610805E-1,-3.0472483E-2,-2.10706E-1,-5.054991E-2],"categories":[],"categories_nodes":[],"categories_segments":[],"categories_sizes":[],"default_left":[0,0,0,0,0,0,1,0,0,0,0,0,0,0,0,0,0,0,0,0,0,0,0,0,0,0,1,0,0,0,0,0,0,0,0,0,0,0,0,0,0,0,0,0,0,0,0,0,0,0,0,0,0,0,0,0,0],"id":21,"left_children":[1,3,5,7,9,11,13,15,17,19,21,23,25,27,29,31,33,-1,35,37,39,41,43,45,47,49,51,-1,53,55,-1,-1,-1,-1,-1,-1,-1,-1,-1,-1,-1,-1,-1,-1,-1,-1,-1,-1,-1,-1,-1,-1,-1,-1,-1,-1,-1],"loss_changes":[4.2755375E1,2.0697155E1,4.8045803E1,1.1884571E1,7.531995E0,4.0912445E1,9.641693E0,4.4293633E0,5.652698E0,7.8209257E0,1.16656685E1,2.0890434E1,1.7989456E1,7.697283E0,6.8772507E0,2.2053137E0,3.7926865E0,0E0,4.2201276E0,3.901415E0,2.0647593E0,8.271769E0,8.572974E0,1.6626348E1,1.0126919E1,6.9114795E0,6.4775906E0,0E0,3.3605442E0,3.9730377E0,0E0,0E0,0E0,0E0,0E0,0E0,0E0,0E0,0E0,0E0,0E0,0E0,0E0,0E0,0E0,0E0,0E0,0E0,0E0,0E0,0E0,0E0,0E0,0E0,0E0,0E0,0E0],"parents":[2147483647,0,0,1,1,2,2,3,3,4,4,5,5,6,6,7,7,8,8,9,9,10,10,11,11,12,12,13,13,14,14,15,15,16,16,18,18,19,19,20,20,21,21,22,22,23,23,24,24,25,25,26,26,28,28,29,29],"right_children":[2,4,6,8,10,12,14,16,18,20,22,24,26,28,30,32,34,-1,36,38,40,42,44,46,48,50,52,-1,54,56,-1,-1,-1,-1,-1,-1,-1,-1,-1,-1,-1,-1,-1,-1,-1,-1,-1,-1,-1,-1,-1,-1,-1,-1,-1,-1,-1],"split_conditions":[2.607069E-1,3E1,6.8E1,4.701915E-1,2.9319506E0,1E0,2.1592615E0,8.3041036E-1,6.559608E-1,7.949213E-1,4.4429684E0,4.2E1,2.26728E0,3.873603E-1,9.5E1,1.6E1,2.5E1,1.0253246E-1,8.914939E-1,1.7523687E-1,4.9E1,8.50564E-1,7.6089E-1,2.4636366E0,5.0757027E-1,9.982969E-1,3.919805E0,1.04535535E-1,8.849669E-1,3.7244706E0,1.192037E-2,2.2633823E-3,-1.1503116E-1,-2.1080567E-1,-9.128737E-2,-7.78091E-2,7.6694004E-2,-1.3034213E-1,4.884047E-2,4.3453444E-2,1.206054E-1,5.8067985E-2,-1.9491258E-1,-1.1312263E-1,4.924804E-2,5.8930308E-2,3.4757757E-3,1.917447E-1,8.0647334E-2,4.3174412E-2,-6.63864E-2,-9.398323E-2,3.2450177E-2,-1.5610805E-1,-3.0472483E-2,-2.10706E-1,-5.054991E-2],"split_indices":[6,5,5,4,1,3,1,0,0,0,1,5,1,6,5,5,5,0,4,6,5,0,0,1,4,0,1,0,4,1,0,0,0,0,0,0,0,0,0,0,0,0,0,0,0,0,0,0,0,0,0,0,0,0,0,0,0],"split_type":[0,0,0,0,0,0,0,0,0,0,0,0,0,0,0,0,0,0,0,0,0,0,0,0,0,0,0,0,0,0,0,0,0,0,0,0,0,0,0,0,0,0,0,0,0,0,0,0,0,0,0,0,0,0,0,0,0],"sum_hessian":[2.7076863E3,5.2475146E2,2.1829348E3,2.7515747E2,2.49594E2,2.0308948E3,1.5204012E2,1.5733806E2,1.178194E2,1.1308554E2,1.3650845E2,1.6045438E3,4.263509E2,6.562879E1,8.641133E1,6.9928795E1,8.740927E1,1.271693E1,1.0510246E2,2.8737951E1,8.4347595E1,4.4111153E1,9.23973E1,1.2489591E3,3.5558472E2,1.8975026E2,2.3660062E2,1.5407074E1,5.0221714E1,7.5119995E1,1.1291337E1,1.08648405E1,5.906395E1,6.441538E1,2.299389E1,9.450619E1,1.0596273E1,1.8481909E1,1.0256042E1,4.9613163E1,3.473443E1,8.876377E0,3.5234776E1,2.476133E1,6.763597E1,6.593412E2,5.89618E2,5.6195053E1,2.9938968E2,1.4804411E2,4.1706154E1,2.1086374E2,2.573687E1,2.085655E1,2.9365164E1,6.390718E1,1.1212814E1],"tree_param":{"num_deleted":"0","num_feature":"7","num_nodes":"57","size_leaf_vector":"0"}},{"base_weights":[1.4527365E-2,-1.5905185E-1,1.11531615E-1,-4.6008795E-1,-5.264769E-2,2.7392408E-1,1.1276532E-2,-1.6657723E-2,-5.34825E-1,3.7244134E-2,-4.6961474E-1,1.2169211E-1,5.8417434E-1,2.7398503E-1,-6.5509796E-2,-2.2704421E-1,1.0151161E-1,-5.8174974E-1,4.1881222E-2,4.4849136E-1,-6.2153496E-2,-5.446866E-1,1.0830492E-1,-9.412152E-2,2.1068966E-1,7.172775E-1,3.068297E-1,2.1042109E-1,7.1203905E-1,-1.3542941E-1,2.2165367E-1,-1.2338858E-1,1.9807344E-2,-2.3217869E-1,-1.2166806E-1,-6.5261915E-2,1.400594E-1,-1.227088E-1,9.365321E-3,-1.772082E-1,-9.811175E-2,-1.2981889E-1,4.445246E-2,-2.1031404E-2,7.529162E-2,3.4894656E-2,1.8260667E-1,1.0682518E-1,-5.534645E-2,1.5726392E-1,3.5857424E-2,2.1364588E-1,6.223573E-2,-4.037254E-2,1.0982652E-1,1.473696E-1,-1.643447E-2],"categories":[],"categories_nodes":[],"categories_segments":[],"categories_sizes":[],"default_left":[0,0,1,0,0,0,1,0,1,0,0,1,0,0,0,0,0,0,0,0,0,0,0,0,0,0,0,0,0,0,0,0,0,0,0,0,0,0,0,0,0,0,0,0,0,0,0,0,0,0,0,0,0,0,0,0,0],"id":22,"left_children":[1,3,5,7,9,11,13,15,17,19,21,23,25,27,29,31,-1,33,-1,35,37,39,-1,41,43,45,47,49,51,53,55,-1,-1,-1,-1,-1,-1,-1,-1,-1,-1,-1,-1,-1,-1,-1,-1,-1,-1,-1,-1,-1,-1,-1,-1,-1,-1],"loss_changes":[4.4846283E1,3.0561611E1,2.781225E1,8.25098E0,2.6503366E1,3.0727764E1,2.1347965E1,3.5163815E0,7.1997795E0,2.3827917E1,8.914675E0,8.446241E0,7.694046E0,6.5147514E0,1.6474892E1,2.3230267E0,0E0,5.286392E0,0E0,1.1200159E1,2.1367434E1,2.7615662E0,0E0,1.6173573E1,9.583861E0,3.4814072E0,5.399048E0,5.613923E0,2.181548E0,1.2897034E1,1.8342648E1,0E0,0E0,0E0,0E0,0E0,0E0,0E0,0E0,0E0,0E0,0E0,0E0,0E0,0E0,0E0,0E0,0E0,0E0,0E0,0E0,0E0,0E0,0E0,0E0,0E0,0E0],"parents":[2147483647,0,0,1,1,2,2,3,3,4,4,5,5,6,6,7,7,8,8,9,9,10,10,11,11,12,12,13,13,14,14,15,15,17,17,19,19,20,20,21,21,23,23,24,24,25,25,26,26,27,27,28,28,29,29,30,30],"right_children":[2,4,6,8,10,12,14,16,18,20,22,24,26,28,30,32,-1,34,-1,36,38,40,-1,42,44,46,48,50,52,54,56,-1,-1,-1,-1,-1,-1,-1,-1,-1,-1,-1,-1,-1,-1,-1,-1,-1,-1,-1,-1,-1,-1,-1,-1,-1,-1],"split_conditions":[1.4445588E-1,2.6815876E-1,4.0348724E-1,5.9590094E-2,1E0,8.04865E-1,1.9988087E0,1.3311749E0,6.742232E0,2.735461E-1,6.4156765E-1,5.250055E-1,3.6834744E-1,6.212939E-1,6.173176E-1,4.278544E-2,1.0151161E-1,9.703161E-2,4.1881222E-2,1.9E1,3.433606E-2,4.0952998E-1,1.0830492E-1,2.559028E-1,2.3E1,1.9013533E-1,9.5296425E-1,1.7662215E0,5.711692E-1,8.2640094E-1,2.9387176E-1,-1.2338858E-1,1.9807344E-2,-2.3217869E-1,-1.2166806E-1,-6.5261915E-2,1.400594E-1,-1.227088E-1,9.365321E-3,-1.772082E-1,-9.811175E-2,-1.2981889E-1,4.445246E-2,-2.1031404E-2,7.529162E-2,3.4894656E-2,1.8260667E-1,1.0682518E-1,-5.534645E-2,1.5726392E-1,3.5857424E-2,2.1364588E-1,6.223573E-2,-4.037254E-2,1.0982652E-1,1.473696E-1,-1.643447E-2],"split_indices":[2,6,6,6,3,4,1,1,1,4,6,1,6,6,6,2,0,6,0,5,2,6,0,2,5,2,4,1,2,2,2,0,0,0,0,0,0,0,0,0,0,0,0,0,0,0,0,0,0,0,0,0,0,0,0,0,0],"split_type":[0,0,0,0,0,0,0,0,0,0,0,0,0,0,0,0,0,0,0,0,0,0,0,0,0,0,0,0,0,0,0,0,0,0,0,0,0,0,0,0,0,0,0,0,0,0,0,0,0,0,0,0,0,0,0,0,0],"sum_hessian":[2.6613562E3,9.538677E2,1.7074885E3,2.4823712E2,7.0563055E2,6.5110345E2,1.056385E3,3.5980476E1,2.1225664E2,5.8123553E2,1.24394966E2,4.3771832E2,2.133851E2,2.3835042E2,8.1803467E2,2.4661825E1,1.131865E1,1.9925508E2,1.3001571E1,1.1245456E2,4.68781E2,1.15396225E2,8.998743E0,1.2778643E2,3.0993192E2,1.4311511E2,7.026999E1,2.0943993E2,2.8910482E1,6.582821E2,1.5975255E2,1.2453095E1,1.220873E1,3.0429413E1,1.6882565E2,1.7597307E1,9.4857254E1,8.544133E1,3.8333966E2,4.5752064E1,6.9644165E1,4.87988E1,7.898763E1,7.959783E1,2.3033408E2,1.0441596E1,1.3267351E2,5.6026913E1,1.424308E1,2.4087194E1,1.8535274E2,2.0053062E1,8.857418E0,6.2447107E2,3.381099E1,6.743452E1,9.231803E1],"tree_param":{"num_deleted":"0","num_feature":"7","num_nodes":"57","size_leaf_vector":"0"}},{"base_weights":[1.3347956E-2,4.2552736E-2,-2.680765E-1,-2.8647354E-1,7.085031E-2,-3.8300025E-1,2.218819E-2,1.385435E-1,-3.7789077E-1,9.6776366E-2,-1.5631314E-1,4.978326E-2,-4.8866454E-1,1.4878103E-1,-1.18344456E-1,-2.812986E-1,1.7485778E-1,-5.1160544E-1,-1.9039E-2,5.037077E-1,7.631866E-2,-2.9976976E-1,1.2523533E-1,-7.593441E-2,3.448299E-1,-2.4751942E-1,-6.503963E-1,-4.5241334E-2,2.81735E-1,-1.6532892E-1,4.9796175E-2,-6.710105E-2,-1.6986842E-1,8.017528E-2,2.658888E-1,1.2302603E-2,7.5805396E-2,-6.012094E-2,-2.2674932E-1,5.5918034E-2,-8.581001E-2,1.757704E-1,-1.4334581E-2,1.9924536E-2,-1.1542765E-1,-1.7496875E-1,-6.5127737E-3,-4.0358976E-2,9.9562384E-2],"categories":[],"categories_nodes":[],"categories_segments":[],"categories_sizes":[],"default_left":[0,0,0,0,0,0,0,0,0,0,0,0,1,0,0,0,0,0,0,0,0,0,0,0,0,0,0,0,0,0,0,0,0,0,0,0,0,0,0,0,0,0,0,0,0,0,0,0,0],"id":23,"left_children":[1,3,5,7,9,11,13,15,17,19,21,23,25,27,-1,29,-1,31,-1,33,35,37,39,-1,41,43,45,-1,47,-1,-1,-1,-1,-1,-1,-1,-1,-1,-1,-1,-1,-1,-1,-1,-1,-1,-1,-1,-1],"loss_changes":[2.0490417E1,2.1046387E1,7.8277035E0,7.008708E0,1.2266637E1,7.705654E0,4.4718537E0,8.237133E0,5.852478E0,1.5510502E1,8.6599655E0,3.7684097E0,5.1081047E0,2.514945E0,0E0,4.060646E0,0E0,4.4343834E0,0E0,8.774828E0,1.0665112E1,4.2666893E0,3.8686228E0,0E0,3.0595562E0,4.349164E0,3.9136238E0,0E0,2.4518344E0,0E0,0E0,0E0,0E0,0E0,0E0,0E0,0E0,0E0,0E0,0E0,0E0,0E0,0E0,0E0,0E0,0E0,0E0,0E0,0E0],"parents":[2147483647,0,0,1,1,2,2,3,3,4,4,5,5,6,6,7,7,8,8,9,9,10,10,11,11,12,12,13,13,15,15,17,17,19,19,20,20,21,21,22,22,24,24,25,25,26,26,28,28],"right_children":[2,4,6,8,10,12,14,16,18,20,22,24,26,28,-1,30,-1,32,-1,34,36,38,40,-1,42,44,46,-1,48,-1,-1,-1,-1,-1,-1,-1,-1,-1,-1,-1,-1,-1,-1,-1,-1,-1,-1,-1,-1],"split_conditions":[6.3E1,3.0163977E-2,6.9662017E-1,1.1075484E-1,1.8621311E1,8.68463E-1,9.4E1,3.2E1,7.833835E-1,2.4112853E-1,9.143883E-1,4.4582427E-1,2.195395E0,6.7E1,-1.18344456E-1,1.4211026E-2,1.7485778E-1,9.1714114E-1,-1.9039E-2,4.4E1,7.7076393E-1,6.587367E-1,5.1E1,-7.593441E-2,7.4E1,4.1097313E-1,3.7244706E0,-4.5241334E-2,9.1627353E-1,-1.6532892E-1,4.9796175E-2,-6.710105E-2,-1.6986842E-1,8.017528E-2,2.658888E-1,1.2302603E-2,7.5805396E-2,-6.012094E-2,-2.2674932E-1,5.5918034E-2,-8.581001E-2,1.757704E-1,-1.4334581E-2,1.9924536E-2,-1.1542765E-1,-1.7496875E-1,-6.5127737E-3,-4.0358976E-2,9.9562384E-2],"split_indices":[5,2,2,4,1,0,5,5,4,4,0,4,1,5,0,2,0,0,0,5,2,2,5,0,5,2,1,0,0,0,0,0,0,0,0,0,0,0,0,0,0,0,0,0,0,0,0,0,0],"split_type":[0,0,0,0,0,0,0,0,0,0,0,0,0,0,0,0,0,0,0,0,0,0,0,0,0,0,0,0,0,0,0,0,0,0,0,0,0,0,0,0,0,0,0,0,0,0,0,0,0],"sum_hessian":[2.4906853E3,2.2572847E3,2.3340057E2,1.7803879E2,2.0792458E3,1.6697221E2,6.642836E1,3.1424498E1,1.4661429E2,1.8667667E3,2.1247922E2,3.287019E1,1.3410204E2,5.389828E1,1.2530082E1,1.8665865E1,1.2758633E1,1.00769714E2,4.5844574E1,8.822529E1,1.7785414E3,1.4071591E2,7.1763306E1,1.4634832E1,1.8235355E1,5.4850033E1,7.9252E1,1.5120855E1,3.8777428E1,9.955283E0,8.710581E0,4.7278988E1,5.3490726E1,7.009586E1,1.8129429E1,1.611208E3,1.6733333E2,1.3202069E2,8.695223E0,5.909142E1,1.267189E1,8.899622E0,9.335733E0,2.2969421E1,3.1880611E1,7.0221985E1,9.030015E0,8.793295E0,2.998413E1],"tree_param":{"num_deleted":"0","num_feature":"7","num_nodes":"49","size_leaf_vector":"0"}},{"base_weights":[-3.2665152E-2,1.887587E-2,-1.8712558E-1,2.5200281E-2,-2.590272E-1,4.595639E-2,-3.17532E-1,-1.14595525E-1,6.488983E-2,-3.2143872E-2,5.7744247E-1,-3.7767977E-1,8.032316E-2,-2.8702027E-1,1.4491472E-1,8.7362975E-2,-3.2357797E-1,3.6788344E-1,-1.3951947E-1,1.8436733E-1,3.285192E-2,-4.718821E-1,4.1043464E-2,2.2695723E-1,-1.3162719E-1,-2.102236E-2,-1.122239E-1,-1.1069267E-1,5.871669E-2,4.3081988E-2,2.19303E-3,-9.862269E-2,6.766326E-2,2.2176524E-4,1.4254771E-1,5.4549474E-2,-6.539238E-2,-7.689786E-2,-1.4234938E-1,6.664785E-2,-4.745727E-2,-4.94595E-2,1.08743854E-1],"categories":[],"categories_nodes":[],"categories_segments":[],"categories_sizes":[],"default_left":[0,0,0,0,0,0,1,0,0,0,0,0,0,0,0,0,0,0,0,0,0,1,0,0,0,0,0,0,0,0,0,0,0,0,0,0,0,0,0,0,0,0,0],"id":24,"left_children":[1,3,5,7,-1,9,11,13,15,17,19,21,23,25,27,29,31,33,35,-1,-1,37,39,41,-1,-1,-1,-1,-1,-1,-1,-1,-1,-1,-1,-1,-1,-1,-1,-1,-1,-1,-1],"loss_changes":[1.9549091E1,1.2818742E1,1.8688404E1,1.0173366E1,0E0,9.203918E0,9.460678E0,1.8186941E1,1.2492195E1,8.379134E0,2.281866E0,1.3529221E1,4.9720654E0,8.745165E0,9.939402E0,9.732235E0,4.256647E0,3.4258733E0,7.551409E0,0E0,0E0,4.9462013E0,3.6614816E0,4.337782E0,0E0,0E0,0E0,0E0,0E0,0E0,0E0,0E0,0E0,0E0,0E0,0E0,0E0,0E0,0E0,0E0,0E0,0E0,0E0],"parents":[2147483647,0,0,1,1,2,2,3,3,5,5,6,6,7,7,8,8,9,9,10,10,11,11,12,12,13,13,14,14,15,15,16,16,17,17,18,18,21,21,22,22,23,23],"right_children":[2,4,6,8,-1,10,12,14,16,18,20,22,24,26,28,30,32,34,36,-1,-1,38,40,42,-1,-1,-1,-1,-1,-1,-1,-1,-1,-1,-1,-1,-1,-1,-1,-1,-1,-1,-1],"split_conditions":[9.7821665E-1,2E0,2.0757163E0,2.5559723E-1,-2.590272E-1,6.09905E-1,3.414325E0,2.5160426E-1,7E1,3.7125036E-1,5.46996E-1,5.711692E-1,5.7E1,8.357542E-1,7.040074E-1,2.4636366E0,7.9933065E-1,1.7848359E0,1.8860248E0,1.8436733E-1,3.285192E-2,2.319873E0,4.9863788E-1,3.7295744E-1,-1.3162719E-1,-2.102236E-2,-1.122239E-1,-1.1069267E-1,5.871669E-2,4.3081988E-2,2.19303E-3,-9.862269E-2,6.766326E-2,2.2176524E-4,1.4254771E-1,5.4549474E-2,-6.539238E-2,-7.689786E-2,-1.4234938E-1,6.664785E-2,-4.745727E-2,-4.94595E-2,1.08743854E-1],"split_indices":[0,3,1,6,0,6,1,2,5,6,2,2,5,0,0,1,2,1,1,0,0,1,6,6,0,0,0,0,0,0,0,0,0,0,0,0,0,0,0,0,0,0,0],"split_type":[0,0,0,0,0,0,0,0,0,0,0,0,0,0,0,0,0,0,0,0,0,0,0,0,0,0,0,0,0,0,0,0,0,0,0,0,0,0,0,0,0,0,0],"sum_hessian":[2.4541487E3,1.8407853E3,6.133634E2,1.8312162E3,9.5691395E0,2.2028484E2,3.9307858E2,4.0451904E2,1.4266971E3,1.9288107E2,2.7403767E1,3.4150113E2,5.1577446E1,2.4297484E2,1.6154422E2,1.349408E3,7.72891E1,4.0303696E1,1.5257738E2,1.8604603E1,8.799164E0,2.7867844E2,6.2822704E1,4.2342003E1,9.235443E0,1.16167534E2,1.268073E2,2.2313723E1,1.392305E2,6.189835E2,7.304245E2,6.7825966E1,9.46314E0,1.5746825E1,2.455687E1,4.040085E1,1.1217652E2,1.2551106E2,1.5316737E2,3.146997E1,3.1352736E1,1.4556516E1,2.7785486E1],"tree_param":{"num_deleted":"0","num_feature":"7","num_nodes":"43","size_leaf_vector":"0"}},{"base_weights":[-1.8548455E-2,1.5435578E-2,-1.5505935E-1,-1.5983154E-1,5.8122825E-2,-3.2670113E-1,-1.7513301E-2,-2.583891E-1,1.2531322E-1,2.3901556E-1,1.5256138E-3,7.383071E-2,-4.6618122E-1,8.468333E-2,-2.3857762E-1,-3.556605E-1,2.152238E-2,1.5186357E-2,1.5784559E-1,-1.1411595E-2,3.537369E-1,-8.099549E-2,3.49775E-2,-2.4785072E-1,4.9498183E-1,-5.327515E-1,3.4266744E-2,-1.1001353E-1,2.604082E-1,-1.00373395E-1,-6.69658E-1,6.5695204E-2,-1.0511741E-1,6.726287E-2,-5.682851E-2,-4.001757E-2,4.8932947E-2,1.7238584E-1,6.80695E-2,9.997179E-2,5.171581E-4,-1.438977E-1,1.2529218E-2,-1.4240691E-2,1.9301565E-1,-9.420446E-2,-1.6267931E-1,1.9438721E-2,-9.396973E-2,1.654728E-1,2.2625197E-2,-4.5682386E-2,7.5007424E-2,-2.2746658E-1,-6.579619E-2],"categories":[],"categories_nodes":[],"categories_segments":[],"categories_sizes":[],"default_left":[0,0,0,0,0,0,0,0,0,0,0,0,0,0,0,0,0,0,0,0,0,0,0,0,0,0,0,0,0,0,0,0,0,0,0,0,0,0,0,0,0,0,0,0,0,0,0,0,0,0,0,0,0,0,0],"id":25,"left_children":[1,3,5,7,9,11,13,15,17,19,21,23,25,27,29,31,33,-1,-1,35,37,-1,39,41,43,45,-1,47,49,51,53,-1,-1,-1,-1,-1,-1,-1,-1,-1,-1,-1,-1,-1,-1,-1,-1,-1,-1,-1,-1,-1,-1,-1,-1],"loss_changes":[1.12359295E1,1.452146E1,1.1391272E1,1.0716196E1,1.5976404E1,1.2028847E1,6.0985293E0,7.708702E0,3.2056599E0,1.0688206E1,1.3502841E1,7.752458E0,6.5371513E0,6.3487625E0,5.0158663E0,1.0999218E1,5.004416E0,0E0,0E0,3.9737413E0,6.3159676E0,0E0,1.3571603E1,3.4713748E0,4.285642E0,2.6612816E0,0E0,4.7819104E0,6.877355E0,2.5032516E0,1.9991474E0,0E0,0E0,0E0,0E0,0E0,0E0,0E0,0E0,0E0,0E0,0E0,0E0,0E0,0E0,0E0,0E0,0E0,0E0,0E0,0E0,0E0,0E0,0E0,0E0],"parents":[2147483647,0,0,1,1,2,2,3,3,4,4,5,5,6,6,7,7,8,8,9,9,10,10,11,11,12,12,13,13,14,14,15,15,16,16,19,19,20,20,22,22,23,23,24,24,25,25,27,27,28,28,29,29,30,30],"right_children":[2,4,6,8,10,12,14,16,18,20,22,24,26,28,30,32,34,-1,-1,36,38,-1,40,42,44,46,-1,48,50,52,54,-1,-1,-1,-1,-1,-1,-1,-1,-1,-1,-1,-1,-1,-1,-1,-1,-1,-1,-1,-1,-1,-1,-1,-1],"split_conditions":[1E0,2.607069E-1,2.9919437E-1,6.8224263E-1,6.1299473E-1,4.3001902E-1,5.2333415E-1,3.4467298E-1,5.4E1,2.4E1,7.836159E-2,9.0931915E-2,6.251641E-1,8.460386E-1,9.9548984E-1,5.9590094E-2,5.1664954E-1,1.5186357E-2,1.5784559E-1,8.768762E-1,1.2321551E-1,-8.099549E-2,3.3570722E-1,4.0952998E-1,8.5700643E-1,7.981908E-1,3.4266744E-2,5.791729E-1,3.8592353E-1,9.839828E-1,5.8588266E-1,6.5695204E-2,-1.0511741E-1,6.726287E-2,-5.682851E-2,-4.001757E-2,4.8932947E-2,1.7238584E-1,6.80695E-2,9.997179E-2,5.171581E-4,-1.438977E-1,1.2529218E-2,-1.4240691E-2,1.9301565E-1,-9.420446E-2,-1.6267931E-1,1.9438721E-2,-9.396973E-2,1.654728E-1,2.2625197E-2,-4.5682386E-2,7.5007424E-2,-2.2746658E-1,-6.579619E-2],"split_indices":[3,6,2,4,4,4,6,2,5,5,2,2,6,4,0,6,2,0,0,0,4,0,6,6,0,4,0,2,6,0,6,0,0,0,0,0,0,0,0,0,0,0,0,0,0,0,0,0,0,0,0,0,0,0,0],"split_type":[0,0,0,0,0,0,0,0,0,0,0,0,0,0,0,0,0,0,0,0,0,0,0,0,0,0,0,0,0,0,0,0,0,0,0,0,0,0,0,0,0,0,0,0,0,0,0,0,0,0,0,0,0,0,0],"sum_hessian":[2.4204429E3,1.9386964E3,4.817465E2,3.791641E2,1.5595323E3,2.1369914E2,2.6804736E2,2.8184195E2,9.732213E1,3.7089047E2,1.1886418E3,5.5318085E1,1.5838106E2,1.83728E2,8.431936E1,2.089571E2,7.288485E1,8.816707E1,9.155064E0,1.1680827E2,2.540822E2,1.0594001E2,1.0827019E3,3.159605E1,2.3722034E1,1.4288615E2,1.54949045E1,8.733637E1,9.6391624E1,6.4782845E1,1.9536516E1,2.3902357E1,1.8505475E2,3.6369537E1,3.6515316E1,6.7985435E1,4.8822838E1,3.9495E1,2.145872E2,8.4830894E1,9.97871E2,1.408616E1,1.750989E1,8.7844305E0,1.4937605E1,7.45408E1,6.834535E1,5.2457634E1,3.4878735E1,2.6026344E1,7.036528E1,5.3635036E1,1.1147804E1,1.0650652E1,8.885864E0],"tree_param":{"num_deleted":"0","num_feature":"7","num_nodes":"55","size_leaf_vector":"0"}},{"base_weights":[1.5554387E-2,1.5754928E-1,-9.854335E-2,2.1354984E-1,-1.0772328E-1,-2.1167455E-2,-4.2739353E-1,-7.344313E-2,2.795593E-1,1.3634232E-1,-4.5477554E-1,2.8054476E-2,-3.8840646E-1,-5.7972234E-1,1.50444405E-2,-2.7235404E-1,1.8673581E-1,5.353428E-1,1.7145674E-1,1.5701373E-1,2.4893934E-2,6.365066E-2,-6.004881E-1,2.651186E-1,-6.800547E-2,-7.398718E-1,1.635381E-1,-6.94863E-1,4.045563E-3,-1.0330007E-1,1.2856264E-1,-1.5328167E-1,-3.2459345E-2,7.8660525E-2,-2.3092544E-2,3.6307134E-2,1.633305E-1,8.226512E-2,1.0410811E-2,-1.056576E-1,5.2966814E-2,-1.7388406E-1,-1.4900676E-2,1.17729105E-1,2.4149038E-2,-3.0710598E-2,5.6712445E-2,-2.2243147E-1,-7.0528863E-3,9.772496E-2,-1.8204339E-2,-1.8007682E-1,-5.3225234E-2,-1.133568E-1,1.8422878E-1,1.5718254E-4,-1.4814754E-1],"categories":[],"categories_nodes":[],"categories_segments":[],"categories_sizes":[],"default_left":[0,0,0,0,0,0,0,0,0,0,0,0,0,1,1,0,0,0,0,0,0,0,0,0,0,0,0,0,0,1,0,0,0,0,0,0,0,0,0,0,0,0,0,0,0,0,0,0,0,0,0,0,0,0,0,0,0],"id":26,"left_children":[1,3,5,7,9,11,13,15,17,19,21,23,25,27,29,31,33,35,37,-1,39,-1,41,43,45,47,49,51,53,55,-1,-1,-1,-1,-1,-1,-1,-1,-1,-1,-1,-1,-1,-1,-1,-1,-1,-1,-1,-1,-1,-1,-1,-1,-1,-1,-1],"loss_changes":[4.179836E1,1.7097904E1,3.6392033E1,1.800602E1,1.708874E1,2.0963724E1,1.836987E1,9.279486E0,2.1256542E1,6.8398085E0,8.89076E0,2.331578E1,2.671055E1,1.3626495E1,4.414523E0,5.0097976E0,3.1380668E0,1.2661575E1,1.1925243E1,0E0,9.094456E0,0E0,4.5977306E0,1.0897594E1,1.3328058E1,1.1118427E1,3.188945E0,4.275444E0,1.2869977E1,3.1252947E0,0E0,0E0,0E0,0E0,0E0,0E0,0E0,0E0,0E0,0E0,0E0,0E0,0E0,0E0,0E0,0E0,0E0,0E0,0E0,0E0,0E0,0E0,0E0,0E0,0E0,0E0,0E0],"parents":[2147483647,0,0,1,1,2,2,3,3,4,4,5,5,6,6,7,7,8,8,9,9,10,10,11,11,12,12,13,13,14,14,15,15,16,16,17,17,18,18,20,20,22,22,23,23,24,24,25,25,26,26,27,27,28,28,29,29],"right_children":[2,4,6,8,10,12,14,16,18,20,22,24,26,28,30,32,34,36,38,-1,40,-1,42,44,46,48,50,52,54,56,-1,-1,-1,-1,-1,-1,-1,-1,-1,-1,-1,-1,-1,-1,-1,-1,-1,-1,-1,-1,-1,-1,-1,-1,-1,-1,-1],"split_conditions":[2.336517E0,9.472539E-1,9.753512E-1,2.5559723E-1,2.0706565E0,8.696602E-1,3.334957E-1,2.894901E-1,2.8320444E-1,2.2888556E-1,4.397396E-1,2.7270665E0,3.7286112E-1,3.3838394E0,5.594292E0,4.5427456E-1,1.9988087E0,7.345418E-1,2.007621E0,1.5701373E-1,5.319708E-1,6.365066E-2,6.587367E-1,1.523123E-1,3.277296E-1,5.5468446E-1,4.9693614E-1,5.910439E-1,9.152314E-1,3.919805E0,1.2856264E-1,-1.5328167E-1,-3.2459345E-2,7.8660525E-2,-2.3092544E-2,3.6307134E-2,1.633305E-1,8.226512E-2,1.0410811E-2,-1.056576E-1,5.2966814E-2,-1.7388406E-1,-1.4900676E-2,1.17729105E-1,2.4149038E-2,-3.0710598E-2,5.6712445E-2,-2.2243147E-1,-7.0528863E-3,9.772496E-2,-1.8204339E-2,-1.8007682E-1,-5.3225234E-2,-1.133568E-1,1.8422878E-1,1.5718254E-4,-1.4814754E-1],"split_indices":[1,4,0,6,1,4,2,2,2,2,6,1,2,1,1,4,1,4,1,0,2,0,2,2,2,6,6,6,4,1,0,0,0,0,0,0,0,0,0,0,0,0,0,0,0,0,0,0,0,0,0,0,0,0,0,0,0],"split_type":[0,0,0,0,0,0,0,0,0,0,0,0,0,0,0,0,0,0,0,0,0,0,0,0,0,0,0,0,0,0,0,0,0,0,0,0,0,0,0,0,0,0,0,0,0,0,0,0,0,0,0,0,0,0,0,0,0],"sum_hessian":[2.5779807E3,1.148406E3,1.4295747E3,9.483903E2,2.0001567E2,1.1581381E3,2.7143658E2,1.773226E2,7.7106775E2,1.1778802E2,8.2227646E1,1.02207104E3,1.3606705E2,2.0168672E2,6.9749855E1,1.0046711E2,7.6855484E1,2.278932E2,5.4317456E2,1.9996677E1,9.7791336E1,1.370234E1,6.852531E1,2.942178E2,7.278533E2,8.292309E1,5.3143963E1,1.6830118E2,3.338554E1,5.7484673E1,1.2265183E1,2.636563E1,7.410148E1,5.1187042E1,2.5668447E1,6.308151E1,1.6481169E2,2.3164943E2,3.1152512E2,2.8600714E1,6.919062E1,5.5414165E1,1.3111143E1,1.2328801E2,1.709298E2,6.085373E2,1.1931597E2,6.54096E1,1.7513487E1,2.5990274E1,2.7153688E1,1.501179E2,1.8183268E1,2.079423E1,1.259131E1,4.8644775E1,8.839895E0],"tree_param":{"num_deleted":"0","num_feature":"7","num_nodes":"57","size_leaf_vector":"0"}},