{"learner":{"attributes":{"best_iteration":"149","best_ntree_limit":"150"},"feature_names":["shrMCSMom","DeltaRMS2h","shr_distance","secondshower_V_vtxdist","shr_trkfit_gap10_dedx_max","secondshower_V_anglediff","secondshower_V_dot","shr2_trackEndProximity","secondshower_V_nhit","shrmoliereavg","shrsubclusters","secondshower_U_dot","secondshower_U_anglediff","secondshower_U_nhit","shr_energy_second_cali","shr12_p1_dstart","shr_energyFraction","shrPCA1CMed_5cm","secondshower_Y_anglediff","CylFrac2h_1cm","n_showers_contained","shr2_pfpgeneration","shr2_distance","shr_trkfit_2cm_dedx_max","secondshower_Y_vtxdist","secondshower_Y_dot","secondshower_Y_nhit","secondshower_U_vtxdist"],"feature_types":["float","float","float","float","float","float","float","float","float","float","float","float","float","float","float","float","float","float","float","float","float","float","float","float","float","float","float","float"],"gradient_booster":{"gbtree":{"model":{"gbtree_model_param":{"num_parallel_tree":"1","num_trees":"150","size_leaf_vector":"0"},"tree_info":[0,0,0,0,0,0,0,0,0,0,0,0,0,0,0,0,0,0,0,0,0,0,0,0,0,0,0,0,0,0,0,0,0,0,0,0,0,0,0,0,0,0,0,0,0,0,0,0,0,0,0,0,0,0,0,0,0,0,0,0,0,0,0,0,0,0,0,0,0,0,0,0,0,0,0,0,0,0,0,0,0,0,0,0,0,0,0,0,0,0,0,0,0,0,0,0,0,0,0,0,0,0,0,0,0,0,0,0,0,0,0,0,0,0,0,0,0,0,0,0,0,0,0,0,0,0,0,0,0,0,0,0,0,0,0,0,0,0,0,0,0,0,0,0,0,0,0,0,0,0],"trees":[{"base_weights":[6.973567E-3,7.681417E-1,-7.4814177E-1,1.1007576E0,-5.8929193E-1,-8.0617644E-2,-1.1452769E0,1.5414098E-1,1.3487538E0,2.520949E-1,-1.087265E0,3.6373132E-1,-5.7169527E-1,-6.444985E-1,-1.427255E0,9.675999E-1,-1.123496E-1,1.6632639E0,7.3735654E-1,-3.6788553E-1,5.6291926E-1,-1.4027102E0,-2.4058597E-1,-6.202021E-1,6.194665E-1,-1.0197784E0,-3.288694E-1,1.5865806E-1,-8.9934635E-1,-1.6057268E0,-1.1020596E0,1.3924065E0,2.6909128E-1,-5.1013786E-1,8.0691564E-1,1.2744187E0,1.7322118E0,1.4639105E0,4.732574E-1,2.6664287E-1,-6.6953206E-1,1.0959504E0,2.1953034E-1,-4.3990293E-1,-1.5965581E0,-7.7098143E-1,6.358274E-2,3.550657E-1,-8.9399105E-1,9.708045E-1,-6.737548E-2,-2.4755666E-1,-1.1639184E0,1.432633E-1,-7.1471715E-1,-9.313363E-1,4.453448E-1,-1.415961E0,-6.778835E-1,-1.2453679E0,-1.7227111E0,-8.173454E-1,-1.4028432E0,7.311677E-2,-1.3011045E-2,2.5984365E-2,-4.42294E-2,-5.039728E-3,-4.0006842E-2,6.03436E-2,8.00437E-3,7.652357E-2,4.649191E-2,9.100904E-2,7.945093E-2,7.570839E-2,4.224669E-3,2.5236147E-4,4.7909264E-2,2.7855212E-2,-4.571475E-2,-4.7183342E-2,6.325373E-3,6.260997E-2,1.6076319E-2,-2.5013445E-2,2.2687739E-2,-4.398044E-2,1.8134546E-2,-8.6387925E-2,-5.302539E-2,2.9018147E-2,-5.4332584E-2,5.1563717E-2,-5.7923933E-3,-3.6468472E-2,4.294035E-2,-5.664273E-2,-6.159656E-3,5.6127436E-2,1.5039258E-2,-3.6410034E-2,1.5306215E-2,5.4110408E-2,-2.5169272E-2,-3.1358454E-2,-6.22495E-2,-1.1673535E-2,1.8677149E-2,-5.5800613E-2,-2.0861246E-2,-1.9031907E-2,-6.553807E-2,4.37602E-2,-1.2652372E-2,-3.6629103E-2,-7.470173E-2,-4.773045E-2,-1.22682145E-2,-4.9644824E-2,-7.7884674E-2,-7.701425E-2,-8.987047E-2,-2.7011126E-2,-6.502215E-2,-8.606564E-2,-5.9859492E-2],"categories":[],"categories_nodes":[],"categories_segments":[],"categories_sizes":[],"default_left":[0,0,0,0,0,0,0,1,1,0,0,0,0,0,0,1,0,1,0,0,0,0,0,1,0,0,0,0,1,0,0,0,0,0,0,0,0,0,0,0,1,1,0,0,0,0,0,1,0,0,1,0,0,0,1,0,0,0,0,0,0,1,1,0,0,0,0,0,0,0,0,0,0,0,0,0,0,0,0,0,0,0,0,0,0,0,0,0,0,0,0,0,0,0,0,0,0,0,0,0,0,0,0,0,0,0,0,0,0,0,0,0,0,0,0,0,0,0,0,0,0,0,0,0,0,0,0],"id":0,"left_children":[1,3,5,7,9,11,13,15,17,19,21,23,25,27,29,31,33,35,37,39,41,43,45,47,49,51,53,55,57,59,61,63,65,67,69,71,73,75,77,79,81,83,85,87,89,91,93,95,97,99,101,103,105,107,109,111,113,115,117,119,121,123,125,-1,-1,-1,-1,-1,-1,-1,-1,-1,-1,-1,-1,-1,-1,-1,-1,-1,-1,-1,-1,-1,-1,-1,-1,-1,-1,-1,-1,-1,-1,-1,-1,-1,-1,-1,-1,-1,-1,-1,-1,-1,-1,-1,-1,-1,-1,-1,-1,-1,-1,-1,-1,-1,-1,-1,-1,-1,-1,-1,-1,-1,-1,-1,-1],"loss_changes":[5.93911E3,2.3240364E3,1.3750046E3,9.7015674E2,4.248783E2,4.2265424E2,4.5831543E2,1.863698E2,6.285752E2,7.297153E1,1.6974219E2,2.5627515E2,9.9768005E1,2.4031314E2,1.1893848E2,6.2570007E1,2.3740186E2,5.5753906E1,2.1312714E2,2.4428423E1,4.5866325E1,8.585083E1,2.813033E1,5.6468285E1,1.9496451E2,3.5650024E1,1.0906715E2,8.900134E1,1.0096777E2,5.4371094E1,6.22381E1,1.5596802E1,2.4010426E1,5.36902E1,5.054631E1,2.7639282E1,2.0204102E1,2.0433594E1,1.8588779E2,1.4757552E1,1.8920837E1,1.1509636E1,2.626704E1,2.8234356E1,2.5290222E1,2.7724998E1,1.9487629E1,2.6197716E1,3.014354E1,5.3995422E1,6.7915436E1,1.8253988E1,1.1047241E1,2.3495941E1,3.8848846E1,1.1903973E1,6.7807915E1,1.3118774E1,7.4630585E1,2.4645752E1,1.0987793E1,5.052295E1,2.1420532E1,0E0,0E0,0E0,0E0,0E0,0E0,0E0,0E0,0E0,0E0,0E0,0E0,0E0,0E0,0E0,0E0,0E0,0E0,0E0,0E0,0E0,0E0,0E0,0E0,0E0,0E0,0E0,0E0,0E0,0E0,0E0,0E0,0E0,0E0,0E0,0E0,0E0,0E0,0E0,0E0,0E0,0E0,0E0,0E0,0E0,0E0,0E0,0E0,0E0,0E0,0E0,0E0,0E0,0E0,0E0,0E0,0E0,0E0,0E0,0E0,0E0,0E0,0E0,0E0],"parents":[2147483647,0,0,1,1,2,2,3,3,4,4,5,5,6,6,7,7,8,8,9,9,10,10,11,11,12,12,13,13,14,14,15,15,16,16,17,17,18,18,19,19,20,20,21,21,22,22,23,23,24,24,25,25,26,26,27,27,28,28,29,29,30,30,31,31,32,32,33,33,34,34,35,35,36,36,37,37,38,38,39,39,40,40,41,41,42,42,43,43,44,44,45,45,46,46,47,47,48,48,49,49,50,50,51,51,52,52,53,53,54,54,55,55,56,56,57,57,58,58,59,59,60,60,61,61,62,62],"right_children":[2,4,6,8,10,12,14,16,18,20,22,24,26,28,30,32,34,36,38,40,42,44,46,48,50,52,54,56,58,60,62,64,66,68,70,72,74,76,78,80,82,84,86,88,90,92,94,96,98,100,102,104,106,108,110,112,114,116,118,120,122,124,126,-1,-1,-1,-1,-1,-1,-1,-1,-1,-1,-1,-1,-1,-1,-1,-1,-1,-1,-1,-1,-1,-1,-1,-1,-1,-1,-1,-1,-1,-1,-1,-1,-1,-1,-1,-1,-1,-1,-1,-1,-1,-1,-1,-1,-1,-1,-1,-1,-1,-1,-1,-1,-1,-1,-1,-1,-1,-1,-1,-1,-1,-1,-1,-1],"split_conditions":[5.746782E0,3.4937978E0,2.9778888E0,3E0,3.074327E0,2.1199963E0,1.7304649E0,2.4345882E0,2.949264E0,9.4434994E-1,5.4357753E0,3E0,9.5396805E-1,2.841488E0,5.083045E0,3.019479E0,5.3473408E1,2.40345E1,2.886029E0,3.4784338E0,4.9128137E0,2.9820166E0,9.4813716E-1,2.4345882E0,9.159458E0,6.7738414E0,8.480372E0,3E0,5.8139535E-3,3.3358905E0,9.024452E0,2.623837E-1,3.3E1,2.4347064E0,3.3732157E0,9.6696097E-1,4.0880094E0,9.1E1,5.2290573E0,3.4E1,1.1886704E2,9.8359615E-1,2.8415949E1,2.9E1,5.267873E0,2.619223E0,9.938934E0,2.0576132E-2,5.7325485E1,3E1,7.444169E-3,7E0,2.9064877E0,4.4577732E1,1.6853932E-2,7.7787786E0,8.915197E0,6.8287945E0,5.6614227E0,5.3300767E0,3.5567808E0,1.6896723E-2,4.0983604E-3,7.311677E-2,-1.3011045E-2,2.5984365E-2,-4.42294E-2,-5.039728E-3,-4.0006842E-2,6.03436E-2,8.00437E-3,7.652357E-2,4.649191E-2,9.100904E-2,7.945093E-2,7.570839E-2,4.224669E-3,2.5236147E-4,4.7909264E-2,2.7855212E-2,-4.571475E-2,-4.7183342E-2,6.325373E-3,6.260997E-2,1.6076319E-2,-2.5013445E-2,2.2687739E-2,-4.398044E-2,1.8134546E-2,-8.6387925E-2,-5.302539E-2,2.9018147E-2,-5.4332584E-2,5.1563717E-2,-5.7923933E-3,-3.6468472E-2,4.294035E-2,-5.664273E-2,-6.159656E-3,5.6127436E-2,1.5039258E-2,-3.6410034E-2,1.5306215E-2,5.4110408E-2,-2.5169272E-2,-3.1358454E-2,-6.22495E-2,-1.1673535E-2,1.8677149E-2,-5.5800613E-2,-2.0861246E-2,-1.9031907E-2,-6.553807E-2,4.37602E-2,-1.2652372E-2,-3.6629103E-2,-7.470173E-2,-4.773045E-2,-1.22682145E-2,-4.9644824E-2,-7.7884674E-2,-7.701425E-2,-8.987047E-2,-2.7011126E-2,-6.502215E-2,-8.606564E-2,-5.9859492E-2],"split_indices":[9,2,23,21,23,2,2,22,4,16,23,21,16,4,23,4,22,24,23,9,2,4,16,22,9,7,9,21,19,4,9,14,26,23,4,25,9,26,23,13,15,6,3,10,4,9,12,19,22,26,19,8,22,24,19,9,9,9,4,2,2,14,19,0,0,0,0,0,0,0,0,0,0,0,0,0,0,0,0,0,0,0,0,0,0,0,0,0,0,0,0,0,0,0,0,0,0,0,0,0,0,0,0,0,0,0,0,0,0,0,0,0,0,0,0,0,0,0,0,0,0,0,0,0,0,0,0],"split_type":[0,0,0,0,0,0,0,0,0,0,0,0,0,0,0,0,0,0,0,0,0,0,0,0,0,0,0,0,0,0,0,0,0,0,0,0,0,0,0,0,0,0,0,0,0,0,0,0,0,0,0,0,0,0,0,0,0,0,0,0,0,0,0,0,0,0,0,0,0,0,0,0,0,0,0,0,0,0,0,0,0,0,0,0,0,0,0,0,0,0,0,0,0,0,0,0,0,0,0,0,0,0,0,0,0,0,0,0,0,0,0,0,0,0,0,0,0,0,0,0,0,0,0,0,0,0,0],"sum_hessian":[1.0331025E4,5.1448843E3,5.1861416E3,4.1324795E3,1.0124045E3,1.9349636E3,3.251178E3,8.582205E2,3.274259E3,3.7659488E2,6.3580963E2,1.0159479E3,9.190157E2,1.1723794E3,2.0787986E3,2.1112708E2,6.470935E2,2.1609302E3,1.1133289E3,1.2569531E2,2.5089955E2,4.62748E2,1.7306161E2,2.0928912E2,8.0665875E2,3.2187137E2,5.971443E2,2.824889E2,8.8989044E2,1.3396451E3,7.391534E2,1.3066696E2,8.04601E1,4.5196317E2,1.9513031E2,3.2839108E2,1.8325392E3,2.9559225E2,8.177366E2,4.053789E1,8.5157425E1,9.744593E1,1.5345363E2,7.810151E1,3.8464648E2,6.2515404E1,1.105462E2,4.581038E1,1.6347874E2,5.33398E2,2.7326077E2,5.105653E1,2.7081485E2,2.6882825E2,3.2831607E2,5.8358593E1,2.2413031E2,2.6539648E2,6.2449396E2,3.3116574E2,1.0084794E3,3.816297E2,3.575237E2,1.25472885E2,5.194085E0,6.655329E1,1.3906808E1,1.8797612E2,2.6398706E2,1.20039734E2,7.509057E1,1.8642204E2,1.4196902E2,1.1279114E3,7.046278E2,2.8510703E2,1.0485212E1,4.1655374E2,4.0118283E2,3.2959488E1,7.578404E0,6.3205635E1,2.1951786E1,8.057255E1,1.6873383E1,3.739587E1,1.1605776E2,5.039587E1,2.7705637E1,3.0722812E2,7.741836E1,1.1679297E1,5.0836105E1,1.6548828E1,9.3997375E1,1.438817E1,3.142221E1,1.244447E2,3.9034042E1,4.343518E2,9.90462E1,9.833287E1,1.749279E2,7.7165737E0,4.3339954E1,3.6683147E1,2.341317E2,1.0197874E2,1.668495E2,1.386015E2,1.8971457E2,2.4623383E1,3.373521E1,1.3858086E2,8.5549446E1,2.827634E1,2.3712015E2,3.800995E2,2.4439449E2,1.8544147E2,1.4572427E2,2.992583E2,7.0922107E2,2.4386044E2,1.3776926E2,1.3739201E2,2.201317E2],"tree_param":{"num_deleted":"0","num_feature":"28","num_nodes":"127","size_leaf_vector":"0"}},{"base_weights":[4.122554E-3,6.556609E-1,-7.907302E-1,1.0600367E0,-4.4879594E-1,-1.869881E-1,-1.1412137E0,1.0282653E-1,1.2954669E0,3.8336393E-1,-9.554484E-1,1.5320611E-1,-7.007994E-1,-7.285334E-1,-1.4215989E0,8.863025E-1,-1.8621361E-1,1.5824982E0,6.939977E-1,-2.3257872E-1,7.0118916E-1,-1.2566235E0,-1.8664263E-1,-7.257294E-1,4.0234837E-1,-4.292925E-1,-1.0743251E0,-1.6448695E-2,-9.342112E-1,-1.5502836E0,-1.0995351E0,1.2550179E0,2.8975326E-1,-5.151102E-1,9.485853E-1,1.1635406E0,1.644686E0,1.3729154E0,4.5995662E-1,8.2749045E-1,-4.3384847E-1,1.0500305E0,2.4479394E-1,-4.7707972E-1,-1.4274511E0,2.0595068E-1,-7.639853E-1,4.177662E-2,-9.2704135E-1,7.631358E-1,-4.8395675E-2,-1.1823795E0,-2.2950502E-1,-1.468643E0,-6.984751E-1,-1.0182524E0,2.537836E-1,-1.3257443E0,-6.469677E-1,-1.1972761E0,-1.6647618E0,-9.651024E-1,-1.5884591E0,-1.8517299E-2,6.627483E-2,5.878949E-2,2.3438477E-4,-8.735829E-3,-4.0793028E-2,6.10799E-2,1.3272154E-2,7.059166E-2,4.2777356E-2,8.580785E-2,7.1935534E-2,5.0139613E-2,7.672082E-2,-5.50542E-3,4.420161E-2,-2.6143214E-2,5.6015022E-2,1.0104711E-2,-3.652603E-2,3.33956E-2,6.508618E-2,2.8347775E-2,-6.242024E-3,-5.589133E-3,-5.5634387E-2,-7.842988E-2,-4.6362292E-2,2.296207E-2,-2.0812683E-2,1.1397469E-2,-4.879928E-2,3.9299797E-2,-3.9150786E-2,-5.4024596E-2,-1.4994994E-2,4.906468E-2,1.2395587E-2,-2.6515339E-2,1.217598E-2,-6.738605E-2,1.1541169E-2,2.042832E-3,-3.8247447E-2,-8.7984055E-2,-6.263726E-2,-6.124982E-2,-2.5924906E-2,4.830669E-3,-5.716473E-2,3.9742116E-2,-5.6140376E-3,-5.07403E-2,-7.691692E-2,-4.5207024E-2,-9.543439E-3,-4.82853E-2,-7.701991E-2,-8.605596E-2,-7.219112E-2,-6.538313E-2,-3.6147296E-2,-8.199486E-2,-3.1617355E-2],"categories":[],"categories_nodes":[],"categories_segments":[],"categories_sizes":[],"default_left":[0,0,0,0,0,0,0,1,1,0,0,0,0,0,0,1,0,0,0,0,0,0,1,0,0,0,1,0,1,1,1,0,0,0,0,0,0,0,0,0,0,0,0,0,0,0,0,0,0,0,1,1,0,0,0,0,0,0,0,0,0,1,0,0,0,0,0,0,0,0,0,0,0,0,0,0,0,0,0,0,0,0,0,0,0,0,0,0,0,0,0,0,0,0,0,0,0,0,0,0,0,0,0,0,0,0,0,0,0,0,0,0,0,0,0,0,0,0,0,0,0,0,0,0,0,0,0],"id":1,"left_children":[1,3,5,7,9,11,13,15,17,19,21,23,25,27,29,31,33,35,37,39,41,43,45,47,49,51,53,55,57,59,61,63,65,67,69,71,73,75,77,79,81,83,85,87,89,91,93,95,97,99,101,103,105,107,109,111,113,115,117,119,121,123,125,-1,-1,-1,-1,-1,-1,-1,-1,-1,-1,-1,-1,-1,-1,-1,-1,-1,-1,-1,-1,-1,-1,-1,-1,-1,-1,-1,-1,-1,-1,-1,-1,-1,-1,-1,-1,-1,-1,-1,-1,-1,-1,-1,-1,-1,-1,-1,-1,-1,-1,-1,-1,-1,-1,-1,-1,-1,-1,-1,-1,-1,-1,-1,-1],"loss_changes":[5.329883E3,2.52643E3,9.807761E2,9.3290625E2,6.3973865E2,2.9795724E2,3.3834375E2,1.8549419E2,5.7256836E2,1.1264837E2,2.1808453E2,2.2497061E2,6.839603E1,1.740719E2,7.063257E1,4.818683E1,2.239281E2,5.667334E1,1.702196E2,4.2247383E1,6.012709E1,8.951416E1,6.0579067E1,3.5105858E1,1.3014555E2,5.91354E1,4.1230865E1,7.264886E1,1.0286151E2,4.8306152E1,3.1444702E1,1.6083115E1,2.161885E1,4.7439507E1,2.4830421E1,2.1279236E1,2.6319824E1,1.4907959E1,1.9376556E2,1.3108625E1,3.1401333E1,1.9776093E1,1.9792166E1,2.8491705E1,3.773401E1,2.5322176E1,2.2957207E1,3.015101E1,1.6983139E1,4.971118E1,5.029879E1,1.9598602E1,4.538515E1,6.481598E0,1.33789215E1,8.057426E0,4.195839E1,2.4174072E1,6.2453857E1,2.3013336E1,9.185791E0,3.1910645E1,4.2084045E0,0E0,0E0,0E0,0E0,0E0,0E0,0E0,0E0,0E0,0E0,0E0,0E0,0E0,0E0,0E0,0E0,0E0,0E0,0E0,0E0,0E0,0E0,0E0,0E0,0E0,0E0,0E0,0E0,0E0,0E0,0E0,0E0,0E0,0E0,0E0,0E0,0E0,0E0,0E0,0E0,0E0,0E0,0E0,0E0,0E0,0E0,0E0,0E0,0E0,0E0,0E0,0E0,0E0,0E0,0E0,0E0,0E0,0E0,0E0,0E0,0E0,0E0,0E0,0E0],"parents":[2147483647,0,0,1,1,2,2,3,3,4,4,5,5,6,6,7,7,8,8,9,9,10,10,11,11,12,12,13,13,14,14,15,15,16,16,17,17,18,18,19,19,20,20,21,21,22,22,23,23,24,24,25,25,26,26,27,27,28,28,29,29,30,30,31,31,32,32,33,33,34,34,35,35,36,36,37,37,38,38,39,39,40,40,41,41,42,42,43,43,44,44,45,45,46,46,47,47,48,48,49,49,50,50,51,51,52,52,53,53,54,54,55,55,56,56,57,57,58,58,59,59,60,60,61,61,62,62],"right_children":[2,4,6,8,10,12,14,16,18,20,22,24,26,28,30,32,34,36,38,40,42,44,46,48,50,52,54,56,58,60,62,64,66,68,70,72,74,76,78,80,82,84,86,88,90,92,94,96,98,100,102,104,106,108,110,112,114,116,118,120,122,124,126,-1,-1,-1,-1,-1,-1,-1,-1,-1,-1,-1,-1,-1,-1,-1,-1,-1,-1,-1,-1,-1,-1,-1,-1,-1,-1,-1,-1,-1,-1,-1,-1,-1,-1,-1,-1,-1,-1,-1,-1,-1,-1,-1,-1,-1,-1,-1,-1,-1,-1,-1,-1,-1,-1,-1,-1,-1,-1,-1,-1,-1,-1,-1,-1],"split_conditions":[6.2142735E0,2.6595669E0,2.9778888E0,3E0,2.9778888E0,2.8649466E0,2.0611362E0,3.1171122E0,3.1230314E0,9.4434994E-1,5.490936E0,3E0,9.779868E0,2.841488E0,5.5523467E0,3.019479E0,7.259502E1,2.1047398E1,3.0083973E0,5.550314E0,4.975923E0,2.949264E0,2.587747E-2,2.4345882E0,8.915197E0,8.6860836E-1,2.2727273E-2,3E0,2.1327015E-2,3.2653043E0,8.957465E0,3.6502557E0,2.5362911E0,2.5422404E0,4.0880094E0,4.2065773E0,4.7610626E0,4.6224796E1,4.8675284E0,6E0,3.60172E0,5.9054474E1,4.641351E0,5.8328204E0,5.205672E0,6.1643486E0,2.9019954E0,8.755978E0,6.1650646E1,1.9E1,7.444169E-3,3E0,2E1,3.0977368E-1,8.507989E-1,7.8428802E0,7.9181743E0,7.4165325E0,5.8454113E0,3.0833334E-1,5.375054E0,2.2058824E-2,1.6461879E2,-1.8517299E-2,6.627483E-2,5.878949E-2,2.3438477E-4,-8.735829E-3,-4.0793028E-2,6.10799E-2,1.3272154E-2,7.059166E-2,4.2777356E-2,8.580785E-2,7.1935534E-2,5.0139613E-2,7.672082E-2,-5.50542E-3,4.420161E-2,-2.6143214E-2,5.6015022E-2,1.0104711E-2,-3.652603E-2,3.33956E-2,6.508618E-2,2.8347775E-2,-6.242024E-3,-5.589133E-3,-5.5634387E-2,-7.842988E-2,-4.6362292E-2,2.296207E-2,-2.0812683E-2,1.1397469E-2,-4.879928E-2,3.9299797E-2,-3.9150786E-2,-5.4024596E-2,-1.4994994E-2,4.906468E-2,1.2395587E-2,-2.6515339E-2,1.217598E-2,-6.738605E-2,1.1541169E-2,2.042832E-3,-3.8247447E-2,-8.7984055E-2,-6.263726E-2,-6.124982E-2,-2.5924906E-2,4.830669E-3,-5.716473E-2,3.9742116E-2,-5.6140376E-3,-5.07403E-2,-7.691692E-2,-4.5207024E-2,-9.543439E-3,-4.82853E-2,-7.701991E-2,-8.605596E-2,-7.219112E-2,-6.538313E-2,-3.6147296E-2,-8.199486E-2,-3.1617355E-2],"split_indices":[9,2,23,21,23,2,2,22,4,16,23,21,9,4,23,4,22,24,23,7,2,4,14,22,9,16,19,21,19,4,7,27,23,4,9,9,9,24,23,26,9,24,9,2,4,2,9,9,22,26,19,21,26,14,16,18,9,1,4,19,4,19,15,0,0,0,0,0,0,0,0,0,0,0,0,0,0,0,0,0,0,0,0,0,0,0,0,0,0,0,0,0,0,0,0,0,0,0,0,0,0,0,0,0,0,0,0,0,0,0,0,0,0,0,0,0,0,0,0,0,0,0,0,0,0,0,0],"split_type":[0,0,0,0,0,0,0,0,0,0,0,0,0,0,0,0,0,0,0,0,0,0,0,0,0,0,0,0,0,0,0,0,0,0,0,0,0,0,0,0,0,0,0,0,0,0,0,0,0,0,0,0,0,0,0,0,0,0,0,0,0,0,0,0,0,0,0,0,0,0,0,0,0,0,0,0,0,0,0,0,0,0,0,0,0,0,0,0,0,0,0,0,0,0,0,0,0,0,0,0,0,0,0,0,0,0,0,0,0,0,0,0,0,0,0,0,0,0,0,0,0,0,0,0,0,0,0],"sum_hessian":[1.0289791E4,5.654769E3,4.635022E3,4.139288E3,1.515481E3,1.7029894E3,2.9320325E3,8.173892E2,3.3218987E3,5.73602E2,9.4187897E2,1.0250236E3,6.779658E2,1.1876332E3,1.7443992E3,2.1972728E2,5.976619E2,2.2476504E3,1.0742482E3,1.9532738E2,3.7827463E2,6.763057E2,2.6557327E2,2.2595969E2,7.990639E2,3.9384128E2,2.841245E2,2.6639996E2,9.212332E2,1.243664E3,5.0073532E2,1.3511287E2,8.461441E1,4.6378894E2,1.3387297E2,2.9305505E2,1.9545953E3,2.7414087E2,8.0010736E2,3.067159E1,1.6465579E2,2.1366281E2,1.646118E2,1.2224655E2,5.5405914E2,1.5846219E2,1.0711109E2,4.7117126E1,1.7884256E2,4.434343E2,3.5562958E2,8.154481E1,3.1229648E2,1.3723683E2,1.4688768E2,5.600617E1,2.103938E2,3.8831595E2,5.3291724E2,3.0735538E2,9.3630853E2,3.9507962E2,1.0565569E2,5.438428E0,1.2967444E2,1.9835955E1,6.477846E1,2.1829755E2,2.4549141E2,9.508482E1,3.878816E1,1.6026866E2,1.3278639E2,1.4456417E3,5.0895367E2,8.547075E1,1.886701E2,3.4162164E2,4.5848572E2,5.3256326E0,2.5345959E1,5.247972E1,1.1217607E2,8.629861E1,1.2736421E2,8.766872E1,7.6943085E1,7.837734E1,4.3869213E1,4.3045798E2,1.2360117E2,1.12803406E2,4.5658783E1,1.884789E1,8.82632E1,2.4793087E1,2.2324041E1,1.431045E2,3.573805E1,3.1089117E2,1.3254314E2,1.3384827E2,2.2178131E2,7.3045044E1,8.499764E0,2.0812941E2,1.0416706E2,5.5402164E1,8.183467E1,3.5939774E1,1.10947914E2,5.6710396E0,5.033513E1,8.443054E1,1.2596325E2,1.6003038E2,2.2828557E2,3.401438E2,1.9277347E2,1.8578511E2,1.2157027E2,7.4060504E2,1.9570348E2,1.6179733E2,2.332823E2,9.958303E1,6.0726633E0],"tree_param":{"num_deleted":"0","num_feature":"28","num_nodes":"127","size_leaf_vector":"0"}},{"base_weights":[-9.031751E-3,6.113194E-1,-7.722247E-1,9.807727E-1,-5.0492775E-1,-1.8817043E-1,-1.0611397E0,9.830905E-2,1.2099265E0,2.5399467E-1,-9.4054663E-1,2.1665743E-1,-6.0315335E-1,-6.3581985E-1,-1.3248186E0,8.312332E-1,-1.3237353E-1,1.5020131E0,6.848765E-1,-8.282958E-1,4.721379E-1,-1.1970471E0,-1.6680561E-1,-5.7029516E-1,4.4397327E-1,-1.0251431E0,-3.7366506E-1,1.2019202E-2,-8.480506E-1,-1.418501E0,-9.027977E-1,1.2239059E0,2.3919186E-1,-3.9953583E-1,9.633088E-1,1.0937911E0,1.5696629E0,1.3119872E0,4.5510375E-1,2.659457E-2,-9.829108E-1,8.659096E-1,1.454938E-1,-4.510604E-1,-1.394054E0,1.16188675E-1,-1.058573E0,2.8522044E-1,-8.2710576E-1,7.7032185E-1,-7.3451914E-2,-1.1639788E0,-1.13850296E-1,-8.950368E-1,-1.126539E-1,-9.704046E-1,2.7310303E-1,-1.193225E0,-5.7490486E-1,-1.066867E0,-1.5250783E0,-1.3563194E0,-5.9851074E-1,6.9212176E-2,3.0727524E-2,3.374983E-2,-1.6414253E-2,-4.4413977E-3,-3.9756294E-2,5.817742E-2,6.674784E-3,6.644257E-2,3.769827E-2,8.184265E-2,6.8592995E-2,7.501494E-2,5.023169E-2,-6.215363E-4,4.303549E-2,-5.7718974E-2,8.528802E-3,5.3445704E-2,1.45364525E-2,5.6782812E-2,2.8838005E-3,-5.0857734E-2,-3.4950566E-4,-7.573814E-2,-4.746215E-2,5.2169234E-2,-3.1943966E-3,-7.272891E-2,-4.7469777E-3,3.1544577E-2,-3.9892863E-2,-5.471623E-2,-1.3391333E-2,4.241158E-2,-1.3792212E-2,-1.6519569E-2,2.5809666E-2,-6.0741473E-2,6.2086745E-3,3.393836E-2,-2.0551769E-2,-2.6501853E-2,-6.434422E-2,-2.3475938E-2,8.852269E-3,-5.6664564E-2,2.4188403E-2,-1.4513725E-2,3.112357E-2,-5.326688E-2,-7.6876424E-2,-6.105901E-2,-1.5977811E-2,-4.0195197E-2,-7.030395E-2,-6.949058E-2,-8.045236E-2,-2.679402E-2,-7.397058E-2,-2.060864E-2,-6.7965195E-2],"categories":[],"categories_nodes":[],"categories_segments":[],"categories_sizes":[],"default_left":[0,0,0,0,0,0,0,1,0,0,0,0,0,0,0,1,0,1,0,0,0,0,1,1,0,1,1,0,1,1,1,0,1,0,0,0,0,0,0,0,1,0,0,0,0,0,0,0,0,0,0,0,0,0,0,0,1,0,0,0,0,0,1,0,0,0,0,0,0,0,0,0,0,0,0,0,0,0,0,0,0,0,0,0,0,0,0,0,0,0,0,0,0,0,0,0,0,0,0,0,0,0,0,0,0,0,0,0,0,0,0,0,0,0,0,0,0,0,0,0,0,0,0,0,0],"id":2,"left_children":[1,3,5,7,9,11,13,15,17,19,21,23,25,27,29,31,33,35,37,39,41,43,45,47,49,51,53,55,57,59,61,63,65,67,69,71,73,75,77,-1,79,81,83,85,87,89,91,93,95,97,99,101,103,105,107,109,111,113,115,117,119,121,123,-1,-1,-1,-1,-1,-1,-1,-1,-1,-1,-1,-1,-1,-1,-1,-1,-1,-1,-1,-1,-1,-1,-1,-1,-1,-1,-1,-1,-1,-1,-1,-1,-1,-1,-1,-1,-1,-1,-1,-1,-1,-1,-1,-1,-1,-1,-1,-1,-1,-1,-1,-1,-1,-1,-1,-1,-1,-1,-1,-1,-1,-1],"loss_changes":[4.8521333E3,2.331926E3,7.752041E2,8.5887573E2,4.6522385E2,2.558264E2,3.4391968E2,1.483453E2,5.161123E2,1.2167187E2,1.7718579E2,1.3820654E2,7.242758E1,1.6203082E2,7.3710205E1,4.853421E1,1.9584502E2,5.809619E1,1.7335034E2,1.8721333E1,5.494564E1,9.799896E1,5.6574368E1,3.83048E1,1.0118819E2,3.3303192E1,6.638699E1,7.5102356E1,8.300293E1,5.6478027E1,4.7118256E1,1.1463013E1,2.1241714E1,6.59996E1,2.1643288E1,2.3856537E1,2.241748E1,1.7197632E1,1.6784007E2,0E0,1.5634659E1,2.2333496E1,2.0388758E1,3.5609673E1,2.7041504E1,2.8568605E1,2.0462616E1,1.5759024E1,1.9662079E1,3.0175522E1,3.5403027E1,1.51658325E1,8.770102E0,2.2609573E1,3.386145E1,1.5110439E1,4.5704727E1,1.5586792E1,8.170154E1,3.1334442E1,1.1251709E1,1.3211487E1,2.9160225E1,0E0,0E0,0E0,0E0,0E0,0E0,0E0,0E0,0E0,0E0,0E0,0E0,0E0,0E0,0E0,0E0,0E0,0E0,0E0,0E0,0E0,0E0,0E0,0E0,0E0,0E0,0E0,0E0,0E0,0E0,0E0,0E0,0E0,0E0,0E0,0E0,0E0,0E0,0E0,0E0,0E0,0E0,0E0,0E0,0E0,0E0,0E0,0E0,0E0,0E0,0E0,0E0,0E0,0E0,0E0,0E0,0E0,0E0,0E0,0E0,0E0,0E0],"parents":[2147483647,0,0,1,1,2,2,3,3,4,4,5,5,6,6,7,7,8,8,9,9,10,10,11,11,12,12,13,13,14,14,15,15,16,16,17,17,18,18,19,19,20,20,21,21,22,22,23,23,24,24,25,25,26,26,27,27,28,28,29,29,30,30,31,31,32,32,33,33,34,34,35,35,36,36,37,37,38,38,40,40,41,41,42,42,43,43,44,44,45,45,46,46,47,47,48,48,49,49,50,50,51,51,52,52,53,53,54,54,55,55,56,56,57,57,58,58,59,59,60,60,61,61,62,62],"right_children":[2,4,6,8,10,12,14,16,18,20,22,24,26,28,30,32,34,36,38,40,42,44,46,48,50,52,54,56,58,60,62,64,66,68,70,72,74,76,78,-1,80,82,84,86,88,90,92,94,96,98,100,102,104,106,108,110,112,114,116,118,120,122,124,-1,-1,-1,-1,-1,-1,-1,-1,-1,-1,-1,-1,-1,-1,-1,-1,-1,-1,-1,-1,-1,-1,-1,-1,-1,-1,-1,-1,-1,-1,-1,-1,-1,-1,-1,-1,-1,-1,-1,-1,-1,-1,-1,-1,-1,-1,-1,-1,-1,-1,-1,-1,-1,-1,-1,-1,-1,-1,-1,-1,-1,-1],"split_conditions":[6.2142735E0,2.9523852E0,2.7116315E0,3E0,2.9778888E0,2.1199963E0,1.9004279E0,2.3197992E0,2.949264E0,8.561613E-1,5.6671696E0,3E0,9.5396805E-1,2.841488E0,6.602327E0,3.019479E0,7.984746E1,2.3002413E1,2.9165707E0,1.3142445E0,4.591194E0,3.19977E0,6.387937E0,2.4345882E0,9.278618E0,3E0,1.2765957E-2,3E0,2.5E-2,2.9820166E0,2.359882E-2,1.2624939E-1,1.708187E1,3.3732157E0,4.8197026E0,9.67823E-1,4.7610626E0,4.551444E0,5.04134E0,2.659457E-2,3E0,2.4E1,4.1549683E0,2.1E1,5.205672E0,9.938934E0,9.2541367E-1,3.1578946E-1,4.536755E1,7.1E1,8.340031E1,2.0504918E2,4.494382E-2,1.047526E1,4.732568E1,7.517322E1,2.5787966E-2,3.6E1,9.234949E-1,2.7218935E-1,4.249773E0,7.0810595E0,9.172237E0,6.9212176E-2,3.0727524E-2,3.374983E-2,-1.6414253E-2,-4.4413977E-3,-3.9756294E-2,5.817742E-2,6.674784E-3,6.644257E-2,3.769827E-2,8.184265E-2,6.8592995E-2,7.501494E-2,5.023169E-2,-6.215363E-4,4.303549E-2,-5.7718974E-2,8.528802E-3,5.3445704E-2,1.45364525E-2,5.6782812E-2,2.8838005E-3,-5.0857734E-2,-3.4950566E-4,-7.573814E-2,-4.746215E-2,5.2169234E-2,-3.1943966E-3,-7.272891E-2,-4.7469777E-3,3.1544577E-2,-3.9892863E-2,-5.471623E-2,-1.3391333E-2,4.241158E-2,-1.3792212E-2,-1.6519569E-2,2.5809666E-2,-6.0741473E-2,6.2086745E-3,3.393836E-2,-2.0551769E-2,-2.6501853E-2,-6.434422E-2,-2.3475938E-2,8.852269E-3,-5.6664564E-2,2.4188403E-2,-1.4513725E-2,3.112357E-2,-5.326688E-2,-7.6876424E-2,-6.105901E-2,-1.5977811E-2,-4.0195197E-2,-7.030395E-2,-6.949058E-2,-8.045236E-2,-2.679402E-2,-7.397058E-2,-2.060864E-2,-6.7965195E-2],"split_indices":[9,2,23,21,23,2,2,22,4,16,23,21,16,4,23,4,22,24,23,22,2,4,7,22,9,21,19,21,19,4,19,14,7,4,9,25,9,9,23,0,21,13,18,10,4,12,16,19,22,26,0,0,19,9,24,22,19,10,16,19,2,9,7,0,0,0,0,0,0,0,0,0,0,0,0,0,0,0,0,0,0,0,0,0,0,0,0,0,0,0,0,0,0,0,0,0,0,0,0,0,0,0,0,0,0,0,0,0,0,0,0,0,0,0,0,0,0,0,0,0,0,0,0,0,0],"split_type":[0,0,0,0,0,0,0,0,0,0,0,0,0,0,0,0,0,0,0,0,0,0,0,0,0,0,0,0,0,0,0,0,0,0,0,0,0,0,0,0,0,0,0,0,0,0,0,0,0,0,0,0,0,0,0,0,0,0,0,0,0,0,0,0,0,0,0,0,0,0,0,0,0,0,0,0,0,0,0,0,0,0,0,0,0,0,0,0,0,0,0,0,0,0,0,0,0,0,0,0,0,0,0,0,0,0,0,0,0,0,0,0,0,0,0,0,0,0,0,0,0,0,0,0,0],"sum_hessian":[1.0246513E4,5.652308E3,4.594204E3,4.246824E3,1.405484E3,1.5210288E3,3.0731753E3,8.7575397E2,3.3710703E3,5.1269635E2,8.9278766E2,7.701769E2,7.508519E2,1.1774055E3,1.8957698E3,2.0902783E2,6.6672614E2,2.1648809E3,1.2061895E3,8.553383E1,4.2716254E2,6.700983E2,2.2268933E2,1.7227237E2,5.9790454E2,2.632722E2,4.8757977E2,2.907692E2,8.866363E2,1.5494526E3,3.4631714E2,1.250325E2,8.399534E1,5.3653674E2,1.301894E2,3.1019937E2,1.8546815E3,3.22176E2,8.840134E2,8.481329E0,7.70525E1,1.9293144E2,2.3423111E2,1.4068181E2,5.294165E2,1.6970477E2,5.298456E1,3.9748196E1,1.3252417E2,3.6635168E2,2.3155283E2,2.2822482E2,3.5047367E1,1.6185135E2,3.2572842E2,6.047877E1,2.3029042E2,3.9018753E2,4.964488E2,3.629544E2,1.1864982E3,1.3767032E2,2.086468E2,9.7979774E1,2.7052732E1,4.7402336E1,3.6593E1,3.0119446E2,2.3534227E2,1.0455693E2,2.5632475E1,1.8164423E2,1.2855516E2,1.3789884E3,4.7569302E2,1.97369E2,1.2480699E2,4.111072E2,4.7290625E2,6.70801E1,9.972397E0,1.4196712E2,5.096432E1,1.8109629E1,2.1612148E2,6.1276676E1,7.9405136E1,4.145219E2,1.148946E2,2.6819548E1,1.4288522E2,3.719132E1,1.5793242E1,3.0448017E1,9.300177E0,8.902981E1,4.349436E1,3.4113593E2,2.5215757E1,1.615825E2,6.997032E1,2.196124E2,8.612427E0,9.207147E0,2.5840221E1,8.501443E1,7.683692E1,1.4566763E2,1.8006079E2,5.458517E1,5.8936014E0,8.821215E1,1.4207828E2,2.8749503E2,1.02692505E2,1.395279E2,3.569209E2,2.0635464E2,1.5659978E2,4.611602E2,7.2533795E2,1.865876E1,1.19011566E2,1.6883621E2,3.9810596E1],"tree_param":{"num_deleted":"0","num_feature":"28","num_nodes":"125","size_leaf_vector":"0"}},{"base_weights":[-1.9592855E-3,5.900086E-1,-7.2626215E-1,9.643275E-1,-4.1588807E-1,-1.7179236E-1,-1.0423447E0,9.1443665E-2,1.1873521E0,3.1426316E-1,-8.743509E-1,1.9986168E-1,-6.397861E-1,-7.668171E-1,-1.3485087E0,8.3786416E-1,-1.338268E-1,1.45699E0,6.8719864E-1,-3.4120533E-1,6.365782E-1,-1.153687E0,-1.6241316E-1,7.573047E-1,-1.8050396E-1,-4.408385E-1,-1.0265186E0,-8.851145E-2,-8.9186865E-1,-8.368094E-1,-1.4148648E0,1.2060949E0,2.5206202E-1,-4.0036857E-1,8.9697236E-1,1.0732572E0,1.5113482E0,1.2369105E0,4.620312E-1,1.6435015E-1,-6.3217527E-1,9.3322533E-1,2.1113202E-1,-4.1987756E-1,-1.3073125E0,2.0283961E-1,-6.6486233E-1,-8.212442E-2,9.4295037E-1,-1.0209337E0,6.1292168E-2,-8.263749E-1,-1.7743666E-1,-7.3723483E-1,-1.4226868E0,1.05611525E-1,-9.611638E-1,-1.2967563E0,-7.0955867E-1,-1.2760571E0,-6.079111E-1,-1.5249772E0,-1.1105123E0,6.876932E-2,2.6200978E-2,2.4266992E-2,-3.8751137E-2,-1.4735486E-3,-3.6807586E-2,5.8732886E-2,1.15877995E-2,2.3222197E-2,6.0690433E-2,8.0146395E-2,6.867923E-2,2.9286196E-2,6.626116E-2,-3.959715E-3,4.1127972E-2,-2.238301E-2,2.4354734E-2,1.4906608E-2,-4.385686E-2,5.615527E-2,3.1365722E-2,-2.5952494E-2,2.2556983E-2,2.2280812E-2,-3.5909493E-2,-7.11609E-2,-4.241685E-2,3.5229947E-2,-4.5841564E-3,1.047536E-2,-4.835591E-2,6.1807256E-2,-2.1671452E-2,5.8102254E-3,5.310851E-2,-5.4574963E-2,2.4112815E-2,-2.5488382E-2,1.865405E-2,3.3173636E-2,-4.6021163E-2,1.1692798E-2,-2.8394315E-2,-2.5634203E-2,-6.464455E-2,-7.761153E-2,-5.422613E-2,1.2126143E-2,-4.1247632E-2,-6.206764E-2,-1.7219631E-2,-3.137601E-2,-6.983429E-2,-6.4250864E-2,-2.5400031E-2,-5.2061487E-2,-8.3906785E-2,3.4793373E-2,-3.6786873E-2,-6.365427E-2,-7.807451E-2,-7.188234E-2,-4.70442E-2],"categories":[],"categories_nodes":[],"categories_segments":[],"categories_sizes":[],"default_left":[0,0,0,0,0,0,0,1,0,0,0,0,0,0,0,1,0,1,0,0,0,0,1,0,0,0,0,1,1,1,0,0,0,0,0,0,0,0,0,0,0,0,0,0,1,1,0,1,1,0,1,0,0,1,0,0,0,0,0,0,0,0,0,0,0,0,0,0,0,0,0,0,0,0,0,0,0,0,0,0,0,0,0,0,0,0,0,0,0,0,0,0,0,0,0,0,0,0,0,0,0,0,0,0,0,0,0,0,0,0,0,0,0,0,0,0,0,0,0,0,0,0,0,0,0,0,0],"id":3,"left_children":[1,3,5,7,9,11,13,15,17,19,21,23,25,27,29,31,33,35,37,39,41,43,45,47,49,51,53,55,57,59,61,63,65,67,69,71,73,75,77,79,81,83,85,87,89,91,93,95,97,99,101,103,105,107,109,111,113,115,117,119,121,123,125,-1,-1,-1,-1,-1,-1,-1,-1,-1,-1,-1,-1,-1,-1,-1,-1,-1,-1,-1,-1,-1,-1,-1,-1,-1,-1,-1,-1,-1,-1,-1,-1,-1,-1,-1,-1,-1,-1,-1,-1,-1,-1,-1,-1,-1,-1,-1,-1,-1,-1,-1,-1,-1,-1,-1,-1,-1,-1,-1,-1,-1,-1,-1,-1],"loss_changes":[4.398545E3,2.1259004E3,8.083994E2,8.008562E2,5.129895E2,2.9169485E2,2.468313E2,1.4108386E2,4.4093457E2,1.2518405E2,1.869765E2,1.984072E2,5.665454E1,1.3129944E2,4.602832E1,4.1652466E1,1.7754128E2,4.2771484E1,1.417398E2,2.8882187E1,4.989151E1,7.563129E1,4.9019638E1,5.921083E1,1.1317854E2,4.9802147E1,2.7759857E1,4.113166E1,9.560364E1,1.5518379E1,3.950708E1,1.3039352E1,1.8666279E1,6.387805E1,2.4258926E1,2.2328156E1,2.1286621E1,1.8402618E1,1.5953044E2,1.4490903E1,2.8605648E1,1.2860947E1,2.9033707E1,3.0903912E1,2.8493408E1,2.297201E1,2.9897743E1,3.278772E1,3.0512024E1,1.37243805E1,7.732412E1,2.8546051E1,4.7263874E1,1.7723877E1,2.9168854E0,2.5557745E1,7.206249E0,2.619397E1,1.0418466E2,3.4089127E0,1.8586098E1,6.2905273E0,1.6976044E1,0E0,0E0,0E0,0E0,0E0,0E0,0E0,0E0,0E0,0E0,0E0,0E0,0E0,0E0,0E0,0E0,0E0,0E0,0E0,0E0,0E0,0E0,0E0,0E0,0E0,0E0,0E0,0E0,0E0,0E0,0E0,0E0,0E0,0E0,0E0,0E0,0E0,0E0,0E0,0E0,0E0,0E0,0E0,0E0,0E0,0E0,0E0,0E0,0E0,0E0,0E0,0E0,0E0,0E0,0E0,0E0,0E0,0E0,0E0,0E0,0E0,0E0,0E0,0E0],"parents":[2147483647,0,0,1,1,2,2,3,3,4,4,5,5,6,6,7,7,8,8,9,9,10,10,11,11,12,12,13,13,14,14,15,15,16,16,17,17,18,18,19,19,20,20,21,21,22,22,23,23,24,24,25,25,26,26,27,27,28,28,29,29,30,30,31,31,32,32,33,33,34,34,35,35,36,36,37,37,38,38,39,39,40,40,41,41,42,42,43,43,44,44,45,45,46,46,47,47,48,48,49,49,50,50,51,51,52,52,53,53,54,54,55,55,56,56,57,57,58,58,59,59,60,60,61,61,62,62],"right_children":[2,4,6,8,10,12,14,16,18,20,22,24,26,28,30,32,34,36,38,40,42,44,46,48,50,52,54,56,58,60,62,64,66,68,70,72,74,76,78,80,82,84,86,88,90,92,94,96,98,100,102,104,106,108,110,112,114,116,118,120,122,124,126,-1,-1,-1,-1,-1,-1,-1,-1,-1,-1,-1,-1,-1,-1,-1,-1,-1,-1,-1,-1,-1,-1,-1,-1,-1,-1,-1,-1,-1,-1,-1,-1,-1,-1,-1,-1,-1,-1,-1,-1,-1,-1,-1,-1,-1,-1,-1,-1,-1,-1,-1,-1,-1,-1,-1,-1,-1,-1,-1,-1,-1,-1,-1,-1],"split_conditions":[6.2142735E0,2.6595669E0,2.637455E0,3E0,3.0419798E0,2.513859E0,3.0846028E0,2.2467759E0,2.949264E0,9.4434994E-1,5.490936E0,7.9181743E0,2.9778888E0,2.6108518E0,2.5618842E0,3.019479E0,7.517322E1,1.9439917E1,3.1097195E0,3.8545E0,4.975923E0,2.8745906E0,2.1724662E-2,3E0,3E0,2.8911975E-1,2.825279E-1,9.776638E0,4.6838406E-3,1.3358778E-2,5.5523467E0,1.2624939E-1,3E0,2.562689E0,4.035959E0,3.277008E1,4.1477E0,1.6931257E1,4.75334E0,5.6565296E1,3.4485638E0,2.338468E0,2.637795E1,3.5668848E0,5.205672E0,8.621909E-1,3.3445227E0,1.8740425E0,1.6028662E1,2.0278769E2,8.695652E-3,1.059697E0,8.970578E0,9.6956277E-1,9.836262E1,9.954026E-1,9.741393E1,7.3304853E0,9.1047055E-1,2.3E1,5.5166473E0,3.2592604E0,9.501234E-1,6.876932E-2,2.6200978E-2,2.4266992E-2,-3.8751137E-2,-1.4735486E-3,-3.6807586E-2,5.8732886E-2,1.15877995E-2,2.3222197E-2,6.0690433E-2,8.0146395E-2,6.867923E-2,2.9286196E-2,6.626116E-2,-3.959715E-3,4.1127972E-2,-2.238301E-2,2.4354734E-2,1.4906608E-2,-4.385686E-2,5.615527E-2,3.1365722E-2,-2.5952494E-2,2.2556983E-2,2.2280812E-2,-3.5909493E-2,-7.11609E-2,-4.241685E-2,3.5229947E-2,-4.5841564E-3,1.047536E-2,-4.835591E-2,6.1807256E-2,-2.1671452E-2,5.8102254E-3,5.310851E-2,-5.4574963E-2,2.4112815E-2,-2.5488382E-2,1.865405E-2,3.3173636E-2,-4.6021163E-2,1.1692798E-2,-2.8394315E-2,-2.5634203E-2,-6.464455E-2,-7.761153E-2,-5.422613E-2,1.2126143E-2,-4.1247632E-2,-6.206764E-2,-1.7219631E-2,-3.137601E-2,-6.983429E-2,-6.4250864E-2,-2.5400031E-2,-5.2061487E-2,-8.3906785E-2,3.4793373E-2,-3.6786873E-2,-6.365427E-2,-7.807451E-2,-7.188234E-2,-4.70442E-2],"split_indices":[9,2,4,21,23,2,2,22,4,16,23,9,23,23,23,4,22,24,23,9,2,4,14,21,21,14,19,7,19,19,23,14,20,4,9,18,9,24,23,24,2,4,3,9,4,25,9,22,3,0,19,7,9,6,24,11,24,9,16,26,18,23,16,0,0,0,0,0,0,0,0,0,0,0,0,0,0,0,0,0,0,0,0,0,0,0,0,0,0,0,0,0,0,0,0,0,0,0,0,0,0,0,0,0,0,0,0,0,0,0,0,0,0,0,0,0,0,0,0,0,0,0,0,0,0,0,0],"split_type":[0,0,0,0,0,0,0,0,0,0,0,0,0,0,0,0,0,0,0,0,0,0,0,0,0,0,0,0,0,0,0,0,0,0,0,0,0,0,0,0,0,0,0,0,0,0,0,0,0,0,0,0,0,0,0,0,0,0,0,0,0,0,0,0,0,0,0,0,0,0,0,0,0,0,0,0,0,0,0,0,0,0,0,0,0,0,0,0,0,0,0,0,0,0,0,0,0,0,0,0,0,0,0,0,0,0,0,0,0,0,0,0,0,0,0,0,0,0,0,0,0,0,0,0,0,0,0],"sum_hessian":[1.0256663E4,5.6440244E3,4.612638E3,4.113377E3,1.5306476E3,1.6753296E3,2.9373083E3,8.373864E2,3.2759907E3,5.9051056E2,9.4013696E2,9.340963E2,7.412333E2,1.5478497E3,1.3894587E3,1.9350374E2,6.438826E2,2.1272537E3,1.1487372E3,1.9463567E2,3.958749E2,6.747653E2,2.6537164E2,3.7845804E2,5.556383E2,4.9085934E2,2.5037393E2,2.4120601E2,1.3066438E3,1.6106107E2,1.2283976E3,1.1816638E2,7.533736E1,5.1208136E2,1.3180127E2,2.665233E2,1.8607302E3,3.3249887E2,8.162383E2,7.125918E1,1.2337648E2,2.3254013E2,1.6333478E2,1.1745611E2,5.573092E2,1.5401068E2,1.11360954E2,6.864144E1,3.098166E2,1.23423454E2,4.3221487E2,1.9837062E2,2.9248874E2,1.4636124E2,1.04012695E2,1.9803236E2,4.3173653E1,4.0378195E2,9.028618E2,5.361019E1,1.07450874E2,8.9909955E2,3.2929807E2,9.385503E1,2.4311352E1,6.1823162E1,1.3514197E1,2.4383508E2,2.682463E2,9.244539E1,3.9355877E1,5.0796658E1,2.1572662E2,1.1113292E3,7.49401E2,4.061924E1,2.9187964E2,3.2665045E2,4.895878E2,2.4470152E1,4.678903E1,2.5670176E1,9.770631E1,1.4183272E2,9.070742E1,4.0118504E1,1.2321628E2,2.9980331E1,8.747578E1,4.432693E2,1.1403992E2,5.6449303E1,9.756137E1,2.8685638E1,8.2675316E1,1.3913257E1,5.4728184E1,3.929496E1,2.7052164E2,1.1815088E2,5.272576E0,1.5241774E2,2.7979712E2,1.1419317E1,1.869513E2,1.4263774E2,1.4985098E2,1.05606415E2,4.0754814E1,7.260794E1,3.1404755E1,1.7327785E2,2.4754509E1,2.89909E1,1.4182753E1,5.3404896E1,3.5037704E2,2.3280792E2,6.700539E2,3.6110218E1,1.7499975E1,9.197376E0,9.8253494E1,1.1836983E2,7.8072974E2,1.0989205E2,2.19406E2],"tree_param":{"num_deleted":"0","num_feature":"28","num_nodes":"127","size_leaf_vector":"0"}},{"base_weights":[-3.9393984E-4,5.692359E-1,-6.901841E-1,9.2316693E-1,-3.7622672E-1,-1.2450454E-1,-9.6644753E-1,1.2239863E0,3.6639073E-1,3.1962517E-1,-7.9691577E-1,2.4889165E-1,-5.2120334E-1,-5.733154E-1,-1.1966558E0,4.707029E-1,1.3851016E0,1.0684611E0,1.376191E-1,-5.931E-1,5.163682E-1,-1.0549151E0,-1.7179139E-2,6.062909E-1,-2.1936642E-1,-8.624956E-1,-2.9902545E-1,1.7067347E-2,-7.709266E-1,-1.3353137E0,-8.392333E-1,1.1971744E0,2.323491E-1,1.0110034E0,1.4504131E0,4.9244696E-1,1.2049799E0,-3.557688E-1,4.945604E-1,-9.08746E-1,2.987213E-2,8.367751E-1,6.630679E-2,-3.432209E-1,-1.210651E0,-7.7770174E-1,2.9546106E-1,-1.623897E-1,8.136118E-1,-5.8548176E-1,2.516131E-1,3.9765246E-2,-9.228806E-1,7.639844E-2,-5.6883514E-1,-8.864521E-1,2.341287E-1,-1.1815898E0,-5.7640946E-1,-1.0178291E0,-1.463371E0,-3.5179713E-1,-1.0238351E0,6.4033486E-2,1.2431574E-2,-6.658235E-3,4.5326408E-2,6.306954E-2,3.429056E-2,7.58442E-2,6.270006E-2,7.2565586E-3,5.8132645E-2,3.372394E-2,6.449463E-2,1.2397513E-3,-4.79141E-2,-1.2041966E-2,3.7940588E-2,9.52413E-3,-5.674346E-2,-4.9585298E-2,2.029481E-2,5.3788442E-2,2.4280243E-2,2.1052642E-2,-1.1761496E-2,-5.1304042E-2,-1.3497078E-3,-6.677987E-2,-3.315444E-2,-9.703818E-3,-6.288185E-2,-7.7209E-3,3.0810416E-2,-4.0585183E-2,1.4405449E-2,5.393995E-2,2.3250125E-2,-3.2630093E-2,6.2061913E-2,-4.3973666E-2,2.0604318E-2,6.116139E-4,-5.06241E-2,1.6789543E-2,-2.293719E-2,-4.8114326E-2,-1.7376032E-2,-1.029156E-2,-6.11951E-2,2.8133685E-2,-1.5756747E-2,-5.1978983E-2,-7.405487E-2,-5.637748E-2,-1.9658616E-2,-4.357409E-2,-6.778902E-2,-6.438436E-2,-7.651732E-2,-7.6947077E-3,-5.8389015E-2,-7.073542E-2,-4.071699E-2],"categories":[],"categories_nodes":[],"categories_segments":[],"categories_sizes":[],"default_left":[0,0,0,1,0,0,0,0,0,0,0,0,0,0,0,1,1,0,0,0,0,0,0,0,1,0,0,0,1,1,0,0,0,0,0,1,0,0,0,0,0,0,0,0,0,1,0,0,0,0,0,0,0,0,1,0,0,0,0,0,0,1,1,0,0,0,0,0,0,0,0,0,0,0,0,0,0,0,0,0,0,0,0,0,0,0,0,0,0,0,0,0,0,0,0,0,0,0,0,0,0,0,0,0,0,0,0,0,0,0,0,0,0,0,0,0,0,0,0,0,0,0,0,0,0],"id":4,"left_children":[1,3,5,7,9,11,13,15,17,19,21,23,25,27,29,31,33,35,37,39,41,43,45,47,49,51,53,55,57,59,61,63,65,67,69,71,73,75,77,79,81,83,85,87,89,91,93,95,97,99,101,-1,103,105,107,109,111,113,115,117,119,121,123,-1,-1,-1,-1,-1,-1,-1,-1,-1,-1,-1,-1,-1,-1,-1,-1,-1,-1,-1,-1,-1,-1,-1,-1,-1,-1,-1,-1,-1,-1,-1,-1,-1,-1,-1,-1,-1,-1,-1,-1,-1,-1,-1,-1,-1,-1,-1,-1,-1,-1,-1,-1,-1,-1,-1,-1,-1,-1,-1,-1,-1,-1],"loss_changes":[4.002256E3,1.867176E3,7.198445E2,6.794795E2,4.4529617E2,2.2421762E2,2.7943384E2,3.1916284E2,2.2879063E2,1.0329486E2,1.90643E2,1.3066594E2,5.5387848E1,1.3359698E2,9.557764E1,8.0382256E1,5.1561035E1,2.6942749E1,1.8971025E2,2.0117432E1,6.805915E1,7.8512085E1,5.6496803E1,7.066905E1,5.849163E1,2.9647324E1,4.5222027E1,5.671355E1,6.784784E1,5.559619E1,4.895462E1,8.776581E0,8.6857346E1,2.566986E1,2.2191162E1,1.5841919E1,1.1850433E1,1.0374436E2,1.216154E2,1.7079128E1,1.3972673E1,2.262767E1,2.122742E1,2.7881458E1,3.9059937E1,1.9143517E1,2.4398994E1,2.7979967E1,3.1740356E1,2.4188477E1,2.735025E1,0E0,2.3400665E1,2.6165703E1,2.227333E1,1.2614311E1,4.2242325E1,1.014798E1,5.8544327E1,1.8940613E1,9.775391E0,2.4377113E1,3.1355621E1,0E0,0E0,0E0,0E0,0E0,0E0,0E0,0E0,0E0,0E0,0E0,0E0,0E0,0E0,0E0,0E0,0E0,0E0,0E0,0E0,0E0,0E0,0E0,0E0,0E0,0E0,0E0,0E0,0E0,0E0,0E0,0E0,0E0,0E0,0E0,0E0,0E0,0E0,0E0,0E0,0E0,0E0,0E0,0E0,0E0,0E0,0E0,0E0,0E0,0E0,0E0,0E0,0E0,0E0,0E0,0E0,0E0,0E0,0E0,0E0,0E0,0E0],"parents":[2147483647,0,0,1,1,2,2,3,3,4,4,5,5,6,6,7,7,8,8,9,9,10,10,11,11,12,12,13,13,14,14,15,15,16,16,17,17,18,18,19,19,20,20,21,21,22,22,23,23,24,24,25,25,26,26,27,27,28,28,29,29,30,30,31,31,32,32,33,33,34,34,35,35,36,36,37,37,38,38,39,39,40,40,41,41,42,42,43,43,44,44,45,45,46,46,47,47,48,48,49,49,50,50,52,52,53,53,54,54,55,55,56,56,57,57,58,58,59,59,60,60,61,61,62,62],"right_children":[2,4,6,8,10,12,14,16,18,20,22,24,26,28,30,32,34,36,38,40,42,44,46,48,50,52,54,56,58,60,62,64,66,68,70,72,74,76,78,80,82,84,86,88,90,92,94,96,98,100,102,-1,104,106,108,110,112,114,116,118,120,122,124,-1,-1,-1,-1,-1,-1,-1,-1,-1,-1,-1,-1,-1,-1,-1,-1,-1,-1,-1,-1,-1,-1,-1,-1,-1,-1,-1,-1,-1,-1,-1,-1,-1,-1,-1,-1,-1,-1,-1,-1,-1,-1,-1,-1,-1,-1,-1,-1,-1,-1,-1,-1,-1,-1,-1,-1,-1,-1,-1,-1,-1,-1],"split_conditions":[6.2142735E0,2.6198795E0,2.684631E0,3.056093E0,2.9778888E0,2.1199963E0,1.777037E0,3E0,3.0083973E0,8.5842687E-1,5.922245E0,8.915197E0,9.753122E-1,2.841488E0,5.5523467E0,2.1699817E0,2.3002413E1,3E0,4.8283777E0,1.3166855E-1,4.975923E0,2.8745906E0,9.1047055E-1,3E0,4.391892E-2,6.764435E-1,8.648313E0,3E0,6.8728523E-3,3.2653043E0,7.6886005E0,1.8737382E-1,4.7735947E1,9.6222466E-1,4.7610626E0,5.181947E1,1.8354967E1,4.7905416E0,3E0,4.0130806E0,3.12185E1,1.5E1,1.2E1,3.648346E1,5.554283E0,4.948292E0,4.9599575E1,6.903465E1,1.2E1,2.171016E1,8.1401193E-1,3.9765246E-2,1.517997E0,2.454909E0,8.032128E-3,3.428952E0,9.594138E0,3.5E1,9.035625E-1,5.3608245E-1,3.4937978E0,7.627714E0,5.8139535E-3,6.4033486E-2,1.2431574E-2,-6.658235E-3,4.5326408E-2,6.306954E-2,3.429056E-2,7.58442E-2,6.270006E-2,7.2565586E-3,5.8132645E-2,3.372394E-2,6.449463E-2,1.2397513E-3,-4.79141E-2,-1.2041966E-2,3.7940588E-2,9.52413E-3,-5.674346E-2,-4.9585298E-2,2.029481E-2,5.3788442E-2,2.4280243E-2,2.1052642E-2,-1.1761496E-2,-5.1304042E-2,-1.3497078E-3,-6.677987E-2,-3.315444E-2,-9.703818E-3,-6.288185E-2,-7.7209E-3,3.0810416E-2,-4.0585183E-2,1.4405449E-2,5.393995E-2,2.3250125E-2,-3.2630093E-2,6.2061913E-2,-4.3973666E-2,2.0604318E-2,6.116139E-4,-5.06241E-2,1.6789543E-2,-2.293719E-2,-4.8114326E-2,-1.7376032E-2,-1.029156E-2,-6.11951E-2,2.8133685E-2,-1.5756747E-2,-5.1978983E-2,-7.405487E-2,-5.637748E-2,-1.9658616E-2,-4.357409E-2,-6.778902E-2,-6.438436E-2,-7.651732E-2,-7.6947077E-3,-5.8389015E-2,-7.073542E-2,-4.071699E-2],"split_indices":[9,2,23,4,23,2,2,21,23,16,23,9,16,4,23,22,24,21,23,14,2,4,16,21,19,7,9,21,19,4,9,14,22,25,9,7,24,9,21,22,27,13,13,24,4,7,24,15,26,1,16,0,22,4,19,23,9,10,16,19,2,7,19,0,0,0,0,0,0,0,0,0,0,0,0,0,0,0,0,0,0,0,0,0,0,0,0,0,0,0,0,0,0,0,0,0,0,0,0,0,0,0,0,0,0,0,0,0,0,0,0,0,0,0,0,0,0,0,0,0,0,0,0,0,0],"split_type":[0,0,0,0,0,0,0,0,0,0,0,0,0,0,0,0,0,0,0,0,0,0,0,0,0,0,0,0,0,0,0,0,0,0,0,0,0,0,0,0,0,0,0,0,0,0,0,0,0,0,0,0,0,0,0,0,0,0,0,0,0,0,0,0,0,0,0,0,0,0,0,0,0,0,0,0,0,0,0,0,0,0,0,0,0,0,0,0,0,0,0,0,0,0,0,0,0,0,0,0,0,0,0,0,0,0,0,0,0,0,0,0,0,0,0,0,0,0,0,0,0,0,0,0,0],"sum_hessian":[1.01838E4,5.5778096E3,4.60599E3,4.058534E3,1.5192759E3,1.5118214E3,3.0941687E3,2.6341414E3,1.4243925E3,5.7252155E2,9.467543E2,7.789761E2,7.3284534E2,1.1440084E3,1.9501603E3,4.6482184E2,2.1693196E3,3.4916873E2,1.0752236E3,1.0116853E2,4.7135303E2,7.1110944E2,2.3564482E2,4.416164E2,3.3735965E2,2.8782663E2,4.4501868E2,2.8712076E2,8.5688763E2,1.4031057E3,5.470545E2,1.1383741E2,3.5098444E2,3.2488583E2,1.8444338E3,6.778225E1,2.8138647E2,4.5134628E2,6.238774E2,6.684231E1,3.4326225E1,2.7483426E2,1.9651878E2,1.2824583E2,5.828636E2,6.82161E1,1.6742873E2,9.3853615E1,3.477628E2,1.8967383E2,1.4768584E2,9.687832E0,2.781388E2,1.8638794E2,2.5863074E2,5.5019176E1,2.321016E2,2.737898E2,5.8309784E2,4.0585165E2,9.972541E2,1.5106833E2,3.9598618E2,1.0430578E2,9.531636E0,2.2811292E2,1.22871506E2,1.8192818E2,1.4295766E2,1.3730391E3,4.713948E2,4.544709E1,2.2335161E1,4.0058716E1,2.4132777E2,2.7721103E2,1.7413524E2,1.6494144E2,4.5893597E2,1.1431108E1,5.5411205E1,8.794924E0,2.55313E1,1.6230916E2,1.1252509E2,9.011072E1,1.06408066E2,3.9881332E1,8.83645E1,4.7340082E2,1.0946277E2,3.1416468E1,3.6799633E1,6.9902405E1,9.752631E1,3.8115334E1,5.573828E1,1.9632428E2,1.514385E2,1.8357152E2,6.1023126E0,1.7792925E1,1.2989291E2,2.4396044E1,2.5374277E2,1.2578861E2,6.0599323E1,9.190125E1,1.6672948E2,1.8770304E1,3.6248875E1,1.4521565E2,8.688594E1,1.8876062E2,8.502917E1,1.44205E2,4.3889285E2,2.857071E2,1.2014456E2,2.808305E2,7.164236E2,1.2253751E2,2.8530815E1,1.3616974E2,2.5981644E2],"tree_param":{"num_deleted":"0","num_feature":"28","num_nodes":"125","size_leaf_vector":"0"}},{"base_weights":[6.434219E-3,6.5538657E-1,-5.551932E-1,8.9465207E-1,-5.5943954E-1,-1.9672567E-2,-8.864051E-1,1.5215383E-1,1.0952473E0,2.7396762E-1,-9.052594E-1,3.684588E-1,-4.2789203E-1,-5.317494E-1,-1.1576954E0,7.669625E-1,-7.564508E-2,1.3462641E0,6.1669034E-1,-3.6534423E-1,5.5103344E-1,-1.1082853E0,-1.4880502E-1,7.261637E-1,-1.2363129E-1,-8.7449116E-1,-1.768172E-1,9.630416E-2,-7.4376965E-1,-1.281576E0,-8.604246E-1,1.0804192E0,2.2304282E-1,-4.7712898E-1,6.2343794E-1,1.0312389E0,1.4041241E0,1.1589304E0,4.268604E-1,5.2215297E-2,-6.0992724E-1,-1.7953925E-1,6.7996407E-1,-4.8822334E-1,-1.2773575E0,-7.006175E-1,1.4325637E-1,-9.0000756E-2,9.1607726E-1,-6.4182734E-1,1.6717406E-1,-1.381776E0,-7.031627E-1,2.4735768E-1,-4.5686558E-1,5.400535E-1,-3.736448E-1,-3.670679E-1,-9.916784E-1,-9.86238E-1,-1.3782983E0,-6.9933474E-1,-1.3154749E0,-9.484342E-3,5.896725E-2,5.4983776E-2,-3.1684858E-3,5.3196414E-3,-3.2394987E-2,4.5769606E-2,9.176096E-4,6.397655E-2,3.4780066E-2,4.0332165E-2,7.120691E-2,6.730934E-2,4.2930804E-2,-2.3708844E-3,4.2650428E-2,-3.8461793E-2,2.5311962E-2,3.8083933E-2,-3.28941E-2,4.9739685E-2,1.162343E-2,3.3445568E-3,-5.21968E-2,-2.8729314E-2,-6.66221E-2,-5.1835436E-2,5.7308294E-2,1.5129754E-2,-3.2594565E-2,3.5111558E-2,-1.6293988E-2,4.8957102E-2,-1.0044823E-2,2.4873113E-2,-4.094776E-2,1.9922279E-2,-1.2373098E-2,-1.5104825E-2,-7.2645836E-2,-2.1865532E-2,-5.4238446E-2,-4.3325324E-2,1.813822E-2,-3.810283E-2,-8.320185E-3,-2.3622641E-2,3.731807E-2,-4.957353E-2,-2.2054063E-3,-3.5219524E-2,5.0406097E-3,-6.1844952E-2,-4.1762978E-2,-3.7678376E-2,-6.2298562E-2,-7.159842E-2,-5.8231324E-2,-5.1827777E-2,-2.1445869E-2,-1.7106552E-2,-6.785565E-2],"categories":[],"categories_nodes":[],"categories_segments":[],"categories_sizes":[],"default_left":[0,0,0,0,0,0,0,1,1,0,0,0,1,0,0,1,0,0,0,0,1,0,0,0,0,0,0,0,0,0,1,0,0,0,1,0,0,0,0,0,1,0,0,0,0,0,0,1,0,0,0,0,0,0,1,0,0,0,1,0,1,1,0,0,0,0,0,0,0,0,0,0,0,0,0,0,0,0,0,0,0,0,0,0,0,0,0,0,0,0,0,0,0,0,0,0,0,0,0,0,0,0,0,0,0,0,0,0,0,0,0,0,0,0,0,0,0,0,0,0,0,0,0,0,0],"id":5,"left_children":[1,3,5,7,9,11,13,15,17,19,21,23,25,27,29,31,33,35,37,39,41,43,45,47,49,51,53,55,57,59,61,63,65,67,69,71,73,75,77,-1,79,81,83,85,87,89,91,93,95,97,99,101,103,105,107,109,111,113,115,117,119,121,123,-1,-1,-1,-1,-1,-1,-1,-1,-1,-1,-1,-1,-1,-1,-1,-1,-1,-1,-1,-1,-1,-1,-1,-1,-1,-1,-1,-1,-1,-1,-1,-1,-1,-1,-1,-1,-1,-1,-1,-1,-1,-1,-1,-1,-1,-1,-1,-1,-1,-1,-1,-1,-1,-1,-1,-1,-1,-1,-1,-1,-1,-1],"loss_changes":[3.7002678E3,1.3695547E3,9.6530884E2,5.8598145E2,2.2379385E2,3.2984235E2,3.2291943E2,1.1745338E2,3.713435E2,4.0628258E1,8.405942E1,1.8793657E2,1.136133E2,1.943848E2,6.902881E1,3.8410843E1,1.7221361E2,3.5578613E1,1.094187E2,2.4635738E1,1.5157627E1,4.4687134E1,1.8988373E1,9.58902E1,6.792871E1,3.0740784E1,7.7412994E1,7.718913E1,1.01528625E2,3.6980713E1,4.0365936E1,1.8261536E1,2.119614E1,3.889599E1,3.953305E1,2.5691925E1,1.9340576E1,1.4382446E1,1.6021567E2,0E0,1.1048809E1,1.1637737E1,1.8913399E1,2.913509E1,1.2357239E1,2.6469809E1,1.0012098E1,2.220283E1,3.552481E1,3.30962E1,2.7818901E1,6.557144E0,2.7403702E1,3.3662727E1,3.4649696E1,4.010166E1,3.65802E1,6.8668015E1,2.4184204E1,1.9283722E1,9.898193E0,3.768187E1,5.4575653E0,0E0,0E0,0E0,0E0,0E0,0E0,0E0,0E0,0E0,0E0,0E0,0E0,0E0,0E0,0E0,0E0,0E0,0E0,0E0,0E0,0E0,0E0,0E0,0E0,0E0,0E0,0E0,0E0,0E0,0E0,0E0,0E0,0E0,0E0,0E0,0E0,0E0,0E0,0E0,0E0,0E0,0E0,0E0,0E0,0E0,0E0,0E0,0E0,0E0,0E0,0E0,0E0,0E0,0E0,0E0,0E0,0E0,0E0,0E0,0E0,0E0,0E0],"parents":[2147483647,0,0,1,1,2,2,3,3,4,4,5,5,6,6,7,7,8,8,9,9,10,10,11,11,12,12,13,13,14,14,15,15,16,16,17,17,18,18,19,19,20,20,21,21,22,22,23,23,24,24,25,25,26,26,27,27,28,28,29,29,30,30,31,31,32,32,33,33,34,34,35,35,36,36,37,37,38,38,40,40,41,41,42,42,43,43,44,44,45,45,46,46,47,47,48,48,49,49,50,50,51,51,52,52,53,53,54,54,55,55,56,56,57,57,58,58,59,59,60,60,61,61,62,62],"right_children":[2,4,6,8,10,12,14,16,18,20,22,24,26,28,30,32,34,36,38,40,42,44,46,48,50,52,54,56,58,60,62,64,66,68,70,72,74,76,78,-1,80,82,84,86,88,90,92,94,96,98,100,102,104,106,108,110,112,114,116,118,120,122,124,-1,-1,-1,-1,-1,-1,-1,-1,-1,-1,-1,-1,-1,-1,-1,-1,-1,-1,-1,-1,-1,-1,-1,-1,-1,-1,-1,-1,-1,-1,-1,-1,-1,-1,-1,-1,-1,-1,-1,-1,-1,-1,-1,-1,-1,-1,-1,-1,-1,-1,-1,-1,-1,-1,-1,-1,-1,-1,-1,-1,-1,-1],"split_conditions":[5.4871397E0,4.0806623E0,2.9778888E0,3E0,2.5136034E0,8.212408E0,2.1199963E0,3.1171122E0,2.949264E0,9.2747974E-1,5.6671696E0,2.0611362E0,9.30851E-3,2.9820166E0,5.490936E0,3.056093E0,4.7735947E1,2.4486202E1,2.9165707E0,5.1224346E0,1.7269964E0,2.9820166E0,9.297484E-1,3E0,9.5396805E-1,3E0,1.6885083E0,7.9181743E0,7.5068827E0,3.3358905E0,2.37462E0,1.41416645E1,2.740983E0,2.619223E0,3.8541799E0,9.6222466E-1,8.167042E-1,1.5E1,4.9990964E0,5.2215297E-2,5.8098305E1,1E1,2.3086686E0,8.423596E-1,3.1707969E0,4.6435764E2,5E1,2.543952E0,7.1E1,3.6548245E0,2.5178404E0,6.6951424E-1,1.8E1,8.009904E-1,5.0193146E1,3E0,9.999999E-1,5.554283E0,8.032128E-3,5.4028397E0,5.375054E0,3.482587E-2,1.5544906E-2,-9.484342E-3,5.896725E-2,5.4983776E-2,-3.1684858E-3,5.3196414E-3,-3.2394987E-2,4.5769606E-2,9.176096E-4,6.397655E-2,3.4780066E-2,4.0332165E-2,7.120691E-2,6.730934E-2,4.2930804E-2,-2.3708844E-3,4.2650428E-2,-3.8461793E-2,2.5311962E-2,3.8083933E-2,-3.28941E-2,4.9739685E-2,1.162343E-2,3.3445568E-3,-5.21968E-2,-2.8729314E-2,-6.66221E-2,-5.1835436E-2,5.7308294E-2,1.5129754E-2,-3.2594565E-2,3.5111558E-2,-1.6293988E-2,4.8957102E-2,-1.0044823E-2,2.4873113E-2,-4.094776E-2,1.9922279E-2,-1.2373098E-2,-1.5104825E-2,-7.2645836E-2,-2.1865532E-2,-5.4238446E-2,-4.3325324E-2,1.813822E-2,-3.810283E-2,-8.320185E-3,-2.3622641E-2,3.731807E-2,-4.957353E-2,-2.2054063E-3,-3.5219524E-2,5.0406097E-3,-6.1844952E-2,-4.1762978E-2,-3.7678376E-2,-6.2298562E-2,-7.159842E-2,-5.8231324E-2,-5.1827777E-2,-2.1445869E-2,-1.7106552E-2,-6.785565E-2],"split_indices":[9,2,23,21,23,9,2,22,4,16,23,2,19,4,23,4,22,24,23,7,4,4,16,21,16,21,2,9,9,4,7,3,23,9,4,25,16,26,23,0,22,8,4,17,23,0,13,22,26,7,4,22,26,16,24,21,16,4,19,2,4,19,14,0,0,0,0,0,0,0,0,0,0,0,0,0,0,0,0,0,0,0,0,0,0,0,0,0,0,0,0,0,0,0,0,0,0,0,0,0,0,0,0,0,0,0,0,0,0,0,0,0,0,0,0,0,0,0,0,0,0,0,0,0,0],"split_type":[0,0,0,0,0,0,0,0,0,0,0,0,0,0,0,0,0,0,0,0,0,0,0,0,0,0,0,0,0,0,0,0,0,0,0,0,0,0,0,0,0,0,0,0,0,0,0,0,0,0,0,0,0,0,0,0,0,0,0,0,0,0,0,0,0,0,0,0,0,0,0,0,0,0,0,0,0,0,0,0,0,0,0,0,0,0,0,0,0,0,0,0,0,0,0,0,0,0,0,0,0,0,0,0,0,0,0,0,0,0,0,0,0,0,0,0,0,0,0,0,0,0,0,0,0],"sum_hessian":[1.01504795E4,4.7090605E3,5.4414185E3,3.934422E3,7.7463873E2,2.0797808E3,3.3616377E3,8.372224E2,3.0971997E3,2.2723131E2,5.474074E2,1.0661716E3,1.013609E3,1.4582452E3,1.9033926E3,2.2570317E2,6.115193E2,2.0303893E3,1.0668104E3,6.8606804E1,1.586245E2,4.3120935E2,1.1619807E2,6.1711176E2,4.4905997E2,3.638781E2,6.4973083E2,3.6817383E2,1.0900714E3,1.3411774E3,5.6221515E2,1.4256038E2,8.314279E1,3.8864032E2,2.2287894E2,3.1797314E2,1.7124161E3,2.753062E2,7.9150415E2,9.660267E0,5.8946537E1,2.3735743E1,1.3488875E2,9.321962E1,3.3798972E2,3.9731544E1,7.646652E1,1.1658916E2,5.0052258E2,1.6098615E2,2.8807382E2,9.008402E1,2.737941E2,2.584248E2,3.9130603E2,1.8928876E2,1.7888509E2,4.3363544E2,6.56436E2,3.3363373E2,1.00754364E3,4.1709753E2,1.4511761E2,1.0235068E1,1.323253E2,1.9775564E1,6.336723E1,8.807294E1,3.0056738E2,1.4999396E2,7.288498E1,1.8115172E2,1.3682143E2,5.6841106E1,1.6555751E3,1.6742706E2,1.0787916E2,3.7501883E2,4.1648532E2,5.1856033E1,7.0905056E0,7.7985287E0,1.5937214E1,7.846365E1,5.6425106E1,4.707496E1,4.614466E1,2.5397486E1,3.1259222E2,3.398529E1,5.746252E0,6.42175E1,1.22490225E1,2.6295397E1,9.029376E1,4.7388995E2,2.6632622E1,2.1417826E1,1.3956831E2,1.8495212E2,1.031217E2,5.8930736E0,8.4190956E1,1.6263664E2,1.1115746E2,2.3650497E1,2.347743E2,1.9002321E2,2.0128284E2,3.1822422E1,1.5746634E2,6.152583E1,1.1735925E2,2.5167934E2,1.8195609E2,2.5295946E2,4.034765E2,1.7804309E2,1.5559065E2,8.007174E2,2.068262E2,1.8436017E2,2.3273737E2,6.3313375E0,1.3878627E2],"tree_param":{"num_deleted":"0","num_feature":"28","num_nodes":"125","size_leaf_vector":"0"}},{"base_weights":[-1.1546658E-3,6.052004E-1,-5.9406996E-1,9.529535E-1,-3.22589E-1,-3.5828013E-2,-9.016909E-1,1.4339915E-1,1.162525E0,3.5862857E-1,-7.959833E-1,3.419293E-1,-4.7072825E-1,-5.040109E-1,-1.1469977E0,9.411609E-1,-3.928043E-2,1.3717563E0,7.179211E-1,5.5052525E-1,-5.5887663E-1,-1.0575558E0,-1.5785287E-1,-4.2156914E-1,5.3916013E-1,-1.0191879E0,-3.2219753E-1,5.494568E-2,-7.0197374E-1,-1.2709078E0,-8.508357E-1,1.2873058E0,3.423926E-1,-3.24305E-1,6.549325E-1,9.939078E-1,1.4151293E0,1.2336665E0,5.328576E-1,8.6019456E-1,1.02374844E-1,6.0869664E-1,-9.014165E-1,-1.8085048E-1,-1.17823E0,-7.8295016E-1,7.962937E-2,7.035459E-1,-5.592608E-1,7.9160285E-1,-9.235105E-2,-1.1475135E0,-5.5253126E-2,-7.810191E-1,-6.032077E-2,-8.629996E-1,2.7635667E-1,-1.1521596E0,-5.1481164E-1,-9.492972E-1,-1.3730056E0,-6.4940006E-1,-1.187762E0,7.0401266E-2,3.5755467E-2,2.8071165E-2,-3.3084504E-2,1.3087273E-2,-2.4484688E-2,5.0700393E-2,7.61742E-3,5.2234825E-2,-2.7778069E-2,5.590051E-2,7.2480656E-2,6.44511E-2,-2.5053593E-4,6.5952176E-3,4.2852785E-2,1.5823236E-2,4.9539946E-2,-7.600132E-2,1.1402729E-2,5.4964777E-2,2.520061E-3,-6.3977145E-2,7.952959E-3,-4.9905926E-2,5.584692E-3,-6.319277E-2,-1.0786624E-2,1.5343329E-3,-5.9248526E-2,-1.7760001E-3,5.554005E-2,5.7855614E-2,-1.0678875E-2,-3.328562E-2,1.4641901E-2,4.3104623E-2,-1.627952E-2,1.9323729E-2,-2.0116491E-2,-1.5870228E-2,-6.392305E-2,5.037233E-2,-2.3657376E-2,-2.6135562E-2,-5.5631906E-2,1.0695847E-2,-2.3214998E-2,2.1804731E-2,-5.0309915E-2,-1.0153822E-2,3.1653546E-2,-5.032366E-2,-7.425093E-2,-5.6626983E-2,-1.690557E-2,-3.137065E-2,-5.9688687E-2,-5.9303254E-2,-7.2039E-2,-1.7396288E-2,-4.9056273E-2,-3.3884533E-2,-6.376767E-2],"categories":[],"categories_nodes":[],"categories_segments":[],"categories_sizes":[],"default_left":[0,0,0,0,0,0,0,1,1,1,1,0,0,0,0,1,0,1,0,0,1,0,0,1,0,1,1,0,1,1,1,0,1,0,1,1,0,0,0,0,0,0,0,0,0,0,0,0,0,0,0,0,0,0,0,0,0,0,0,0,0,0,0,0,0,0,0,0,0,0,0,0,0,0,0,0,0,0,0,0,0,0,0,0,0,0,0,0,0,0,0,0,0,0,0,0,0,0,0,0,0,0,0,0,0,0,0,0,0,0,0,0,0,0,0,0,0,0,0,0,0,0,0,0,0,0,0],"id":6,"left_children":[1,3,5,7,9,11,13,15,17,19,21,23,25,27,29,31,33,35,37,39,41,43,45,47,49,51,53,55,57,59,61,63,65,67,69,71,73,75,77,79,81,83,85,87,89,91,93,95,97,99,101,103,105,107,109,111,113,115,117,119,121,123,125,-1,-1,-1,-1,-1,-1,-1,-1,-1,-1,-1,-1,-1,-1,-1,-1,-1,-1,-1,-1,-1,-1,-1,-1,-1,-1,-1,-1,-1,-1,-1,-1,-1,-1,-1,-1,-1,-1,-1,-1,-1,-1,-1,-1,-1,-1,-1,-1,-1,-1,-1,-1,-1,-1,-1,-1,-1,-1,-1,-1,-1,-1,-1,-1],"loss_changes":[3.6504248E3,1.6199529E3,8.815686E2,6.1936304E2,4.4187766E2,2.9997418E2,3.2230444E2,1.0963702E2,2.688391E2,9.927882E1,1.3473889E2,1.4738086E2,6.8811676E1,1.3995987E2,7.401245E1,2.8609962E1,1.2148281E2,3.089917E1,8.813507E1,6.449881E1,3.9634327E1,6.04151E1,3.5118805E1,3.1559338E1,1.2394827E2,2.2252182E1,8.037536E1,6.764288E1,7.8092255E1,4.600171E1,4.039978E1,5.1032715E0,1.1963358E1,4.2306904E1,3.20988E1,1.681836E1,1.6473145E1,1.679889E1,8.910965E1,1.9221222E1,3.9355453E1,6.179843E0,3.066457E1,1.6971342E1,4.122705E1,2.1333252E1,2.046754E1,9.555962E0,1.6503853E1,4.400537E1,3.3225327E1,1.6894882E1,1.0355871E1,2.0244507E1,4.742711E1,1.2473152E1,4.595407E1,1.176474E1,7.181467E1,2.6824005E1,1.2117432E1,3.7846695E1,9.222687E0,0E0,0E0,0E0,0E0,0E0,0E0,0E0,0E0,0E0,0E0,0E0,0E0,0E0,0E0,0E0,0E0,0E0,0E0,0E0,0E0,0E0,0E0,0E0,0E0,0E0,0E0,0E0,0E0,0E0,0E0,0E0,0E0,0E0,0E0,0E0,0E0,0E0,0E0,0E0,0E0,0E0,0E0,0E0,0E0,0E0,0E0,0E0,0E0,0E0,0E0,0E0,0E0,0E0,0E0,0E0,0E0,0E0,0E0,0E0,0E0,0E0,0E0,0E0,0E0],"parents":[2147483647,0,0,1,1,2,2,3,3,4,4,5,5,6,6,7,7,8,8,9,9,10,10,11,11,12,12,13,13,14,14,15,15,16,16,17,17,18,18,19,19,20,20,21,21,22,22,23,23,24,24,25,25,26,26,27,27,28,28,29,29,30,30,31,31,32,32,33,33,34,34,35,35,36,36,37,37,38,38,39,39,40,40,41,41,42,42,43,43,44,44,45,45,46,46,47,47,48,48,49,49,50,50,51,51,52,52,53,53,54,54,55,55,56,56,57,57,58,58,59,59,60,60,61,61,62,62],"right_children":[2,4,6,8,10,12,14,16,18,20,22,24,26,28,30,32,34,36,38,40,42,44,46,48,50,52,54,56,58,60,62,64,66,68,70,72,74,76,78,80,82,84,86,88,90,92,94,96,98,100,102,104,106,108,110,112,114,116,118,120,122,124,126,-1,-1,-1,-1,-1,-1,-1,-1,-1,-1,-1,-1,-1,-1,-1,-1,-1,-1,-1,-1,-1,-1,-1,-1,-1,-1,-1,-1,-1,-1,-1,-1,-1,-1,-1,-1,-1,-1,-1,-1,-1,-1,-1,-1,-1,-1,-1,-1,-1,-1,-1,-1,-1,-1,-1,-1,-1,-1,-1,-1,-1,-1,-1,-1],"split_conditions":[5.746782E0,2.513859E0,2.7968457E0,3E0,2.9820166E0,2.1799572E0,1.8228798E0,1.517997E0,3.089037E0,1.3524968E1,5.554283E0,3E0,8.6320204E-1,2.949264E0,5.4357753E0,2.8745906E0,5.4093513E1,1.6480993E1,3.0083973E0,4.9128137E0,3.8436134E0,2.5618842E0,9.0595627E-1,1.0567337E0,9.722229E0,3E0,1.980198E-2,3E0,5.2724076E-3,3.056093E0,1.6082453E-2,1.2624939E-1,9.864806E-1,4.4950485E0,2.7469492E0,9.99657E-1,2.0875336E1,8.4E1,4.9990964E0,2.5567282E1,8.075424E-1,1.6E1,5.4093513E1,3E0,6.3742466E0,3.4784338E0,1.2193605E1,1.4E1,8.939404E1,7.3E1,1E1,1.8740425E0,3.3433372E1,1.047526E1,5.3300767E0,7.8428802E0,5.2560627E1,3.5E1,8.8630134E-1,4.475061E0,3.4485638E0,9.024452E0,7.4231327E-1,7.0401266E-2,3.5755467E-2,2.8071165E-2,-3.3084504E-2,1.3087273E-2,-2.4484688E-2,5.0700393E-2,7.61742E-3,5.2234825E-2,-2.7778069E-2,5.590051E-2,7.2480656E-2,6.44511E-2,-2.5053593E-4,6.5952176E-3,4.2852785E-2,1.5823236E-2,4.9539946E-2,-7.600132E-2,1.1402729E-2,5.4964777E-2,2.520061E-3,-6.3977145E-2,7.952959E-3,-4.9905926E-2,5.584692E-3,-6.319277E-2,-1.0786624E-2,1.5343329E-3,-5.9248526E-2,-1.7760001E-3,5.554005E-2,5.7855614E-2,-1.0678875E-2,-3.328562E-2,1.4641901E-2,4.3104623E-2,-1.627952E-2,1.9323729E-2,-2.0116491E-2,-1.5870228E-2,-6.392305E-2,5.037233E-2,-2.3657376E-2,-2.6135562E-2,-5.5631906E-2,1.0695847E-2,-2.3214998E-2,2.1804731E-2,-5.0309915E-2,-1.0153822E-2,3.1653546E-2,-5.032366E-2,-7.425093E-2,-5.6626983E-2,-1.690557E-2,-3.137065E-2,-5.9688687E-2,-5.9303254E-2,-7.2039E-2,-1.7396288E-2,-4.9056273E-2,-3.3884533E-2,-6.376767E-2],"split_indices":[9,2,23,21,4,2,2,22,4,7,4,21,16,4,23,4,22,24,23,2,22,23,16,22,9,21,19,21,19,4,14,14,11,22,4,11,3,26,23,24,16,8,22,21,23,9,4,26,22,26,13,22,12,9,2,18,24,10,16,2,2,9,17,0,0,0,0,0,0,0,0,0,0,0,0,0,0,0,0,0,0,0,0,0,0,0,0,0,0,0,0,0,0,0,0,0,0,0,0,0,0,0,0,0,0,0,0,0,0,0,0,0,0,0,0,0,0,0,0,0,0,0,0,0,0,0,0],"split_type":[0,0,0,0,0,0,0,0,0,0,0,0,0,0,0,0,0,0,0,0,0,0,0,0,0,0,0,0,0,0,0,0,0,0,0,0,0,0,0,0,0,0,0,0,0,0,0,0,0,0,0,0,0,0,0,0,0,0,0,0,0,0,0,0,0,0,0,0,0,0,0,0,0,0,0,0,0,0,0,0,0,0,0,0,0,0,0,0,0,0,0,0,0,0,0,0,0,0,0,0,0,0,0,0,0,0,0,0,0,0,0,0,0,0,0,0,0,0,0,0,0,0,0,0,0,0,0],"sum_hessian":[1.0151687E4,5.01895E3,5.132737E3,3.6506062E3,1.3683439E3,1.8239387E3,3.308798E3,7.510514E2,2.8995547E3,5.6112445E2,8.072194E2,9.762099E2,8.4772876E2,1.2635095E3,2.0452885E3,1.3916516E2,6.118862E2,1.9702615E3,9.292934E2,4.6439578E2,9.672865E1,5.7206866E2,2.3515074E2,2.0017537E2,7.760345E2,1.7940436E2,6.683244E2,3.3064407E2,9.328655E2,1.4396622E3,6.056263E2,8.7456856E1,5.17083E1,4.3416354E2,1.7772267E2,2.0533948E2,1.764922E3,2.4390338E2,6.8539E2,2.7408514E2,1.9031064E2,2.176477E1,7.496388E1,6.951763E1,5.0255103E2,6.4108475E1,1.7104227E2,2.137827E1,1.7879709E2,5.5423065E2,2.2180383E2,1.5815872E2,2.1245628E1,2.4212558E2,4.2619885E2,6.3690907E1,2.6695316E2,2.72429E2,6.604365E2,3.4938605E2,1.0902762E3,3.808549E2,2.2477138E2,7.101392E1,1.6442932E1,4.281048E1,8.897822E0,9.542943E1,3.3873413E2,1.03067604E2,7.465507E1,1.991379E2,6.201586E0,1.8701202E2,1.5779099E3,2.334309E2,1.04724865E1,3.0705072E2,3.783393E2,5.374751E1,2.2033763E2,1.2884899E1,1.7742574E2,1.1068963E1,1.0695807E1,5.510788E1,1.9856003E1,1.7688948E1,5.1828682E1,4.6120813E2,4.134292E1,2.1506264E1,4.260221E1,1.5472942E2,1.6312845E1,1.4129034E1,7.249235E0,1.5913527E2,1.9661829E1,5.215516E2,3.2679092E1,8.7065926E1,1.3473792E2,2.2016224E1,1.361425E2,5.5983458E0,1.5647284E1,1.3755566E2,1.0456992E2,2.5414514E2,1.720537E2,6.120501E0,5.7570408E1,1.14070366E2,1.528828E2,1.9229056E2,8.013844E1,1.4569405E2,5.1474243E2,1.5235623E2,1.970298E2,2.9502252E2,7.9525366E2,2.0059843E2,1.8025644E2,3.4222202E1,1.9054918E2],"tree_param":{"num_deleted":"0","num_feature":"28","num_nodes":"127","size_leaf_vector":"0"}},{"base_weights":[5.03863E-3,5.5596715E-1,-5.6618494E-1,8.74466E-1,-2.736741E-1,-6.426092E-2,-8.434954E-1,1.4187366E-1,1.0588709E0,3.2540494E-1,-6.995345E-1,2.4158685E-1,-5.4524356E-1,-5.8982646E-1,-1.1274818E0,7.3868144E-1,-6.952188E-2,1.2883965E0,6.4945275E-1,-2.3910497E-1,5.70227E-1,-9.695903E-1,-1.8090081E-1,5.509105E-1,-2.3608863E-1,-3.5147914E-1,-9.442222E-1,-1.3241955E-2,-7.137716E-1,-6.3541293E-1,-1.1905557E0,1.083612E0,1.7112483E-1,-3.1606042E-1,7.2749543E-1,9.6433717E-1,1.3355724E0,9.399225E-1,2.9708368E-1,8.976635E-1,-4.4094363E-1,7.547901E-1,4.776222E-2,-6.80182E-2,-1.094736E0,-6.494611E-1,1.00952536E-1,-2.4598964E-1,7.3110896E-1,-7.1974796E-1,6.6249475E-2,-8.248865E-1,-1.2964465E-1,-1.0370599E0,-1.0376935E-2,1.4870216E-1,-7.179919E-1,-1.0105643E0,-4.8398623E-1,-1.0930349E0,-3.569168E-1,-1.3053817E0,-9.3622446E-1,6.0910415E-2,2.5708724E-2,-3.737266E-2,2.1218576E-2,-1.964334E-3,-3.3016663E-2,5.9656855E-2,2.4521833E-2,5.657016E-2,2.370956E-2,7.016253E-2,6.0642596E-2,5.9773427E-2,3.4938518E-2,4.3529864E-2,2.697814E-3,6.3322924E-2,8.321931E-3,-3.3821527E-2,1.605325E-2,5.19872E-2,2.2990242E-2,3.786195E-2,-8.573931E-3,9.234012E-3,-6.0764607E-2,-5.8456045E-2,-1.27326865E-2,2.3420228E-2,-4.097903E-2,1.5723022E-2,-2.5916649E-2,2.7229352E-2,-2.5104076E-2,5.470481E-3,4.3063372E-2,1.2087854E-2,-4.2026855E-2,-5.9224423E-2,1.1823927E-2,4.5687445E-3,-4.8236202E-2,1.0589207E-2,-2.4065314E-2,-4.202109E-2,-6.574203E-2,2.0239918E-2,-4.9678694E-2,2.5512382E-2,-1.1352868E-2,-4.7751784E-2,1.8928485E-2,-2.5920441E-2,-5.4979403E-2,-5.308006E-2,-1.3334775E-2,-5.900057E-2,-3.3981872E-3,-5.7072546E-2,-6.0352436E-3,-5.344944E-2,-6.7566104E-2,-6.927659E-2,-4.1827917E-2],"categories":[],"categories_nodes":[],"categories_segments":[],"categories_sizes":[],"default_left":[0,0,0,0,0,0,0,1,0,0,0,0,0,0,0,1,0,0,0,0,0,0,0,0,1,0,0,1,1,1,0,0,0,1,0,1,0,0,0,0,0,0,0,0,0,0,0,1,1,0,0,0,0,0,0,0,0,0,0,0,0,0,0,0,0,0,0,0,0,0,0,0,0,0,0,0,0,0,0,0,0,0,0,0,0,0,0,0,0,0,0,0,0,0,0,0,0,0,0,0,0,0,0,0,0,0,0,0,0,0,0,0,0,0,0,0,0,0,0,0,0,0,0,0,0,0,0],"id":7,"left_children":[1,3,5,7,9,11,13,15,17,19,21,23,25,27,29,31,33,35,37,39,41,43,45,47,49,51,53,55,57,59,61,63,65,67,69,71,73,75,77,79,81,83,85,87,89,91,93,95,97,99,101,103,105,107,109,111,113,115,117,119,121,123,125,-1,-1,-1,-1,-1,-1,-1,-1,-1,-1,-1,-1,-1,-1,-1,-1,-1,-1,-1,-1,-1,-1,-1,-1,-1,-1,-1,-1,-1,-1,-1,-1,-1,-1,-1,-1,-1,-1,-1,-1,-1,-1,-1,-1,-1,-1,-1,-1,-1,-1,-1,-1,-1,-1,-1,-1,-1,-1,-1,-1,-1,-1,-1,-1],"loss_changes":[3.1476665E3,1.3456027E3,6.834414E2,4.9689966E2,3.6075638E2,2.5736847E2,2.2718774E2,9.35439E1,2.7537012E2,8.137902E1,1.1555719E2,1.5817262E2,5.2238678E1,1.1953247E2,4.552539E1,3.7777107E1,1.0793543E2,2.7489502E1,1.07996765E2,4.1357674E1,3.9529922E1,6.120694E1,3.7593994E1,9.344997E1,6.1625153E1,4.812944E1,1.9209763E1,3.4000843E1,9.3404175E1,2.1475777E1,3.734497E1,8.603622E0,1.7645605E1,3.993057E1,1.3742554E1,1.9346146E1,1.1924072E1,3.487085E1,6.680842E1,7.137272E0,2.7542515E1,2.5003006E1,1.6956394E1,1.9726748E1,2.9501709E1,2.0706772E1,2.373815E1,2.4676493E1,4.2791412E1,1.9025246E1,5.564569E1,1.8842163E1,3.7796543E1,9.90918E0,8.997776E0,3.3035343E1,1.4830109E1,2.5712158E1,9.735094E1,5.6637955E0,1.9903193E1,8.408691E0,1.7394196E1,0E0,0E0,0E0,0E0,0E0,0E0,0E0,0E0,0E0,0E0,0E0,0E0,0E0,0E0,0E0,0E0,0E0,0E0,0E0,0E0,0E0,0E0,0E0,0E0,0E0,0E0,0E0,0E0,0E0,0E0,0E0,0E0,0E0,0E0,0E0,0E0,0E0,0E0,0E0,0E0,0E0,0E0,0E0,0E0,0E0,0E0,0E0,0E0,0E0,0E0,0E0,0E0,0E0,0E0,0E0,0E0,0E0,0E0,0E0,0E0,0E0,0E0,0E0,0E0],"parents":[2147483647,0,0,1,1,2,2,3,3,4,4,5,5,6,6,7,7,8,8,9,9,10,10,11,11,12,12,13,13,14,14,15,15,16,16,17,17,18,18,19,19,20,20,21,21,22,22,23,23,24,24,25,25,26,26,27,27,28,28,29,29,30,30,31,31,32,32,33,33,34,34,35,35,36,36,37,37,38,38,39,39,40,40,41,41,42,42,43,43,44,44,45,45,46,46,47,47,48,48,49,49,50,50,51,51,52,52,53,53,54,54,55,55,56,56,57,57,58,58,59,59,60,60,61,61,62,62],"right_children":[2,4,6,8,10,12,14,16,18,20,22,24,26,28,30,32,34,36,38,40,42,44,46,48,50,52,54,56,58,60,62,64,66,68,70,72,74,76,78,80,82,84,86,88,90,92,94,96,98,100,102,104,106,108,110,112,114,116,118,120,122,124,126,-1,-1,-1,-1,-1,-1,-1,-1,-1,-1,-1,-1,-1,-1,-1,-1,-1,-1,-1,-1,-1,-1,-1,-1,-1,-1,-1,-1,-1,-1,-1,-1,-1,-1,-1,-1,-1,-1,-1,-1,-1,-1,-1,-1,-1,-1,-1,-1,-1,-1,-1,-1,-1,-1,-1,-1,-1,-1,-1,-1,-1,-1,-1,-1],"split_conditions":[5.8784814E0,2.4772947E0,2.5422404E0,3E0,2.9820166E0,2.9077775E0,2.9939184E0,2.9064877E0,2.8745906E0,9.2747974E-1,5.375054E0,8.915197E0,2.9778888E0,2.6550047E0,2.452557E0,3.019479E0,7.108264E1,2.1307297E1,4.26519E0,5.550314E0,6.0873823E0,2.5362911E0,1.5446846E-1,3E0,7.444169E-3,1.06741935E-1,8.695161E0,7.1899476E0,2.739726E-2,2.1327015E-2,5.083045E0,3E0,2.9750448E1,2.9080982E0,2.335284E0,9.8149335E-1,9.6094674E-1,1.2E1,3.2896414E0,4.8197026E0,1.5682259E-1,1.2E1,7.621804E-1,7.561483E0,6.3742466E0,5.92771E0,9.750968E-1,2.9064877E0,2.1047398E1,5E0,8.2612664E-1,6.579199E0,8.86489E0,2.792208E-1,6.422221E0,1.1E1,7.5268517E0,6.992733E0,9.1047055E-1,1.2421041E2,8.6860836E-1,3.2592604E0,1.0144551E2,6.0910415E-2,2.5708724E-2,-3.737266E-2,2.1218576E-2,-1.964334E-3,-3.3016663E-2,5.9656855E-2,2.4521833E-2,5.657016E-2,2.370956E-2,7.016253E-2,6.0642596E-2,5.9773427E-2,3.4938518E-2,4.3529864E-2,2.697814E-3,6.3322924E-2,8.321931E-3,-3.3821527E-2,1.605325E-2,5.19872E-2,2.2990242E-2,3.786195E-2,-8.573931E-3,9.234012E-3,-6.0764607E-2,-5.8456045E-2,-1.27326865E-2,2.3420228E-2,-4.097903E-2,1.5723022E-2,-2.5916649E-2,2.7229352E-2,-2.5104076E-2,5.470481E-3,4.3063372E-2,1.2087854E-2,-4.2026855E-2,-5.9224423E-2,1.1823927E-2,4.5687445E-3,-4.8236202E-2,1.0589207E-2,-2.4065314E-2,-4.202109E-2,-6.574203E-2,2.0239918E-2,-4.9678694E-2,2.5512382E-2,-1.1352868E-2,-4.7751784E-2,1.8928485E-2,-2.5920441E-2,-5.4979403E-2,-5.308006E-2,-1.3334775E-2,-5.900057E-2,-3.3981872E-3,-5.7072546E-2,-6.0352436E-3,-5.344944E-2,-6.7566104E-2,-6.927659E-2,-4.1827917E-2],"split_indices":[9,2,4,21,4,2,2,22,4,16,4,9,23,23,23,4,22,3,9,7,2,23,14,21,19,14,23,7,19,19,23,20,24,4,9,6,25,13,23,9,14,26,17,2,23,7,6,22,24,13,16,7,9,19,1,26,4,9,16,0,16,23,15,0,0,0,0,0,0,0,0,0,0,0,0,0,0,0,0,0,0,0,0,0,0,0,0,0,0,0,0,0,0,0,0,0,0,0,0,0,0,0,0,0,0,0,0,0,0,0,0,0,0,0,0,0,0,0,0,0,0,0,0,0,0,0,0],"split_type":[0,0,0,0,0,0,0,0,0,0,0,0,0,0,0,0,0,0,0,0,0,0,0,0,0,0,0,0,0,0,0,0,0,0,0,0,0,0,0,0,0,0,0,0,0,0,0,0,0,0,0,0,0,0,0,0,0,0,0,0,0,0,0,0,0,0,0,0,0,0,0,0,0,0,0,0,0,0,0,0,0,0,0,0,0,0,0,0,0,0,0,0,0,0,0,0,0,0,0,0,0,0,0,0,0,0,0,0,0,0,0,0,0,0,0,0,0,0,0,0,0,0,0,0,0,0,0],"sum_hessian":[1.0000012E4,5.0904487E3,4.909563E3,3.6782979E3,1.4121508E3,1.7476316E3,3.1619312E3,7.400486E2,2.9382493E3,5.86844E2,8.2530676E2,1.0686163E3,6.7901526E2,1.6717385E3,1.4901927E3,1.9291641E2,5.4713214E2,1.8813763E3,1.056873E3,1.7752673E2,4.0931723E2,5.42141E2,2.8316577E2,6.485123E2,4.20104E2,4.5831503E2,2.2070023E2,2.9597754E2,1.375761E3,1.7057005E2,1.3196227E3,1.1942627E2,7.349014E1,4.1833386E2,1.287983E2,2.418064E2,1.63957E3,5.7840594E2,4.7846713E2,2.624813E1,1.5127861E2,3.0214014E2,1.07177086E2,6.626921E1,4.758718E2,1.0586643E2,1.7729933E2,1.1953262E2,5.289797E2,1.610642E2,2.5903983E2,1.453696E2,3.1294543E2,2.006429E2,2.0057322E1,2.4131491E2,5.4662624E1,5.9886456E2,7.768964E2,6.342538E1,1.0714468E2,9.063083E2,4.1331442E2,9.5673E1,2.3753273E1,1.5460442E1,5.8029697E1,2.3251804E2,1.8581583E2,4.2090042E1,8.6708244E1,1.7936247E2,6.2443916E1,1.0500508E3,5.895191E2,2.7890085E2,2.9950507E2,1.4167915E2,3.3678796E2,1.696156E1,9.286571E0,1.15650826E2,3.562778E1,1.5239899E2,1.4974117E2,2.4721827E1,8.245526E1,5.4995037E1,1.1274175E1,4.368035E2,3.9068314E1,1.3751451E1,9.2114975E1,1.3221014E2,4.508919E1,2.8970812E1,9.0561806E1,9.18934E1,4.370863E2,1.7863754E1,1.4320044E2,3.0318682E1,2.2872113E2,1.9294209E1,1.26075386E2,1.5898471E2,1.5396071E2,1.19836975E2,8.080592E1,1.4515946E1,5.541375E0,1.22801125E2,1.1851378E2,4.5052654E1,9.609971E0,9.2777885E1,5.0608664E2,2.1130566E2,5.6559076E2,5.8325363E1,5.1000175E0,2.3907623E1,8.323705E1,1.5142102E2,7.5488727E2,7.269494E1,3.406195E2],"tree_param":{"num_deleted":"0","num_feature":"28","num_nodes":"127","size_leaf_vector":"0"}},{"base_weights":[-7.987402E-4,5.1888263E-1,-5.393166E-1,8.382366E-1,-2.8462943E-1,-4.095925E-2,-7.908835E-1,1.4333871E-1,1.0202098E0,3.038895E-1,-7.1233195E-1,2.1360782E-1,-4.6309993E-1,-5.316197E-1,-1.1110333E0,6.909879E-1,-1.0511343E-1,1.2452347E0,5.9882593E-1,-3.206649E-1,5.631905E-1,-9.4884163E-1,-1.5975863E-1,-4.6680468E-1,4.006266E-1,3.721408E-1,-5.388625E-1,-1.0828964E-1,-7.265426E-1,-1.2847869E0,-9.4821745E-1,9.121396E-1,-2.029396E-2,-4.8757946E-1,5.317355E-1,9.163447E-1,1.296571E0,8.607098E-1,2.670188E-1,7.180923E-1,-4.743627E-1,8.9448243E-1,2.5670832E-1,-3.2316738E-1,-1.077282E0,-5.4247636E-1,7.710352E-2,2.8073937E-1,-7.209638E-1,5.970042E-1,-2.7109188E-1,9.153487E-1,-1.2443744E-1,-2.566818E-1,-8.264361E-1,-7.6299673E-1,6.620782E-2,-1.0733536E0,-5.2682084E-1,-1.3647729E0,-1.1033068E0,-1.2604274E0,-7.734643E-1,5.5791236E-2,2.7011245E-2,2.6306937E-2,-3.4758065E-2,-7.960256E-3,-3.4818795E-2,4.4569477E-2,7.7432105E-3,5.3112984E-2,1.2032118E-2,5.090288E-2,6.615605E-2,4.729362E-2,1.2099351E-2,5.187961E-2,5.932124E-3,5.699444E-2,-4.5818402E-3,2.4287622E-2,-3.3443015E-2,2.762625E-2,5.8909204E-2,2.7535109E-2,-9.303119E-3,-6.5343984E-4,-4.5453027E-2,-5.871675E-2,-2.414363E-2,1.5487782E-2,-3.7457094E-2,2.962604E-2,-8.956011E-3,3.819467E-2,-1.7109638E-2,-4.3796152E-2,-7.4240253E-3,3.8575437E-2,9.41518E-3,-4.1856643E-2,5.173673E-3,-5.192518E-3,7.374932E-2,1.2118609E-2,-5.1668745E-2,-4.2539E-3,-4.4826925E-2,-4.8033338E-2,-9.754218E-3,-5.897313E-2,-8.000188E-3,1.5885685E-2,-2.085412E-2,-3.915499E-2,-5.9265684E-2,-5.1194232E-2,-1.7832516E-2,-3.1423386E-2,-6.917876E-2,-5.7165988E-2,1.6745923E-2,-3.6159743E-2,-6.754061E-2,-4.753523E-2,-2.1032486E-2],"categories":[],"categories_nodes":[],"categories_segments":[],"categories_sizes":[],"default_left":[0,0,0,0,0,0,0,1,1,0,1,0,1,0,1,0,0,0,0,0,0,0,0,1,0,0,0,0,1,1,0,0,0,0,0,0,0,0,0,0,0,1,1,0,0,0,0,0,0,0,1,1,0,1,0,0,0,0,0,0,0,0,0,0,0,0,0,0,0,0,0,0,0,0,0,0,0,0,0,0,0,0,0,0,0,0,0,0,0,0,0,0,0,0,0,0,0,0,0,0,0,0,0,0,0,0,0,0,0,0,0,0,0,0,0,0,0,0,0,0,0,0,0,0,0,0,0],"id":8,"left_children":[1,3,5,7,9,11,13,15,17,19,21,23,25,27,29,31,33,35,37,39,41,43,45,47,49,51,53,55,57,59,61,63,65,67,69,71,73,75,77,79,81,83,85,87,89,91,93,95,97,99,101,103,105,107,109,111,113,115,117,119,121,123,125,-1,-1,-1,-1,-1,-1,-1,-1,-1,-1,-1,-1,-1,-1,-1,-1,-1,-1,-1,-1,-1,-1,-1,-1,-1,-1,-1,-1,-1,-1,-1,-1,-1,-1,-1,-1,-1,-1,-1,-1,-1,-1,-1,-1,-1,-1,-1,-1,-1,-1,-1,-1,-1,-1,-1,-1,-1,-1,-1,-1,-1,-1,-1,-1],"loss_changes":[2.7656846E3,1.2907528E3,6.0842395E2,4.5496924E2,3.604394E2,1.7516896E2,2.6710803E2,1.0185812E2,2.6968872E2,9.783731E1,1.0820032E2,1.2959418E2,3.9001617E1,1.4712708E2,3.9581665E1,3.6763046E1,1.25814835E2,3.0186768E1,8.620993E1,2.8686762E1,4.307184E1,4.629236E1,2.267757E1,4.1947662E1,1.0545741E2,1.4028624E1,4.5439926E1,6.4441055E1,8.4030945E1,8.580566E0,3.9855164E1,1.2897385E1,2.1157425E1,2.2006317E1,2.6142952E1,2.481746E1,1.0520996E1,2.9042084E1,5.0212837E1,8.056245E0,2.9318977E1,1.9191895E1,2.9121845E1,1.8207233E1,2.7187378E1,1.7066948E1,2.0591246E1,1.7256697E1,1.4440788E1,4.3928665E1,3.8517593E1,1.4273188E1,9.528955E0,3.1261494E1,2.3387207E1,2.9616844E1,5.433566E1,1.3544312E1,6.5356094E1,5.7489624E0,1.2915863E1,1.198645E1,2.9765167E1,0E0,0E0,0E0,0E0,0E0,0E0,0E0,0E0,0E0,0E0,0E0,0E0,0E0,0E0,0E0,0E0,0E0,0E0,0E0,0E0,0E0,0E0,0E0,0E0,0E0,0E0,0E0,0E0,0E0,0E0,0E0,0E0,0E0,0E0,0E0,0E0,0E0,0E0,0E0,0E0,0E0,0E0,0E0,0E0,0E0,0E0,0E0,0E0,0E0,0E0,0E0,0E0,0E0,0E0,0E0,0E0,0E0,0E0,0E0,0E0,0E0,0E0,0E0,0E0],"parents":[2147483647,0,0,1,1,2,2,3,3,4,4,5,5,6,6,7,7,8,8,9,9,10,10,11,11,12,12,13,13,14,14,15,15,16,16,17,17,18,18,19,19,20,20,21,21,22,22,23,23,24,24,25,25,26,26,27,27,28,28,29,29,30,30,31,31,32,32,33,33,34,34,35,35,36,36,37,37,38,38,39,39,40,40,41,41,42,42,43,43,44,44,45,45,46,46,47,47,48,48,49,49,50,50,51,51,52,52,53,53,54,54,55,55,56,56,57,57,58,58,59,59,60,60,61,61,62,62],"right_children":[2,4,6,8,10,12,14,16,18,20,22,24,26,28,30,32,34,36,38,40,42,44,46,48,50,52,54,56,58,60,62,64,66,68,70,72,74,76,78,80,82,84,86,88,90,92,94,96,98,100,102,104,106,108,110,112,114,116,118,120,122,124,126,-1,-1,-1,-1,-1,-1,-1,-1,-1,-1,-1,-1,-1,-1,-1,-1,-1,-1,-1,-1,-1,-1,-1,-1,-1,-1,-1,-1,-1,-1,-1,-1,-1,-1,-1,-1,-1,-1,-1,-1,-1,-1,-1,-1,-1,-1,-1,-1,-1,-1,-1,-1,-1,-1,-1,-1,-1,-1,-1,-1,-1,-1,-1,-1],"split_conditions":[5.8784814E0,2.407386E0,2.684631E0,3E0,2.9820166E0,2.9523852E0,3.2238019E0,4.4950485E0,2.8745906E0,9.2747974E-1,5.554283E0,3E0,4.7581787E0,7.3726068E0,3.846154E-2,1.2624939E-1,4.8494373E1,2.158E1,4.2948084E0,5.1224346E0,4.0806623E0,2.9778888E0,1.5446846E-1,3.1171122E0,1.0623775E1,1.1E1,1.2E1,3E0,7.444169E-3,8.502658E1,9.2541367E-1,9.7384363E-1,2.9462152E0,3.897215E1,3.4101334E0,5.049751E0,8.98385E-1,4.3E1,2.3808923E0,2.1775355E0,3.3593452E0,5.2145992E1,9.279067E-1,5.764642E0,5.5523467E0,3.4807398E0,1.1E1,8.755978E0,6.1650646E1,1.9E1,2.6737968E-3,2.0576132E-2,2.7988052E0,9.7402364E-1,1.5238081E2,8.3336174E1,1.7E1,3.3063233E0,9.1047055E-1,2.0047455E0,1.3091939E1,1.0653912E1,5.183389E0,5.5791236E-2,2.7011245E-2,2.6306937E-2,-3.4758065E-2,-7.960256E-3,-3.4818795E-2,4.4569477E-2,7.7432105E-3,5.3112984E-2,1.2032118E-2,5.090288E-2,6.615605E-2,4.729362E-2,1.2099351E-2,5.187961E-2,5.932124E-3,5.699444E-2,-4.5818402E-3,2.4287622E-2,-3.3443015E-2,2.762625E-2,5.8909204E-2,2.7535109E-2,-9.303119E-3,-6.5343984E-4,-4.5453027E-2,-5.871675E-2,-2.414363E-2,1.5487782E-2,-3.7457094E-2,2.962604E-2,-8.956011E-3,3.819467E-2,-1.7109638E-2,-4.3796152E-2,-7.4240253E-3,3.8575437E-2,9.41518E-3,-4.1856643E-2,5.173673E-3,-5.192518E-3,7.374932E-2,1.2118609E-2,-5.1668745E-2,-4.2539E-3,-4.4826925E-2,-4.8033338E-2,-9.754218E-3,-5.897313E-2,-8.000188E-3,1.5885685E-2,-2.085412E-2,-3.915499E-2,-5.9265684E-2,-5.1194232E-2,-1.7832516E-2,-3.1423386E-2,-6.917876E-2,-5.7165988E-2,1.6745923E-2,-3.6159743E-2,-6.754061E-2,-4.753523E-2,-2.1032486E-2],"split_indices":[9,2,23,21,4,2,2,22,4,16,4,21,18,9,19,14,22,24,9,7,2,23,14,22,9,13,26,21,19,5,16,25,23,5,9,9,16,26,23,4,22,27,6,2,23,23,8,9,22,26,19,19,18,7,24,15,26,4,16,5,23,7,23,0,0,0,0,0,0,0,0,0,0,0,0,0,0,0,0,0,0,0,0,0,0,0,0,0,0,0,0,0,0,0,0,0,0,0,0,0,0,0,0,0,0,0,0,0,0,0,0,0,0,0,0,0,0,0,0,0,0,0,0,0,0,0,0],"split_type":[0,0,0,0,0,0,0,0,0,0,0,0,0,0,0,0,0,0,0,0,0,0,0,0,0,0,0,0,0,0,0,0,0,0,0,0,0,0,0,0,0,0,0,0,0,0,0,0,0,0,0,0,0,0,0,0,0,0,0,0,0,0,0,0,0,0,0,0,0,0,0,0,0,0,0,0,0,0,0,0,0,0,0,0,0,0,0,0,0,0,0,0,0,0,0,0,0,0,0,0,0,0,0,0,0,0,0,0,0,0,0,0,0,0,0,0,0,0,0,0,0,0,0,0,0,0,0],"sum_hessian":[9.880468E3,5.028191E3,4.852277E3,3.5980938E3,1.4300969E3,1.6281176E3,3.2241592E3,7.470673E2,2.8510264E3,6.0201434E2,8.2808264E2,1.0159528E3,6.121647E2,1.7829509E3,1.4412084E3,2.3259344E2,5.144739E2,1.8572651E3,9.9376135E2,1.7654646E2,4.2546786E2,5.7938153E2,2.4870113E2,2.1871758E2,7.972352E2,5.0584682E1,5.6157996E2,5.626194E2,1.2203315E3,6.9385266E2,7.4735565E2,1.7721223E2,5.5381207E1,3.215801E2,1.9289378E2,2.5330367E2,1.6039614E3,5.54511E2,4.3925034E2,2.2282104E1,1.5426436E2,2.0353651E2,2.2193135E2,9.927878E1,4.8010275E2,9.4583885E1,1.5411723E2,5.546801E1,1.6324957E2,6.1697363E2,1.8026164E2,2.3755348E1,2.6829336E1,2.8440295E2,2.7717703E2,1.17687675E2,4.4493173E2,4.4435233E2,7.759792E2,4.7706845E2,2.1678421E2,2.6596902E2,4.8138666E2,1.1321048E2,6.400176E1,3.0724388E1,2.4656818E1,1.2568216E2,1.9589796E2,9.800289E1,9.489089E1,2.0784776E2,4.54559E1,1.4301859E2,1.4609429E3,4.8695636E2,6.7554634E1,6.9955E1,3.6929535E2,1.4382413E1,7.899692E0,2.5733992E1,1.2853038E2,9.362904E1,1.0990747E2,1.3322679E2,8.870456E1,6.558734E1,3.3691433E1,4.118773E2,6.822545E1,1.8362623E1,7.622126E1,5.073888E1,1.0337836E2,3.1111359E1,2.4356651E1,1.2805713E2,3.519243E1,4.317429E2,1.8523073E2,7.129146E1,1.08970184E2,8.709054E0,1.5046293E1,1.9637712E1,7.191623E0,2.2515215E2,5.925081E1,2.2814903E2,4.9027992E1,6.904484E1,4.864283E1,2.928659E2,1.5206583E2,1.25915E2,3.1843732E2,1.9662521E2,5.7935394E2,1.273624E1,4.643322E2,2.111158E2,5.668423E0,3.9599167E1,2.2636986E2,3.192921E2,1.6209453E2],"tree_param":{"num_deleted":"0","num_feature":"28","num_nodes":"127","size_leaf_vector":"0"}},{"base_weights":[3.7623444E-3,5.7539433E-1,-5.4967064E-1,8.827221E-1,-2.6862994E-1,-2.6319435E-2,-8.183983E-1,1.7365544E-1,1.0661454E0,3.7449837E-1,-7.179937E-1,3.179841E-1,-4.2274338E-1,-4.471551E-1,-1.0550026E0,8.156473E-1,-3.0160436E-2,1.2794511E0,6.292853E-1,-2.0803533E-1,6.37979E-1,-9.3414944E-1,-1.4641696E-1,6.7979205E-1,-5.833297E-2,-2.790276E-1,-9.611502E-1,-4.2869546E-2,-6.77217E-1,-1.1516273E0,-7.3371524E-1,1.0986857E0,3.3747235E-1,-3.3239317E-1,6.390069E-1,9.9506944E-1,1.3310168E0,1.116947E0,4.3361235E-1,8.991516E-1,-4.23167E-1,9.961661E-1,3.974035E-1,-1.527217E-1,-1.0958211E0,-6.4343786E-1,1.6761424E-1,-5.674322E-2,8.4485894E-1,-8.267679E-1,1.5052363E-1,1.6464613E-2,-6.1849266E-1,1.3841415E-2,-1.017041E0,-7.330206E-1,1.5001373E-1,-1.1219729E0,-5.33678E-1,-8.621718E-1,-1.2663873E0,-5.126666E-1,-1.1256406E0,6.332455E-2,3.1473547E-2,-3.611227E-2,3.0160422E-2,1.3923347E-2,-2.3472473E-2,4.4687536E-2,6.222464E-3,6.0118463E-2,3.569959E-2,7.008099E-2,6.019459E-2,2.1792829E-2,5.9499394E-2,-1.4547709E-3,3.6544867E-2,5.9170015E-2,-6.79801E-3,9.30219E-3,-3.5153788E-2,1.6965507E-2,5.6706607E-2,3.4602236E-2,-8.994351E-3,1.1247714E-2,-3.9866693E-2,-6.0659718E-2,-2.2132104E-2,1.3670842E-2,-4.236784E-2,1.7134694E-2,-2.9113943E-2,4.6589937E-2,-1.9795747E-2,-1.6003307E-2,4.5548316E-2,2.63124E-2,-4.9702957E-2,-1.5882488E-2,2.2081716E-2,1.2058829E-2,-2.2992028E-2,1.9950666E-2,-3.540575E-2,-4.227307E-2,-6.636312E-2,3.328551E-3,-5.390932E-2,3.517875E-2,-4.586312E-3,-1.7919155E-3,-5.958244E-2,-4.413452E-2,-9.887049E-3,-3.430007E-2,-5.9688218E-2,-6.6353515E-2,-5.335272E-2,-8.799373E-3,-4.278947E-2,-6.4706795E-2,-3.4938175E-2],"categories":[],"categories_nodes":[],"categories_segments":[],"categories_sizes":[],"default_left":[0,0,0,0,0,0,0,1,1,0,1,0,1,0,0,1,0,1,0,0,0,0,0,0,0,0,0,0,0,1,0,0,0,0,1,0,0,0,0,0,0,0,0,0,0,0,0,1,0,0,1,0,1,0,0,0,0,0,1,0,0,0,1,0,0,0,0,0,0,0,0,0,0,0,0,0,0,0,0,0,0,0,0,0,0,0,0,0,0,0,0,0,0,0,0,0,0,0,0,0,0,0,0,0,0,0,0,0,0,0,0,0,0,0,0,0,0,0,0,0,0,0,0,0,0],"id":9,"left_children":[1,3,5,7,9,11,13,15,17,19,21,23,25,27,29,31,33,35,37,39,41,43,45,47,49,51,53,55,57,59,61,63,65,67,69,71,73,75,77,79,81,83,85,87,89,91,93,95,97,99,101,103,105,-1,107,109,111,113,115,117,119,121,123,-1,-1,-1,-1,-1,-1,-1,-1,-1,-1,-1,-1,-1,-1,-1,-1,-1,-1,-1,-1,-1,-1,-1,-1,-1,-1,-1,-1,-1,-1,-1,-1,-1,-1,-1,-1,-1,-1,-1,-1,-1,-1,-1,-1,-1,-1,-1,-1,-1,-1,-1,-1,-1,-1,-1,-1,-1,-1,-1,-1,-1,-1],"loss_changes":[3.1413003E3,1.267223E3,7.095117E2,4.6554224E2,3.7728476E2,2.3389676E2,2.9232666E2,9.647707E1,2.6428223E2,8.259303E1,9.478778E1,1.24915054E2,6.1363693E1,1.2081604E2,6.2334473E1,2.3674599E1,1.1356403E2,2.6691406E1,8.876123E1,4.0414078E1,3.1502502E1,7.023883E1,3.319876E1,5.6906494E1,7.2424255E1,6.321525E1,1.186467E1,6.297876E1,5.2259583E1,5.082251E1,4.0426834E1,7.9552E0,1.944495E1,3.251008E1,2.2791328E1,1.6459045E1,1.280127E1,1.2772888E1,9.2058655E1,8.300558E0,2.4244373E1,1.3033676E1,3.8073563E1,2.372078E1,3.485205E1,1.5618019E1,1.7361465E1,2.9391039E1,2.9718231E1,2.2349236E1,4.853141E1,3.627077E1,2.7025139E1,0E0,7.4149933E0,2.85901E1,4.9569958E1,1.5177078E1,7.344078E1,2.5283875E1,1.2095215E1,3.502069E1,1.1311905E1,0E0,0E0,0E0,0E0,0E0,0E0,0E0,0E0,0E0,0E0,0E0,0E0,0E0,0E0,0E0,0E0,0E0,0E0,0E0,0E0,0E0,0E0,0E0,0E0,0E0,0E0,0E0,0E0,0E0,0E0,0E0,0E0,0E0,0E0,0E0,0E0,0E0,0E0,0E0,0E0,0E0,0E0,0E0,0E0,0E0,0E0,0E0,0E0,0E0,0E0,0E0,0E0,0E0,0E0,0E0,0E0,0E0,0E0,0E0,0E0,0E0,0E0],"parents":[2147483647,0,0,1,1,2,2,3,3,4,4,5,5,6,6,7,7,8,8,9,9,10,10,11,11,12,12,13,13,14,14,15,15,16,16,17,17,18,18,19,19,20,20,21,21,22,22,23,23,24,24,25,25,26,26,27,27,28,28,29,29,30,30,31,31,32,32,33,33,34,34,35,35,36,36,37,37,38,38,39,39,40,40,41,41,42,42,43,43,44,44,45,45,46,46,47,47,48,48,49,49,50,50,51,51,52,52,54,54,55,55,56,56,57,57,58,58,59,59,60,60,61,61,62,62],"right_children":[2,4,6,8,10,12,14,16,18,20,22,24,26,28,30,32,34,36,38,40,42,44,46,48,50,52,54,56,58,60,62,64,66,68,70,72,74,76,78,80,82,84,86,88,90,92,94,96,98,100,102,104,106,-1,108,110,112,114,116,118,120,122,124,-1,-1,-1,-1,-1,-1,-1,-1,-1,-1,-1,-1,-1,-1,-1,-1,-1,-1,-1,-1,-1,-1,-1,-1,-1,-1,-1,-1,-1,-1,-1,-1,-1,-1,-1,-1,-1,-1,-1,-1,-1,-1,-1,-1,-1,-1,-1,-1,-1,-1,-1,-1,-1,-1,-1,-1,-1,-1,-1,-1,-1,-1],"split_conditions":[5.710302E0,2.513859E0,2.684631E0,3E0,2.949264E0,2.1799572E0,1.8228798E0,2.3197992E0,3.019479E0,9.2747974E-1,5.6614227E0,7.967232E0,3.6548245E0,7.3726068E0,6.072019E0,2.9080982E0,5.3473408E1,2.40345E1,3.1448748E0,5.550314E0,3.758218E0,2.9778888E0,1.5446846E-1,3E0,8.887028E-1,8.915197E0,2.0415802E0,3E0,9.1047055E-1,3.3063233E0,9.910037E0,3.9494927E0,2.9750448E1,5.091346E0,3.8541799E0,9.6094674E-1,4.1477E0,1.4459786E1,4.75334E0,3E0,3.3445227E0,2.637795E1,8.606585E-1,5.6874843E0,5.5523467E0,3.4807398E0,9.889567E-1,2.543952E0,8.005672E0,3.6548245E0,1.2765957E-2,2E1,3.8691292E0,1.3841415E-2,6.2412405E0,4.612534E0,2.7765355E0,1.7751862E0,2.5E-2,3.8515902E-1,4.6842694E0,4.0806623E0,9.6406784E1,6.332455E-2,3.1473547E-2,-3.611227E-2,3.0160422E-2,1.3923347E-2,-2.3472473E-2,4.4687536E-2,6.222464E-3,6.0118463E-2,3.569959E-2,7.008099E-2,6.019459E-2,2.1792829E-2,5.9499394E-2,-1.4547709E-3,3.6544867E-2,5.9170015E-2,-6.79801E-3,9.30219E-3,-3.5153788E-2,1.6965507E-2,5.6706607E-2,3.4602236E-2,-8.994351E-3,1.1247714E-2,-3.9866693E-2,-6.0659718E-2,-2.2132104E-2,1.3670842E-2,-4.236784E-2,1.7134694E-2,-2.9113943E-2,4.6589937E-2,-1.9795747E-2,-1.6003307E-2,4.5548316E-2,2.63124E-2,-4.9702957E-2,-1.5882488E-2,2.2081716E-2,1.2058829E-2,-2.2992028E-2,1.9950666E-2,-3.540575E-2,-4.227307E-2,-6.636312E-2,3.328551E-3,-5.390932E-2,3.517875E-2,-4.586312E-3,-1.7919155E-3,-5.958244E-2,-4.413452E-2,-9.887049E-3,-3.430007E-2,-5.9688218E-2,-6.6353515E-2,-5.335272E-2,-8.799373E-3,-4.278947E-2,-6.4706795E-2,-3.4938175E-2],"split_indices":[9,2,23,21,4,2,2,22,4,16,4,9,7,9,23,4,22,24,23,7,9,23,14,21,16,9,18,21,16,4,9,1,24,22,4,25,9,24,23,20,9,3,17,2,23,23,6,22,3,7,19,26,18,0,2,22,4,7,19,19,23,2,5,0,0,0,0,0,0,0,0,0,0,0,0,0,0,0,0,0,0,0,0,0,0,0,0,0,0,0,0,0,0,0,0,0,0,0,0,0,0,0,0,0,0,0,0,0,0,0,0,0,0,0,0,0,0,0,0,0,0,0,0,0,0],"split_type":[0,0,0,0,0,0,0,0,0,0,0,0,0,0,0,0,0,0,0,0,0,0,0,0,0,0,0,0,0,0,0,0,0,0,0,0,0,0,0,0,0,0,0,0,0,0,0,0,0,0,0,0,0,0,0,0,0,0,0,0,0,0,0,0,0,0,0,0,0,0,0,0,0,0,0,0,0,0,0,0,0,0,0,0,0,0,0,0,0,0,0,0,0,0,0,0,0,0,0,0,0,0,0,0,0,0,0,0,0,0,0,0,0,0,0,0,0,0,0,0,0,0,0,0,0],"sum_hessian":[9.927512E3,4.883443E3,5.0440693E3,3.579883E3,1.3035598E3,1.711668E3,3.3324011E3,7.3613293E2,2.8437502E3,5.3624866E2,7.6731116E2,9.161596E2,7.9550836E2,1.29826E3,2.0341412E3,1.7666397E2,5.5946893E2,1.90948E3,9.3427026E2,1.670735E2,3.6917517E2,5.5629877E2,2.110124E2,4.6667303E2,4.4948657E2,6.291018E2,1.6640654E2,4.7127658E2,8.269834E2,1.561844E3,4.7229727E2,1.1016065E2,6.650331E1,3.8574747E2,1.7372148E2,2.9620776E2,1.6132722E3,2.6618015E2,6.680901E2,2.666436E1,1.4040913E2,1.4706812E2,2.2210706E2,9.569738E1,4.6060138E2,8.129573E1,1.2971667E2,8.5559456E1,3.811136E2,9.542734E1,3.5405923E2,3.368433E2,2.9225854E2,7.0174427E0,1.593891E2,1.0233037E2,3.6894623E2,2.001138E2,6.2686957E2,4.45837E2,1.116007E3,3.0345477E2,1.688425E2,7.989033E1,3.0270329E1,1.2988624E1,5.351469E1,7.0499466E1,3.1524802E2,1.1570306E2,5.801842E1,1.685911E2,1.2761667E2,1.0307737E3,5.8249854E2,2.6455513E1,2.3972464E2,2.6168845E2,4.0640167E2,2.0807281E1,5.8570776E0,4.4308563E1,9.610057E1,2.6128723E1,1.20939384E2,1.4692154E2,7.5185524E1,6.0753277E1,3.4944107E1,3.8971417E2,7.088722E1,1.4729323E1,6.656641E1,1.0560401E2,2.4112656E1,2.141028E1,6.414918E1,2.0259794E1,3.608538E2,1.0264506E1,8.516283E1,1.3571191E2,2.1834734E2,2.2920314E2,1.07640144E2,2.337894E1,2.688796E2,1.0502592E2,5.436318E1,3.1097887E1,7.123248E1,1.1156427E2,2.5738193E2,1.2154768E1,1.8795903E2,3.066532E2,3.2021634E2,2.9315613E2,1.5268086E2,8.5121484E2,2.6479218E2,1.5392918E2,1.4952559E2,1.1960205E2,4.9240444E1],"tree_param":{"num_deleted":"0","num_feature":"28","num_nodes":"125","size_leaf_vector":"0"}},{"base_weights":[4.5013158E-3,6.028351E-1,-4.105665E-1,8.1455135E-1,-3.4250644E-1,4.3411493E-2,-7.180868E-1,1.611938E-1,9.9339586E-1,2.1171476E-1,-7.122941E-1,3.0596524E-1,-4.2810607E-1,-3.3965376E-1,-9.61453E-1,8.1350905E-1,-3.146624E-2,1.2221584E0,6.5461975E-1,-2.818443E-1,4.6722677E-1,-1.0378813E0,-1.720367E-1,6.529965E-1,-4.6653766E-2,-9.4458044E-1,-2.7870733E-1,1.4303194E-1,-5.3610605E-1,-1.1169847E0,-6.3729584E-1,2.3464623E-1,1.0331526E0,-2.7943864E-1,7.777942E-1,9.548871E-1,1.2692552E0,1.0544772E0,4.9523824E-1,5.0549793E-1,-4.6975964E-1,-5.3122718E-2,6.2158316E-1,-3.1131685E-1,-1.1418221E0,-9.3357915E-1,2.979596E-2,2.4145983E-2,8.094088E-1,-5.1770043E-1,1.853104E-1,-1.1373041E0,-5.5573374E-1,-7.8121126E-2,-7.177485E-1,-7.528108E-1,3.559085E-1,-8.1033117E-1,-2.4136414E-1,-8.544857E-1,-1.2094355E0,-5.0542045E-1,-1.161706E0,3.022419E-2,-3.367399E-2,6.021678E-2,1.9471375E-2,1.1103735E-3,-2.9491717E-2,4.5661557E-2,-1.8125065E-3,5.9162635E-2,2.8951824E-2,5.3612597E-2,6.528632E-2,3.2791585E-2,5.8672097E-2,1.1088975E-2,3.945089E-2,4.7431972E-2,-2.4063036E-2,-6.878558E-4,-4.4114385E-2,4.7108952E-2,-2.1497881E-2,4.0999293E-2,1.3632469E-2,6.201581E-2,-3.387794E-2,-6.300719E-2,-2.4729146E-2,-6.863879E-2,1.7520385E-3,3.5147544E-2,-8.178876E-3,-7.1869395E-3,5.0606396E-2,4.9134854E-2,2.3333095E-2,-1.306327E-2,-4.8717912E-2,-2.0979133E-2,1.7862778E-2,-1.703987E-2,-6.092452E-2,-7.4361734E-2,-1.967925E-2,6.7581236E-3,-2.6226047E-2,-5.2229133E-2,-2.0597588E-2,-4.507824E-2,2.0375794E-2,2.8758595E-2,-1.1419657E-2,-4.5355037E-2,-1.6551163E-2,6.1514727E-3,-3.4206953E-2,2.3470966E-2,-4.4954896E-2,-5.2502282E-2,-6.4750515E-2,-6.74078E-3,-3.7025716E-2,-3.5478596E-2,-6.2192257E-2],"categories":[],"categories_nodes":[],"categories_segments":[],"categories_sizes":[],"default_left":[0,0,0,0,0,0,0,1,0,0,0,0,0,1,0,0,0,0,0,0,0,1,0,0,1,0,0,0,0,1,1,1,0,0,1,1,0,0,0,0,1,1,0,0,0,0,0,0,0,0,0,0,0,0,1,0,0,0,0,0,0,0,0,0,0,0,0,0,0,0,0,0,0,0,0,0,0,0,0,0,0,0,0,0,0,0,0,0,0,0,0,0,0,0,0,0,0,0,0,0,0,0,0,0,0,0,0,0,0,0,0,0,0,0,0,0,0,0,0,0,0,0,0,0,0,0,0],"id":10,"left_children":[1,3,5,7,9,11,13,15,17,19,21,23,25,27,29,31,33,35,37,39,41,43,45,47,49,51,53,55,57,59,61,63,65,67,69,71,73,75,77,79,81,83,85,87,89,91,93,95,97,99,101,103,105,107,109,111,113,115,117,119,121,123,125,-1,-1,-1,-1,-1,-1,-1,-1,-1,-1,-1,-1,-1,-1,-1,-1,-1,-1,-1,-1,-1,-1,-1,-1,-1,-1,-1,-1,-1,-1,-1,-1,-1,-1,-1,-1,-1,-1,-1,-1,-1,-1,-1,-1,-1,-1,-1,-1,-1,-1,-1,-1,-1,-1,-1,-1,-1,-1,-1,-1,-1,-1,-1,-1],"loss_changes":[2.4354937E3,8.0418335E2,8.083736E2,3.8333594E2,1.5091977E2,2.8972052E2,3.1758716E2,8.881575E1,1.9887402E2,3.7357037E1,7.747772E1,1.8396748E2,6.432576E1,1.2833582E2,1.0517944E2,2.0243607E1,1.09861824E2,1.8132568E1,6.579953E1,1.522687E1,1.5684788E1,2.043274E1,2.5728596E1,7.450104E1,8.166222E1,1.3411072E1,5.724655E1,7.503336E1,7.752167E1,3.3378662E1,4.6669434E1,1.5727075E1,1.2369904E1,3.9240494E1,1.4191299E1,1.9422607E1,7.9658203E0,1.3253998E1,5.9753525E1,9.203178E0,1.54712925E1,1.7471537E1,1.01862335E1,2.1199184E1,1.7790466E1,1.4964098E1,1.744679E1,2.5347212E1,3.5575317E1,2.8620132E1,5.2249596E1,7.625046E0,9.089504E0,4.270112E1,1.995147E1,1.3415421E1,4.080233E1,2.2783508E1,7.50865E1,2.2437012E1,1.2910889E1,4.762712E1,4.188156E0,0E0,0E0,0E0,0E0,0E0,0E0,0E0,0E0,0E0,0E0,0E0,0E0,0E0,0E0,0E0,0E0,0E0,0E0,0E0,0E0,0E0,0E0,0E0,0E0,0E0,0E0,0E0,0E0,0E0,0E0,0E0,0E0,0E0,0E0,0E0,0E0,0E0,0E0,0E0,0E0,0E0,0E0,0E0,0E0,0E0,0E0,0E0,0E0,0E0,0E0,0E0,0E0,0E0,0E0,0E0,0E0,0E0,0E0,0E0,0E0,0E0,0E0,0E0,0E0],"parents":[2147483647,0,0,1,1,2,2,3,3,4,4,5,5,6,6,7,7,8,8,9,9,10,10,11,11,12,12,13,13,14,14,15,15,16,16,17,17,18,18,19,19,20,20,21,21,22,22,23,23,24,24,25,25,26,26,27,27,28,28,29,29,30,30,31,31,32,32,33,33,34,34,35,35,36,36,37,37,38,38,39,39,40,40,41,41,42,42,43,43,44,44,45,45,46,46,47,47,48,48,49,49,50,50,51,51,52,52,53,53,54,54,55,55,56,56,57,57,58,58,59,59,60,60,61,61,62,62],"right_children":[2,4,6,8,10,12,14,16,18,20,22,24,26,28,30,32,34,36,38,40,42,44,46,48,50,52,54,56,58,60,62,64,66,68,70,72,74,76,78,80,82,84,86,88,90,92,94,96,98,100,102,104,106,108,110,112,114,116,118,120,122,124,126,-1,-1,-1,-1,-1,-1,-1,-1,-1,-1,-1,-1,-1,-1,-1,-1,-1,-1,-1,-1,-1,-1,-1,-1,-1,-1,-1,-1,-1,-1,-1,-1,-1,-1,-1,-1,-1,-1,-1,-1,-1,-1,-1,-1,-1,-1,-1,-1,-1,-1,-1,-1,-1,-1,-1,-1,-1,-1,-1,-1,-1,-1,-1,-1],"split_conditions":[5.0814743E0,3.5567808E0,3.074327E0,3E0,3.1707969E0,2.9523852E0,1.777037E0,2.0214689E0,2.5422404E0,9.4434994E-1,4.8283777E0,7.421341E0,8.6860836E-1,3.089037E0,5.379975E0,5.791404E1,6.723904E1,2.40345E1,2.7693353E0,1.2934725E1,2.637795E1,2.436307E0,8.6320204E-1,3E0,8.695652E-3,1.03792265E-1,9.84273E0,3E0,5.2861643E0,3.3732157E0,6.9687824E0,9.854902E-1,1.2327575E-1,3.0419798E0,9.9155235E-1,9.632679E-1,9.4813716E-1,3.3406284E1,5.2290573E0,5.0400543E1,4.0130806E0,6.146278E-1,2.436307E0,4.135581E0,5.205672E0,1.9126667E-1,3.056093E0,6.8398636E1,1.5E1,2E1,9.035625E-1,2.4345882E0,1.4491982E0,2E1,1.754386E-2,7.517322E1,9.594138E0,5.9756427E0,8.054471E0,1.7751862E0,3.9122522E0,7.557084E0,2.7765355E0,3.022419E-2,-3.367399E-2,6.021678E-2,1.9471375E-2,1.1103735E-3,-2.9491717E-2,4.5661557E-2,-1.8125065E-3,5.9162635E-2,2.8951824E-2,5.3612597E-2,6.528632E-2,3.2791585E-2,5.8672097E-2,1.1088975E-2,3.945089E-2,4.7431972E-2,-2.4063036E-2,-6.878558E-4,-4.4114385E-2,4.7108952E-2,-2.1497881E-2,4.0999293E-2,1.3632469E-2,6.201581E-2,-3.387794E-2,-6.300719E-2,-2.4729146E-2,-6.863879E-2,1.7520385E-3,3.5147544E-2,-8.178876E-3,-7.1869395E-3,5.0606396E-2,4.9134854E-2,2.3333095E-2,-1.306327E-2,-4.8717912E-2,-2.0979133E-2,1.7862778E-2,-1.703987E-2,-6.092452E-2,-7.4361734E-2,-1.967925E-2,6.7581236E-3,-2.6226047E-2,-5.2229133E-2,-2.0597588E-2,-4.507824E-2,2.0375794E-2,2.8758595E-2,-1.1419657E-2,-4.5355037E-2,-1.6551163E-2,6.1514727E-3,-3.4206953E-2,2.3470966E-2,-4.4954896E-2,-5.2502282E-2,-6.4750515E-2,-6.74078E-3,-3.7025716E-2,-3.5478596E-2,-6.2192257E-2],"split_indices":[9,2,23,21,23,2,2,22,4,16,23,9,16,4,23,24,22,24,23,7,3,4,16,21,19,14,9,21,23,4,7,25,14,23,11,25,16,24,23,18,22,6,4,2,4,14,4,22,26,26,16,22,23,26,19,22,9,4,9,7,2,9,4,0,0,0,0,0,0,0,0,0,0,0,0,0,0,0,0,0,0,0,0,0,0,0,0,0,0,0,0,0,0,0,0,0,0,0,0,0,0,0,0,0,0,0,0,0,0,0,0,0,0,0,0,0,0,0,0,0,0,0,0,0,0,0,0],"split_type":[0,0,0,0,0,0,0,0,0,0,0,0,0,0,0,0,0,0,0,0,0,0,0,0,0,0,0,0,0,0,0,0,0,0,0,0,0,0,0,0,0,0,0,0,0,0,0,0,0,0,0,0,0,0,0,0,0,0,0,0,0,0,0,0,0,0,0,0,0,0,0,0,0,0,0,0,0,0,0,0,0,0,0,0,0,0,0,0,0,0,0,0,0,0,0,0,0,0,0,0,0,0,0,0,0,0,0,0,0,0,0,0,0,0,0,0,0,0,0,0,0,0,0,0,0,0,0],"sum_hessian":[9.804737E3,4.0156274E3,5.7891104E3,3.2809688E3,7.3465875E2,2.3381968E3,3.4509136E3,7.055057E2,2.5754631E3,2.9418094E2,4.4047778E2,1.5021244E3,8.360724E2,1.351592E3,2.0993215E3,1.6012527E2,5.453804E2,1.535793E3,1.03967E3,1.00311485E2,1.9386946E2,2.7426837E2,1.6620941E2,7.566313E2,7.4549316E2,1.8639136E2,6.496811E2,3.910498E2,9.6054224E2,1.4169961E3,6.823254E2,4.461427E1,1.1551101E2,4.1796335E2,1.2741702E2,2.3327061E2,1.3025223E3,2.9470242E2,7.4496765E2,1.9002657E1,8.130883E1,4.4502693E1,1.4936678E2,3.4825733E1,2.3944263E2,3.4062267E1,1.3214714E2,1.5093927E2,6.0569196E2,2.4557512E2,4.9991803E2,1.2333712E2,6.305423E1,4.4675058E2,2.0293047E2,7.459544E1,3.1645438E2,4.9668338E2,4.6385886E2,3.7174026E2,1.0452559E3,5.467867E2,1.3553868E2,3.1940678E1,1.2673592E1,9.0558334E1,2.4952671E1,2.124401E2,2.0552327E2,1.09137405E2,1.8279621E1,1.4376889E2,8.950173E1,2.0821687E2,1.0943054E3,6.922966E1,2.2547278E2,3.8673663E2,3.5823102E2,1.3140188E1,5.8624697E0,3.911026E1,4.219857E1,1.1809919E1,3.2692772E1,9.436254E1,5.500423E1,6.194653E0,2.863108E1,2.0163486E2,3.7807774E1,2.3148783E1,1.09134865E1,2.8901733E1,1.0324541E2,1.2974638E2,2.1192898E1,4.0105612E2,2.0463585E2,1.5827074E2,8.730438E1,1.10332954E2,3.8958508E2,1.1889425E1,1.1144769E2,8.137046E0,5.4917187E1,3.0278253E2,1.4396806E2,9.692334E1,1.0600713E2,6.631665E1,8.278795E0,2.3011696E2,8.633742E1,4.1250784E2,8.417554E1,2.548474E2,2.0901146E2,1.1807938E1,3.599323E2,3.6978122E2,6.754746E2,2.1283868E2,3.3394803E2,2.2319538E1,1.1321915E2],"tree_param":{"num_deleted":"0","num_feature":"28","num_nodes":"127","size_leaf_vector":"0"}},{"base_weights":[-2.9146858E-3,5.372997E-1,-4.413998E-1,8.147592E-1,-2.1832258E-1,-2.7966686E-2,-7.2299767E-1,2.1440038E-1,9.789752E-1,3.498657E-1,-5.8953416E-1,2.4884516E-1,-5.002848E-1,-3.6985815E-1,-9.1352546E-1,5.0173914E-1,-1.0721486E-1,1.1804744E0,6.0119987E-1,5.730095E-1,-3.9796207E-2,-8.6126536E-1,-4.5066357E-2,-4.161817E-1,4.2123827E-1,-2.961145E-1,-7.743604E-1,-5.2309316E-2,-6.249561E-1,-1.1376687E0,-7.7393925E-1,1.0472976E0,2.6754388E-1,2.4176319E-1,-5.966982E-1,9.625452E-1,1.2487352E0,1.1797869E0,4.748145E-1,7.624683E-1,1.4131927E-1,7.325032E-1,-3.2236454E-1,-5.0239354E-1,-1.0503005E0,1.6704962E-1,-7.029635E-1,-2.0435405E-1,-1.0753635E0,7.5768274E-1,1.2017934E-1,-1.2683668E0,-2.0997243E-1,-1.0451792E0,-5.228113E-1,-1.0861198E0,5.7185814E-2,-8.397894E-1,-3.1443745E-1,-7.622352E-1,-1.218124E0,-1.1436194E0,-6.118265E-1,8.647418E-3,5.6699198E-2,-7.4265054E-3,3.8817275E-2,3.4204688E-2,1.4177747E-3,-3.690862E-2,3.579134E-2,5.572023E-2,3.0634506E-2,2.6551276E-2,6.294379E-2,3.9121225E-2,6.53043E-2,3.221499E-2,5.7102176E-3,1.2486322E-2,4.4719875E-2,-5.0496127E-2,1.437351E-2,1.3088341E-2,5.9576374E-2,3.3251476E-2,-2.6627127E-2,-4.2124134E-2,3.5434444E-3,-6.2728666E-2,-3.5501704E-2,1.2238069E-2,-5.7956286E-2,5.8026547E-3,-5.6839913E-2,2.8596371E-2,-2.0820158E-2,4.496548E-3,-5.9737694E-2,9.5272595E-3,4.3868955E-2,-1.5637822E-2,1.629713E-2,-7.102173E-2,-3.3763018E-2,-3.162385E-2,-1.111409E-3,1.3348726E-2,-5.45305E-2,6.223754E-2,-2.9082572E-2,-6.350638E-2,-7.3391907E-3,3.6852073E-2,-4.4512516E-3,-3.1644616E-2,-5.2825134E-2,1.4083064E-2,-2.5066568E-2,-4.934606E-2,-1.5875021E-2,-5.14957E-2,-6.5824755E-2,-2.8674928E-2,-6.0606312E-2,-1.697584E-2,-4.216006E-2],"categories":[],"categories_nodes":[],"categories_segments":[],"categories_sizes":[],"default_left":[0,0,0,0,0,0,0,0,1,1,0,0,0,0,1,1,0,0,0,0,0,1,1,0,0,0,1,0,0,0,0,0,0,0,1,0,0,0,0,0,1,0,0,0,0,0,0,0,0,1,1,1,0,1,0,0,0,0,0,0,0,0,0,0,0,0,0,0,0,0,0,0,0,0,0,0,0,0,0,0,0,0,0,0,0,0,0,0,0,0,0,0,0,0,0,0,0,0,0,0,0,0,0,0,0,0,0,0,0,0,0,0,0,0,0,0,0,0,0,0,0,0,0,0,0,0,0],"id":11,"left_children":[1,3,5,7,9,11,13,15,17,19,21,23,25,27,29,31,33,35,37,39,41,43,45,47,49,51,53,55,57,59,61,63,65,67,69,71,73,75,77,79,81,83,85,87,89,91,93,95,97,99,101,103,105,107,109,111,113,115,117,119,121,123,125,-1,-1,-1,-1,-1,-1,-1,-1,-1,-1,-1,-1,-1,-1,-1,-1,-1,-1,-1,-1,-1,-1,-1,-1,-1,-1,-1,-1,-1,-1,-1,-1,-1,-1,-1,-1,-1,-1,-1,-1,-1,-1,-1,-1,-1,-1,-1,-1,-1,-1,-1,-1,-1,-1,-1,-1,-1,-1,-1,-1,-1,-1,-1,-1],"loss_changes":[2.2852922E3,9.063916E2,6.199513E2,3.1150073E2,2.452254E2,2.8234653E2,2.1278882E2,6.2927628E1,1.8825244E2,3.9991802E1,1.0396994E2,1.5628189E2,4.4422913E1,9.002734E1,6.3472656E1,4.5652657E1,5.5123413E1,2.2865234E1,6.2731354E1,2.380333E1,3.6967842E1,3.128244E1,3.292595E1,3.8991E1,1.09486725E2,3.8168835E1,2.2618591E1,5.6247913E1,4.0856934E1,2.2849792E1,7.5449036E1,7.9617767E0,5.364808E1,1.7784521E1,2.5456863E1,2.0050476E1,8.273193E0,6.7316437E0,4.344438E1,1.350573E1,1.5500592E1,9.496639E0,2.607219E1,3.1973686E1,2.0392914E1,1.8689077E1,2.0566816E1,3.5424244E1,9.576096E0,3.4501343E1,5.106822E1,2.3917122E0,3.3520805E1,9.992905E0,1.9267143E1,8.0385895E0,4.4773487E1,1.5640717E1,2.8401989E1,1.3836105E1,1.0615784E1,1.4388397E1,5.5501404E1,0E0,0E0,0E0,0E0,0E0,0E0,0E0,0E0,0E0,0E0,0E0,0E0,0E0,0E0,0E0,0E0,0E0,0E0,0E0,0E0,0E0,0E0,0E0,0E0,0E0,0E0,0E0,0E0,0E0,0E0,0E0,0E0,0E0,0E0,0E0,0E0,0E0,0E0,0E0,0E0,0E0,0E0,0E0,0E0,0E0,0E0,0E0,0E0,0E0,0E0,0E0,0E0,0E0,0E0,0E0,0E0,0E0,0E0,0E0,0E0,0E0,0E0,0E0,0E0],"parents":[2147483647,0,0,1,1,2,2,3,3,4,4,5,5,6,6,7,7,8,8,9,9,10,10,11,11,12,12,13,13,14,14,15,15,16,16,17,17,18,18,19,19,20,20,21,21,22,22,23,23,24,24,25,25,26,26,27,27,28,28,29,29,30,30,31,31,32,32,33,33,34,34,35,35,36,36,37,37,38,38,39,39,40,40,41,41,42,42,43,43,44,44,45,45,46,46,47,47,48,48,49,49,50,50,51,51,52,52,53,53,54,54,55,55,56,56,57,57,58,58,59,59,60,60,61,61,62,62],"right_children":[2,4,6,8,10,12,14,16,18,20,22,24,26,28,30,32,34,36,38,40,42,44,46,48,50,52,54,56,58,60,62,64,66,68,70,72,74,76,78,80,82,84,86,88,90,92,94,96,98,100,102,104,106,108,110,112,114,116,118,120,122,124,126,-1,-1,-1,-1,-1,-1,-1,-1,-1,-1,-1,-1,-1,-1,-1,-1,-1,-1,-1,-1,-1,-1,-1,-1,-1,-1,-1,-1,-1,-1,-1,-1,-1,-1,-1,-1,-1,-1,-1,-1,-1,-1,-1,-1,-1,-1,-1,-1,-1,-1,-1,-1,-1,-1,-1,-1,-1,-1,-1,-1,-1,-1,-1,-1],"split_conditions":[5.393186E0,2.4772947E0,2.841488E0,3E0,2.9778888E0,2.9523852E0,1.5976026E0,3.0083973E0,2.8745906E0,2.2731084E-2,5.183389E0,3E0,9.159458E0,7.5068827E0,1.980198E-2,3.5841918E0,3.8848538E0,3.4842655E1,2.3269508E0,5.53686E0,1.3524968E1,3.7143583E0,6.9687824E0,1.0543846E1,7.421341E0,7.722695E-1,2.2727273E-2,5.4573967E1,7.4706375E1,7.0810595E0,9.1047055E-1,1.9042227E1,3.9153362E1,3.056093E0,1.00654854E2,1.9E1,7.5838965E-1,3.899669E1,1.9E1,2.5567282E1,1.5432922E0,6.742196E1,3.8436134E0,2.8E1,4.6072664E0,6.7E1,3.3107562E0,2.4345882E0,7.8428802E0,2.1047398E1,7.444169E-3,3.1809519E1,1.5E1,2.6210327E0,1.6398926E0,3E0,2.6550047E0,1.2E1,3.1707969E0,5.554283E0,6.9540725E0,2.4726856E0,4.020454E0,8.647418E-3,5.6699198E-2,-7.4265054E-3,3.8817275E-2,3.4204688E-2,1.4177747E-3,-3.690862E-2,3.579134E-2,5.572023E-2,3.0634506E-2,2.6551276E-2,6.294379E-2,3.9121225E-2,6.53043E-2,3.221499E-2,5.7102176E-3,1.2486322E-2,4.4719875E-2,-5.0496127E-2,1.437351E-2,1.3088341E-2,5.9576374E-2,3.3251476E-2,-2.6627127E-2,-4.2124134E-2,3.5434444E-3,-6.2728666E-2,-3.5501704E-2,1.2238069E-2,-5.7956286E-2,5.8026547E-3,-5.6839913E-2,2.8596371E-2,-2.0820158E-2,4.496548E-3,-5.9737694E-2,9.5272595E-3,4.3868955E-2,-1.5637822E-2,1.629713E-2,-7.102173E-2,-3.3763018E-2,-3.162385E-2,-1.111409E-3,1.3348726E-2,-5.45305E-2,6.223754E-2,-2.9082572E-2,-6.350638E-2,-7.3391907E-3,3.6852073E-2,-4.4512516E-3,-3.1644616E-2,-5.2825134E-2,1.4083064E-2,-2.5066568E-2,-4.934606E-2,-1.5875021E-2,-5.14957E-2,-6.5824755E-2,-2.8674928E-2,-6.0606312E-2,-1.697584E-2,-4.216006E-2],"split_indices":[9,2,4,21,23,2,2,23,4,14,23,21,9,9,19,22,9,3,23,2,7,4,7,9,9,16,19,15,0,9,16,3,22,4,22,26,16,24,26,24,4,5,22,10,4,13,9,22,18,24,19,22,10,12,5,21,23,26,23,4,1,23,2,0,0,0,0,0,0,0,0,0,0,0,0,0,0,0,0,0,0,0,0,0,0,0,0,0,0,0,0,0,0,0,0,0,0,0,0,0,0,0,0,0,0,0,0,0,0,0,0,0,0,0,0,0,0,0,0,0,0,0,0,0,0,0,0],"split_type":[0,0,0,0,0,0,0,0,0,0,0,0,0,0,0,0,0,0,0,0,0,0,0,0,0,0,0,0,0,0,0,0,0,0,0,0,0,0,0,0,0,0,0,0,0,0,0,0,0,0,0,0,0,0,0,0,0,0,0,0,0,0,0,0,0,0,0,0,0,0,0,0,0,0,0,0,0,0,0,0,0,0,0,0,0,0,0,0,0,0,0,0,0,0,0,0,0,0,0,0,0,0,0,0,0,0,0,0,0,0,0,0,0,0,0,0,0,0,0,0,0,0,0,0,0,0,0],"sum_hessian":[9.64563E3,4.3214146E3,5.3242153E3,3.1607354E3,1.1606793E3,2.1575974E3,3.166618E3,6.793605E2,2.481375E3,4.5867468E2,7.0200464E2,1.3606395E3,7.9695795E2,1.1107697E3,2.0558481E3,3.5850418E2,3.208563E2,1.616849E3,8.6452594E2,2.9135617E2,1.6731853E2,4.6790317E2,2.3410143E2,2.798131E2,1.0808264E3,4.5791705E2,3.3904092E2,4.9535324E2,6.1541644E2,7.8621594E2,1.2696322E3,1.0663224E2,2.5187195E2,1.8760736E2,1.3324893E2,3.892456E2,1.2276034E3,1.5349538E2,7.110306E2,2.0195609E2,8.9400085E1,4.4393227E1,1.2292529E2,1.6269472E2,3.0520847E2,1.7758986E2,5.651157E1,2.1275456E2,6.705854E1,5.0970053E2,5.711259E2,3.61526E1,4.2176447E2,1.6174768E2,1.7729324E2,4.6586094E1,4.4876715E2,3.6274536E2,2.5267107E2,1.4059982E2,6.4561615E2,3.8519153E2,8.8444073E2,9.8884945E0,9.6743744E1,1.389518E2,1.1292015E2,6.0338364E1,1.27269005E2,1.20678825E2,1.25701065E1,2.6990457E2,1.1934102E2,1.7846605E1,1.2097568E3,3.875605E1,1.1473933E2,4.8316043E2,2.2787012E2,4.1921482E1,1.600346E2,9.40512E0,7.9994965E1,2.269225E1,2.1700977E1,2.1194E1,1.0173129E2,1.018201E2,6.0874622E1,1.8903668E2,1.16171776E2,1.6852972E2,9.060136E0,1.9822357E1,3.6689213E1,4.5282955E1,1.674716E2,6.2549214E0,6.080362E1,8.927856E1,4.2042197E2,1.8382637E2,3.8729953E2,2.7664684E1,8.487917E0,1.2902788E2,2.9273657E2,5.249594E0,1.5649808E2,5.0624375E0,1.722308E2,3.8660652E1,7.925442E0,7.8714966E1,3.700522E2,1.8758124E2,1.7516412E2,6.0189472E1,1.9248158E2,9.259863E1,4.8001186E1,2.2554953E2,4.2006662E2,4.2325565E1,3.4286597E2,4.07414E2,4.770267E2],"tree_param":{"num_deleted":"0","num_feature":"28","num_nodes":"127","size_leaf_vector":"0"}},{"base_weights":[8.7000075E-4,5.24946E-1,-5.0683796E-1,7.637415E-1,-4.5630562E-1,-7.9368606E-2,-7.977003E-1,1.0161026E0,2.7162272E-1,1.0954203E-1,-8.093794E-1,2.3381664E-1,-4.8621187E-1,-5.7606393E-1,-1.0800698E0,3.7287992E-1,1.1736326E0,9.0058416E-1,8.977176E-2,-4.7101665E-1,3.0555385E-1,-1.0430574E0,-1.5846403E-1,-5.590169E-1,4.3043026E-1,-8.290856E-1,-3.1051683E-1,-9.6470326E-1,-3.9777967E-1,-7.4135965E-1,-1.159291E0,1.0963567E0,1.6810589E-1,7.931063E-1,1.2308716E0,3.8647145E-1,1.0794573E0,-3.6908594E-1,4.3113208E-1,2.4568443E-1,-7.481561E-1,5.848589E-1,-1.3010037E-1,-4.3489507E-1,-1.1643239E0,4.560037E-1,-4.6772742E-1,-1.8538745E-1,-8.804843E-1,7.070188E-1,-8.893802E-2,2.2745354E-1,-9.067002E-1,-1.600219E-2,-6.0551625E-1,-4.467417E-1,-1.0684421E0,-8.7620085E-1,-2.4179468E-1,-1.2273508E0,-5.410101E-1,-1.322803E0,-8.6225635E-1,3.0241838E-2,6.184102E-2,-6.500896E-3,3.9053943E-2,5.1141556E-2,1.7885594E-2,6.629677E-2,5.3926833E-2,-2.5323795E-3,3.437297E-2,5.6402232E-2,5.0728912E-3,-5.420829E-3,-4.3543544E-2,-1.6470781E-3,3.5429414E-2,-2.980536E-2,2.847652E-2,-5.48986E-2,2.0165918E-2,3.9425887E-2,-3.5203143E-3,1.9832766E-2,-3.083846E-2,3.014793E-3,-4.7749687E-2,-4.990613E-2,-6.734731E-2,5.9820373E-2,9.486703E-3,-5.2230723E-2,-7.925133E-3,-4.0027477E-2,7.848053E-3,1.5590171E-2,-4.9001124E-2,4.4242427E-2,1.4386035E-2,-2.570917E-2,9.329281E-3,5.248856E-2,-1.7910814E-2,-6.1612036E-3,-4.947471E-2,8.579152E-3,-3.442352E-2,-4.8346654E-2,-1.9310225E-2,1.36286905E-2,-3.6926504E-2,-2.9369568E-2,-5.706463E-2,-5.0763912E-2,-4.7732256E-3,1.0936804E-2,-1.8617531E-2,-6.856462E-2,-3.3669345E-2,-1.642702E-2,-5.2254647E-2,-4.870498E-2,-6.7454174E-2,-1.6155329E-2,-4.7183722E-2],"categories":[],"categories_nodes":[],"categories_segments":[],"categories_sizes":[],"default_left":[0,0,0,1,0,0,0,0,0,0,0,0,0,1,0,1,0,0,0,1,0,0,0,0,0,0,0,0,0,0,0,1,0,1,0,0,0,0,0,0,0,1,0,0,1,0,0,0,0,0,1,0,0,0,1,0,0,1,0,0,0,0,0,0,0,0,0,0,0,0,0,0,0,0,0,0,0,0,0,0,0,0,0,0,0,0,0,0,0,0,0,0,0,0,0,0,0,0,0,0,0,0,0,0,0,0,0,0,0,0,0,0,0,0,0,0,0,0,0,0,0,0,0,0,0,0,0],"id":12,"left_children":[1,3,5,7,9,11,13,15,17,19,21,23,25,27,29,31,33,35,37,39,41,43,45,47,49,51,53,55,57,59,61,63,65,67,69,71,73,75,77,79,81,83,85,87,89,91,93,95,97,99,101,103,105,107,109,111,113,115,117,119,121,123,125,-1,-1,-1,-1,-1,-1,-1,-1,-1,-1,-1,-1,-1,-1,-1,-1,-1,-1,-1,-1,-1,-1,-1,-1,-1,-1,-1,-1,-1,-1,-1,-1,-1,-1,-1,-1,-1,-1,-1,-1,-1,-1,-1,-1,-1,-1,-1,-1,-1,-1,-1,-1,-1,-1,-1,-1,-1,-1,-1,-1,-1,-1,-1,-1],"loss_changes":[2.6308088E3,1.1403691E3,6.2436E2,4.8573242E2,1.9046202E2,2.593612E2,1.8640698E2,2.6164136E2,1.5180147E2,4.190774E1,8.910214E1,1.7955463E2,5.307492E1,1.15773926E2,3.437329E1,7.5415535E1,4.4266357E1,2.6961014E1,1.6168062E2,1.866161E1,3.3535393E1,3.1329163E1,2.9898687E1,2.734378E1,1.3255305E2,2.4753937E1,5.0986485E1,2.7813019E1,8.5678894E1,2.3840454E1,5.045764E1,7.0114746E0,7.299801E1,2.7080582E1,2.4691406E1,1.0350216E1,1.0354401E1,5.751363E1,7.621876E1,7.616662E0,2.756514E1,2.2440063E1,2.7992598E1,1.8951483E1,9.56131E0,1.0183534E1,1.8459255E1,2.2698078E1,1.4883301E1,4.4626984E1,3.775065E1,1.0627183E1,1.7980347E1,3.7299286E1,2.2867432E1,1.9001387E1,1.4676697E1,3.058934E1,5.2350147E1,4.8716736E0,1.8934204E1,4.947754E0,1.6378235E1,0E0,0E0,0E0,0E0,0E0,0E0,0E0,0E0,0E0,0E0,0E0,0E0,0E0,0E0,0E0,0E0,0E0,0E0,0E0,0E0,0E0,0E0,0E0,0E0,0E0,0E0,0E0,0E0,0E0,0E0,0E0,0E0,0E0,0E0,0E0,0E0,0E0,0E0,0E0,0E0,0E0,0E0,0E0,0E0,0E0,0E0,0E0,0E0,0E0,0E0,0E0,0E0,0E0,0E0,0E0,0E0,0E0,0E0,0E0,0E0,0E0,0E0,0E0,0E0],"parents":[2147483647,0,0,1,1,2,2,3,3,4,4,5,5,6,6,7,7,8,8,9,9,10,10,11,11,12,12,13,13,14,14,15,15,