{"learner":{"attributes":{"best_iteration":"199","best_ntree_limit":"200"},"feature_names":["secondshower_Y_anglediff","secondshower_U_dot","n_showers_contained","shr_distance","CylFrac2h_1cm","secondshower_V_anglediff","secondshower_Y_dot","shr2_distance","shr2_trackEndProximity","shr2_pfpgeneration","secondshower_V_vtxdist","DeltaRMS2h","secondshower_Y_nhit","shrMCSMom","shrsubclusters","secondshower_Y_vtxdist","secondshower_V_nhit","shr_trkfit_2cm_dedx_max","shr_energyFraction","shr_energy_second_cali","shrmoliereavg","secondshower_U_vtxdist","secondshower_U_nhit","secondshower_V_dot","shrPCA1CMed_5cm","secondshower_U_anglediff","shr12_p1_dstart","shr_trkfit_gap10_dedx_max"],"feature_types":["float","float","float","float","float","float","float","float","float","float","float","float","float","float","float","float","float","float","float","float","float","float","float","float","float","float","float","float"],"gradient_booster":{"gbtree":{"model":{"gbtree_model_param":{"num_parallel_tree":"1","num_trees":"200","size_leaf_vector":"0"},"tree_info":[0,0,0,0,0,0,0,0,0,0,0,0,0,0,0,0,0,0,0,0,0,0,0,0,0,0,0,0,0,0,0,0,0,0,0,0,0,0,0,0,0,0,0,0,0,0,0,0,0,0,0,0,0,0,0,0,0,0,0,0,0,0,0,0,0,0,0,0,0,0,0,0,0,0,0,0,0,0,0,0,0,0,0,0,0,0,0,0,0,0,0,0,0,0,0,0,0,0,0,0,0,0,0,0,0,0,0,0,0,0,0,0,0,0,0,0,0,0,0,0,0,0,0,0,0,0,0,0,0,0,0,0,0,0,0,0,0,0,0,0,0,0,0,0,0,0,0,0,0,0,0,0,0,0,0,0,0,0,0,0,0,0,0,0,0,0,0,0,0,0,0,0,0,0,0,0,0,0,0,0,0,0,0,0,0,0,0,0,0,0,0,0,0,0,0,0,0,0,0,0],"trees":[{"base_weights":[-7.2143823E-3,7.816854E-1,-7.725067E-1,1.144629E0,-4.022914E-1,-1.116748E-1,-1.1288767E0,1.4075651E0,3.5715297E-1,4.8188806E-1,-9.2164516E-1,3.8018668E-1,-6.265564E-1,-6.686852E-1,-1.4123497E0,1.6895959E0,8.2868254E-1,1.3670264E0,3.9658774E-2,-6.80972E-1,7.6094776E-1,-1.2402266E0,-2.7661812E-1,6.751004E-1,-4.5776406E-1,-1.0690694E0,-2.4048801E-1,-1.1865385E0,-3.6232975E-1,-1.627026E0,-9.335993E-1,1.1976208E-1,1.5616935E-1,1.2259833E-1,5.6904227E-2,1.5747833E-1,7.129871E-2,3.401319E-2,-3.7225373E-2,-9.808706E-2,1.9101918E-2,-8.9005185E-3,8.2839645E-2,-1.9947682E-2,-1.3270892E-1,-7.729814E-2,1.4248336E-2,7.91836E-2,-3.6299523E-2,-1.0426399E-1,-4.2038467E-3,-3.3849787E-2,-1.1019134E-1,2.7473852E-2,-5.307226E-2,-4.7633085E-2,-1.2215924E-1,2.4026023E-2,-5.7685208E-2,-1.16633564E-1,-1.5582898E-1,-1.2891194E-1,-5.292838E-2],"categories":[],"categories_nodes":[],"categories_segments":[],"categories_sizes":[],"default_left":[0,0,0,1,0,0,0,1,0,0,0,0,1,1,0,0,0,0,1,0,1,1,0,1,0,0,0,0,1,1,1,0,0,0,0,0,0,0,0,0,0,0,0,0,0,0,0,0,0,0,0,0,0,0,0,0,0,0,0,0,0,0,0],"id":0,"left_children":[1,3,5,7,9,11,13,15,17,19,21,23,25,27,29,31,33,35,37,39,41,43,45,47,49,51,53,55,57,59,61,-1,-1,-1,-1,-1,-1,-1,-1,-1,-1,-1,-1,-1,-1,-1,-1,-1,-1,-1,-1,-1,-1,-1,-1,-1,-1,-1,-1,-1,-1,-1,-1],"loss_changes":[4.303326E3,1.5086665E3,8.5192114E2,5.557639E2,3.7892444E2,3.2152722E2,3.0566504E2,3.2736597E2,2.1599524E2,9.970155E1,1.0642532E2,1.6080505E2,1.0569867E2,1.4200671E2,1.478711E2,1.9844727E1,6.847327E1,3.4065857E1,7.891824E1,2.2027687E1,3.3959167E1,8.261322E1,4.3962585E1,1.0650052E2,4.881595E1,3.0602814E1,6.3550743E1,3.6693542E1,9.932764E1,3.2400635E1,7.710721E1,0E0,0E0,0E0,0E0,0E0,0E0,0E0,0E0,0E0,0E0,0E0,0E0,0E0,0E0,0E0,0E0,0E0,0E0,0E0,0E0,0E0,0E0,0E0,0E0,0E0,0E0,0E0,0E0,0E0,0E0,0E0,0E0],"parents":[2147483647,0,0,1,1,2,2,3,3,4,4,5,5,6,6,7,7,8,8,9,9,10,10,11,11,12,12,13,13,14,14,15,15,16,16,17,17,18,18,19,19,20,20,21,21,22,22,23,23,24,24,25,25,26,26,27,27,28,28,29,29,30,30],"right_children":[2,4,6,8,10,12,14,16,18,20,22,24,26,28,30,32,34,36,38,40,42,44,46,48,50,52,54,56,58,60,62,-1,-1,-1,-1,-1,-1,-1,-1,-1,-1,-1,-1,-1,-1,-1,-1,-1,-1,-1,-1,-1,-1,-1,-1,-1,-1,-1,-1,-1,-1,-1,-1],"split_conditions":[5.568061E0,2.832826E0,2.8361924E0,6.2753553E0,2.9272072E0,8.291163E0,1.8160676E0,3.004593E0,6.892951E0,8.706283E-1,5.083213E0,3.660685E0,1.9704433E-2,1.8181818E-2,5.3344836E0,1.9135817E1,3.0215895E0,3.082198E0,2.772129E0,2.8457623E2,1.7579656E0,2.9724185E0,9.495045E-1,4.1350565E0,9.495045E-1,9.173253E0,1.702594E0,2.772129E0,3.0744958E0,3.1246693E0,2.5751073E-2,1.1976208E-1,1.5616935E-1,1.2259833E-1,5.6904227E-2,1.5747833E-1,7.129871E-2,3.401319E-2,-3.7225373E-2,-9.808706E-2,1.9101918E-2,-8.9005185E-3,8.2839645E-2,-1.9947682E-2,-1.3270892E-1,-7.729814E-2,1.4248336E-2,7.91836E-2,-3.6299523E-2,-1.0426399E-1,-4.2038467E-3,-3.3849787E-2,-1.1019134E-1,2.7473852E-2,-5.307226E-2,-4.7633085E-2,-1.2215924E-1,2.4026023E-2,-5.7685208E-2,-1.16633564E-1,-1.5582898E-1,-1.2891194E-1,-5.292838E-2],"split_indices":[20,3,17,26,17,20,3,27,8,18,17,3,4,4,17,15,17,17,27,13,27,27,18,8,18,20,3,27,27,27,4,0,0,0,0,0,0,0,0,0,0,0,0,0,0,0,0,0,0,0,0,0,0,0,0,0,0,0,0,0,0,0,0],"split_type":[0,0,0,0,0,0,0,0,0,0,0,0,0,0,0,0,0,0,0,0,0,0,0,0,0,0,0,0,0,0,0,0,0,0,0,0,0,0,0,0,0,0,0,0,0,0,0,0,0,0,0,0,0,0,0,0,0,0,0,0,0,0,0],"sum_hessian":[7.1257925E3,3.5087668E3,3.6170254E3,2.6855537E3,8.232131E2,1.2676613E3,2.3493643E3,2.0127235E3,6.7283026E2,3.0464282E2,5.1857025E2,6.484576E2,6.192037E2,8.968204E2,1.4525438E3,1.3520753E3,6.6064813E2,1.6014417E2,5.126861E2,5.8679848E1,2.4596295E2,3.4650656E2,1.7206372E2,4.7979114E2,1.6866641E2,2.8768686E2,3.3151685E2,3.32277E2,5.645434E2,1.0011985E3,4.5134537E2,1.5587788E2,1.1961974E3,1.7617252E2,4.8447562E2,9.49076E1,6.523656E1,2.9368414E2,2.1900192E2,4.0102238E1,1.857761E1,3.8544624E1,2.0741833E2,6.516731E1,2.8133923E2,7.315522E1,9.89085E1,4.0339847E2,7.6392685E1,6.1688206E1,1.069782E2,5.3290443E1,2.3439641E2,1.2940387E2,2.0211298E2,6.937641E1,2.629006E2,1.7325984E2,3.9128357E2,2.4324074E2,7.5795776E2,1.834215E2,2.6792386E2],"tree_param":{"num_deleted":"0","num_feature":"28","num_nodes":"63","size_leaf_vector":"0"}},{"base_weights":[3.5896336E-3,6.227139E-1,-8.173883E-1,9.8039997E-1,-4.8877257E-1,-1.9162808E-1,-1.1014279E0,1.1712211E-1,1.2180761E0,2.7271935E-1,-8.8846016E-1,1.8021114E-1,-6.538478E-1,-8.360894E-1,-1.4228092E0,1.008957E0,-1.3272473E-1,1.5388551E0,6.644932E-1,-4.701212E-1,5.908436E-1,-1.2078861E0,-1.3727236E-1,6.2475306E-1,-2.2028007E-1,-1.1358781E0,-4.098099E-1,-1.2930356E0,-6.028476E-1,-1.5450667E0,-1.0456287E0,1.2162018E-1,3.7751738E-2,-3.962528E-2,7.5789966E-2,1.0679673E-1,1.4407983E-1,1.1561341E-1,4.084997E-2,-6.780231E-2,5.614913E-2,6.291196E-2,-3.566244E-2,-4.5711007E-2,-1.2527151E-1,2.0354694E-2,-7.098467E-2,-1.9292254E-2,7.480221E-2,-5.4744806E-2,1.820628E-2,-1.1380683E-1,-4.133958E-3,-8.138343E-2,-7.864187E-3,-1.2413307E-2,-1.257818E-1,1.3300617E-3,-7.062348E-2,-9.249479E-2,-1.439516E-1,-1.22398086E-1,-6.321604E-2],"categories":[],"categories_nodes":[],"categories_segments":[],"categories_sizes":[],"default_left":[0,0,0,0,0,0,0,1,0,0,0,0,0,1,0,1,0,0,0,0,1,0,1,0,1,1,1,0,0,0,1,0,0,0,0,0,0,0,0,0,0,0,0,0,0,0,0,0,0,0,0,0,0,0,0,0,0,0,0,0,0,0,0],"id":1,"left_children":[1,3,5,7,9,11,13,15,17,19,21,23,25,27,29,31,33,35,37,39,41,43,45,47,49,51,53,55,57,59,61,-1,-1,-1,-1,-1,-1,-1,-1,-1,-1,-1,-1,-1,-1,-1,-1,-1,-1,-1,-1,-1,-1,-1,-1,-1,-1,-1,-1,-1,-1,-1,-1],"loss_changes":[3.6026733E3,1.606901E3,5.4139954E2,6.271467E2,2.9985693E2,1.6383316E2,1.7751685E2,1.4744455E2,4.2465698E2,8.0532425E1,1.5479422E2,9.425885E1,4.9514557E1,1.21822205E2,4.202173E1,2.8657104E1,1.5547134E2,3.124414E1,1.1449887E2,3.2195683E1,2.5714737E1,5.764386E1,4.6064346E1,4.361374E1,4.5842533E1,1.9885971E1,4.5140125E1,4.6644714E1,8.576419E1,1.8408813E1,2.4371918E1,0E0,0E0,0E0,0E0,0E0,0E0,0E0,0E0,0E0,0E0,0E0,0E0,0E0,0E0,0E0,0E0,0E0,0E0,0E0,0E0,0E0,0E0,0E0,0E0,0E0,0E0,0E0,0E0,0E0,0E0,0E0,0E0],"parents":[2147483647,0,0,1,1,2,2,3,3,4,4,5,5,6,6,7,7,8,8,9,9,10,10,11,11,12,12,13,13,14,14,15,15,16,16,17,17,18,18,19,19,20,20,21,21,22,22,23,23,24,24,25,25,26,26,27,27,28,28,29,29,30,30],"right_children":[2,4,6,8,10,12,14,16,18,20,22,24,26,28,30,32,34,36,38,40,42,44,46,48,50,52,54,56,58,60,62,-1,-1,-1,-1,-1,-1,-1,-1,-1,-1,-1,-1,-1,-1,-1,-1,-1,-1,-1,-1,-1,-1,-1,-1,-1,-1,-1,-1,-1,-1,-1,-1],"split_conditions":[6.265158E0,3.0028517E0,2.59095E0,3E0,2.8640618E0,2.4137514E0,3.2406268E0,2.040987E0,2.8630638E0,9.139655E-1,5.2854786E0,8.405821E0,9.423727E-1,6.849315E-3,5.5713725E0,3.0449376E0,6.678072E1,2.4521786E1,2.9272072E0,3.418266E2,9.9700844E-1,3.0744958E0,2.6835317E-2,3E0,3.0303031E-2,3E0,1.9704433E-2,6.9916325E0,2.5999274E0,3.0215895E0,4.644809E-2,1.2162018E-1,3.7751738E-2,-3.962528E-2,7.5789966E-2,1.0679673E-1,1.4407983E-1,1.1561341E-1,4.084997E-2,-6.780231E-2,5.614913E-2,6.291196E-2,-3.566244E-2,-4.5711007E-2,-1.2527151E-1,2.0354694E-2,-7.098467E-2,-1.9292254E-2,7.480221E-2,-5.4744806E-2,1.820628E-2,-1.1380683E-1,-4.133958E-3,-8.138343E-2,-7.864187E-3,-1.2413307E-2,-1.257818E-1,1.3300617E-3,-7.062348E-2,-9.249479E-2,-1.439516E-1,-1.22398086E-1,-6.321604E-2],"split_indices":[20,3,17,9,17,3,3,7,27,18,17,20,18,4,17,27,7,15,17,13,23,27,19,9,4,9,4,20,27,17,4,0,0,0,0,0,0,0,0,0,0,0,0,0,0,0,0,0,0,0,0,0,0,0,0,0,0,0,0,0,0,0,0],"split_type":[0,0,0,0,0,0,0,0,0,0,0,0,0,0,0,0,0,0,0,0,0,0,0,0,0,0,0,0,0,0,0,0,0,0,0,0,0,0,0,0,0,0,0,0,0,0,0,0,0,0,0,0,0,0,0,0,0,0,0,0,0,0,0],"sum_hessian":[7.085865E3,4.0396697E3,3.0461958E3,3.0562573E3,9.834123E2,9.515454E2,2.0946504E3,6.6011316E2,2.3961443E3,3.3860797E2,6.448043E2,5.276666E2,4.2387878E2,1.1493373E3,9.45313E2,1.4379495E2,5.163182E2,1.5159388E3,8.8020544E2,1.01386406E2,2.3722157E2,4.5199536E2,1.9280899E2,2.4981454E2,2.7785205E2,1.4124107E2,2.8263773E2,3.8687097E2,7.624664E2,7.115714E2,2.3374161E2,9.0145805E1,5.364915E1,3.9290637E2,1.2341182E2,2.300147E2,1.2859242E3,2.2186148E2,6.5834393E2,8.078298E1,2.0603418E1,2.140546E2,2.3166985E1,9.4872604E1,3.5712274E2,1.2418191E2,6.8627075E1,4.9306263E1,2.0050829E2,1.4462312E2,1.3322894E2,1.2618746E2,1.5053606E1,1.1084738E2,1.7179033E2,3.2299442E1,3.5457153E2,1.7364642E2,5.8881995E2,6.959131E1,6.419801E2,1.2045709E2,1.13284515E2],"tree_param":{"num_deleted":"0","num_feature":"28","num_nodes":"63","size_leaf_vector":"0"}},{"base_weights":[-2.8910912E-3,6.763811E-1,-6.656403E-1,9.5056385E-1,-4.4283193E-1,-1.1475083E-1,-9.9546415E-1,2.238044E-1,1.1701287E0,2.9475537E-1,-8.4814817E-1,2.2417064E-1,-6.4325017E-1,-6.2028676E-1,-1.2280289E0,1.2492176E0,-6.0099505E-2,1.4433429E0,6.7570907E-1,6.3749087E-1,-2.7354637E-1,-1.1516843E0,-1.3853496E-1,5.679232E-1,-2.7103388E-1,-1.017028E0,-2.81479E-1,-2.0070294E-1,-9.077002E-1,-1.413399E0,-8.713436E-1,1.3326362E-1,6.833715E-2,6.417845E-2,-3.1029997E-2,1.0646163E-1,1.3508224E-1,1.0786022E-1,4.2796735E-2,-2.5110364E-2,6.936158E-2,7.310649E-2,-4.2243678E-2,-1.9600626E-2,-1.20220765E-1,2.910383E-2,-3.9397866E-2,-1.4804472E-2,6.978504E-2,-3.8515064E-3,-5.6387097E-2,-9.8214045E-2,-3.3690974E-2,1.8692525E-2,-5.3407814E-2,3.89344E-2,-3.8199544E-2,-3.0572413E-2,-9.496095E-2,-8.7256216E-2,-1.323962E-1,-3.769235E-2,-9.88749E-2],"categories":[],"categories_nodes":[],"categories_segments":[],"categories_sizes":[],"default_left":[0,0,0,0,0,0,0,0,0,1,0,0,1,0,0,0,0,0,0,1,0,1,0,0,1,0,0,0,0,1,0,0,0,0,0,0,0,0,0,0,0,0,0,0,0,0,0,0,0,0,0,0,0,0,0,0,0,0,0,0,0,0,0],"id":2,"left_children":[1,3,5,7,9,11,13,15,17,19,21,23,25,27,29,31,33,35,37,39,41,43,45,47,49,51,53,55,57,59,61,-1,-1,-1,-1,-1,-1,-1,-1,-1,-1,-1,-1,-1,-1,-1,-1,-1,-1,-1,-1,-1,-1,-1,-1,-1,-1,-1,-1,-1,-1,-1,-1],"loss_changes":[3.1599185E3,1.0641367E3,6.454115E2,4.440769E2,2.0436737E2,2.386652E2,1.9312646E2,1.885199E2,2.8786792E2,4.7481236E1,9.480524E1,1.3839117E2,7.010446E1,1.02608246E2,8.940234E1,1.47990265E1,1.1204204E2,1.886084E1,7.926816E1,1.8746124E1,1.9959015E1,5.2778534E1,1.855506E1,7.30125E1,2.702526E1,1.1789001E1,4.0699314E1,4.946393E1,4.197647E1,2.1622925E1,4.8019806E1,0E0,0E0,0E0,0E0,0E0,0E0,0E0,0E0,0E0,0E0,0E0,0E0,0E0,0E0,0E0,0E0,0E0,0E0,0E0,0E0,0E0,0E0,0E0,0E0,0E0,0E0,0E0,0E0,0E0,0E0,0E0,0E0],"parents":[2147483647,0,0,1,1,2,2,3,3,4,4,5,5,6,6,7,7,8,8,9,9,10,10,11,11,12,12,13,13,14,14,15,15,16,16,17,17,18,18,19,19,20,20,21,21,22,22,23,23,24,24,25,25,26,26,27,27,28,28,29,29,30,30],"right_children":[2,4,6,8,10,12,14,16,18,20,22,24,26,28,30,32,34,36,38,40,42,44,46,48,50,52,54,56,58,60,62,-1,-1,-1,-1,-1,-1,-1,-1,-1,-1,-1,-1,-1,-1,-1,-1,-1,-1,-1,-1,-1,-1,-1,-1,-1,-1,-1,-1,-1,-1,-1,-1],"split_conditions":[5.568061E0,3.4363172E0,2.9890587E0,8.650272E1,2.9272072E0,9.101667E0,1.8688365E0,5.1449857E0,2.8957744E0,2.7418826E-2,5.231715E0,2.2863653E0,2.1153847E-2,7.5261097E0,5.179808E0,3.6865103E0,3.4226398E0,3.1127014E1,3.0215895E0,1.599375E0,5.1449857E0,2.8630638E0,3.7317958E0,7.6623825E1,1.0301279E-2,1.0772736E2,1.7275308E0,3.0744958E0,2.5999274E0,2.165532E0,7.617822E0,1.3326362E-1,6.833715E-2,6.417845E-2,-3.1029997E-2,1.0646163E-1,1.3508224E-1,1.0786022E-1,4.2796735E-2,-2.5110364E-2,6.936158E-2,7.310649E-2,-4.2243678E-2,-1.9600626E-2,-1.20220765E-1,2.910383E-2,-3.9397866E-2,-1.4804472E-2,6.978504E-2,-3.8515064E-3,-5.6387097E-2,-9.8214045E-2,-3.3690974E-2,1.8692525E-2,-5.3407814E-2,3.89344E-2,-3.8199544E-2,-3.0572413E-2,-9.496095E-2,-8.7256216E-2,-1.323962E-1,-3.769235E-2,-9.88749E-2],"split_indices":[20,3,17,7,17,20,3,8,27,19,17,3,4,20,17,17,7,15,17,27,8,27,20,7,19,13,3,27,27,27,20,0,0,0,0,0,0,0,0,0,0,0,0,0,0,0,0,0,0,0,0,0,0,0,0,0,0,0,0,0,0,0,0],"split_type":[0,0,0,0,0,0,0,0,0,0,0,0,0,0,0,0,0,0,0,0,0,0,0,0,0,0,0,0,0,0,0,0,0,0,0,0,0,0,0,0,0,0,0,0,0,0,0,0,0,0,0,0,0,0,0,0,0,0,0,0,0,0,0],"sum_hessian":[7.0171216E3,3.465353E3,3.5517683E3,2.7835862E3,6.81767E2,1.3306287E3,2.2211396E3,6.463124E2,2.1372737E3,2.4187674E2,4.3989026E2,8.110719E2,5.195567E2,8.513673E2,1.3697725E3,1.3940495E2,5.0690744E2,1.3753447E3,7.6192896E2,1.508059E2,9.107086E1,3.0766428E2,1.3222598E2,4.786583E2,3.3241364E2,2.5464705E2,2.6490967E2,3.4679413E2,5.0457315E2,8.993935E2,4.7037894E2,9.329838E1,4.6106586E1,1.360062E2,3.709012E2,2.5288826E2,1.1224565E3,2.0960901E2,5.5231995E2,1.8996618E1,1.3180927E2,1.3433848E1,7.763701E1,5.102272E1,2.5664157E2,5.194958E1,8.02764E1,1.05702866E2,3.7295544E2,2.0312138E2,1.2929224E2,2.2765202E2,2.6995033E1,1.0328166E2,1.61628E2,9.0288994E1,2.5650516E2,1.0465346E2,3.999197E2,1.05462425E2,7.93931E2,1.58203E2,3.1217593E2],"tree_param":{"num_deleted":"0","num_feature":"28","num_nodes":"63","size_leaf_vector":"0"}},{"base_weights":[-7.324238E-4,5.835739E-1,-6.140952E-1,9.0455663E-1,-2.9850575E-1,-1.18033536E-1,-8.847648E-1,2.4942552E-1,1.0949293E0,4.1394764E-1,-7.117026E-1,3.9033365E-1,-4.2022544E-1,-6.3744324E-1,-1.2090938E0,1.2908016E0,-1.9785184E-2,1.322475E0,7.571235E-1,-1.6140294E-1,6.702167E-1,-9.627021E-1,-5.6477834E-2,6.1412877E-1,-4.4177482E-1,-8.022532E-1,-1.2498809E-1,-9.87672E-1,-3.9092374E-1,-1.3567117E0,-8.6726654E-1,4.8371773E-2,1.2574224E-1,6.2045574E-2,-3.0278113E-2,8.742923E-2,1.2314925E-1,9.048946E-2,3.12852E-2,-3.473752E-2,5.241107E-2,7.9525165E-2,3.192911E-4,-5.877848E-2,-1.04823336E-1,-5.0990738E-2,2.849291E-2,7.718515E-2,3.5828785E-3,8.156677E-2,-6.410548E-2,-4.8085947E-2,-1.0104305E-1,-7.470539E-2,6.4873034E-3,-4.7837522E-2,-1.0035116E-1,-8.756476E-2,-1.16166705E-2,-9.052101E-2,-1.2715654E-1,-1.13672934E-1,-5.8713734E-2],"categories":[],"categories_nodes":[],"categories_segments":[],"categories_sizes":[],"default_left":[0,0,0,0,0,0,0,0,0,0,0,1,1,1,0,0,0,0,0,0,0,0,0,0,0,0,0,0,0,0,1,0,0,0,0,0,0,0,0,0,0,0,0,0,0,0,0,0,0,0,0,0,0,0,0,0,0,0,0,0,0,0,0],"id":3,"left_children":[1,3,5,7,9,11,13,15,17,19,21,23,25,27,29,31,33,35,37,39,41,43,45,47,49,51,53,55,57,59,61,-1,-1,-1,-1,-1,-1,-1,-1,-1,-1,-1,-1,-1,-1,-1,-1,-1,-1,-1,-1,-1,-1,-1,-1,-1,-1,-1,-1,-1,-1,-1,-1],"loss_changes":[2.5018691E3,1.01249426E3,4.5717908E2,3.2667676E2,2.813141E2,1.8504134E2,1.7596326E2,1.6586537E2,1.5510938E2,5.1867447E1,9.937244E1,8.39189E1,8.5083954E1,1.0772363E2,4.686743E1,8.984024E0,1.06001305E2,1.8180908E1,8.301016E1,1.8427269E1,3.4575745E1,2.657312E1,3.2245953E1,4.9524017E1,3.5574696E1,2.7655243E1,5.9418934E1,2.9415619E1,1.1212479E2,1.1644043E1,2.3834213E1,0E0,0E0,0E0,0E0,0E0,0E0,0E0,0E0,0E0,0E0,0E0,0E0,0E0,0E0,0E0,0E0,0E0,0E0,0E0,0E0,0E0,0E0,0E0,0E0,0E0,0E0,0E0,0E0,0E0,0E0,0E0,0E0],"parents":[2147483647,0,0,1,1,2,2,3,3,4,4,5,5,6,6,7,7,8,8,9,9,10,10,11,11,12,12,13,13,14,14,15,15,16,16,17,17,18,18,19,19,20,20,21,21,22,22,23,23,24,24,25,25,26,26,27,27,28,28,29,29,30,30],"right_children":[2,4,6,8,10,12,14,16,18,20,22,24,26,28,30,32,34,36,38,40,42,44,46,48,50,52,54,56,58,60,62,-1,-1,-1,-1,-1,-1,-1,-1,-1,-1,-1,-1,-1,-1,-1,-1,-1,-1,-1,-1,-1,-1,-1,-1,-1,-1,-1,-1,-1,-1,-1,-1],"split_conditions":[5.7439227E0,2.5463948E0,2.8060553E0,8.084554E1,2.7781217E0,7.480689E0,3.3432212E0,5.1449857E0,3.0215895E0,9.281498E-1,5.509477E0,2.1183493E0,2.1153847E-2,2.259887E-2,5.179808E0,7.042823E0,4.4333515E0,9.2001027E-1,4.267979E0,3.3479358E2,6.2184305E0,3.9849133E0,6.0697376E1,3.0028517E0,1.489116E0,2.6634545E0,8.775241E-1,7.298861E0,9.281498E-1,3.2609828E0,1.3100437E-2,4.8371773E-2,1.2574224E-1,6.2045574E-2,-3.0278113E-2,8.742923E-2,1.2314925E-1,9.048946E-2,3.12852E-2,-3.473752E-2,5.241107E-2,7.9525165E-2,3.192911E-4,-5.877848E-2,-1.04823336E-1,-5.0990738E-2,2.849291E-2,7.718515E-2,3.5828785E-3,8.156677E-2,-6.410548E-2,-4.8085947E-2,-1.0104305E-1,-7.470539E-2,6.4873034E-3,-4.7837522E-2,-1.0035116E-1,-8.756476E-2,-1.16166705E-2,-9.052101E-2,-1.2715654E-1,-1.13672934E-1,-5.8713734E-2],"split_indices":[20,3,17,7,17,20,3,8,17,18,17,7,4,4,17,7,7,18,20,13,3,20,15,3,8,3,18,20,18,17,4,0,0,0,0,0,0,0,0,0,0,0,0,0,0,0,0,0,0,0,0,0,0,0,0,0,0,0,0,0,0,0,0],"split_type":[0,0,0,0,0,0,0,0,0,0,0,0,0,0,0,0,0,0,0,0,0,0,0,0,0,0,0,0,0,0,0,0,0,0,0,0,0,0,0,0,0,0,0,0,0,0,0,0,0,0,0,0,0,0,0,0,0,0,0,0,0,0,0],"sum_hessian":[6.9788228E3,3.574092E3,3.4047305E3,2.6204888E3,9.536034E2,1.2024366E3,2.2022937E3,5.905466E2,2.0299421E3,3.5004227E2,6.0356116E2,4.481826E2,7.54254E2,1.2511656E3,9.511282E2,1.2052606E2,4.7002048E2,1.2111788E3,8.187633E2,1.0798189E2,2.4206036E2,4.360518E2,1.6750935E2,3.533983E2,9.478432E1,3.280502E2,4.2620383E2,5.156205E2,7.3554517E2,6.6219183E2,2.889363E2,1.5656974E1,1.0486909E2,1.447173E2,3.253032E2,1.4248259E2,1.0686963E3,5.0879175E2,3.0997156E2,8.330852E1,2.4673374E1,1.8311961E2,5.8940754E1,1.7384013E2,2.6221167E2,7.0541115E1,9.696824E1,2.4783482E2,1.0556345E2,1.5448196E1,7.933612E1,1.8010767E2,1.4794255E2,9.240093E1,3.338029E2,1.13659225E2,4.0196124E2,2.2739482E2,5.081503E2,9.393293E1,5.682589E2,9.9960884E1,1.8897542E2],"tree_param":{"num_deleted":"0","num_feature":"28","num_nodes":"63","size_leaf_vector":"0"}},{"base_weights":[4.1893446E-3,5.873907E-1,-5.380183E-1,8.793093E-1,-2.0755726E-1,-7.691299E-2,-7.984064E-1,1.657471E-1,1.0799735E0,3.8784677E-1,-6.423216E-1,2.5381508E-1,-6.0216814E-1,-5.7905805E-1,-1.1304259E0,9.9250394E-1,-2.620516E-2,1.2947296E0,6.241463E-1,-4.117519E-1,5.710618E-1,2.570089E-1,-7.8654534E-1,5.809477E-1,-3.154346E-1,-1.2190615E0,-4.4206008E-1,-2.3827326E-1,-8.19618E-1,-1.2580953E0,-7.609763E-1,1.0942475E-1,1.6640201E-2,-3.0989973E-2,5.1823683E-2,9.12106E-2,1.22528516E-1,7.359217E-2,1.247694E-2,6.0630795E-2,-5.507889E-2,7.273333E-2,5.6604617E-3,-9.472942E-2,3.8130824E-2,-9.238175E-2,-1.7484253E-2,-2.0444743E-2,7.205106E-2,-7.777366E-2,-1.3044719E-2,-1.2347336E-1,-6.364705E-2,-1.8434916E-2,-7.9042904E-2,-7.0277005E-3,-8.780018E-2,-2.9060604E-2,-8.2125105E-2,-3.041456E-2,-1.14928186E-1,-8.9822896E-2,-3.8229544E-2],"categories":[],"categories_nodes":[],"categories_segments":[],"categories_sizes":[],"default_left":[0,0,0,0,0,0,0,1,1,0,0,0,0,0,0,0,0,0,0,0,0,0,0,0,0,1,0,1,0,0,0,0,0,0,0,0,0,0,0,0,0,0,0,0,0,0,0,0,0,0,0,0,0,0,0,0,0,0,0,0,0,0,0],"id":4,"left_children":[1,3,5,7,9,11,13,15,17,19,21,23,25,27,29,31,33,35,37,39,41,43,45,47,49,51,53,55,57,59,61,-1,-1,-1,-1,-1,-1,-1,-1,-1,-1,-1,-1,-1,-1,-1,-1,-1,-1,-1,-1,-1,-1,-1,-1,-1,-1,-1,-1,-1,-1,-1,-1],"loss_changes":[2.1755193E3,7.6937317E2,4.280027E2,3.469828E2,2.3091278E2,2.2386568E2,1.6527844E2,8.466694E1,1.8442212E2,5.541896E1,6.705049E1,1.4747136E2,4.8635315E1,1.12449005E2,4.1746338E1,1.7905579E1,8.3284454E1,2.2733398E1,5.701126E1,1.580055E1,3.6922295E1,1.6156868E1,6.2949677E1,8.9388504E1,2.6939342E1,7.0126495E0,4.0884758E1,6.724237E1,3.6848755E1,1.1233765E1,1.830896E1,0E0,0E0,0E0,0E0,0E0,0E0,0E0,0E0,0E0,0E0,0E0,0E0,0E0,0E0,0E0,0E0,0E0,0E0,0E0,0E0,0E0,0E0,0E0,0E0,0E0,0E0,0E0,0E0,0E0,0E0,0E0,0E0],"parents":[2147483647,0,0,1,1,2,2,3,3,4,4,5,5,6,6,7,7,8,8,9,9,10,10,11,11,12,12,13,13,14,14,15,15,16,16,17,17,18,18,19,19,20,20,21,21,22,22,23,23,24,24,25,25,26,26,27,27,28,28,29,29,30,30],"right_children":[2,4,6,8,10,12,14,16,18,20,22,24,26,28,30,32,34,36,38,40,42,44,46,48,50,52,54,56,58,60,62,-1,-1,-1,-1,-1,-1,-1,-1,-1,-1,-1,-1,-1,-1,-1,-1,-1,-1,-1,-1,-1,-1,-1,-1,-1,-1,-1,-1,-1,-1,-1,-1],"split_conditions":[5.4609556E0,2.4768376E0,2.5486686E0,3E0,3.004593E0,2.8732119E0,3.660685E0,1.5326831E0,3.0744958E0,8.660096E-1,2.7157614E0,8.877099E0,8.612755E-1,7.617822E0,5.832571E0,4.2090635E0,4.8431843E1,2.8891573E1,4.522646E0,3.3149304E0,5.6126847E0,6.439886E1,5.509477E0,3E0,2.2131226E1,1.3208157E-1,9.955043E0,5.928953E0,2.6150873E0,1.5747732E0,8.73878E1,1.0942475E-1,1.6640201E-2,-3.0989973E-2,5.1823683E-2,9.12106E-2,1.22528516E-1,7.359217E-2,1.247694E-2,6.0630795E-2,-5.507889E-2,7.273333E-2,5.6604617E-3,-9.472942E-2,3.8130824E-2,-9.238175E-2,-1.7484253E-2,-2.0444743E-2,7.205106E-2,-7.777366E-2,-1.3044719E-2,-1.2347336E-1,-6.364705E-2,-1.8434916E-2,-7.9042904E-2,-7.0277005E-3,-8.780018E-2,-2.9060604E-2,-8.2125105E-2,-3.041456E-2,-1.14928186E-1,-8.9822896E-2,-3.8229544E-2],"split_indices":[20,3,27,9,27,3,3,7,27,18,17,20,18,20,27,20,7,10,20,7,3,26,17,9,10,19,20,8,17,8,13,0,0,0,0,0,0,0,0,0,0,0,0,0,0,0,0,0,0,0,0,0,0,0,0,0,0,0,0,0,0,0,0],"split_type":[0,0,0,0,0,0,0,0,0,0,0,0,0,0,0,0,0,0,0,0,0,0,0,0,0,0,0,0,0,0,0,0,0,0,0,0,0,0,0,0,0,0,0,0,0,0,0,0,0,0,0,0,0,0,0,0,0,0,0,0,0,0,0],"sum_hessian":[6.8778477E3,3.3136187E3,3.564229E3,2.4235452E3,8.900735E2,1.2868033E3,2.2774255E3,5.3234644E2,1.8911987E3,3.756853E2,5.143882E2,7.899354E2,4.9686786E2,1.3730594E3,9.0436615E2,9.9522575E1,4.3282385E2,1.2842864E3,6.069124E2,6.980231E1,3.05883E2,7.0982635E1,4.4340555E2,5.0163733E2,2.8829813E2,1.0102116E2,3.958467E2,5.689944E2,8.04065E2,6.7032056E2,2.340456E2,7.7567604E1,2.1954971E1,2.834619E2,1.4936194E2,2.4926941E2,1.035017E3,4.334416E2,1.734708E2,1.0503122E1,5.929918E1,2.0817052E2,9.771248E1,7.4138927E0,6.3568745E1,3.150517E2,1.2835388E2,1.07189384E2,3.9444794E2,6.737839E1,2.2091974E2,7.649622E1,2.4524937E1,2.573529E2,1.3849379E2,4.6834442E2,1.0064999E2,1.2737301E2,6.76692E2,1.3860437E1,6.5646014E2,1.3610791E2,9.793768E1],"tree_param":{"num_deleted":"0","num_feature":"28","num_nodes":"63","size_leaf_vector":"0"}},{"base_weights":[-7.5186275E-5,4.589759E-1,-5.962011E-1,8.7096107E-1,-4.17726E-2,-1.7230278E-1,-8.242258E-1,2.1942657E-1,1.0486542E0,-6.1496085E-1,1.90985E-1,-7.339526E-1,-3.143334E-4,-3.5418993E-1,-9.0841025E-1,9.173471E-1,-8.3473325E-2,1.1736151E0,7.1668E-1,-1.1167494E-2,-8.557143E-1,8.3980304E-1,-4.754131E-3,1.1713289E-1,-9.257826E-1,3.167954E-1,-3.8834184E-1,-9.125703E-1,-1.7303655E-1,-1.1050342E0,-5.867838E-1,5.378872E-2,1.1260056E-1,-4.3193154E-2,5.5198397E-2,1.1602398E-1,8.680627E-2,3.000962E-2,8.010509E-2,-3.534455E-2,3.7529897E-2,8.635259E-3,-8.667333E-2,9.4705574E-2,4.616871E-2,-5.3470537E-2,3.6305387E-2,5.5134095E-2,-2.996055E-2,-9.803739E-2,8.23278E-3,-2.7804947E-2,3.867043E-2,-4.539931E-2,3.521657E-2,6.856853E-2,-9.642541E-2,-5.527048E-2,4.3373313E-3,-1.2240986E-1,-9.04472E-2,-2.7400842E-2,-8.176124E-2],"categories":[],"categories_nodes":[],"categories_segments":[],"categories_sizes":[],"default_left":[0,0,0,0,0,0,0,1,0,0,0,1,0,0,0,0,0,0,1,0,0,0,0,0,0,0,0,0,0,0,0,0,0,0,0,0,0,0,0,0,0,0,0,0,0,0,0,0,0,0,0,0,0,0,0,0,0,0,0,0,0,0,0],"id":5,"left_children":[1,3,5,7,9,11,13,15,17,19,21,23,25,27,29,31,33,35,37,39,41,43,45,47,49,51,53,55,57,59,61,-1,-1,-1,-1,-1,-1,-1,-1,-1,-1,-1,-1,-1,-1,-1,-1,-1,-1,-1,-1,-1,-1,-1,-1,-1,-1,-1,-1,-1,-1,-1,-1],"loss_changes":[1.8600405E3,7.922409E2,2.8568457E2,2.4367957E2,2.3149101E2,1.00032005E2,7.575061E1,9.578227E1,6.781738E1,7.2831635E1,1.5674158E2,3.9743683E1,9.7796936E1,2.954654E1,1.0242151E2,1.3881554E1,8.775885E1,2.7769287E1,2.9948212E1,2.3665405E1,3.668036E1,1.9323685E1,2.2854784E2,1.0358538E1,3.3073395E1,3.102414E1,3.2548866E1,1.9884148E1,2.1785992E1,2.4421265E1,5.6075317E1,0E0,0E0,0E0,0E0,0E0,0E0,0E0,0E0,0E0,0E0,0E0,0E0,0E0,0E0,0E0,0E0,0E0,0E0,0E0,0E0,0E0,0E0,0E0,0E0,0E0,0E0,0E0,0E0,0E0,0E0,0E0,0E0],"parents":[2147483647,0,0,1,1,2,2,3,3,4,4,5,5,6,6,7,7,8,8,9,9,10,10,11,11,12,12,13,13,14,14,15,15,16,16,17,17,18,18,19,19,20,20,21,21,22,22,23,23,24,24,25,25,26,26,27,27,28,28,29,29,30,30],"right_children":[2,4,6,8,10,12,14,16,18,20,22,24,26,28,30,32,34,36,38,40,42,44,46,48,50,52,54,56,58,60,62,-1,-1,-1,-1,-1,-1,-1,-1,-1,-1,-1,-1,-1,-1,-1,-1,-1,-1,-1,-1,-1,-1,-1,-1,-1,-1,-1,-1,-1,-1,-1,-1],"split_conditions":[6.218189E0,2.836452E0,2.4981127E0,3E0,9.139655E-1,3E0,2.59095E0,3.4226398E0,4.7275887E0,3.2202716E0,3.0215895E0,2.473756E0,9.173253E0,8.822128E-1,5.179808E0,8.775241E-1,5.0434177E1,1.7E1,3.7513878E1,6.295694E1,4.1350565E0,4.4938107E0,4.4325757E0,8.6489525E0,7.2622536E1,2.4103374E0,1.1216166E2,1.801424E0,1.8032858E0,9.0858066E-1,9.173253E0,5.378872E-2,1.1260056E-1,-4.3193154E-2,5.5198397E-2,1.1602398E-1,8.680627E-2,3.000962E-2,8.010509E-2,-3.534455E-2,3.7529897E-2,8.635259E-3,-8.667333E-2,9.4705574E-2,4.616871E-2,-5.3470537E-2,3.6305387E-2,5.5134095E-2,-2.996055E-2,-9.803739E-2,8.23278E-3,-2.7804947E-2,3.867043E-2,-4.539931E-2,3.521657E-2,6.856853E-2,-9.642541E-2,-5.527048E-2,4.3373313E-3,-1.2240986E-1,-9.04472E-2,-2.7400842E-2,-8.176124E-2],"split_indices":[20,27,27,9,18,9,17,7,20,20,17,7,20,18,17,18,7,12,15,7,8,20,17,20,7,11,13,8,17,18,20,0,0,0,0,0,0,0,0,0,0,0,0,0,0,0,0,0,0,0,0,0,0,0,0,0,0,0,0,0,0,0,0],"split_type":[0,0,0,0,0,0,0,0,0,0,0,0,0,0,0,0,0,0,0,0,0,0,0,0,0,0,0,0,0,0,0,0,0,0,0,0,0,0,0,0,0,0,0,0,0,0,0,0,0,0,0,0,0,0,0,0,0,0,0,0,0,0,0],"sum_hessian":[6.795095E3,3.8390427E3,2.9560527E3,2.1057893E3,1.7332535E3,1.0345597E3,1.9214929E3,4.5172314E2,1.6540662E3,5.0009033E2,1.2331632E3,2.4176813E2,7.927915E2,2.926601E2,1.6288329E3,1.3610078E2,3.1562234E2,1.1998761E3,4.5419E2,1.4285818E2,3.5723215E2,2.8504196E2,9.481213E2,4.454156E1,1.9722656E2,4.363635E2,3.5642804E2,7.069989E1,2.219602E2,1.0093425E3,6.1949036E2,7.0941536E1,6.515924E1,2.0136394E2,1.14258415E2,7.6951227E2,4.3036383E2,1.4238303E2,3.1180698E2,7.558516E1,6.7273026E1,3.6214363E1,3.210178E2,1.7139154E2,1.1365041E2,3.877526E2,5.6036865E2,2.102851E1,2.3513054E1,1.6985239E2,2.7374176E1,6.6420105E1,3.699434E2,3.10539E2,4.5889038E1,5.7960625E0,6.4903824E1,7.35475E1,1.484127E2,2.808473E2,7.2849524E2,3.309583E2,2.88532E2],"tree_param":{"num_deleted":"0","num_feature":"28","num_nodes":"63","size_leaf_vector":"0"}},{"base_weights":[6.893465E-3,4.8437035E-1,-4.2139927E-1,-2.176352E-1,7.1278226E-1,-7.835203E-1,-6.35349E-2,6.104767E-3,-8.470528E-1,6.344026E-2,9.0079373E-1,-1.1353072E0,-5.8614975E-1,-5.911161E-1,1.4184177E-1,-6.75836E-1,2.01241E-1,-1.1367781E0,-6.125553E-1,-1.1184198E-1,9.691112E-1,3.5140422E-1,9.987576E-1,-7.6070887E-1,-1.213147E0,-1.0082202E0,-3.430644E-1,-7.8268546E-1,1.01538435E-1,8.2189935E-1,-1.41714895E-2,2.9851735E-4,-7.599541E-2,4.494628E-2,-1.3024092E-2,-5.6640532E-2,-1.2383412E-1,-7.005343E-2,-2.1060368E-2,4.9257267E-2,-4.0894464E-2,2.6184747E-2,1.0530558E-1,-2.6915617E-2,4.5985363E-2,4.217851E-2,9.7525716E-2,-1.26418E-1,-5.263092E-2,-1.2466641E-1,-9.377668E-2,-1.1284347E-1,-5.752551E-2,2.8558176E-2,-4.37177E-2,-8.1371605E-2,1.8217674E-2,-2.9170673E-2,5.9784822E-2,5.115664E-3,8.486839E-2,-3.1639457E-2,3.7520852E-2],"categories":[],"categories_nodes":[],"categories_segments":[],"categories_sizes":[],"default_left":[0,0,0,0,0,1,0,0,1,0,0,0,0,0,0,0,0,0,0,0,1,0,1,0,0,0,0,1,0,1,0,0,0,0,0,0,0,0,0,0,0,0,0,0,0,0,0,0,0,0,0,0,0,0,0,0,0,0,0,0,0,0,0],"id":6,"left_children":[1,3,5,7,9,11,13,15,17,19,21,23,25,27,29,31,33,35,37,39,41,43,45,47,49,51,53,55,57,59,61,-1,-1,-1,-1,-1,-1,-1,-1,-1,-1,-1,-1,-1,-1,-1,-1,-1,-1,-1,-1,-1,-1,-1,-1,-1,-1,-1,-1,-1,-1,-1,-1],"loss_changes":[1.3981904E3,5.1854285E2,4.670193E2,1.1188138E2,2.9776514E2,1.2371277E2,1.9661888E2,7.8260025E1,1.3458633E1,8.723195E1,1.0145984E2,1.7819092E1,1.1760205E2,6.754468E1,1.386187E2,1.4981617E1,4.723632E1,1.0302521E1,7.181778E0,1.04271866E2,1.1801598E1,3.0021221E1,7.168811E1,1.2009407E1,1.4179565E1,3.7230957E1,6.903349E1,4.7845108E1,2.68129E1,2.2530533E1,1.5483102E2,0E0,0E0,0E0,0E0,0E0,0E0,0E0,0E0,0E0,0E0,0E0,0E0,0E0,0E0,0E0,0E0,0E0,0E0,0E0,0E0,0E0,0E0,0E0,0E0,0E0,0E0,0E0,0E0,0E0,0E0,0E0,0E0],"parents":[2147483647,0,0,1,1,2,2,3,3,4,4,5,5,6,6,7,7,8,8,9,9,10,10,11,11,12,12,13,13,14,14,15,15,16,16,17,17,18,18,19,19,20,20,21,21,22,22,23,23,24,24,25,25,26,26,27,27,28,28,29,29,30,30],"right_children":[2,4,6,8,10,12,14,16,18,20,22,24,26,28,30,32,34,36,38,40,42,44,46,48,50,52,54,56,58,60,62,-1,-1,-1,-1,-1,-1,-1,-1,-1,-1,-1,-1,-1,-1,-1,-1,-1,-1,-1,-1,-1,-1,-1,-1,-1,-1,-1,-1,-1,-1,-1,-1],"split_conditions":[2.772129E0,7.7600136E1,1.03804436E2,5.138889E-1,3E0,2.0408163E-2,9.139655E-1,3E0,4.5932083E1,8.9500916E1,1.7579656E0,3.082198E0,1.3208157E-1,3.418266E2,2.638764E0,2.5647435E0,1.1E1,9E0,6.083789E1,4.5648246E0,5.8270678E-2,2.120745E1,1.9704433E-2,8.5712075E-1,4.5574374E0,8.845012E-1,2.6668816E0,3E0,7.6623825E1,2.1153847E-2,5.231715E0,2.9851735E-4,-7.599541E-2,4.494628E-2,-1.3024092E-2,-5.6640532E-2,-1.2383412E-1,-7.005343E-2,-2.1060368E-2,4.9257267E-2,-4.0894464E-2,2.6184747E-2,1.0530558E-1,-2.6915617E-2,4.5985363E-2,4.217851E-2,9.7525716E-2,-1.26418E-1,-5.263092E-2,-1.2466641E-1,-9.377668E-2,-1.1284347E-1,-5.752551E-2,2.8558176E-2,-4.37177E-2,-8.1371605E-2,1.8217674E-2,-2.9170673E-2,5.9784822E-2,5.115664E-3,8.486839E-2,-3.1639457E-2,3.7520852E-2],"split_indices":[27,13,13,4,9,4,18,9,15,7,27,17,19,13,17,7,12,16,13,7,4,10,4,18,17,18,17,9,7,4,17,0,0,0,0,0,0,0,0,0,0,0,0,0,0,0,0,0,0,0,0,0,0,0,0,0,0,0,0,0,0,0,0],"split_type":[0,0,0,0,0,0,0,0,0,0,0,0,0,0,0,0,0,0,0,0,0,0,0,0,0,0,0,0,0,0,0,0,0,0,0,0,0,0,0,0,0,0,0,0,0,0,0,0,0,0,0,0,0,0,0,0,0,0,0,0,0,0,0],"sum_hessian":[6.835123E3,3.2319229E3,3.6032002E3,7.9342926E2,2.4384934E3,1.7903575E3,1.8128428E3,5.860836E2,2.0734566E2,5.478166E2,1.8906769E3,6.4175757E2,1.1486E3,5.0743695E2,1.3054059E3,1.2984657E2,4.5623703E2,9.102953E1,1.1631613E2,4.5971967E2,8.809696E1,2.8681E2,1.6038668E3,1.1226476E2,5.294928E2,4.186127E2,7.2998724E2,3.973976E2,1.1003934E2,2.4279608E2,1.0626097E3,2.6013407E1,1.0383316E2,2.4480586E2,2.1143118E2,3.0322712E1,6.0706818E1,8.01514E1,3.6164734E1,1.5700336E2,3.027163E2,2.0696869E1,6.740009E1,5.6319454E1,2.3049054E2,2.2222243E2,1.3816444E3,2.259054E1,8.9674225E1,2.6055264E2,2.6894016E2,2.4990623E2,1.6870647E2,1.2948595E2,6.005013E2,3.5385645E2,4.3541164E1,6.289176E1,4.7147575E1,3.337653E1,2.0941956E2,5.961869E2,4.6642288E2],"tree_param":{"num_deleted":"0","num_feature":"28","num_nodes":"63","size_leaf_vector":"0"}},{"base_weights":[-2.2204535E-3,4.013244E-1,-5.630867E-1,6.449397E-1,-4.7715878E-1,-2.0806573E-1,-7.842019E-1,9.056374E-1,2.1893455E-1,-1.1532035E-1,-7.2607905E-1,1.9547649E-1,-4.2638513E-1,-5.23464E-1,-9.6267855E-1,3.0963454E-1,1.0649302E0,-3.1268305E-1,4.034962E-1,-5.7501906E-1,8.6452045E-2,-9.9296E-1,-2.163233E-1,5.673045E-1,-1.8578874E-1,-7.338963E-1,-2.2748795E-1,-3.455577E-1,-8.789063E-1,-1.1331841E0,-7.251201E-1,8.772553E-2,1.0063657E-2,5.845024E-2,1.0070909E-1,2.03047E-2,-4.9342398E-2,5.067987E-2,-1.6502492E-2,4.746918E-2,-6.808897E-2,2.80792E-2,-3.281037E-2,-1.003168E-1,-6.4883016E-2,4.4011567E-3,-6.066258E-2,6.1704542E-2,-2.6687082E-2,8.978542E-3,-6.290085E-2,-3.5438523E-2,-8.594952E-2,-5.5851392E-2,-2.041574E-3,-1.7781848E-2,-7.560338E-2,5.4491214E-2,-8.284376E-2,-9.292347E-2,-1.1823226E-1,-9.574383E-2,-4.2975653E-2],"categories":[],"categories_nodes":[],"categories_segments":[],"categories_sizes":[],"default_left":[0,0,0,1,0,0,0,0,0,0,1,0,1,0,0,1,0,0,0,0,0,0,1,0,0,0,0,1,1,0,1,0,0,0,0,0,0,0,0,0,0,0,0,0,0,0,0,0,0,0,0,0,0,0,0,0,0,0,0,0,0,0,0],"id":7,"left_children":[1,3,5,7,9,11,13,15,17,19,21,23,25,27,29,31,33,35,37,39,41,43,45,47,49,51,53,55,57,59,61,-1,-1,-1,-1,-1,-1,-1,-1,-1,-1,-1,-1,-1,-1,-1,-1,-1,-1,-1,-1,-1,-1,-1,-1,-1,-1,-1,-1,-1,-1,-1,-1],"loss_changes":[1.4983346E3,8.242432E2,2.1728687E2,3.3459045E2,7.525218E1,9.3864944E1,7.8912476E1,1.7718542E2,1.12542175E2,3.1779327E1,6.717383E1,5.3181644E1,4.210173E1,4.3686844E1,4.0165527E1,5.1958244E1,3.240393E1,3.7635162E1,7.9809006E1,2.1307457E1,2.43847E1,9.948608E0,2.0851814E1,1.9598381E1,2.7264362E1,2.0002533E1,3.3886623E1,3.3879112E1,1.483931E1,9.319458E0,3.5184937E1,0E0,0E0,0E0,0E0,0E0,0E0,0E0,0E0,0E0,0E0,0E0,0E0,0E0,0E0,0E0,0E0,0E0,0E0,0E0,0E0,0E0,0E0,0E0,0E0,0E0,0E0,0E0,0E0,0E0,0E0,0E0,0E0],"parents":[2147483647,0,0,1,1,2,2,3,3,4,4,5,5,6,6,7,7,8,8,9,9,10,10,11,11,12,12,13,13,14,14,15,15,16,16,17,17,18,18,19,19,20,20,21,21,22,22,23,23,24,24,25,25,26,26,27,27,28,28,29,29,30,30],"right_children":[2,4,6,8,10,12,14,16,18,20,22,24,26,28,30,32,34,36,38,40,42,44,46,48,50,52,54,56,58,60,62,-1,-1,-1,-1,-1,-1,-1,-1,-1,-1,-1,-1,-1,-1,-1,-1,-1,-1,-1,-1,-1,-1,-1,-1,-1,-1,-1,-1,-1,-1,-1,-1],"split_conditions":[6.376482E0,3.4930165E0,1.6813748E0,3.0449376E0,3.2709644E0,2.3120267E0,3.1592708E0,3E0,3E0,1.8E1,5.141334E0,8.6489525E0,1.8181818E-2,3.480392E-1,5.093739E0,2.040987E0,1.8432404E1,3.0870852E0,1.9926654E0,3.320073E0,2.4E1,3.1E1,3.0213049E-2,9.963931E-1,3.731884E-1,8.932858E0,1.3039434E-1,1.801424E0,1.9987564E0,3.2822084E-1,2.0408163E-2,8.772553E-2,1.0063657E-2,5.845024E-2,1.0070909E-1,2.03047E-2,-4.9342398E-2,5.067987E-2,-1.6502492E-2,4.746918E-2,-6.808897E-2,2.80792E-2,-3.281037E-2,-1.003168E-1,-6.4883016E-2,4.4011567E-3,-6.066258E-2,6.1704542E-2,-2.6687082E-2,8.978542E-3,-6.290085E-2,-3.5438523E-2,-8.594952E-2,-5.5851392E-2,-2.041574E-3,-1.7781848E-2,-7.560338E-2,5.4491214E-2,-8.284376E-2,-9.292347E-2,-1.1823226E-1,-9.574383E-2,-4.2975653E-2],"split_indices":[20,3,3,27,27,27,27,9,9,14,27,20,4,4,27,7,10,20,3,20,12,14,19,1,4,20,19,8,25,4,4,0,0,0,0,0,0,0,0,0,0,0,0,0,0,0,0,0,0,0,0,0,0,0,0,0,0,0,0,0,0,0,0],"split_type":[0,0,0,0,0,0,0,0,0,0,0,0,0,0,0,0,0,0,0,0,0,0,0,0,0,0,0,0,0,0,0,0,0,0,0,0,0,0,0,0,0,0,0,0,0,0,0,0,0,0,0,0,0,0,0,0,0,0,0,0,0,0,0],"sum_hessian":[6.6179966E3,3.8489504E3,2.7690464E3,3.0135247E3,8.354256E2,1.063477E3,1.7055695E3,1.8687815E3,1.1447433E3,3.410817E2,4.943439E2,3.7339578E2,6.9008124E2,6.946633E2,1.01090607E3,3.9474924E2,1.4740322E3,2.9482507E2,8.499182E2,1.03477875E2,2.3760382E2,3.23847E2,1.7049692E2,1.8879042E2,1.8460535E2,2.6998016E2,4.2010107E2,4.6426245E2,2.3040092E2,5.863141E2,4.2459198E2,8.9593216E1,3.05156E2,1.7120738E2,1.3028248E3,8.975908E1,2.05066E2,6.6821704E2,1.8170119E2,1.4359975E1,8.91179E1,1.5860027E2,7.9003555E1,2.2162569E2,1.0222128E2,1.0851135E2,6.198557E1,1.662313E2,2.2559124E1,1.191197E2,6.548566E1,1.0745446E2,1.6252571E2,1.4320857E2,2.768925E2,3.5840356E2,1.0585887E2,5.908579E0,2.2449234E2,3.8066806E2,2.0564603E2,1.7792245E2,2.4666953E2],"tree_param":{"num_deleted":"0","num_feature":"28","num_nodes":"63","size_leaf_vector":"0"}},{"base_weights":[1.5718277E-3,5.307072E-1,-3.7795594E-1,7.669366E-1,-1.7237298E-1,-9.222829E-2,-7.128801E-1,2.1200648E-1,9.372222E-1,2.5538513E-1,-5.049748E-1,2.6799747E-1,-3.531279E-1,-4.335991E-1,-8.6218494E-1,4.9340196E-2,8.4387004E-1,1.0876501E0,6.17014E-1,-3.64567E-1,4.7967365E-1,-8.5591096E-1,-1.1439151E-1,5.14915E-1,-2.4967383E-1,-7.734035E-2,-6.198052E-1,-2.4375677E-1,-8.022645E-1,-1.0061476E0,-5.151983E-1,5.3743463E-2,-2.2190372E-2,9.011085E-2,1.8365119E-2,5.54677E-2,1.01429045E-1,6.374957E-2,-1.5594465E-2,-1.0895864E-2,-9.704489E-2,6.633518E-2,4.63629E-3,-5.9096146E-2,-1.0263262E-1,-4.4786032E-2,1.828712E-2,-6.8971845E-3,6.12329E-2,-3.5149576E-3,-5.992346E-2,5.8135767E-3,-6.807694E-2,-8.395071E-2,-3.835782E-2,5.570079E-4,-5.3509757E-2,-8.612813E-2,-2.5083292E-2,-1.02409065E-1,-7.5434774E-2,-8.01924E-2,-2.7368918E-2],"categories":[],"categories_nodes":[],"categories_segments":[],"categories_sizes":[],"default_left":[0,0,0,0,0,0,0,0,1,0,1,0,0,0,0,0,0,0,0,1,1,1,0,0,0,1,1,0,0,0,1,0,0,0,0,0,0,0,0,0,0,0,0,0,0,0,0,0,0,0,0,0,0,0,0,0,0,0,0,0,0,0,0],"id":8,"left_children":[1,3,5,7,9,11,13,15,17,19,21,23,25,27,29,31,33,35,37,39,41,43,45,47,49,51,53,55,57,59,61,-1,-1,-1,-1,-1,-1,-1,-1,-1,-1,-1,-1,-1,-1,-1,-1,-1,-1,-1,-1,-1,-1,-1,-1,-1,-1,-1,-1,-1,-1,-1,-1],"loss_changes":[1.3045586E3,4.5077515E2,3.619405E2,1.9173218E2,9.732782E1,1.9205354E2,7.223682E1,4.9109756E1,7.417676E1,4.1820847E1,5.262977E1,1.09864235E2,8.71035E1,4.2401947E1,5.611377E1,6.196501E1,9.646652E0,1.8884521E1,3.613095E1,1.3796614E1,2.424704E1,1.0728638E1,2.2398983E1,5.6973083E1,2.433294E1,5.6306988E1,3.6099075E1,3.5355545E1,1.6455917E1,1.6753906E1,2.626648E1,0E0,0E0,0E0,0E0,0E0,0E0,0E0,0E0,0E0,0E0,0E0,0E0,0E0,0E0,0E0,0E0,0E0,0E0,0E0,0E0,0E0,0E0,0E0,0E0,0E0,0E0,0E0,0E0,0E0,0E0,0E0,0E0],"parents":[2147483647,0,0,1,1,2,2,3,3,4,4,5,5,6,6,7,7,8,8,9,9,10,10,11,11,12,12,13,13,14,14,15,15,16,16,17,17,18,18,19,19,20,20,21,21,22,22,23,23,24,24,25,25,26,26,27,27,28,28,29,29,30,30],"right_children":[2,4,6,8,10,12,14,16,18,20,22,24,26,28,30,32,34,36,38,40,42,44,46,48,50,52,54,56,58,60,62,-1,-1,-1,-1,-1,-1,-1,-1,-1,-1,-1,-1,-1,-1,-1,-1,-1,-1,-1,-1,-1,-1,-1,-1,-1,-1,-1,-1,-1,-1,-1,-1],"split_conditions":[4.99317E0,2.5463948E0,2.5111854E0,3E0,3.0449376E0,2.5486686E0,2.7089045E0,8.210147E1,3.236016E0,1.8803616E0,4.6063695E0,8.820974E0,7.5261097E0,2.7844313E-1,5.777055E0,4.4333515E0,1.4576283E0,1.4581053E1,5E1,8.233867E0,2.265124E-2,2.489409E-2,9.693558E-1,3E0,5.3648067E-1,6.4623857E0,9.1743115E-3,5.4610095E0,1.1448373E2,8.246253E1,2.0408163E-2,5.3743463E-2,-2.2190372E-2,9.011085E-2,1.8365119E-2,5.54677E-2,1.01429045E-1,6.374957E-2,-1.5594465E-2,-1.0895864E-2,-9.704489E-2,6.633518E-2,4.63629E-3,-5.9096146E-2,-1.0263262E-1,-4.4786032E-2,1.828712E-2,-6.8971845E-3,6.12329E-2,-3.5149576E-3,-5.992346E-2,5.8135767E-3,-6.807694E-2,-8.395071E-2,-3.835782E-2,5.570079E-4,-5.3509757E-2,-8.612813E-2,-2.5083292E-2,-1.02409065E-1,-7.5434774E-2,-8.01924E-2,-2.7368918E-2],"split_indices":[20,3,3,9,27,27,27,7,27,27,27,20,20,4,27,7,3,10,12,8,19,19,18,9,4,8,4,3,13,13,4,0,0,0,0,0,0,0,0,0,0,0,0,0,0,0,0,0,0,0,0,0,0,0,0,0,0,0,0,0,0,0,0],"split_type":[0,0,0,0,0,0,0,0,0,0,0,0,0,0,0,0,0,0,0,0,0,0,0,0,0,0,0,0,0,0,0,0,0,0,0,0,0,0,0,0,0,0,0,0,0,0,0,0,0,0,0,0,0,0,0,0,0,0,0,0,0,0,0],"sum_hessian":[6.4941094E3,2.7122744E3,3.781835E3,2.0300894E3,6.8218506E2,2.0414907E3,1.7403441E3,4.772059E2,1.5528835E3,2.9850757E2,3.836775E2,8.5750323E2,1.1839875E3,6.0763745E2,1.1327067E3,3.803636E2,9.684231E1,1.0549098E3,4.979737E2,7.913802E1,2.1936954E2,2.0146832E2,1.8220915E2,5.8058344E2,2.7691983E2,5.8268585E2,6.0130164E2,4.0219196E2,2.0544548E2,7.9921686E2,3.3348984E2,1.3304144E2,2.4732214E2,7.727235E1,1.9569967E1,8.254674E1,9.7236304E2,4.464875E2,5.148621E1,5.9878452E1,1.9259571E1,1.3655772E2,8.281182E1,1.2041428E2,8.105404E1,8.231336E1,9.989579E1,1.2700996E2,4.5357346E2,1.845891E2,9.233073E1,4.8269943E2,9.998641E1,2.2834576E2,3.7295587E2,2.3542886E2,1.6676309E2,1.5794438E2,4.7501106E1,4.44708E2,3.5450885E2,1.1878725E2,2.1470259E2],"tree_param":{"num_deleted":"0","num_feature":"28","num_nodes":"63","size_leaf_vector":"0"}},{"base_weights":[-4.949165E-3,5.33387E-1,-3.9178866E-1,8.074286E-1,-6.788618E-2,-6.591696E-2,-7.0758766E-1,1.7556487E-1,9.585869E-1,4.1963282E-1,-4.7220618E-1,3.2958928E-1,-4.0057006E-1,-3.7012953E-1,-8.4986025E-1,6.642401E-1,-6.131546E-2,1.1180618E0,6.6456974E-1,6.2193716E-1,-2.59091E-1,-7.2206783E-1,-2.6640344E-2,5.630265E-1,-1.607651E-1,-7.748559E-1,-1.8712184E-1,-1.9637838E-1,-7.6716346E-1,-9.554393E-1,-5.0473815E-1,8.740063E-2,7.006649E-3,6.1326757E-2,-2.203684E-2,1.0369258E-1,1.8251356E-2,6.900402E-2,-6.2824567E-3,7.180788E-2,-1.3895496E-3,6.999544E-2,-4.18994E-2,-3.925668E-2,-9.147927E-2,-3.605528E-2,2.6309647E-2,-4.372202E-3,6.678894E-2,1.2820614E-2,-6.560048E-2,-3.144469E-2,-8.4742635E-2,-7.050868E-2,-1.3740268E-3,1.22411745E-2,-4.716153E-2,-9.821602E-2,-4.769206E-2,-1.07316434E-1,-7.455501E-2,-6.681929E-2,-1.8913217E-2],"categories":[],"categories_nodes":[],"categories_segments":[],"categories_sizes":[],"default_left":[0,0,0,0,0,0,0,1,1,1,0,0,1,0,1,1,0,0,0,0,1,0,0,0,0,0,0,0,1,1,0,0,0,0,0,0,0,0,0,0,0,0,0,0,0,0,0,0,0,0,0,0,0,0,0,0,0,0,0,0,0,0,0],"id":9,"left_children":[1,3,5,7,9,11,13,15,17,19,21,23,25,27,29,31,33,35,37,39,41,43,45,47,49,51,53,55,57,59,61,-1,-1,-1,-1,-1,-1,-1,-1,-1,-1,-1,-1,-1,-1,-1,-1,-1,-1,-1,-1,-1,-1,-1,-1,-1,-1,-1,-1,-1,-1,-1,-1],"loss_changes":[1.3660076E3,4.5197766E2,3.9273822E2,1.7978357E2,1.6963634E2,2.4890254E2,9.2742615E1,4.2285004E1,7.0534546E1,5.3743416E1,5.234633E1,9.8760376E1,8.1226974E1,3.962561E1,4.9169556E1,2.137976E1,3.3797623E1,3.046106E1,4.0337128E1,3.375522E1,1.969423E1,2.491481E1,2.0400146E1,6.401955E1,4.812957E1,2.588887E1,6.65944E1,4.3896233E1,1.289254E1,3.0393005E1,2.2344627E1,0E0,0E0,0E0,0E0,0E0,0E0,0E0,0E0,0E0,0E0,0E0,0E0,0E0,0E0,0E0,0E0,0E0,0E0,0E0,0E0,0E0,0E0,0E0,0E0,0E0,0E0,0E0,0E0,0E0,0E0,0E0,0E0],"parents":[2147483647,0,0,1,1,2,2,3,3,4,4,5,5,6,6,7,7,8,8,9,9,10,10,11,11,12,12,13,13,14,14,15,15,16,16,17,17,18,18,19,19,20,20,21,21,22,22,23,23,24,24,25,25,26,26,27,27,28,28,29,29,30,30],"right_children":[2,4,6,8,10,12,14,16,18,20,22,24,26,28,30,32,34,36,38,40,42,44,46,48,50,52,54,56,58,60,62,-1,-1,-1,-1,-1,-1,-1,-1,-1,-1,-1,-1,-1,-1,-1,-1,-1,-1,-1,-1,-1,-1,-1,-1,-1,-1,-1,-1,-1,-1,-1,-1],"split_conditions":[4.99317E0,2.0466535E0,2.1610968E0,8.888781E-1,3.0449376E0,2.836452E0,2.357845E0,1.3140808E0,2.836452E0,7.3181953E0,5.4163694E0,8.768808E0,2.1153847E-2,9.955043E0,5.8906994E0,2.8957744E0,8.739718E0,3E0,4.3E1,5.9514604E0,1.4115118E0,2E0,9.7112244E-1,6.810235E1,4.7570333E-1,7.2129655E0,8.8678384E-1,4.5446873E0,8E-3,1.6064256E-2,8.73878E1,8.740063E-2,7.006649E-3,6.1326757E-2,-2.203684E-2,1.0369258E-1,1.8251356E-2,6.900402E-2,-6.2824567E-3,7.180788E-2,-1.3895496E-3,6.999544E-2,-4.18994E-2,-3.925668E-2,-9.147927E-2,-3.605528E-2,2.6309647E-2,-4.372202E-3,6.678894E-2,1.2820614E-2,-6.560048E-2,-3.144469E-2,-8.4742635E-2,-7.050868E-2,-1.3740268E-3,1.22411745E-2,-4.716153E-2,-9.821602E-2,-4.769206E-2,-1.07316434E-1,-7.455501E-2,-6.681929E-2,-1.8913217E-2],"split_indices":[20,3,3,18,27,27,27,7,27,8,27,20,4,20,27,27,8,2,12,3,7,2,18,7,4,20,18,3,4,4,13,0,0,0,0,0,0,0,0,0,0,0,0,0,0,0,0,0,0,0,0,0,0,0,0,0,0,0,0,0,0,0,0],"split_type":[0,0,0,0,0,0,0,0,0,0,0,0,0,0,0,0,0,0,0,0,0,0,0,0,0,0,0,0,0,0,0,0,0,0,0,0,0,0,0,0,0,0,0,0,0,0,0,0,0,0,0,0,0,0,0,0,0,0,0,0,0,0,0],"sum_hessian":[6.5574663E3,2.741685E3,3.8157812E3,1.8830889E3,8.5859625E2,1.8785363E3,1.9372449E3,3.6393756E2,1.5191514E3,3.8923203E2,4.693642E2,8.609943E2,1.01754193E3,5.755921E2,1.3616527E3,1.182298E2,2.4570776E2,9.831096E2,5.360417E2,2.9991986E2,8.931217E1,3.003277E2,1.690365E2,5.832061E2,2.777882E2,3.6858698E2,6.4895496E2,4.0141733E2,1.741748E2,1.0413243E3,3.2032837E2,7.718175E1,4.1048046E1,4.814934E1,1.9755841E2,9.475704E2,3.5539265E1,4.7055048E2,6.5491234E1,2.3484604E2,6.507382E1,1.4371654E1,7.494052E1,1.5361897E2,1.4670872E2,7.7691574E1,9.134492E1,1.3224942E2,4.5095667E2,1.8161023E2,9.617799E1,1.04644196E2,2.6394278E2,1.4438933E2,5.0456567E2,1.9955371E2,2.0186362E2,7.2089195E1,1.0208561E2,3.6052097E2,6.808034E2,1.7644174E2,1.4388664E2],"tree_param":{"num_deleted":"0","num_feature":"28","num_nodes":"63","size_leaf_vector":"0"}},{"base_weights":[-5.3768256E-3,5.0687194E-1,-3.2299954E-1,6.876393E-1,-3.4903768E-1,4.567737E-2,-5.91099E-1,2.3219186E-1,8.3514637E-1,1.4016774E-1,-6.836145E-1,2.9499307E-1,-3.143074E-1,-8.110106E-1,-2.6265824E-1,5.4278858E-2,6.6232604E-1,9.952833E-1,5.2514416E-1,-3.7100005E-1,3.0304918E-1,-9.092646E-1,-9.96375E-2,5.000232E-1,-1.2560984E-1,-7.289866E-1,-1.4216654E-1,-4.473142E-1,-1.0023772E0,7.7742085E-2,-5.62164E-1,5.4770324E-2,-2.6600076E-2,9.102816E-2,3.647778E-2,6.2392294E-2,9.666542E-2,1.37590505E-2,6.71291E-2,3.8772546E-2,-5.9621297E-2,-1.1100301E-2,4.958025E-2,-2.4153996E-2,-8.986429E-2,3.448177E-2,-4.4369012E-2,-6.5490375E-3,5.8905035E-2,2.3971952E-3,-6.903222E-2,-7.394191E-2,7.5188084E-3,4.295117E-3,-4.9865786E-2,7.6126643E-3,-6.2022794E-2,-6.4947754E-2,-9.7566165E-2,-4.645097E-2,2.1059508E-2,-8.312308E-2,-3.478938E-2],"categories":[],"categories_nodes":[],"categories_segments":[],"categories_sizes":[],"default_left":[0,0,0,0,0,0,0,0,0,0,0,0,0,0,0,0,0,0,0,0,0,0,0,0,1,1,0,1,1,0,1,0,0,0,0,0,0,0,0,0,0,0,0,0,0,0,0,0,0,0,0,0,0,0,0,0,0,0,0,0,0,0,0],"id":10,"left_children":[1,3,5,7,9,11,13,15,17,19,21,23,25,27,29,31,33,35,37,39,41,43,45,47,49,51,53,55,57,59,61,-1,-1,-1,-1,-1,-1,-1,-1,-1,-1,-1,-1,-1,-1,-1,-1,-1,-1,-1,-1,-1,-1,-1,-1,-1,-1,-1,-1,-1,-1,-1,-1],"loss_changes":[1.0339597E3,3.7656268E2,3.8775043E2,1.3473993E2,6.962306E1,1.4840152E2,1.6383008E2,3.767195E1,7.477295E1,1.4545886E1,3.3173103E1,8.4300224E1,4.81976E1,9.419757E1,9.305611E1,6.798076E1,1.2518082E1,2.3025024E1,4.2512344E1,1.0179987E1,1.4018773E1,1.0136902E1,1.3762242E1,5.8172302E1,3.1358992E1,1.4983322E1,3.75227E1,6.059606E1,1.963379E1,3.9825386E1,3.0454254E1,0E0,0E0,0E0,0E0,0E0,0E0,0E0,0E0,0E0,0E0,0E0,0E0,0E0,0E0,0E0,0E0,0E0,0E0,0E0,0E0,0E0,0E0,0E0,0E0,0E0,0E0,0E0,0E0,0E0,0E0,0E0,0E0],"parents":[2147483647,0,0,1,1,2,2,3,3,4,4,5,5,6,6,7,7,8,8,9,9,10,10,11,11,12,12,13,13,14,14,15,15,16,16,17,17,18,18,19,19,20,20,21,21,22,22,23,23,24,24,25,25,26,26,27,27,28,28,29,29,30,30],"right_children":[2,4,6,8,10,12,14,16,18,20,22,24,26,28,30,32,34,36,38,40,42,44,46,48,50,52,54,56,58,60,62,-1,-1,-1,-1,-1,-1,-1,-1,-1,-1,-1,-1,-1,-1,-1,-1,-1,-1,-1,-1,-1,-1,-1,-1,-1,-1,-1,-1,-1,-1,-1,-1],"split_conditions":[4.7836256E0,3.7112355E0,3.1434855E0,3E0,3.175992E0,2.4455712E0,5.3344836E0,5.4801437E1,3.3403983E0,1.8923085E0,5.7573075E0,8.53428E0,9.1600174E-1,1.6381693E0,7.480689E0,4.4333515E0,2.2818246E0,2.972007E1,4.5702815E0,1.0777107E1,9.4418305E-1,2.4200907E0,1.4E1,3E0,9.909583E-1,3E0,9.810161E0,3.1246693E0,3.0744958E0,8.797935E-1,5.8139535E-3,5.4770324E-2,-2.6600076E-2,9.102816E-2,3.647778E-2,6.2392294E-2,9.666542E-2,1.37590505E-2,6.71291E-2,3.8772546E-2,-5.9621297E-2,-1.1100301E-2,4.958025E-2,-2.4153996E-2,-8.986429E-2,3.448177E-2,-4.4369012E-2,-6.5490375E-3,5.8905035E-2,2.3971952E-3,-6.903222E-2,-7.394191E-2,7.5188084E-3,4.295117E-3,-4.9865786E-2,7.6126643E-3,-6.2022794E-2,-6.4947754E-2,-9.7566165E-2,-4.645097E-2,2.1059508E-2,-8.312308E-2,-3.478938E-2],"split_indices":[20,3,17,9,17,3,17,7,27,27,17,20,18,3,20,7,20,10,27,0,18,27,12,9,1,9,20,27,27,18,4,0,0,0,0,0,0,0,0,0,0,0,0,0,0,0,0,0,0,0,0,0,0,0,0,0,0,0,0,0,0,0,0],"split_type":[0,0,0,0,0,0,0,0,0,0,0,0,0,0,0,0,0,0,0,0,0,0,0,0,0,0,0,0,0,0,0,0,0,0,0,0,0,0,0,0,0,0,0,0,0,0,0,0,0,0,0,0,0,0,0,0,0,0,0,0,0,0,0],"sum_hessian":[6.352929E3,2.4312747E3,3.9216548E3,2.007491E3,4.237837E2,1.6514684E3,2.2701863E3,4.917433E2,1.5157477E3,1.7235455E2,2.5142914E2,9.758214E2,6.75647E2,1.3588694E3,9.1131696E2,3.4865717E2,1.4308612E2,9.9800195E2,5.1774567E2,4.134006E1,1.3101448E2,1.8095189E2,7.047726E1,6.55902E2,3.1991946E2,1.9724887E2,4.7839813E2,4.6964194E2,8.892275E2,4.268852E2,4.8443173E2,1.3462201E2,2.1403517E2,5.9429634E1,8.365648E1,2.0847922E2,7.8952277E2,1.9335231E2,3.2439334E2,1.0893589E1,3.0446474E1,4.8344837E1,8.266965E1,2.2603962E1,1.5834793E2,3.1653841E1,3.8823418E1,1.3943098E2,5.16471E2,2.5932492E2,6.059454E1,1.770611E2,2.0187769E1,3.2804797E2,1.5035014E2,1.4698949E2,3.2265247E2,2.0264915E2,6.8657837E2,8.844225E1,3.3844293E2,1.5701907E2,3.274127E2],"tree_param":{"num_deleted":"0","num_feature":"28","num_nodes":"63","size_leaf_vector":"0"}},{"base_weights":[3.7829162E-4,4.447016E-1,-3.0407885E-1,7.011289E-1,8.90397E-2,1.9720098E-2,-5.3544015E-1,2.0911291E-1,8.757843E-1,-2.4599963E-1,3.4388438E-1,2.017522E-1,-2.9747143E-1,-7.549301E-1,-2.1117195E-1,-1.6257638E-2,6.029457E-1,5.3967685E-1,9.529911E-1,4.3895748E-1,-4.072138E-1,9.908571E-2,6.653392E-1,-2.4520753E-1,3.3126083E-1,-6.3327014E-1,-1.8838326E-2,-4.4001058E-1,-8.712958E-1,6.753406E-2,-5.3444284E-1,-6.735586E-2,1.6412856E-2,-1.0869389E-2,6.4662695E-2,6.7515835E-2,-7.7952486E-3,9.1691665E-2,6.2468536E-2,-6.1225314E-2,5.6215186E-2,3.928027E-2,-4.7834E-2,5.82061E-2,-1.65543E-2,6.846487E-2,-4.9212156E-3,6.886803E-2,-3.2776706E-2,-8.66708E-3,3.9405003E-2,-9.007461E-2,-4.349093E-2,-2.5292894E-2,2.6833193E-2,-8.6223975E-2,-2.6384631E-2,-8.686614E-2,-5.350153E-2,2.2863032E-2,-3.4673218E-2,-7.3903866E-2,-2.3414975E-2],"categories":[],"categories_nodes":[],"categories_segments":[],"categories_sizes":[],"default_left":[0,1,0,0,0,0,0,0,1,0,0,0,1,1,0,1,0,1,0,0,0,0,1,0,1,0,0,0,0,0,1,0,0,0,0,0,0,0,0,0,0,0,0,0,0,0,0,0,0,0,0,0,0,0,0,0,0,0,0,0,0,0,0],"id":11,"left_children":[1,3,5,7,9,11,13,15,17,19,21,23,25,27,29,31,33,35,37,39,41,43,45,47,49,51,53,55,57,59,61,-1,-1,-1,-1,-1,-1,-1,-1,-1,-1,-1,-1,-1,-1,-1,-1,-1,-1,-1,-1,-1,-1,-1,-1,-1,-1,-1,-1,-1,-1,-1,-1],"loss_changes":[8.3786456E2,2.2961688E2,2.7534433E2,1.2555322E2,9.026502E1,8.8552956E1,1.5241315E2,3.4149895E1,2.7499573E1,5.0629883E1,4.7173103E1,5.648372E1,5.231408E1,4.644934E1,7.812253E1,3.5854134E1,1.1794136E1,2.6954296E1,1.4226929E1,1.8612486E1,3.906223E1,5.3121727E1,1.7852493E1,2.6663643E1,3.44861E1,1.3500618E1,2.5571703E1,2.6103561E1,2.3652893E1,3.947588E1,3.1349754E1,0E0,0E0,0E0,0E0,0E0,0E0,0E0,0E0,0E0,0E0,0E0,0E0,0E0,0E0,0E0,0E0,0E0,0E0,0E0,0E0,0E0,0E0,0E0,0E0,0E0,0E0,0E0,0E0,0E0,0E0,0E0,0E0],"parents":[2147483647,0,0,1,1,2,2,3,3,4,4,5,5,6,6,7,7,8,8,9,9,10,10,11,11,12,12,13,13,14,14,15,15,16,16,17,17,18,18,19,19,20,20,21,21,22,22,23,23,24,24,25,25,26,26,27,27,28,28,29,29,30,30],"right_children":[2,4,6,8,10,12,14,16,18,20,22,24,26,28,30,32,34,36,38,40,42,44,46,48,50,52,54,56,58,60,62,-1,-1,-1,-1,-1,-1,-1,-1,-1,-1,-1,-1,-1,-1,-1,-1,-1,-1,-1,-1,-1,-1,-1,-1,-1,-1,-1,-1,-1,-1,-1,-1],"split_conditions":[4.9570026E0,2.8957744E0,3.1098104E0,9.1600174E-1,9.693558E-1,8.820974E0,5.3344836E0,3E0,2.3416065E1,2.0429816E0,5.188619E0,3E0,1.8181818E-2,3.1592708E0,8.079375E0,1.8188846E0,2.5045694E1,9.811665E-1,4.267979E0,3.5874172E1,8.016809E0,3.4001498E0,9.967866E-1,9.21608E0,2.2131226E1,1.7817128E0,4.6878285E0,8.612755E-1,4.4630075E0,9.8119617E-1,2.9530201E-2,-6.735586E-2,1.6412856E-2,-1.0869389E-2,6.4662695E-2,6.7515835E-2,-7.7952486E-3,9.1691665E-2,6.2468536E-2,-6.1225314E-2,5.6215186E-2,3.928027E-2,-4.7834E-2,5.82061E-2,-1.65543E-2,6.846487E-2,-4.9212156E-3,6.886803E-2,-3.2776706E-2,-8.66708E-3,3.9405003E-2,-9.007461E-2,-4.349093E-2,-2.5292894E-2,2.6833193E-2,-8.6223975E-2,-2.6384631E-2,-8.686614E-2,-5.350153E-2,2.2863032E-2,-3.4673218E-2,-7.3903866E-2,-2.3414975E-2],"split_indices":[20,27,17,18,18,20,17,9,21,20,27,9,4,27,20,27,15,1,20,15,8,17,23,0,10,17,11,18,17,23,4,0,0,0,0,0,0,0,0,0,0,0,0,0,0,0,0,0,0,0,0,0,0,0,0,0,0,0,0,0,0,0,0],"split_type":[0,0,0,0,0,0,0,0,0,0,0,0,0,0,0,0,0,0,0,0,0,0,0,0,0,0,0,0,0,0,0,0,0,0,0,0,0,0,0,0,0,0,0,0,0,0,0,0,0,0,0,0,0,0,0,0,0,0,0,0,0,0,0],"sum_hessian":[6.1916777E3,2.5173738E3,3.6743042E3,1.4621864E3,1.0551873E3,1.5316361E3,2.142668E3,3.836411E2,1.0785453E3,4.5588235E2,5.9930493E2,9.7338635E2,5.582498E2,1.2769803E3,8.656877E2,2.4461757E2,1.3902353E2,2.0296404E2,8.755813E2,8.6527336E1,3.69355E2,3.4096033E2,2.5834457E2,2.1847899E2,7.5490735E2,2.5257846E2,3.0567136E2,3.4583405E2,9.311463E2,4.6531247E2,4.0037518E2,5.1610134E1,1.9300743E2,1.9131422E1,1.1989211E2,1.5175926E2,5.1204773E1,6.957926E2,1.7978868E2,1.1931745E1,7.459559E1,4.7099636E1,3.2225537E2,1.1573255E2,2.2522777E2,2.2807478E2,3.0269796E1,2.2444042E1,1.9603494E2,1.5064128E2,6.0426605E2,7.157212E1,1.8100633E2,1.673562E2,1.3831514E2,7.516205E1,2.70672E2,6.934787E2,2.3766762E2,3.2987845E2,1.3543402E2,1.9477544E2,2.0559976E2],"tree_param":{"num_deleted":"0","num_feature":"28","num_nodes":"63","size_leaf_vector":"0"}},{"base_weights":[-6.198122E-3,3.9162406E-1,-5.214961E-1,6.3027585E-1,-3.6026627E-1,-2.893358E-1,-8.510984E-1,8.707997E-1,2.2239082E-1,1.864393E-1,-6.455566E-1,1.1985218E-1,-4.8285174E-1,-4.9635988E-1,-9.802722E-1,3.3684146E-1,1.0203128E0,7.919736E-1,4.7310576E-2,-3.0045575E-1,4.2928326E-1,-9.010264E-1,-4.556491E-2,-3.1765658E-1,3.495587E-1,-8.1039405E-1,-2.6676643E-1,-6.297319E-1,3.52358E-2,-1.075326E0,-4.631677E-1,8.870316E-2,1.3488827E-2,1.0206388E-1,7.484183E-2,7.787269E-2,-8.66582E-3,-4.53788E-2,2.9294498E-2,-3.5833355E-4,-7.1679935E-2,-1.374044E-2,5.106267E-2,-5.1648285E-2,-9.4193004E-2,1.1944906E-2,-6.622167E-2,8.027167E-3,-4.8407946E-2,-4.43314E-2,4.345148E-2,-5.2225277E-2,-9.2130095E-2,-6.401468E-2,-6.514952E-3,-9.239915E-2,-4.202766E-2,-4.6886146E-2,3.4723468E-2,-6.822703E-2,-1.0033935E-1,-2.2235278E-2,-9.2709616E-2],"categories":[],"categories_nodes":[],"categories_segments":[],"categories_sizes":[],"default_left":[0,0,0,1,0,0,0,0,0,1,0,0,1,0,0,1,0,0,0,1,0,0,1,0,0,0,0,0,0,0,0,0,0,0,0,0,0,0,0,0,0,0,0,0,0,0,0,0,0,0,0,0,0,0,0,0,0,0,0,0,0,0,0],"id":12,"left_children":[1,3,5,7,9,11,13,15,17,19,21,23,25,27,29,31,33,35,37,39,41,43,45,47,49,51,53,55,57,59,61,-1,-1,-1,-1,-1,-1,-1,-1,-1,-1,-1,-1,-1,-1,-1,-1,-1,-1,-1,-1,-1,-1,-1,-1,-1,-1,-1,-1,-1,-1,-1,-1],"loss_changes":[1.3358552E3,6.601036E2,2.1699915E2,2.7369727E2,1.3840936E2,1.320792E2,5.32536E1,1.3983179E2,1.0336899E2,3.61688E1,8.929591E1,5.3990932E1,7.991324E1,2.236161E1,4.170929E1,4.662231E1,2.8491089E1,1.5948105E1,1.22014084E2,1.4998831E1,1.646177E1,1.8863708E1,2.1646187E1,1.6631332E1,3.973572E1,2.1467163E1,5.9014862E1,1.5796616E1,1.2708268E1,8.247803E0,1.629708E1,0E0,0E0,0E0,0E0,0E0,0E0,0E0,0E0,0E0,0E0,0E0,0E0,0E0,0E0,0E0,0E0,0E0,0E0,0E0,0E0,0E0,0E0,0E0,0E0,0E0,0E0,0E0,0E0,0E0,0E0,0E0,0E0],"parents":[2147483647,0,0,1,1,2,2,3,3,4,4,5,5,6,6,7,7,8,8,9,9,10,10,11,11,12,12,13,13,14,14,15,15,16,16,17,17,18,18,19,19,20,20,21,21,22,22,23,23,24,24,25,25,26,26,27,27,28,28,29,29,30,30],"right_children":[2,4,6,8,10,12,14,16,18,20,22,24,26,28,30,32,34,36,38,40,42,44,46,48,50,52,54,56,58,60,62,-1,-1,-1,-1,-1,-1,-1,-1,-1,-1,-1,-1,-1,-1,-1,-1,-1,-1,-1,-1,-1,-1,-1,-1,-1,-1,-1,-1,-1,-1,-1,-1],"split_conditions":[6.218189E0,3.090944E0,3.2406268E0,3.1592708E0,2.7781217E0,2.4445202E0,2.4983284E0,3E0,3.0215895E0,1.9449586E0,5.2854786E0,1.7817128E0,1.8181818E-2,1.17741325E2,6.9170976E0,2.040987E0,1.5E1,2.5111854E0,4.40454E0,9.744557E-1,8.7293833E-1,4.667453E0,1.2176008E1,1E1,8.316246E-1,1.2028604E0,9.3372756E-1,1.6169016E0,9.726527E-1,2.9890587E0,3.3333334E-1,8.870316E-2,1.3488827E-2,1.0206388E-1,7.484183E-2,7.787269E-2,-8.66582E-3,-4.53788E-2,2.9294498E-2,-3.5833355E-4,-7.1679935E-2,-1.374044E-2,5.106267E-2,-5.1648285E-2,-9.4193004E-2,1.1944906E-2,-6.622167E-2,8.027167E-3,-4.8407946E-2,-4.43314E-2,4.345148E-2,-5.2225277E-2,-9.2130095E-2,-6.401468E-2,-6.514952E-3,-9.239915E-2,-4.202766E-2,-4.6886146E-2,3.4723468E-2,-6.822703E-2,-1.0033935E-1,-2.2235278E-2,-9.2709616E-2],"split_indices":[20,3,3,27,17,17,17,9,17,27,17,17,4,13,17,7,12,3,17,6,18,3,8,22,18,3,18,17,18,17,4,0,0,0,0,0,0,0,0,0,0,0,0,0,0,0,0,0,0,0,0,0,0,0,0,0,0,0,0,0,0,0,0],"split_type":[0,0,0,0,0,0,0,0,0,0,0,0,0,0,0,0,0,0,0,0,0,0,0,0,0,0,0,0,0,0,0,0,0,0,0,0,0,0,0,0,0,0,0,0,0,0,0,0,0,0,0,0,0,0,0,0,0,0,0,0,0,0,0],"sum_hessian":[6.514467E3,3.6764224E3,2.8380447E3,2.790783E3,8.8563947E2,1.6662642E3,1.1717804E3,1.7548428E3,1.0359401E3,3.038035E2,5.81836E2,5.3512573E2,1.1311384E3,3.1408337E2,8.57697E2,3.845929E2,1.3702499E3,2.4273495E2,7.9320514E2,1.0102137E2,2.0278214E2,4.0772815E2,1.7410782E2,1.8409938E2,3.5102634E2,4.4852048E2,6.8261804E2,2.5094034E2,6.314302E1,7.236049E2,1.3409209E2,8.5085266E1,2.9950763E2,8.5189886E2,5.18351E2,2.2426016E2,1.8474798E1,2.656743E2,5.275309E2,6.3858376E1,3.7162994E1,3.8866898E1,1.6391524E2,1.2707199E2,2.8065616E2,1.3900952E2,3.5098305E1,6.486086E1,1.1923851E2,4.7582E1,3.0344434E2,2.1753276E2,2.309877E2,2.0687433E2,4.7574368E2,7.14308E1,1.7950954E2,2.4224722E1,3.8918297E1,8.245522E1,6.411497E2,9.81243E1,3.5967793E1],"tree_param":{"num_deleted":"0","num_feature":"28","num_nodes":"63","size_leaf_vector":"0"}},{"base_weights":[-8.182702E-3,3.125165E-1,-3.9348772E-1,5.8716756E-1,-9.457014E-2,-1.9755326E-2,-6.188521E-1,1.4719926E-1,7.416676E-1,1.7406619E-1,-3.160949E-1,2.6463076E-1,-3.439773E-1,-8.230073E-1,-2.846426E-1,5.024513E-1,-3.4859613E-2,9.391357E-1,4.7222754E-1,3.8490787E-1,-1.8824473E-1,-7.215561E-1,-1.8330829E-1,-2.0870616E-1,4.5614934E-1,-6.2383133E-1,-1.5120864E-1,-6.4845055E-1,-9.778246E-1,-1.4767636E-1,-7.565595E-1,7.684387E-2,2.1434434E-2,8.148513E-2,-1.4168859E-2,9.2774525E-2,6.432771E-2,-5.3900573E-4,5.7367455E-2,5.4705147E-2,7.597562E-3,8.626755E-3,-4.8639774E-2,6.93117E-2,-7.529923E-2,6.308217E-3,-3.9099537E-2,4.3600123E-2,-3.04665E-2,6.0846835E-2,1.3962566E-2,-7.244718E-2,-4.4554104E-3,-5.7404112E-2,-3.5326605E-4,-8.732657E-2,-4.796359E-2,-8.416577E-3,-9.08347E-2,-5.9111387E-2,-1.3221161E-3,-8.143038E-2,-2.2367792E-2],"categories":[],"categories_nodes":[],"categories_segments":[],"categories_sizes":[],"default_left":[0,0,0,0,0,0,0,1,0,0,0,0,0,0,1,0,0,0,0,0,0,0,0,0,0,0,0,0,0,1,0,0,0,0,0,0,0,0,0,0,0,0,0,0,0,0,0,0,0,0,0,0,0,0,0,0,0,0,0,0,0,0,0],"id":13,"left_children":[1,3,5,7,9,11,13,15,17,19,21,23,25,27,29,31,33,35,37,39,41,43,45,47,49,51,53,55,57,59,61,-1,-1,-1,-1,-1,-1,-1,-1,-1,-1,-1,-1,-1,-1,-1,-1,-1,-1,-1,-1,-1,-1,-1,-1,-1,-1,-1,-1,-1,-1,-1,-1],"loss_changes":[7.5263806E2,3.7171994E2,2.3302151E2,1.3482843E2,7.980177E1,9.615105E1,1.1752844E2,3.346628E1,7.771222E1,4.6386166E1,3.942858E1,5.0459164E1,2.6191296E1,2.8306824E1,4.2292053E1,1.6075554E1,3.9657703E1,1.6682861E1,4.9239044E1,2.5643673E1,2.243474E1,3.170977E1,3.5339478E1,1.462566E1,2.6100143E1,2.0601562E1,2.0770002E1,1.8308594E1,1.5635071E1,3.450003E1,1.0869247E1,0E0,0E0,0E0,0E0,0E0,0E0,0E0,0E0,0E0,0E0,0E0,0E0,0E0,0E0,0E0,0E0,0E0,0E0,0E0,0E0,0E0,0E0,0E0,0E0,0E0,0E0,0E0,0E0,0E0,0E0,0E0,0E0],"parents":[2147483647,0,0,1,1,2,2,3,3,4,4,5,5,6,6,7,7,8,8,9,9,10,10,11,11,12,12,13,13,14,14,15,15,16,16,17,17,18,18,19,19,20,20,21,21,22,22,23,23,24,24,25,25,26,26,27,27,28,28,29,29,30,30],"right_children":[2,4,6,8,10,12,14,16,18,20,22,24,26,28,30,32,34,36,38,40,42,44,46,48,50,52,54,56,58,60,62,-1,-1,-1,-1,-1,-1,-1,-1,-1,-1,-1,-1,-1,-1,-1,-1,-1,-1,-1,-1,-1,-1,-1,-1,-1,-1,-1,-1,-1,-1,-1,-1],"split_conditions":[1.9207838E0,5.7439227E0,2.8640618E0,9.1600174E-1,3.1434855E0,6.615741E0,5.083213E0,1.4730155E0,3.2875388E0,9.505888E-1,9.0661734E-1,9.1600174E-1,4.357664E1,4.7287416E0,7.79873E0,1.9341423E1,3.0857515E0,9.7867745E-1,4.234249E0,1.3E1,1.7E1,1.0837729E0,1.2E1,2.1183493E0,4.165548E0,9.576904E1,1.6443796E0,6.2600616E1,3.0857515E0,1.1029412E-2,2.158404E2,7.684387E-2,2.1434434E-2,8.148513E-2,-1.4168859E-2,9.2774525E-2,6.432771E-2,-5.3900573E-4,5.7367455E-2,5.4705147E-2,7.597562E-3,8.626755E-3,-4.8639774E-2,6.93117E-2,-7.529923E-2,6.308217E-3,-3.9099537E-2,4.3600123E-2,-3.04665E-2,6.0846835E-2,1.3962566E-2,-7.244718E-2,-4.4554104E-3,-5.7404112E-2,-3.5326605E-4,-8.732657E-2,-4.796359E-2,-8.416577E-3,-9.08347E-2,-5.9111387E-2,-1.3221161E-3,-8.143038E-2,-2.2367792E-2],"split_indices":[3,20,17,18,17,20,17,7,17,1,18,18,15,3,8,0,8,6,17,12,22,8,12,7,3,0,17,13,8,4,13,0,0,0,0,0,0,0,0,0,0,0,0,0,0,0,0,0,0,0,0,0,0,0,0,0,0,0,0,0,0,0,0],"split_type":[0,0,0,0,0,0,0,0,0,0,0,0,0,0,0,0,0,0,0,0,0,0,0,0,0,0,0,0,0,0,0,0,0,0,0,0,0,0,0,0,0,0,0,0,0,0,0,0,0,0,0,0,0,0,0,0,0,0,0,0,0,0,0],"sum_hessian":[6.0889355E3,3.3231675E3,2.7657683E3,1.9841018E3,1.3390656E3,1.0408181E3,1.7249502E3,5.16168E2,1.4679338E3,6.0527783E2,7.337877E2,5.545698E2,4.8624823E2,1.0699176E3,6.550326E2,1.7429868E2,3.418694E2,8.4567065E2,6.222632E2,3.82579E2,2.2269879E2,1.7993275E2,5.538549E2,1.5972379E2,3.9484607E2,1.9741405E2,2.8883417E2,5.053376E2,5.645801E2,5.0870276E2,1.4632982E2,7.386544E1,1.0043323E2,3.8690247E1,3.0317914E2,5.977934E2,2.4787729E2,1.60008E2,4.6225516E2,2.1904886E2,1.6353015E2,1.23669464E2,9.902932E1,1.2481791E1,1.6745097E2,2.7604114E2,2.778138E2,2.4763206E1,1.3496059E2,2.274317E2,1.6741435E2,1.4977486E2,4.763919E1,6.6335495E1,2.2249867E2,1.315207E2,3.7381686E2,1.952578E1,5.450543E2,1.0454185E2,4.041609E2,1.1267482E2,3.3654995E1],"tree_param":{"num_deleted":"0","num_feature":"28","num_nodes":"63","size_leaf_vector":"0"}},{"base_weights":[-2.111565E-3,4.0253848E-1,-2.734339E-1,6.703382E-1,1.1341271E-1,4.4693228E-2,-4.4161534E-1,1.21610455E-1,7.9618657E-1,5.47746E-1,-3.6162574E-2,3.0474582E-1,-1.9829394E-1,-7.556112E-1,-3.0973247E-1,5.927962E-1,-1.2800075E-1,3.9978322E-1,8.726746E-1,-2.0746186E-1,6.23284E-1,-3.8750836E-1,2.8897363E-1,-1.8048584E-1,4.4656926E-1,-5.559196E-1,-9.053743E-3,-8.521091E-1,7.7996716E-2,-6.520742E-1,-1.2614724E-1,7.497052E-2,5.4917936E-3,-5.6805722E-2,2.6141569E-2,5.0085943E-2,-1.2421081E-2,8.573181E-2,5.5802535E-2,3.533055E-2,-8.397211E-2,6.984905E-2,2.2206059E-2,-4.0744115E-3,-5.226236E-2,-4.449606E-3,5.0767154E-2,6.650045E-2,-2.8019778E-2,6.298403E-2,1.5055637E-2,-6.953771E-2,-3.1206772E-2,-3.4252767E-2,1.9942613E-2,-8.425195E-2,-3.4084145E-2,-7.5820506E-2,2.6961725E-2,-1.6515704E-2,-7.113379E-2,1.1785869E-2,-3.541768E-2],"categories":[],"categories_nodes":[],"categories_segments":[],"categories_sizes":[],"default_left":[0,1,0,0,0,0,0,1,0,0,0,0,0,1,1,0,0,1,0,0,0,0,0,1,0,1,0,0,0,0,0,0,0,0,0,0,0,0,0,0,0,0,0,0,0,0,0,0,0,0,0,0,0,0,0,0,0,0,0,0,0,0,0],"id":14,"left_children":[1,3,5,7,9,11,13,15,17,19,21,23,25,27,29,31,33,35,37,39,41,43,45,47,49,51,53,55,57,59,61,-1,-1,-1,-1,-1,-1,-1,-1,-1,-1,-1,-1,-1,-1,-1,-1,-1,-1,-1,-1,-1,-1,-1,-1,-1,-1,-1,-1,-1,-1,-1,-1],"loss_changes":[6.5501276E2,1.8533627E2,1.9109894E2,8.573816E1,7.49042E1,7.816286E1,9.651636E1,2.7487694E1,3.0301758E1,1.6977226E1,9.816513E1,4.119414E1,4.327948E1,5.5600006E1,1.0343013E2,1.02816925E1,3.2436584E1,1.4014032E1,1.6498413E1,1.2383972E1,1.5272064E1,2.7277275E1,4.1585007E1,1.6570526E1,3.2602158E1,9.7645645E0,3.601133E1,2.4259888E1,1.5047071E1,3.709613E1,7.383661E1,0E0,0E0,0E0,0E0,0E0,0E0,0E0,0E0,0E0,0E0,0E0,0E0,0E0,0E0,0E0,0E0,0E0,0E0,0E0,0E0,0E0,0E0,0E0,0E0,0E0,0E0,0E0,0E0,0E0,0E0,0E0,0E0],"parents":[2147483647,0,0,1,1,2,2,3,3,4,4,5,5,6,6,7,7,8,8,9,9,10,10,11,11,12,12,13,13,14,14,15,15,16,16,17,17,18,18,19,19,20,20,21,21,22,22,23,23,24,24,25,25,26,26,27,27,28,28,29,29,30,30],"right_children":[2,4,6,8,10,12,14,16,18,20,22,24,26,28,30,32,34,36,38,40,42,44,46,48,50,52,54,56,58,60,62,-1,-1,-1,-1,-1,-1,-1,-1,-1,-1,-1,-1,-1,-1,-1,-1,-1,-1,-1,-1,-1,-1,-1,-1,-1,-1,-1,-1,-1,-1,-1,-1],"split_conditions":[4.92854E0,2.5207396E0,2.59095E0,8.7293833E-1,2.9593823E0,7.480689E0,9.2615366E-1,2.040987E0,1.8017133E0,1.6169016E0,4.764508E0,3E0,1.7817128E0,3E0,1.8181818E-2,9.6609724E-1,2.835195E1,9.8267937E-1,2.5E1,4.039902E0,2.4E1,3.2202716E0,9.754858E-1,1.1217265E0,1.1E1,3.0303031E-2,4.357664E1,1.4914782E-1,2.6262896E1,6.9916325E0,1.2E1,7.497052E-2,5.4917936E-3,-5.6805722E-2,2.6141569E-2,5.0085943E-2,-1.2421081E-2,8.573181E-2,5.5802535E-2,3.533055E-2,-8.397211E-2,6.984905E-2,2.2206059E-2,-4.0744115E-3,-5.226236E-2,-4.449606E-3,5.0767154E-2,6.650045E-2,-2.8019778E-2,6.298403E-2,1.5055637E-2,-6.953771E-2,-3.1206772E-2,-3.4252767E-2,1.9942613E-2,-8.425195E-2,-3.4084145E-2,-7.5820506E-2,2.6961725E-2,-1.6515704E-2,-7.113379E-2,1.1785869E-2,-3.541768E-2],"split_indices":[20,27,17,18,17,20,18,7,27,17,17,9,17,9,4,1,7,23,12,27,12,20,18,7,12,4,15,19,15,20,12,0,0,0,0,0,0,0,0,0,0,0,0,0,0,0,0,0,0,0,0,0,0,0,0,0,0,0,0,0,0,0,0],"split_type":[0,0,0,0,0,0,0,0,0,0,0,0,0,0,0,0,0,0,0,0,0,0,0,0,0,0,0,0,0,0,0,0,0,0,0,0,0,0,0,0,0,0,0,0,0,0,0,0,0,0,0,0,0,0,0,0,0,0,0,0,0,0,0],"sum_hessian":[5.9640156E3,2.3936472E3,3.5703687E3,1.2419685E3,1.1516788E3,1.2350044E3,2.3353643E3,2.3206738E2,1.0099011E3,2.9433463E2,8.573442E2,5.964309E2,6.385735E2,6.893596E2,1.6460045E3,7.9888565E1,1.5217882E2,1.6435413E2,8.45547E2,2.6604437E1,2.677302E2,4.1197147E2,4.4537274E2,1.348354E2,4.615955E2,2.2030466E2,4.1826883E2,6.178191E2,7.154053E1,5.7367975E2,1.0723248E3,5.46404E1,2.5248165E1,6.886493E1,8.3313896E1,1.2723873E2,3.71154E1,6.402831E2,2.0526387E2,1.48132E1,1.1791237E1,1.8968756E2,7.804264E1,1.4908804E2,2.6288342E2,2.0007562E2,2.452971E2,1.6219852E1,1.18615555E2,2.412898E2,2.2030571E2,1.0687823E2,1.1342643E2,1.5995273E2,2.583161E2,5.2386096E2,9.395814E1,1.3336781E1,5.8203747E1,1.3126823E2,4.424115E2,5.469326E2,5.2539215E2],"tree_param":{"num_deleted":"0","num_feature":"28","num_nodes":"63","size_leaf_vector":"0"}},{"base_weights":[-6.887319E-4,2.4268381E-1,-4.0772042E-1,5.6989026E-1,-2.0196019E-2,-4.1776888E-2,-5.825368E-1,9.4684005E-2,6.960775E-1,2.3091745E-1,-2.7861845E-1,-3.793547E-1,1.2920126E-1,-7.245968E-1,-2.3993604E-1,7.880995E-1,-4.3877147E-2,8.73507E-1,4.6895462E-1,3.5238537E-1,-2.4216744E-1,-4.8700702E-1,-1.9356975E-2,-7.065715E-1,-2.2040278E-1,-2.8476328E-1,2.947698E-1,-2.654096E-1,-7.988238E-1,-6.469359E-1,-6.5364316E-2,9.883442E-2,3.5707794E-2,4.7816332E-2,-3.187694E-2,4.4880465E-2,8.399603E-2,6.1376154E-2,1.6764533E-2,-7.0186937E-3,4.2128377E-2,2.0693703E-2,-4.1590083E-2,-3.8134297E-3,-5.3995043E-2,-4.9938325E-2,1.0127146E-2,-8.551417E-2,-1.6562106E-2,-5.137956E-2,2.415288E-3,-1.117228E-3,-5.2106023E-2,3.688498E-2,-4.8619505E-2,-4.0857237E-2,2.196331E-2,-4.84091E-2,-8.202638E-2,-3.4292063E-3,-7.2250515E-2,2.2667993E-2,-2.4544593E-2],"categories":[],"categories_nodes":[],"categories_segments":[],"categories_sizes":[],"default_left":[0,0,0,0,1,0,0,0,1,0,0,1,0,0,0,0,0,1,0,1,0,0,0,0,0,0,1,0,1,0,1,0,0,0,0,0,0,0,0,0,0,0,0,0,0,0,0,0,0,0,0,0,0,0,0,0,0,0,0,0,0,0,0],"id":15,"left_children":[1,3,5,7,9,11,13,15,17,19,21,23,25,27,29,31,33,35,37,39,41,43,45,47,49,51,53,55,57,59,61,-1,-1,-1,-1,-1,-1,-1,-1,-1,-1,-1,-1,-1,-1,-1,-1,-1,-1,-1,-1,-1,-1,-1,-1,-1,-1,-1,-1,-1,-1,-1,-1],"loss_changes":[5.814379E2,3.1596838E2,1.404794E2,9.806299E1,1.323038E2,4.1092308E1,7.2159515E1,3.3136456E1,5.1692688E1,5.950726E1,5.4273582E1,1.2292057E1,3.2487263E1,3.5579163E1,3.1015368E1,6.5330505E0,5.1607178E1,1.577417E1,3.4146194E1,4.102997E1,2.2104027E1,2.7943802E1,3.1755613E1,9.727184E0,1.4099208E1,1.0855541E1,3.2713757E1,1.42914715E1,2.6051086E1,1.2408764E1,2.0264183E1,0E0,0E0,0E0,0E0,0E0,0E0,0E0,0E0,0E0,0E0,0E0,0E0,0E0,0E0,0E0,0E0,0E0,0E0,0E0,0E0,0E0,0E0,0E0,0E0,0E0,0E0,0E0,0E0,0E0,0E0,0E0,0E0],"parents":[2147483647,0,0,1,1,2,2,3,3,4,4,5,5,6,6,7,7,8,8,9,9,10,10,11,11,12,12,13,13,14,14,15,15,16,16,17,17,18,18,19,19,20,20,21,21,22,22,23,23,24,24,25,25,26,26,27,27,28,28,29,29,30,30],"right_children":[2,4,6,8,10,12,14,16,18,20,22,24,26,28,30,32,34,36,38,40,42,44,46,48,50,52,54,56,58,60,62,-1,-1,-1,-1,-1,-1,-1,-1,-1,-1,-1,-1,-1,-1,-1,-1,-1,-1,-1,-1,-1,-1,-1,-1,-1,-1,-1,-1,-1,-1,-1,-1],"split_conditions":[2.5111854E0,4.7836256E0,2.5659015E0,4.890482E1,3.0744958E0,1.7817128E0,5.5713725E0,5.329427E0,2.4981127E0,5.6164384E-1,5.141334E0,2.7950311E-2,7.537001E1,3.8715491E0,1.6072887E2,2.7157614E0,4.4333515E0,1.9334433E1,1.6E1,2.3452543E1,7.2129655E0,2.9593823E0,9.625412E1,7.523248E1,2.7109447E0,5.3182216E0,9.981761E-1,1.2337291E2,3.1979685E0,3.9594734E0,8.8034344E-1,9.883442E-2,3.5707794E-2,4.7816332E-2,-3.187694E-2,4.4880465E-2,8.399603E-2,6.1376154E-2,1.6764533E-2,-7.0186937E-3,4.2128377E-2,2.0693703E-2,-4.1590083E-2,-3.8134297E-3,-5.3995043E-2,-4.9938325E-2,1.0127146E-2,-8.551417E-2,-1.6562106E-2,-5.137956E-2,2.415288E-3,-1.117228E-3,-5.2106023E-2,3.688498E-2,-4.8619505E-2,-4.0857237E-2,2.196331E-2,-4.84091E-2,-8.202638E-2,-3.4292063E-3,-7.2250515E-2,2.2667993E-2,-2.4544593E-2],"split_indices":[3,20,17,7,27,17,17,8,27,4,27,4,13,20,26,17,7,21,12,15,20,17,26,0,11,3,6,15,27,20,6,0,0,0,0,0,0,0,0,0,0,0,0,0,0,0,0,0,0,0,0,0,0,0,0,0,0,0,0,0,0,0,0],"split_type":[0,0,0,0,0,0,0,0,0,0,0,0,0,0,0,0,0,0,0,0,0,0,0,0,0,0,0,0,0,0,0,0,0,0,0,0,0,0,0,0,0,0,0,0,0,0,0,0,0,0,0,0,0,0,0,0,0,0,0,0,0,0,0],"sum_hessian":[5.867534E3,3.6722341E3,2.1952998E3,1.6354375E3,2.0367968E3,7.1009515E2,1.4852047E3,3.4352252E2,1.291915E3,1.0330605E3,1.0037361E3,2.3832654E2,4.7176862E2,1.049085E3,4.3611978E2,5.6431076E1,2.8709143E2,7.237063E2,5.6820874E2,8.2220795E2,2.1085263E2,5.559763E2,4.4775977E2,7.6794E1,1.6153255E2,1.3457532E2,3.371933E2,1.4662161E2,9.024633E2,1.3009889E2,3.0602087E2,3.0477707E1,2.5953367E1,1.0035979E2,1.8673166E2,1.0083165E2,6.2287463E2,3.2323596E2,2.4497275E2,1.742854E2,6.4792255E2,6.699868E1,1.4385394E2,1.128929E2,4.4308344E2,8.784605E1,3.5991373E2,5.1819847E1,2.497415E1,6.627437E1,9.525818E1,7.04231E1,6.4152214E1,2.9680234E2,4.0390957E1,1.0709265E2,3.9528954E1,2.737436E2,6.287197E2,2.676873E1,1.0333016E2,1.2087658E2,1.851443E2],"tree_param":{"num_deleted":"0","num_feature":"28","num_nodes":"63","size_leaf_vector":"0"}},{"base_weights":[-6.7737135E-3,1.8927184E-1,-5.342619E-1,-1.6981919E-1,3.7264818E-1,-2.3490664E-1,-7.0739615E-1,1.0999746E-1,-4.0447918E-1,5.965152E-1,1.3907635E-1,-5.6223893E-1,-6.6783115E-2,-8.8247854E-1,-3.689592E-1,3.3977562E-1,-2.1660145E-1,-8.0125874E-1,-2.8074846E-1,1.4422868E-1,7.5123477E-1,-3.8988E-1,2.5133166E-1,-6.5190333E-1,1.4013544E-1,-3.3703488E-1,1.9723928E-1,-9.394361E-1,-5.0951153E-1,1.8488468E-1,-4.7624493E-1,-2.217856E-2,4.365969E-2,-7.480067E-4,-7.573127E-2,-8.065324E-2,1.260995E-2,-1.1863037E-2,-6.61515E-2,-1.4675225E-3,6.673252E-2,3.8874365E-2,7.47088E-2,-5.1792815E-2,3.000167E-3,1.6490485E-3,4.3278806E-2,4.875168E-3,-6.891712E-2,-5.2148823E-2,5.3670585E-2,4.546059E-3,-5.1885366E-2,2.945679E-2,-3.4088887E-2,-5.2333377E-2,-8.960222E-2,-9.537546E-2,-2.9053992E-2,6.237278E-2,-6.5772603E-3,-7.6311685E-2,-3.0109005E-2],"categories":[],"categories_nodes":[],"categories_segments":[],"categories_sizes":[],"default_left":[0,0,0,0,0,0,0,0,0,0,0,1,0,0,0,0,0,0,0,0,0,0,0,0,0,0,1,0,0,1,0,0,0,0,0,0,0,0,0,0,0,0,0,0,0,0,0,0,0,0,0,0,0,0,0,0,0,0,0,0,0,0,0],"id":16,"left_children":[1,3,5,7,9,11,13,15,17,19,21,23,25,27,29,31,33,35,37,39,41,43,45,47,49,51,53,55,57,59,61,-1,-1,-1,-1,-1,-1,-1,-1,-1,-1,-1,-1,-1,-1,-1,-1,-1,-1,-1,-1,-1,-1,-1,-1,-1,-1,-1,-1,-1,-1,-1,-1],"loss_changes":[6.136623E2,2.8494464E2,8.316873E1,9.611773E1,1.4968024E2,3.2468742E1,6.0008118E1,5.021517E1,3.885385E1,1.0220929E2,8.340514E1,1.2705849E1,2.7992188E1,1.3761597E1,2.0818047E1,3.356684E1,3.5986477E1,1.6979286E1,4.1060658E1,3.5863285E1,2.706897E1,1.9342545E1,6.192678E1,1.4333351E1,8.059367E0,1.8012587E1,1.5001999E1,1.108429E1,9.004711E0,7.5662937E0,1.5122917E1,0E0,0E0,0E0,0E0,0E0,0E0,0E0,0E0,0E0,0E0,0E0,0E0,0E0,0E0,0E0,0E0,0E0,0E0,0E0,0E0,0E0,0E0,0E0,0E0,0E0,0E0,0E0,0E0,0E0,0E0,0E0,0E0],"parents":[2147483647,0,0,1,1,2,2,3,3,4,4,5,5,6,6,7,7,8,8,9,9,10,10,11,11,12,12,13,13,14,14,15,15,16,16,17,17,18,18,19,19,20,20,21,21,22,22,23,23,24,24,25,25,26,26,27,27,28,28,29,29,30,30],"right_children":[2,4,6,8,10,12,14,16,18,20,22,24,26,28,30,32,34,36,38,40,42,44,46,48,50,52,54,56,58,60,62,-1,-1,-1,-1,-1,-1,-1,-1,-1,-1,-1,-1,-1,-1,-1,-1,-1,-1,-1,-1,-1,-1,-1,-1,-1,-1,-1,-1,-1,-1,-1,-1],"split_conditions":[3.7112355E0,8.869617E1,2.9890587E0,3.1434855E0,3.0215895E0,9.423727E-1,5.179808E0,1.3E1,3E0,3E0,8.660096E-1,3E0,9.888329E1,2.1330971E2,7.329746E-1,3E0,5.6164384E-1,8.357287E1,5.034965E-1,7.2622536E1,3.059719E1,2.5107112E2,5.179808E0,1.3296574E1,6.10654E1,7.982309E-1,9.965105E-1,7.31323E-1,1.3066212E2,8.665001E-1,1.4631003E2,-2.217856E-2,4.365969E-2,-7.480067E-4,-7.573127E-2,-8.065324E-2,1.260995E-2,-1.1863037E-2,-6.61515E-2,-1.4675225E-3,6.673252E-2,3.8874365E-2,7.47088E-2,-5.1792815E-2,3.000167E-3,1.6490485E-3,4.3278806E-2,4.875168E-3,-6.891712E-2,-5.2148823E-2,5.3670585E-2,4.546059E-3,-5.1885366E-2,2.945679E-2,-3.4088887E-2,-5.2333377E-2,-8.960222E-2,-9.537546E-2,-2.9053992E-2,6.237278E-2,-6.5772603E-3,-7.6311685E-2,-3.0109005E-2],"split_indices":[3,13,17,17,17,18,17,12,9,9,18,9,13,13,24,9,4,7,4,7,15,13,17,5,26,24,6,24,26,6,26,0,0,0,0,0,0,0,0,0,0,0,0,0,0,0,0,0,0,0,0,0,0,0,0,0,0,0,0,0,0,0,0],"split_type":[0,0,0,0,0,0,0,0,0,0,0,0,0,0,0,0,0,0,0,0,0,0,0,0,0,0,0,0,0,0,0,0,0,0,0,0,0,0,0,0,0,0,0,0,0,0,0,0,0,0,0,0,0,0,0,0,0,0,0,0,0,0,0],"sum_hessian":[5.932188E3,4.3252954E3,1.6068923E3,1.4621532E3,2.8631423E3,5.896769E2,1.01721545E3,6.671508E2,7.950024E2,1.4611493E3,1.4019932E3,1.9930019E2,3.903767E2,6.693405E2,3.47875E2,3.9160052E2,2.755503E2,1.876787E2,6.0732367E2,3.7292432E2,1.088225E3,2.4501042E2,1.1569827E3,1.7680173E2,2.249846E1,1.927759E2,1.976008E2,5.7934686E2,8.9993645E1,5.6334526E1,2.9154047E2,7.7659874E1,3.1394064E2,2.0742155E2,6.812874E1,1.7053691E2,1.7141783E1,4.5834146E2,1.4898222E2,2.9468735E2,7.823697E1,2.1682585E2,8.713991E2,1.7006903E2,7.494139E1,5.746938E2,5.8228894E2,2.4621115E1,1.521806E2,8.624698E0,1.3873764E1,7.392611E1,1.18849785E2,1.6155453E2,3.6046265E1,8.008844E1,4.992584E2,2.161448E1,6.8379166E1,1.8401093E1,3.7933434E1,7.9096466E1,2.12444E2],"tree_param":{"num_deleted":"0","num_feature":"28","num_nodes":"63","size_leaf_vector":"0"}},{"base_weights":[-6.568909E-3,3.3355433E-1,-4.3974102E-1,5.1236814E-1,-4.196331E-1,-8.820636E-2,-6.210258E-1,7.604162E-1,1.6894184E-1,1.4240776E-1,-6.6941833E-1,-4.8213786E-1,8.697677E-2,-3.0538285E-1,-7.886866E-1,1.9602902E-1,8.740743E-1,-1.9289696E-1,3.736706E-1,-6.593256E-1,2.8084013E-1,-8.4050596E-1,-2.1640897E-1,-6.597526E-1,-3.8684804E-2,2.98952E-1,-2.270774E-1,1.1036461E-1,-4.5303288E-1,-8.7511086E-1,-4.1728985E-1,5.8847573E-2,-4.570837E-3,8.952749E-2,6.0762085E-2,-3.1082802E-2,2.3701692E-2,7.432581E-2,1.8535065E-2,1.253762E-2,-1.06957346E-1,-1.779656E-4,6.1315387E-2,-6.935907E-3,-8.008982E-2,2.1246988E-4,-5.0676532E-2,-4.9861506E-2,-1.120115E-1,-5.452905E-2,3.1091517E-2,3.9764438E-2,-3.507553E-2,-7.001282E-2,-9.303106E-3,-5.8233105E-2,2.4643445E-2,-3.2299593E-2,-8.102801E-2,-6.768472E-2,-9.500923E-2,-2.1182746E-2,-7.710751E-2],"categories":[],"categories_nodes":[],"categories_segments":[],"categories_sizes":[],"default_left":[0,0,0,1,0,0,0,0,0,1,0,0,0,0,0,1,0,0,0,0,0,0,1,0,0,0,0,0,0,0,0,0,0,0,0,0,0,0,0,0,0,0,0,0,0,0,0,0,0,0,0,0,0,0,0,0,0,0,0,0,0,0,0],"id":17,"left_children":[1,3,5,7,9,11,13,15,17,19,21,23,25,27,29,31,33,35,37,39,41,43,45,47,49,51,53,55,57,59,61,-1,-1,-1,-1,-1,-1,-1,-1,-1,-1,-1,-1,-1,-1,-1,-1,-1,-1,-1,-1,-1,-1,-1,-1,-1,-1,-1,-1,-1,-1,-1,-1],"loss_changes":[9.186331E2,4.7061343E2,1.747143E2,2.4035596E2,9.424898E1,6.4514E1,9.550305E1,1.0495636E2,8.7869736E1,2.3178703E1,3.5817673E1,2.2637024E1,4.3173897E1,3.8676514E1,3.7540283E1,3.122173E1,3.2070557E1,2.9928528E1,5.7261383E1,1.3181613E1,2.0089046E1,1.2628784E1,9.760269E0,1.201046E1,1.8369495E1,3.8252586E1,1.7739231E1,2.069196E1,1.9238823E1,2.0470703E1,1.7774212E1,0E0,0E0,0E0,0E0,0E0,0E0,0E0,0E0,0E0,0E0,0E0,0E0,0E0,0E0,0E0,0E0,0E0,0E0,0E0,0E0,0E0,0E0,0E0,0E0,0E0,0E0,0E0,0E0,0E0,0E0,0E0,0E0],"parents":[2147483647,0,0,1,1,2,2,3,3,4,4,5,5,6,6,7,7,8,8,9,9,10,10,11,11,12,12,13,13,14,14,15,15,16,16,17,17,18,18,19,19,20,20,21,21,22,22,23,23,24,24,25,25,26,26,27,27,28,28,29,29,30,30],"right_children":[2,4,6,8,10,12,14,16,18,20,22,24,26,28,30,32,34,36,38,40,42,44,46,48,50,52,54,56,58,60,62,-1,-1,-1,-1,-1,-1,-1,-1,-1,-1,-1,-1,-1,-1,-1,-1,-1,-1,-1,-1,-1,-1,-1,-1,-1,-1,-1,-1,-1,-1,-1,-1],"split_conditions":[6.218189E0,3.9896603E0,2.59095E0,2.8957744E0,2.5434606E0,1.7574288E0,1.4931922E0,8.660096E-1,9.58213E-1,1.6537766E0,5.450003E0,8.788027E1,9.452268E0,2.772129E0,6.9170976E0,2.040987E0,1.6E1,3.418266E2,3.2875388E0,1.1E1,5.0699085E1,5.0470505E0,2.5549734E-2,1.2664287E1,6.2032288E1,5.4610095E0,1.7614563E1,2.9334307E1,1.1774313E1,9.736275E0,7.740365E0,5.8847573E-2,-4.570837E-3,8.952749E-2,6.0762085E-2,-3.1082802E-2,2.3701692E-2,7.432581E-2,1.8535065E-2,1.253762E-2,-1.06957346E-1,-1.779656E-4,6.1315387E-2,-6.935907E-3,-8.008982E-2,2.1246988E-4,-5.0676532E-2,-4.9861506E-2,-1.120115E-1,-5.452905E-2,3.1091517E-2,3.9764438E-2,-3.507553E-2,-7.001282E-2,-9.303106E-3,-5.8233105E-2,2.4643445E-2,-3.2299593E-2,-8.102801E-2,-6.768472E-2,-9.500923E-2,-2.1182746E-2,-7.710751E-2],"split_indices":[20,3,17,27,17,17,3,18,18,27,17,10,20,27,17,7,22,13,17,22,0,25,19,20,13,3,10,7,20,20,11,0,0,0,0,0,0,0,0,0,0,0,0,0,0,0,0,0,0,0,0,0,0,0,0,0,0,0,0,0,0,0,0],"split_type":[0,0,0,0,0,0,0,0,0,0,0,0,0,0,0,0,0,0,0,0,0,0,0,0,0,0,0,0,0,0,0,0,0,0,0,0,0,0,0,0,0,0,0,0,0,0,0,0,0,0,0,0,0,0,0,0,0,0,0,0,0,0,0],"sum_hessian":[6.2331313E3,3.4917039E3,2.7414275E3,2.8220437E3,6.6966016E2,9.332403E2,1.8081871E3,1.6378513E3,1.1841923E3,2.0617545E2,4.634847E2,2.8672784E2,6.4651245E2,6.282489E2,1.1799382E3,2.7500336E2,1.3628479E3,4.2792792E2,7.562644E2,2.9803743E1,1.763717E2,3.3580588E2,1.2767883E2,2.0438031E2,8.234752E1,3.8601462E2,2.6049786E2,1.6471187E2,4.6353702E2,9.5609735E2,2.2384085E2,9.574727E1,1.792561E2,8.4579474E2,5.170532E2,3.2092538E2,1.07002525E2,2.035607E2,5.5270374E2,1.2170188E1,1.7633554E1,1.0395039E2,7.24213E1,2.0556614E1,3.1524927E2,7.8888E1,4.8790833E1,1.7473534E2,2.9644981E1,3.3018436E1,4.9329086E1,3.199877E2,6.60269E1,4.6804176E1,2.136937E2,2.8711292E1,1.3600058E2,3.8442172E2,7.911531E1,5.716405E2,3.8445685E2,1.5939197E2,6.444888E1],"tree_param":{"num_deleted":"0","num_feature":"28","num_nodes":"63","size_leaf_vector":"0"}},{"base_weights":[-3.584414E-3,2.704596E-1,-3.738353E-1,4.700089E-1,-1.1723787E-1,-1.2530866E-2,-5.5214787E-1,2.263278E-2,5.9387225E-1,6.375566E-3,-4.7818074E-1,-4.1625178E-1,1.8311872E-1,-7.111417E-1,-2.471575E-1,2.9864767E-1,-3.0855334E-1,8.197158E-1,3.4932226E-1,2.4698415E-1,-2.1844122E-1,-2.3884368E-1,-7.536712E-1,-1.3218895E-2,-5.806178E-1,-3.8482204E-1,3.2159066E-1,-5.12655E-1,-8.80121E-1,5.628175E-2,-4.91703E-1,5.1059406E-2,8.525952E-3,-6.103115E-2,2.4546245E-3,3.8747963E-2,8.1269175E-2,5.5984184E-2,1.4015095E-2,-9.988077E-3,3.7623394E-2,1.8730513E-3,-3.3937454E-2,-1.4168719E-3,-6.348701E-2,-7.4967474E-2,-3.5376544E-3,3.069418E-2,-3.232355E-2,-9.5385045E-2,-4.249782E-2,-4.418432E-2,5.1777225E-2,4.468272E-2,-1.0868644E-2,-1.7964043E-2,-6.1770953E-2,-8.456567E-2,-5.090258E-2,-3.92212E-2,2.140891E-2,-6.865776E-2,-2.642792E-2],"categories":[],"categories_nodes":[],"categories_segments":[],"categories_sizes":[],"default_left":[0,0,0,0,0,0,0,0,0,0,0,0,0,0,0,0,0,1,0,0,0,0,0,0,0,1,0,1,0,0,1,0,0,0,0,0,0,0,0,0,0,0,0,0,0,0,0,0,0,0,0,0,0,0,0,0,0,0,0,0,0,0,0],"id":18,"left_children":[1,3,5,7,9,11,13,15,17,19,21,23,25,27,29,31,33,35,37,39,41,43,45,47,49,51,53,55,57,59,61,-1,-1,-1,-1,-1,-1,-1,-1,-1,-1,-1,-1,-1,-1,-1,-1,-1,-1,-1,-1,-1,-1,-1,-1,-1,-1,-1,-1,-1,-1,-1,-1],"loss_changes":[5.936158E2,2.6015765E2,1.6030997E2,1.22993195E2,5.1011177E1,6.510724E1,8.061691E1,4.4186108E1,9.5727234E1,4.617214E1,1.905059E1,1.7815693E1,4.379089E1,3.626367E1,4.2507065E1,1.4388504E1,2.7293224E1,2.8878113E1,4.4063873E1,2.529141E1,1.6756903E1,1.6386902E1,7.6220245E0,9.799574E0,9.427879E0,1.14179325E1,3.4636642E1,2.7363922E1,1.050769E1,2.3012033E1,1.6805946E1,0E0,0E0,0E0,0E0,0E0,0E0,0E0,0E0,0E0,0E0,0E0,0E0,0E0,0E0,0E0,0E0,0E0,0E0,0E0,0E0,0E0,0E0,0E0,0E0,0E0,0E0,0E0,0E0,0E0,0E0,0E0,0E0],"parents":[2147483647,0,0,1,1,2,2,3,3,4,4,5,5,6,6,7,7,8,8,9,9,10,10,11,11,12,12,13,13,14,14,15,15,16,16,17,17,18,18,19,19,20,20,21,21,22,22,23,23,24,24,25,25,26,26,27,27,28,28,29,29,30,30],"right_children":[2,4,6,8,10,12,14,16,18,20,22,24,26,28,30,32,34,36,38,40,42,44,46,48,50,52,54,56,58,60,62,-1,-1,-1,-1,-1,-1,-1,-1,-1,-1,-1,-1,-1,-1,-1,-1,-1,-1,-1,-1,-1,-1,-1,-1,-1,-1,-1,-1,-1,-1,-1,-1],"split_conditions":[2.1012056E0,6.490367E0,2.5434606E0,8.888781E-1,5.6164384E-1,1.7817128E0,5.179808E0,3.048063E0,2.4770672E0,3.0744958E0,1.0276164E1,9E0,8.7293833E-1,4.7287416E0,6.301892E0,9.140909E-1,5.0282807E0,2.5589098E1,1E1,1.628023E-1,1E1,2E1,8.774331E0,8E0,1.3E1,7.6623825E1,5.9514604E0,3.1979685E0,5.188619E0,9.0661734E-1,2.7950311E-2,5.1059406E-2,8.525952E-3,-6.103115E-2,2.4546245E-3,3.8747963E-2,8.1269175E-2,5.5984184E-2,1.4015095E-2,-9.988077E-3,3.7623394E-2,1.8730513E-3,-3.3937454E-2,-1.4168719E-3,-6.348701E-2,-7.4967474E-2,-3.5376544E-3,3.069418E-2,-3.232355E-2,-9.5385045E-2,-4.249782E-2,-4.418432E-2,5.1777225E-2,4.468272E-2,-1.0868644E-2,-1.7964043E-2,-6.1770953E-2,-8.456567E-2,-5.090258E-2,-3.92212E-2,2.140891E-2,-6.865776E-2,-2.642792E-2],"split_indices":[3,20,17,18,4,17,17,17,27,27,20,16,18,3,20,6,17,10,12,19,22,12,17,12,14,7,3,27,27,18,4,0,0,0,0,0,0,0,0,0,0,0,0,0,0,0,0,0,0,0,0,0,0,0,0,0,0,0,0,0,0,0,0],"split_type":[0,0,0,0,0,0,0,0,0,0,0,0,0,0,0,0,0,0,0,0,0,0,0,0,0,0,0,0,0,0,0,0,0,0,0,0,0,0,0,0,0,0,0,0,0,0,0,0,0,0,0,0,0,0,0,0,0,0,0,0,0,0,0],"sum_hessian":[5.84845E3,3.3610288E3,2.4874214E3,2.2187947E3,1.1422341E3,8.2230426E2,1.6651171E3,4.8136353E2,1.737431E3,8.515746E2,2.9065958E2,2.680527E2,5.542516E2,1.0936548E3,5.714622E2,2.6260406E2,2.1875946E2,9.020396E2,8.353915E2,4.112928E2,4.402818E2,1.5653453E2,1.3412505E2,7.796337E1,1.9008934E2,1.08296394E2,4.4595517E2,5.0477234E2,5.8888245E2,2.5536621E2,3.1609604E2,1.1253946E2,1.500646E2,1.0366215E2,1.15097305E2,1.6008023E2,7.4195935E2,3.459028E2,4.8948868E2,1.3310207E2,2.781907E2,1.7588794E2,2.6439386E2,1.06596535E2,4.9937996E1,1.20574234E2,1.3550818E1,3.8524704E1,3.9438663E1,3.3452744E1,1.566366E2,9.79585E1,1.0337891E1,3.195135E2,1.264417E2,1.808892E2,3.2388312E2,4.935379E2,9.534456E1,6.84596E1,1.869066E2,1.3222145E2,1.8387459E2],"tree_param":{"num_deleted":"0","num_feature":"28","num_nodes":"63","size_leaf_vector":"0"}},{"base_weights":[7.651385E-3,1.79892E-1,-4.0942392E-1,4.3803582E-1,-4.118392E-2,-9.783061E-2,-5.574378E-1,4.108741E-2,5.689015E-1,-2.8801504E-1,1.0683659E-1,-1.5768397E-1,6.884223E-1,-8.0229914E-1,-4.1916314E-1,6.9787735E-1,-1.0364743E-1,2.6230523E-1,7.441736E-1,-7.38653E-1,-1.5748297E-1,2.8109586E-1,-1.1654072E-1,-6.80239E-1,-3.6851417E-2,8.639799E-1,-2.788305E-2,-8.370766E-1,2.8361717E-1,-6.1907274E-1,-1.9344817E-1,7.21321E-2,-2.5118167E-2,-2.1229671E-2,6.567891E-2,-6.49848E-3,4.2298764E-2,2.8511448E-2,7.46762E-2,-8.271608E-2,-3.2839116E-2,4.127528E-3,-4.418443E-2,-3.9400004E-2,3.229351E-2,-3.750984E-2,8.400168E-3,-8.910803E-2,-2.5040315E-2,-4.1559335E-2,7.15666E-3,9.3111224E-2,1.2821965E-3,-8.1654064E-2,-4.5174878E-2,6.292094E-2,-2.3543805E-2,-2.289398E-2,-6.940505E-2,-5.4800514E-2,-6.1772703E-3],"categories":[],"categories_nodes":[],"categories_segments":[],"categories_sizes":[],"default_left":[0,0,0,0,0,0,0,1,0,0,0,0,0,0,0,1,0,1,0,0,0,0,0,1,0,0,0,0,0,1,0,0,0,0,0,0,0,0,0,0,0,0,0,0,0,0,0,0,0,0,0,0,0,0,0,0,0,0,0,0,0],"id":19,"left_children":[1,3,5,7,9,11,13,15,17,19,21,23,25,27,29,31,33,35,37,39,41,43,45,47,49,51,-1,53,55,57,59,-1,-1,-1,-1,-1,-1,-1,-1,-1,-1,-1,-1,-1,-1,-1,-1,-1,-1,-1,-1,-1,-1,-1,-1,-1,-1,-1,-1,-1,-1],"loss_changes":[4.0655417E2,2.285961E2,7.6231964E1,9.5964874E1,7.8892105E1,2.523386E1,3.7624817E1,4.372624E1,7.447833E1,4.7496117E1,5.25834E1,3.1352947E1,6.9190807E0,1.5477386E1,3.2307106E1,8.62904E0,4.1739525E1,3.525504E1,3.204834E1,1.19058075E1,4.2665565E1,4.254616E1,3.736353E1,1.134293E1,2.0046926E1,4.7023525E0,0E0,8.748627E0,3.1889997E0,2.0917786E1,1.7535664E1,0E0,0E0,0E0,0E0,0E0,0E0,0E0,0E0,0E0,0E0,0E0,0E0,0E0,0E0,0E0,0E0,0E0,0E0,0E0,0E0,0E0,0E0,0E0,0E0,0E0,0E0,0E0,0E0,0E0,0E0],"parents":[2147483647,0,0,1,1,2,2,3,3,4,4,5,5,6,6,7,7,8,8,9,9,10,10,11,11,12,12,13,13,14,14,15,15,16,16,17,17,18,18,19,19,20,20,21,21,22,22,23,23,24,24,25,25,27,27,28,28,29,29,30,30],"right_children":[2,4,6,8,10,12,14,16,18,20,22,24,26,28,30,32,34,36,38,40,42,44,46,48,50,52,-1,54,56,58,60,-1,-1,-1,-1,-1,-1,-1,-1,-1,-1,-1,-1,-1,-1,-1,-1,-1,-1,-1,-1,-1,-1,-1,-1,-1,-1,-1,-1,-1,-1],"split_conditions":[3.3875084E0,2.5207396E0,2.5434606E0,3E0,9.076558E1,3.3479358E2,7.6623314E1,1.7670317E0,9.539948E1,3E0,1.6E1,8.6827904E-1,1.25847946E2,1.3327821E1,4.40454E0,1.1792662E2,8.4667694E1,4.4149994E1,2.4521786E1,1.0306521E2,1.5E1,8.1449085E-1,6.2019764E1,8.051035E1,1.5921959E0,9.845676E1,-2.788305E-2,6.5549207E0,5.8748245E0,2.9724185E0,8.9083403E-1,7.21321E-2,-2.5118167E-2,-2.1229671E-2,6.567891E-2,-6.49848E-3,4.2298764E-2,2.8511448E-2,7.46762E-2,-8.271608E-2,-3.2839116E-2,4.127528E-3,-4.418443E-2,-3.9400004E-2,3.229351E-2,-3.750984E-2,8.400168E-3,-8.910803E-2,-2.5040315E-2,-4.1559335E-2,7.15666E-3,9.3111224E-2,1.2821965E-3,-8.1654064E-2,-4.5174878E-2,6.292094E-2,-2.3543805E-2,-2.289398E-2,-6.940505E-2,-5.4800514E-2,-6.1772703E-3],"split_indices":[3,27,17,9,13,13,13,7,13,9,22,18,21,27,17,8,7,15,15,26,12,18,15,26,17,0,0,17,3,27,18,0,0,0,0,0,0,0,0,0,0,0,0,0,0,0,0,0,0,0,0,0,0,0,0,0,0,0,0,0,0],"split_type":[0,0,0,0,0,0,0,0,0,0,0,0,0,0,0,0,0,0,0,0,0,0,0,0,0,0,0,0,0,0,0,0,0,0,0,0,0,0,0,0,0,0,0,0,0,0,0,0,0,0,0,0,0,0,0,0,0,0,0,0,0],"sum_hessian":[5.6573486E3,4.0042659E3,1.6530829E3,1.8468141E3,2.1574517E3,5.329007E2,1.1201821E3,4.582229E2,1.3885912E3,8.084229E2,1.3490288E3,4.9594635E2,3.6954376E1,4.0254306E2,7.176391E2,8.20532E1,3.7616968E2,5.0598657E2,8.826047E2,1.805272E2,6.2789575E2,7.576886E2,5.913402E2,9.227261E1,4.0367374E2,3.154169E1,5.4126863E0,3.9027335E2,1.2269714E1,3.7965036E2,3.379887E2,7.434939E1,7.7038164E0,3.2527518E2,5.089451E1,1.940629E2,3.1192368E2,1.4800839E2,7.3459625E2,1.20773125E2,5.9754078E1,3.9057907E2,2.3731667E2,7.3473E1,6.8421564E2,2.4289052E2,3.484497E2,5.1283356E1,4.098926E1,8.614635E1,3.1752737E2,2.6087034E1,5.4546566E0,3.2127744E2,6.89959E1,6.8029494E0,5.466765E0,1.1252003E2,2.6713034E2,7.718699E1,2.6080173E2],"tree_param":{"num_deleted":"0","num_feature":"28","num_nodes":"61","size_leaf_vector":"0"}},{"base_weights":[1.8619086E-3,2.7154636E-1,-3.2319397E-1,5.135166E-1,-6.1674807E-2,-2.6328195E-2,-5.0469744E-1,5.907258E-1,-1.638479E-1,5.2458078E-2,-4.4861332E-1,1.9788757E-1,-3.3590493E-1,-6.5039855E-1,-2.116699E-1,7.783486E-1,3.7758404E-1,1.7917557E-2,-5.9230626E-1,-4.51357E-1,1.3525912E-1,-2.1799347E-1,-7.3493004E-1,3.263402E-1,-3.7778258E-1,-6.2224156E-1,-1.5337016E-1,-3.053183E-1,-7.2121936E-1,-7.033991E-2,-5.9768856E-1,8.279171E-2,5.126202E-2,-8.22867E-3,4.446175E-2,-3.567743E-2,2.4962798E-2,-7.724973E-2,-1.2923797E-2,-6.751468E-2,3.6826152E-2,-3.2190423E-2,2.0462492E-2,-8.108428E-3,-7.531277E-2,4.8928466E-2,-7.108396E-2,4.293977E-2,-1.0667207E-2,-5.8787886E-2,4.5008168E-2,-7.953291E-2,-3.0060539E-2,-5.4829735E-2,9.064227E-4,-6.43041E-2,-4.422969E-3,6.954114E-3,-6.762146E-2,1.5676246E-3,-6.452985E-2,-9.226708E-2,-3.3290315E-2],"categories":[],"categories_nodes":[],"categories_segments":[],"categories_sizes":[],"default_left":[0,0,0,0,0,0,0,0,1,0,0,1,1,0,0,0,1,0,0,0,1,1,0,0,0,1,0,0,0,1,1,0,0,0,0,0,0,0,0,0,0,0,0,0,0,0,0,0,0,0,0,0,0,0,0,0,0,0,0,0,0,0,0],"id":20,"left_children":[1,3,5,7,9,11,13,15,17,19,21,23,25,27,29,31,33,35,37,39,41,43,45,47,49,51,53,55,57,59,61,-1,-1,-1,-1,-1,-1,-1,-1,-1,-1,-1,-1,-1,-1,-1,-1,-1,-1,-1,-1,-1,-1,-1,-1,-1,-1,-1,-1,-1,-1,-1,-1],"loss_changes":[5.023872E2,2.5258276E2,1.4000946E2,9.500253E1,5.8254128E1,6.857964E1,6.871283E1,6.485895E1,1.453224E1,4.2574806E1,1.9678085E1,4.2500206E1,2.1593784E1,2.6090637E1,2.9256485E1,2.5055603E1,4.1804207E1,1.428815E1,6.510086E0,3.7354424E1,3.9853138E1,1.32076E1,9.806877E0,3.1517605E1,2.5715887E1,1.1854988E1,1.8986149E1,1.9362753E1,2.153125E1,2.2385546E1,1.3623779E1,0E0,0E0,0E0,0E0,0E0,0E0,0E0,0E0,0E0,0E0,0E0,0E0,0E0,0E0,0E0,0E0,0E0,0E0,0E0,0E0,0E0,0E0,0E0,0E0,0E0,0E0,0E0,0E0,0E0,0E0,0E0,0E0],"parents":[2147483647,0,0,1,1,2,2,3,3,4,4,5,5,6,6,7,7,8,8,9,9,10,10,11,11,12,12,13,13,14,14,15,15,16,16,17,17,18,18,19,19,20,20,21,21,22,22,23,23,24,24,25,25,26,26,27,27,28,28,29,29,30,30],"right_children":[2,4,6,8,10,12,14,16,18,20,22,24,26,28,30,32,34,36,38,40,42,44,46,48,50,52,54,56,58,60,62,-1,-1,-1,-1,-1,-1,-1,-1,-1,-1,-1,-1,-1,-1,-1,-1,-1,-1,-1,-1,-1,-1,-1,-1,-1,-1,-1,-1,-1,-1,-1,-1],"split_conditions":[1.9207838E0,5.7439227E0,2.7781217E0,3E0,1.0629839E1,7.03281E0,5.5713725E0,3.0215895E0,9.692912E-1,7.494062E1,2.9482073E-1,1.5127417E1,1.8181818E-2,3.9849133E0,9.173253E0,1.5E1,2.5589098E1,2.0953405E1,3.3479358E2,5.906386E1,1.6824255E1,7.5645156E0,2.0929718E-1,5.788244E0,7.544168E1,5.8045586E1,1.6443796E0,1.5782863E-1,3.488189E0,3.0382504E1,5.8139535E-3,8.279171E-2,5.126202E-2,-8.22867E-3,4.446175E-2,-3.567743E-2,2.4962798E-2,-7.724973E-2,-1.2923797E-2,-6.751468E-2,3.6826152E-2,-3.2190423E-2,2.0462492E-2,-8.108428E-3,-7.531277E-2,4.8928466E-2,-7.108396E-2,4.293977E-2,-1.0667207E-2,-5.8787886E-2,4.5008168E-2,-7.953291E-2,-3.0060539E-2,-5.4829735E-2,9.064227E-4,-6.43041E-2,-4.422969E-3,6.954114E-3,-6.762146E-2,1.5676246E-3,-6.452985E-2,-9.226708E-2,-3.3290315E-2],"split_indices":[3,20,17,2,20,20,17,17,23,26,4,8,4,20,20,22,10,7,13,7,10,8,23,3,7,10,17,19,8,8,4,0,0,0,0,0,0,0,0,0,0,0,0,0,0,0,0,0,0,0,0,0,0,0,0,0,0,0,0,0,0,0,0],"split_type":[0,0,0,0,0,0,0,0,0,0,0,0,0,0,0,0,0,0,0,0,0,0,0,0,0,0,0,0,0,0,0,0,0,0,0,0,0,0,0,0,0,0,0,0,0,0,0,0,0,0,0,0,0,0,0,0,0,0,0,0,0,0,0],"sum_hessian":[5.728923E3,3.131238E3,2.5976848E3,1.8136824E3,1.3175555E3,9.8605115E2,1.6116335E3,1.6282183E3,1.8546414E2,1.01811334E3,2.9944223E2,5.720766E2,4.1397458E2,1.0755979E3,5.360357E2,8.645378E2,7.6368054E2,1.308933E2,5.4570843E1,1.4307874E2,8.750346E2,1.6682826E2,1.3261397E2,4.6806714E2,1.04009445E2,1.6022527E2,2.5374931E2,1.8406021E2,8.9153766E2,3.9324292E2,1.4279276E2,5.131705E2,3.5136725E2,1.5192514E2,6.117554E2,5.0198685E1,8.069461E1,3.368642E1,2.0884424E1,1.0629718E2,3.6781555E1,1.3730312E2,7.377315E2,1.3920273E2,2.7625536E1,5.0924644E0,1.2752151E2,3.495345E2,1.1853264E2,7.9365845E1,2.46436E1,8.293204E1,7.729322E1,6.624902E1,1.8750029E2,7.017879E1,1.13881424E2,3.2361237E1,8.591764E2,3.4710974E2,4.6133175E1,4.8421143E1,9.437161E1],"tree_param":{"num_deleted":"0","num_feature":"28","num_nodes":"63","size_leaf_vector":"0"}},{"base_weights":[-3.6806979E-3,2.1131602E-1,-3.9195323E-1,3.4053633E-1,-3.4177005E-1,-6.5281105E-1,-2.0778608E-1,-7.044693E-2,4.798136E-1,-7.9068637E-1,-2.1644728E-1,-4.761927E-1,-8.568312E-1,-6.02144E-1,-8.424713E-2,5.354486E-1,-1.9353674E-1,6.9199646E-1,2.7838928E-1,-8.9727724E-1,-1.2758742E-1,-5.990331E-2,-4.5920318E-1,-5.4879314E-1,-1.947983E-2,-7.7140015E-1,-1.1049731E0,7.935918E-2,-6.414454E-1,8.095634E-2,-3.8484675E-1,5.7321455E-2,-3.2170836E-2,-3.5606142E-2,2.5033709E-2,7.487814E-2,4.2538725E-2,4.1051805E-2,-3.6790366E-3,1.6463283E-2,-8.496271E-2,3.0020181E-2,-7.786277E-2,-3.304261E-2,9.01006E-3,4.765302E-2,-5.0838903E-2,-3.77684E-2,-7.004128E-2,3.274232E-2,-4.5187354E-2,-7.6381214E-2,-2.429827E-2,-4.993385E-2,-1.07030295E-1,-4.00843E-2,-8.254608E-2,1.9490855E-2,-2.28625E-2,-4.6411272E-2,1.4777532E-2],"categories":[],"categories_nodes":[],"categories_segments":[],"categories_sizes":[],"default_left":[0,0,1,0,0,0,0,1,0,0,0,0,0,0,0,0,0,0,0,0,0,0,0,0,0,0,0,0,1,0,0,0,0,0,0,0,0,0,0,0,0,0,0,0,0,0,0,0,0,0,0,0,0,0,0,0,0,0,0,0,0],"id":21,"left_children":[1,3,5,7,9,11,13,15,17,19,21,23,25,27,29,31,33,35,37,39,41,43,45,47,49,51,53,-1,55,57,59,-1,-1,-1,-1,-1,-1,-1,-1,-1,-1,-1,-1,-1,-1,-1,-1,-1,-1,-1,-1,-1,-1,-1,-1,-1,-1,-1,-1,-1,-1],"loss_changes":[4.823531E2,2.6591138E2,9.879535E1,1.7262283E2,3.9482018E1,3.0283295E1,5.882793E1,5.7085476E1,9.605969E1,1.0731087E1,2.0964067E1,1.5201263E1,7.499176E0,1.736895E1,4.5789112E1,1.1938728E1,6.0712738E1,3.3261597E1,6.567614E1,6.840515E0,7.9126005E0,1.660316E1,2.2908924E1,1.1401924E1,1.201404E1,1.1255386E1,3.9097366E0,0E0,1.4797295E1,2.7104553E1,2.3571945E1,0E0,0E0,0E0,0E0,0E0,0E0,0E0,0E0,0E0,0E0,0E0,0E0,0E0,0E0,0E0,0E0,0E0,0E0,0E0,0E0,0E0,0E0,0E0,0E0,0E0,0E0,0E0,0E0,0E0,0E0],"parents":[2147483647,0,0,1,1,2,2,3,3,4,4,5,5,6,6,7,7,8,8,9,9,10,10,11,11,12,12,13,13,14,14,15,15,16,16,17,17,18,18,19,19,20,20,21,21,22,22,23,23,24,24,25,25,26,26,28,28,29,29,30,30],"right_children":[2,4,6,8,10,12,14,16,18,20,22,24,26,28,30,32,34,36,38,40,42,44,46,48,50,52,54,-1,56,58,60,-1,-1,-1,-1,-1,-1,-1,-1,-1,-1,-1,-1,-1,-1,-1,-1,-1,-1,-1,-1,-1,-1,-1,-1,-1,-1,-1,-1,-1,-1],"split_conditions":[7.0812426E0,4.2982802E0,1.9704433E-2,3E0,8.660096E-1,2.5463948E0,2.6560073E0,1.5326831E0,4.267979E0,3.3479358E2,9.744557E-1,1.11266045E2,3.9E1,1.801424E0,9.583379E-1,5.1E1,4.8431843E1,9.6590084E-1,1.6E1,1.5747732E0,9.6029603E-1,1.9E1,2.785843E0,3.1E1,3.3E1,1.1216166E2,1.4936113E1,7.935918E-2,9.341411E-1,4.2982802E0,1.2342746E2,5.7321455E-2,-3.2170836E-2,-3.5606142E-2,2.5033709E-2,7.487814E-2,4.2538725E-2,4.1051805E-2,-3.6790366E-3,1.6463283E-2,-8.496271E-2,3.0020181E-2,-7.786277E-2,-3.304261E-2,9.01006E-3,4.765302E-2,-5.0838903E-2,-3.77684E-2,-7.004128E-2,3.274232E-2,-4.5187354E-2,-7.6381214E-2,-2.429827E-2,-4.993385E-2,-1.07030295E-1,-4.00843E-2,-8.254608E-2,1.9490855E-2,-2.28625E-2,-4.6411272E-2,1.4777532E-2],"split_indices":[20,3,4,9,18,3,11,7,20,13,6,13,14,8,1,12,7,6,12,8,23,14,0,14,14,13,15,0,23,3,25,0,0,0,0,0,0,0,0,0,0,0,0,0,0,0,0,0,0,0,0,0,0,0,0,0,0,0,0,0,0],"split_type":[0,0,0,0,0,0,0,0,0,0,0,0,0,0,0,0,0,0,0,0,0,0,0,0,0,0,0,0,0,0,0,0,0,0,0,0,0,0,0,0,0,0,0,0,0,0,0,0,0,0,0,0,0,0,0,0,0,0,0,0,0],"sum_hessian":[5.7762607E3,3.7179756E3,2.0582852E3,3.0141492E3,7.038266E2,8.507385E2,1.2075466E3,7.6304095E2,2.2511082E3,1.5244545E2,5.5138116E2,4.577782E2,3.929603E2,2.871237E2,9.20423E2,1.2827448E2,6.347665E2,1.0950906E3,1.1560176E3,1.3102972E2,2.141573E1,3.359723E2,2.1540886E2,3.9481555E2,6.2962654E1,2.9537607E2,9.7584236E1,6.855181E0,2.802685E2,5.9445386E2,3.2596912E2,1.1544382E2,1.2830651E1,4.4449255E2,1.9027391E2,6.667715E2,4.2831903E2,7.42324E2,4.1369363E2,5.3150597E0,1.2571467E2,1.3514032E1,7.901697E0,1.14613785E2,2.2135849E2,2.0413126E1,1.9499573E2,2.5443402E2,1.4038153E2,3.5229485E1,2.7733168E1,2.5533122E2,4.0044846E1,1.3967069E1,8.3617165E1,1.6532611E2,1.149424E2,4.2340427E2,1.7104958E2,2.6328928E2,6.2679848E1],"tree_param":{"num_deleted":"0","num_feature":"28","num_nodes":"61","size_leaf_vector":"0"}},{"base_weights":[7.360395E-3,2.6176515E-1,-2.1732743E-1,-9.509938E-2,3.8100553E-1,-5.1918477E-1,-1.2190462E-2,-2.0677066E-1,7.0223325E-1,-5.1533733E-2,4.8272717E-1,-7.004929E-2,-7.336288E-1,8.17328E-2,-3.8694414E-1,3.7762517E-1,-4.3085286E-1,8.242016E-1,-3.403114E-2,3.511992E-1,-3.3811665E-1,6.696095E-2,5.5060375E-1,-4.7518516E-1,1.04026474E-1,-8.558999E-1,-3.5945925E-1,2.2272046E-1,-1.9701837E-1,-4.7902283E-1,2.2892849E-1,-2.5740078E-2,4.4653673E-2,-5.7674605E-2,-9.277735E-3,9.2338994E-2,4.4888994E-3,-1.5489248E-2,4.5E-2,4.4651423E-2,-4.7433835E-2,4.450454E-2,-1.0731148E-2,6.041181E-2,2.7906736E-2,-7.3369466E-2,-2.4974803E-3,3.2997385E-2,-1.2825165E-2,-5.0052445E-2,-8.63306E-2,-1.3874206E-2,-6.221475E-2,2.574293E-2,-2.7560964E-2,-3.9595336E-2,1.3766641E-2,-1.0131995E-2,-5.4579526E-2,-5.4457314E-2,3.8287155E-2],"categories":[],"categories_nodes":[],"categories_segments":[],"categories_sizes":[],"default_left":[0,0,0,0,0,1,1,0,0,1,0,0,0,0,0,0,0,0,0,0,0,0,0,0,0,1,1,0,0,0,0,0,0,0,0,0,0,0,0,0,0,0,0,0,0,0,0,0,0,0,0,0,0,0,0,0,0,0,0,0,0],"id":22,"left_children":[1,3,5,7,9,11,13,15,17,19,21,23,25,27,29,31,33,35,-1,37,39,41,43,45,47,49,51,53,55,57,59,-1,-1,-1,-1,-1,-1,-1,-1,-1,-1,-1,-1,-1,-1,-1,-1,-1,-1,-1,-1,-1,-1,-1,-1,-1,-1,-1,-1,-1,-1],"loss_changes":[3.243849E2,1.1328685E2,1.8659291E2,5.9565758E1,8.780521E1,1.1738101E2,6.3218925E1,7.691947E1,1.1144657E1,4.406453E1,4.554843E1,2.7915352E1,3.7442352E1,5.6489536E1,2.052097E1,1.2962355E1,2.9125313E1,1.154039E1,0E0,1.2450737E1,3.540348E1,1.8196045E1,4.00813E1,1.8071632E1,1.7998135E1,1.8707153E1,1.3855171E1,3.20462E1,4.1129032E1,1.4566666E1,8.039706E0,0E0,0E0,0E0,0E0,0E0,0E0,0E0,0E0,0E0,0E0,0E0,0E0,0E0,0E0,0E0,0E0,0E0,0E0,0E0,0E0,0E0,0E0,0E0,0E0,0E0,0E0,0E0,0E0,0E0,0E0],"parents":[2147483647,0,0,1,1,2,2,3,3,4,4,5,5,6,6,7,7,8,8,9,9,10,10,11,11,12,12,13,13,14,14,15,15,16,16,17,17,19,19,20,20,21,21,22,22,23,23,24,24,25,25,26,26,27,27,28,28,29,29,30,30],"right_children":[2,4,6,8,10,12,14,16,18,20,22,24,26,28,30,32,34,36,-1,38,40,42,44,46,48,50,52,54,56,58,60,-1,-1,-1,-1,-1,-1,-1,-1,-1,-1,-1,-1,-1,-1,-1,-1,-1,-1,-1,-1,-1,-1,-1,-1,-1,-1,-1,-1,-1,-1],"split_conditions":[3.1434855E0,3E0,4.4325757E0,8.9500916E1,2.2534075E1,3.3032877E0,7.5645156E0,3.3149304E0,5E1,8.4707505E-1,1.6443796E0,9.354598E-1,4.8872504E0,1.9E1,9.992043E1,1.7458715E0,3.112302E1,4.1E1,-3.403114E-2,1.859242E0,9E0,8E0,1.8E1,2.3E1,9.1766316E-1,7.250015E-1,1.1083379E-2,8.621259E0,5.9491432E1,5.0633984E0,2.3416065E1,-2.5740078E-2,4.4653673E-2,-5.7674605E-2,-9.277735E-3,9.2338994E-2,4.4888994E-3,-1.5489248E-2,4.5E-2,4.4651423E-2,-4.7433835E-2,4.450454E-2,-1.0731148E-2,6.041181E-2,2.7906736E-2,-7.3369466E-2,-2.4974803E-3,3.2997385E-2,-1.2825165E-2,-5.0052445E-2,-8.63306E-2,-1.3874206E-2,-6.221475E-2,2.574293E-2,-2.7560964E-2,-3.9595336E-2,1.3766641E-2,-1.0131995E-2,-5.4579526E-2,-5.4457314E-2,3.8287155E-2],"split_indices":[17,9,17,7,10,27,8,7,14,23,17,18,27,12,7,27,7,12,0,27,16,22,12,14,6,6,19,11,15,7,21,0,0,0,0,0,0,0,0,0,0,0,0,0,0,0,0,0,0,0,0,0,0,0,0,0,0,0,0,0,0],"split_type":[0,0,0,0,0,0,0,0,0,0,0,0,0,0,0,0,0,0,0,0,0,0,0,0,0,0,0,0,0,0,0,0,0,0,0,0,0,0,0,0,0,0,0,0,0,0,0,0,0,0,0,0,0,0,0,0,0,0,0,0,0],"sum_hessian":[5.672874E3,2.6604226E3,3.0124517E3,6.663531E2,1.9940695E3,1.2182605E3,1.794191E3,5.8514124E2,8.121191E1,3.7975864E2,1.6143108E3,3.9412488E2,8.241356E2,1.4352588E3,3.5893225E2,1.6199103E2,4.2315018E2,7.318652E1,8.025387E0,1.5779083E2,2.2196782E2,2.268383E2,1.3874725E3,1.17930084E2,2.761948E2,6.2018445E2,2.039512E2,9.5329785E2,4.81961E2,3.1244153E2,4.649072E1,2.4333857E1,1.3765717E2,2.5733774E2,1.6581244E2,5.7799183E1,1.5387337E1,3.4899574E1,1.2289126E2,4.0685604E1,1.8128221E2,6.831682E1,1.5852148E2,9.2283093E2,4.6464157E2,6.654037E1,5.1389713E1,1.3349924E2,1.4269556E2,1.606153E2,4.5956915E2,1.2690005E2,7.7051155E1,8.5180225E2,1.014956E2,2.843383E2,1.9762271E2,8.109593E1,2.313456E2,8.46788E0,3.802284E1],"tree_param":{"num_deleted":"0","num_feature":"28","num_nodes":"61","size_leaf_vector":"0"}},{"base_weights":[-1.3170133E-2,3.6071903E-1,-1.6259867E-1,5.4753053E-1,3.65623E-2,5.4584533E-2,-3.3932716E-1,6.492813E-1,-1.2635085E-1,-2.881046E-1,2.0014246E-1,2.4255805E-1,-1.6729686E-1,-6.042176E-1,-1.5129583E-1,7.441695E-1,2.4997152E-1,-4.7307986E-1,3.6844945E-1,3.3268416E-1,-5.6157804E-1,-2.655817E-1,3.411013E-1,4.5921996E-1,3.4525383E-2,-4.0269196E-1,1.6535935E-1,-4.776525E-1,-8.887682E-1,-4.174226E-1,8.537161E-3,7.71891E-2,4.8234712E-2,-3.974373E-2,3.6809277E-2,-5.931836E-3,-7.052771E-2,-3.0384952E-2,5.172326E-2,8.310693E-2,-7.6704696E-3,7.498374E-2,-6.076127E-2,2.855277E-2,-4.1774634E-2,6.887142E-2,1.844665E-2,1.5198489E-2,5.3794038E-2,-5.677692E-2,1.1436179E-2,-8.958789E-3,-6.00202E-2,-2.7875574E-2,3.2372072E-2,-2.961051E-2,-6.496982E-2,-5.8226008E-2,-8.7385505E-2,3.562626E-2,-4.6388485E-2,-3.051513E-2,1.419473E-2],"categories":[],"categories_nodes":[],"categories_segments":[],"categories_sizes":[],"default_left":[0,0,0,0,1,0,0,1,0,0,0,0,0,0,0,0,0,0,0,0,0,0,0,1,0,0,1,0,0,0,1,0,0,0,0,0,0,0,0,0,0,0,0,0,0,0,0,0,0,0,0,0,0,0,0,0,0,0,0,0,0,0,0],"id":23,"left_children":[1,3,5,7,9,11,13,15,17,19,21,23,25,27,29,31,33,35,37,39,41,43,45,47,49,51,53,55,57,59,61,-1,-1,-1,-1,-1,-1,-1,-1,-1,-1,-1,-1,-1,-1,-1,-1,-1,-1,-1,-1,-1,-1,-1,-1,-1,-1,-1,-1,-1,-1,-1,-1],"loss_changes":[3.0629166E2,9.477565E1,1.5035425E2,6.817166E1,3.0509993E1,7.3368195E1,1.0747612E2,3.2509796E1,2.266712E1,3.2870255E1,2.5159931E1,4.2902294E1,6.3253662E1,3.1853241E1,5.3786087E1,1.6004883E1,1.8567055E1,9.751551E0,8.142498E0,1.4767874E1,2.1786201E1,1.0481495E1,1.6795269E1,1.8651077E1,3.0058876E1,3.780397E1,3.1048492E1,2.2361969E1,4.8319397E0,3.8020866E1,4.106762E1,0E0,0E0,0E0,0E0,0E0,0E0,0E0,0E0,0E0,0E0,0E0,0E0,0E0,0E0,0E0,0E0,0E0,0E0,0E0,0E0,0E0,0E0,0E0,0E0,0E0,0E0,0E0,0E0,0E0,0E0,0E0,0E0],"parents":[2147483647,0,0,1,1,2,2,3,3,4,4,5,5,6,6,7,7,8,8,9,9,10,10,11,11,12,12,13,13,14,14,15,15,16,16,17,17,18,18,19,19,20,20,21,21,22,22,23,23,24,24,25,25,26,26,27,27,28,28,29,29,30,30],"right_children":[2,4,6,8,10,12,14,16,18,20,22,24,26,28,30,32,34,36,38,40,42,44,46,48,50,52,54,56,58,60,62,-1,-1,-1,-1,-1,-1,-1,-1,-1,-1,-1,-1,-1,-1,-1,-1,-1,-1,-1,-1,-1,-1,-1,-1,-1,-1,-1,-1,-1,-1,-1,-1],"split_conditions":[4.124445E0,1.7492951E0,3.1434855E0,3E0,5.077875E1,1.3E1,4.4325757E0,9.8588485E-1,4.8431843E1,8.75007E-1,8.7518674E-1,1.5921179E0,6.400813E1,4.485572E0,9.785703E-1,9.7028375E-1,2.5127182E1,3.3434364E1,1.9574004E0,8.100566E-1,3.0255966E0,1.16071425E-1,2.225612E0,3.1746034E-2,8.1449085E-1,8.965808E-1,1.8181818E-2,2.1702127E-1,7.419657E-1,3.0857515E0,2.1153847E-2,7.71891E-2,4.8234712E-2,-3.974373E-2,3.6809277E-2,-5.931836E-3,-7.052771E-2,-3.0384952E-2,5.172326E-2,8.310693E-2,-7.6704696E-3,7.498374E-2,-6.076127E-2,2.855277E-2,-4.1774634E-2,6.887142E-2,1.844665E-2,1.5198489E-2,5.3794038E-2,-5.677692E-2,1.1436179E-2,-8.958789E-3,-6.00202E-2,-2.7875574E-2,3.2372072E-2,-2.961051E-2,-6.496982E-2,-5.8226008E-2,-8.7385505E-2,3.562626E-2,-4.6388485E-2,-3.051513E-2,1.419473E-2],"split_indices":[20,3,17,2,15,12,17,1,7,6,18,3,15,3,18,6,10,25,17,24,0,4,20,4,18,23,4,4,6,8,4,0,0,0,0,0,0,0,0,0,0,0,0,0,0,0,0,0,0,0,0,0,0,0,0,0,0,0,0,0,0,0,0],"split_type":[0,0,0,0,0,0,0,0,0,0,0,0,0,0,0,0,0,0,0,0,0,0,0,0,0,0,0,0,0,0,0,0,0,0,0,0,0,0,0,0,0,0,0,0,0,0,0,0,0,0,0,0,0,0,0,0,0,0,0,0,0,0,0],"sum_hessian":[5.4801987E3,1.5644164E3,3.9157822E3,9.92024E2,5.723924E2,1.757126E3,2.1586565E3,8.6191766E2,1.3010634E2,1.915168E2,3.8087558E2,9.5119727E2,8.0592865E2,8.952514E2,1.263405E3,6.957279E2,1.6618974E2,7.6525406E1,5.3580925E1,5.8501354E1,1.3301544E2,8.8288536E1,2.9258704E2,4.6534363E2,4.8585364E2,4.7183612E2,3.3409256E2,6.214954E2,2.7375598E2,4.7346304E2,7.8994196E2,4.482868E2,2.4744112E2,3.0737514E1,1.3545224E2,3.3636936E1,4.288847E1,1.1969452E1,4.1611473E1,2.3737854E1,3.47635E1,9.5366535E0,1.2347879E2,2.2284868E1,6.600367E1,6.9971436E1,2.226156E2,1.5099712E2,3.143465E2,5.861302E1,4.272406E2,2.2036246E2,2.5147366E2,9.681379E1,2.3727876E2,3.8781137E2,2.3368407E2,7.168919E1,2.0206679E2,5.059274E1,4.228703E2,2.3683759E2,5.531044E2],"tree_param":{"num_deleted":"0","num_feature":"28","num_nodes":"63","size_leaf_vector":"0"}},{"base_weights":[-1.414675E-2,2.1044783E-1,-2.403889E-1,4.9568656E-1,2.5232455E-2,-2.2073843E-2,-3.979097E-1,5.9618217E-1,-1.8016917E-1,2.6058504E-1,-1.3719131E-1,8.148614E-2,-4.6034512E-1,-5.74367E-1,