{"learner":{"attributes":{"best_iteration":"149","best_ntree_limit":"150"},"feature_names":["trk_daughters","trk_bragg_mip_max","trk_llr_pid_score","trk_end_spacepoints","trk_dEdx_trunk_max","trk_score","trk_bragg_pion_max"],"feature_types":["float","float","float","float","float","float","float"],"gradient_booster":{"gbtree":{"model":{"gbtree_model_param":{"num_parallel_tree":"1","num_trees":"150","size_leaf_vector":"0"},"tree_info":[0,0,0,0,0,0,0,0,0,0,0,0,0,0,0,0,0,0,0,0,0,0,0,0,0,0,0,0,0,0,0,0,0,0,0,0,0,0,0,0,0,0,0,0,0,0,0,0,0,0,0,0,0,0,0,0,0,0,0,0,0,0,0,0,0,0,0,0,0,0,0,0,0,0,0,0,0,0,0,0,0,0,0,0,0,0,0,0,0,0,0,0,0,0,0,0,0,0,0,0,0,0,0,0,0,0,0,0,0,0,0,0,0,0,0,0,0,0,0,0,0,0,0,0,0,0,0,0,0,0,0,0,0,0,0,0,0,0,0,0,0,0,0,0,0,0,0,0,0,0],"trees":[{"base_weights":[-2.035734E-2,-1.3707455E0,9.380516E-1,-1.5361408E0,-2.555292E-1,1.5985261E0,3.9484254E-1,-1.7031012E0,-9.089591E-1,6.098808E-1,-1.4682773E0,4.9482262E-1,1.6322085E0,1.9290282E-1,1.4089422E0,-1.3437709E0,-1.8619584E0,-6.9237816E-1,-1.6409101E0,-1.8009543E-1,9.0766567E-1,1.4726455E-2,-1.6009547E0,-1.3401787E-1,8.368879E-2,1.7171613E0,1.3053819E0,5.306776E-1,-6.8194705E-1,1.5993049E0,8.743988E-1,-8.185919E-2,-2.0388378E-2,-3.2364037E-2,-9.543359E-2,-7.319776E-2,-2.1269945E-2,-2.0324605E-2,-8.545782E-2,-7.340759E-2,3.499131E-4,5.6483775E-2,-1.2196996E-2,-4.0453795E-2,-9.2429064E-2,-2.8308764E-2,4.8272397E-2,4.5310978E-2,8.677905E-2,6.98777E-2,2.2147784E-2,3.588406E-2,-1.723514E-2,-2.3189746E-3,-4.604584E-2,1.049495E-2,8.183385E-2,5.7464875E-2,5.008994E-3],"categories":[],"categories_nodes":[],"categories_segments":[],"categories_sizes":[],"default_left":[1,1,0,0,0,0,0,0,0,1,0,0,0,0,1,0,0,1,0,0,0,0,0,0,0,0,0,0,1,0,0,0,0,0,0,0,0,0,0,0,0,0,0,0,0,0,0,0,0,0,0,0,0,0,0,0,0,0,0],"id":0,"left_children":[1,3,5,7,9,11,13,15,17,19,21,23,25,27,29,31,33,35,37,39,41,-1,43,45,-1,47,49,51,53,55,57,-1,-1,-1,-1,-1,-1,-1,-1,-1,-1,-1,-1,-1,-1,-1,-1,-1,-1,-1,-1,-1,-1,-1,-1,-1,-1,-1,-1],"loss_changes":[7.024093E3,4.1516064E2,1.13825E3,2.0387451E2,3.0753595E2,5.2436035E1,3.5669885E2,8.5870605E1,6.458603E1,4.0439026E1,2.8996674E1,3.273254E1,3.633374E1,4.302643E2,2.8041077E1,1.3066376E2,5.953296E1,6.563527E1,7.218521E0,1.1506409E1,3.210723E1,0E0,2.0776459E1,1.4573658E1,0E0,1.4852051E1,2.249768E1,1.7215518E2,6.1571823E1,1.0671326E1,1.652414E1,0E0,0E0,0E0,0E0,0E0,0E0,0E0,0E0,0E0,0E0,0E0,0E0,0E0,0E0,0E0,0E0,0E0,0E0,0E0,0E0,0E0,0E0,0E0,0E0,0E0,0E0,0E0,0E0],"parents":[2147483647,0,0,1,1,2,2,3,3,4,4,5,5,6,6,7,7,8,8,9,9,10,10,11,11,12,12,13,13,14,14,15,15,16,16,17,17,18,18,19,19,20,20,22,22,23,23,25,25,26,26,27,27,28,28,29,29,30,30],"right_children":[2,4,6,8,10,12,14,16,18,20,22,24,26,28,30,32,34,36,38,40,42,-1,44,46,-1,48,50,52,54,56,58,-1,-1,-1,-1,-1,-1,-1,-1,-1,-1,-1,-1,-1,-1,-1,-1,-1,-1,-1,-1,-1,-1,-1,-1,-1,-1,-1,-1],"split_conditions":[1.1825194E-1,5.16845E-1,2.093169E0,7.099934E-2,9.591983E-1,8.886628E-1,6.2706184E-1,9.231264E-1,1E0,2.4459043E0,2.11219E0,2.3542912E-1,2.000053E0,9.6519417E-1,4.88611E-1,3.3151144E-1,2.2247043E0,2.2799033E-1,2.17816E0,1.0497556E-2,1E0,1.4726455E-2,9.7974473E-1,3.8E1,8.368879E-2,1.5562311E-1,6.3E1,1E0,2.2247043E0,2.6154745E-1,5.5E1,-8.185919E-2,-2.0388378E-2,-3.2364037E-2,-9.543359E-2,-7.319776E-2,-2.1269945E-2,-2.0324605E-2,-8.545782E-2,-7.340759E-2,3.499131E-4,5.6483775E-2,-1.2196996E-2,-4.0453795E-2,-9.2429064E-2,-2.8308764E-2,4.8272397E-2,4.5310978E-2,8.677905E-2,6.98777E-2,2.2147784E-2,3.588406E-2,-1.723514E-2,-2.3189746E-3,-4.604584E-2,1.049495E-2,8.183385E-2,5.7464875E-2,5.008994E-3],"split_indices":[1,6,4,1,5,4,1,5,0,4,4,1,4,5,6,6,4,6,4,1,0,0,5,3,0,1,3,0,4,2,3,0,0,0,0,0,0,0,0,0,0,0,0,0,0,0,0,0,0,0,0,0,0,0,0,0,0,0,0],"split_type":[0,0,0,0,0,0,0,0,0,0,0,0,0,0,0,0,0,0,0,0,0,0,0,0,0,0,0,0,0,0,0,0,0,0,0,0,0,0,0,0,0,0,0,0,0,0,0,0,0,0,0,0,0,0,0,0,0,0,0],"sum_hessian":[5.4252676E3,2.251914E3,3.1733538E3,1.9607432E3,2.911709E2,1.4312225E3,1.7421312E3,1.5471619E3,4.1358127E2,1.7020834E2,1.2096256E2,4.284865E1,1.3883739E3,1.4538193E3,2.883118E2,4.7720264E2,1.0699592E3,3.206487E2,9.2932556E1,4.6704334E1,1.23504005E2,8.381573E0,1.1258099E2,2.8521776E1,1.4326876E1,1.0985667E3,2.8980728E2,1.0491439E3,4.046754E2,2.1113135E2,7.718044E1,3.6274298E2,1.1445965E2,4.0174328E1,1.0297849E3,8.1275894E1,2.3937283E2,5.233139E0,8.769942E1,5.0550985E0,4.1649235E1,1.035587E2,1.9945303E1,2.7835106E1,8.474589E1,2.082236E1,7.699417E0,2.5513548E1,1.0730531E3,2.6126413E2,2.8543154E1,8.646194E2,1.8452458E2,1.1090495E2,2.9377048E2,5.703532E0,2.0542783E2,5.6599453E1,2.058099E1],"tree_param":{"num_deleted":"0","num_feature":"7","num_nodes":"59","size_leaf_vector":"0"}},{"base_weights":[-7.8995305E-5,-1.3797941E0,9.2865694E-1,-1.5642074E0,-3.6453182E-1,1.5494058E0,3.5377178E-1,-1.7351149E0,-1.0341364E0,7.0411974E-1,-1.5144691E0,1.6484872E0,1.1756808E0,1.5633242E-1,1.4673781E0,-1.4156564E0,-1.8685125E0,-6.9332075E-1,-1.5113945E0,8.9776886E-1,-3.3309218E-1,2.6466388E-2,-1.640592E0,3.8460964E-1,1.698048E0,1.2486578E0,-2.532255E-1,5.707157E-1,-5.8180386E-1,1.5197583E0,5.333725E-1,-8.307877E-2,-2.237176E-2,-2.3528786E-2,-9.595903E-2,-7.299632E-2,-1.5469791E-2,-5.1409025E-3,-8.691792E-2,-2.465114E-3,5.683077E-2,-4.553651E-2,2.7765691E-2,-4.70196E-2,-9.375931E-2,-3.667776E-2,6.0452323E-2,6.571668E-2,8.672042E-2,6.6376135E-2,1.4451605E-2,-5.262604E-2,4.581101E-2,4.8600294E-2,1.6662838E-2,-1.5715064E-2,-6.0975052E-2,1.0546329E-2,7.738081E-2,4.4370413E-2,5.197454E-3],"categories":[],"categories_nodes":[],"categories_segments":[],"categories_sizes":[],"default_left":[1,1,0,0,0,0,0,0,0,0,0,0,0,0,1,1,0,1,0,1,0,0,0,0,0,0,0,0,0,0,0,0,0,0,0,0,0,0,0,0,0,0,0,0,0,0,0,0,0,0,0,0,0,0,0,0,0,0,0,0,0],"id":1,"left_children":[1,3,5,7,9,11,13,15,17,19,21,23,25,27,29,31,33,35,37,39,41,-1,43,45,47,49,51,53,55,57,59,-1,-1,-1,-1,-1,-1,-1,-1,-1,-1,-1,-1,-1,-1,-1,-1,-1,-1,-1,-1,-1,-1,-1,-1,-1,-1,-1,-1,-1,-1],"loss_changes":[6.9480684E3,4.078662E2,1.1559587E3,1.6542676E2,4.147594E2,5.5750977E1,3.699981E2,5.6774902E1,7.255728E1,3.5482925E1,4.2748505E1,7.632837E1,3.472455E1,4.3815207E2,1.1589661E1,9.803497E1,6.854492E1,7.7790924E1,5.982016E1,3.3507614E1,1.5022821E1,0E0,2.3413452E1,4.4828564E1,1.4216064E1,2.3388E1,1.6728334E1,8.708005E1,8.749283E1,8.404663E0,2.1882844E0,0E0,0E0,0E0,0E0,0E0,0E0,0E0,0E0,0E0,0E0,0E0,0E0,0E0,0E0,0E0,0E0,0E0,0E0,0E0,0E0,0E0,0E0,0E0,0E0,0E0,0E0,0E0,0E0,0E0,0E0],"parents":[2147483647,0,0,1,1,2,2,3,3,4,4,5,5,6,6,7,7,8,8,9,9,10,10,11,11,12,12,13,13,14,14,15,15,16,16,17,17,18,18,19,19,20,20,22,22,23,23,24,24,25,25,26,26,27,27,28,28,29,29,30,30],"right_children":[2,4,6,8,10,12,14,16,18,20,22,24,26,28,30,32,34,36,38,40,42,-1,44,46,48,50,52,54,56,58,60,-1,-1,-1,-1,-1,-1,-1,-1,-1,-1,-1,-1,-1,-1,-1,-1,-1,-1,-1,-1,-1,-1,-1,-1,-1,-1,-1,-1,-1,-1],"split_conditions":[1.1401705E-1,4.965292E-1,2.1375349E0,6.249321E-2,9.5849985E-1,2.023669E0,6.3454825E-1,9.231264E-1,9.466726E-1,1E0,2.11219E0,1.5562311E-1,9.647936E-1,9.506785E-1,5.902694E-1,3.3321273E-1,2.2247043E0,2.2799033E-1,2.3362398E0,3.22401E-1,5.902694E-1,2.6466388E-2,9.8195165E-1,2.3453884E-1,6.112769E-1,6.5E1,6.8757457E-1,2.4640908E0,1E0,2.6154745E-1,9.678603E-1,-8.307877E-2,-2.237176E-2,-2.3528786E-2,-9.595903E-2,-7.299632E-2,-1.5469791E-2,-5.1409025E-3,-8.691792E-2,-2.465114E-3,5.683077E-2,-4.553651E-2,2.7765691E-2,-4.70196E-2,-9.375931E-2,-3.667776E-2,6.0452323E-2,6.571668E-2,8.672042E-2,6.6376135E-2,1.4451605E-2,-5.262604E-2,4.581101E-2,4.8600294E-2,1.6662838E-2,-1.5715064E-2,-6.0975052E-2,1.0546329E-2,7.738081E-2,4.4370413E-2,5.197454E-3],"split_indices":[1,6,4,1,5,4,1,5,5,0,4,1,2,5,6,6,4,6,4,4,6,0,5,6,2,3,1,4,0,2,5,0,0,0,0,0,0,0,0,0,0,0,0,0,0,0,0,0,0,0,0,0,0,0,0,0,0,0,0,0,0],"split_type":[0,0,0,0,0,0,0,0,0,0,0,0,0,0,0,0,0,0,0,0,0,0,0,0,0,0,0,0,0,0,0,0,0,0,0,0,0,0,0,0,0,0,0,0,0,0,0,0,0,0,0,0,0,0,0,0,0,0,0,0,0],"sum_hessian":[5.4202856E3,2.180494E3,3.239792E3,1.8448522E3,3.356417E2,1.5569429E3,1.6828491E3,1.3933346E3,4.5151755E2,1.741705E2,1.6147119E2,1.2279736E3,3.2896927E2,1.430386E3,2.5246315E2,4.1385437E2,9.794802E2,2.6484283E2,1.8667473E2,1.4688187E2,2.7288637E1,9.199417E0,1.5227177E2,4.6666496E1,1.1813071E3,3.1310455E2,1.5864713E1,9.162423E2,5.141437E2,2.3846275E2,1.4000401E1,3.2945886E2,8.439552E1,3.461923E1,9.44861E2,8.7441185E1,1.7740164E2,2.6106482E1,1.6056824E2,2.974217E1,1.17139694E2,1.6521376E1,1.07672615E1,3.9470795E1,1.1280098E2,1.9851967E1,2.681453E1,1.0546577E2,1.0758413E3,2.8897256E2,2.4131973E1,9.483139E0,6.381573E0,3.3946887E2,5.7677344E2,3.632568E2,1.5088689E2,5.148434E0,2.3331432E2,7.0892205E0,6.91118E0],"tree_param":{"num_deleted":"0","num_feature":"7","num_nodes":"61","size_leaf_vector":"0"}},{"base_weights":[-2.6091347E-3,-1.1720778E0,8.993144E-1,-1.4107959E0,-3.5967907E-1,1.4595762E0,4.174322E-1,-1.5645777E0,-7.1431684E-1,4.482579E-1,-1.3335234E0,1.5470618E0,1.1929972E0,2.1817048E-1,1.1977124E0,-1.2590717E0,-1.7003757E0,-5.2763283E-1,-1.5061715E0,6.621928E-1,-5.4121566E-1,8.8969594E-1,-1.5528591E0,8.682093E-1,1.6001927E0,1.4301357E0,9.58306E-1,5.382029E-1,-6.1390334E-1,1.324808E0,6.213558E-1,-7.190236E-2,-2.5656799E-2,-2.61135E-2,-8.751871E-2,-6.426921E-2,-9.562432E-3,-2.5847629E-2,-8.322795E-2,-3.3897076E-2,3.947241E-2,-4.8797462E-2,2.210033E-2,-1.581111E-2,6.936071E-2,-4.827709E-2,-8.481823E-2,2.0140796E-3,6.880713E-2,8.0660746E-2,5.8436126E-2,1.4149918E-2,7.364636E-2,5.2779734E-2,4.073472E-4,5.249512E-2,1.731925E-2,3.9490636E-2,-3.7729617E-2,6.773804E-2,1.0292072E-2,4.347877E-2,-1.4825633E-3],"categories":[],"categories_nodes":[],"categories_segments":[],"categories_sizes":[],"default_left":[1,1,0,0,0,0,0,0,0,0,0,0,0,0,1,1,0,1,0,0,0,0,0,0,0,0,0,0,0,0,0,0,0,0,0,0,0,0,0,0,0,0,0,0,0,0,0,0,0,0,0,0,0,0,0,0,0,0,0,0,0,0,0],"id":2,"left_children":[1,3,5,7,9,11,13,15,17,19,21,23,25,27,29,31,33,35,37,39,41,43,45,47,49,51,53,55,57,59,61,-1,-1,-1,-1,-1,-1,-1,-1,-1,-1,-1,-1,-1,-1,-1,-1,-1,-1,-1,-1,-1,-1,-1,-1,-1,-1,-1,-1,-1,-1,-1,-1],"loss_changes":[5.665055E3,4.5302417E2,8.18052E2,1.9243652E2,4.1953653E2,3.0845215E1,2.5341687E2,5.9237305E1,4.77937E1,6.2120182E1,1.1923718E2,3.6554443E1,1.814856E1,3.4674832E2,2.3473114E1,6.055481E1,5.924585E1,6.79434E1,8.8798065E0,4.152378E1,2.2837189E1,1.3841284E1,1.6934021E1,3.2975403E1,3.5895996E0,8.046783E0,1.6565872E1,9.1907135E1,7.205327E1,8.799683E0,1.0013681E1,0E0,0E0,0E0,0E0,0E0,0E0,0E0,0E0,0E0,0E0,0E0,0E0,0E0,0E0,0E0,0E0,0E0,0E0,0E0,0E0,0E0,0E0,0E0,0E0,0E0,0E0,0E0,0E0,0E0,0E0,0E0,0E0],"parents":[2147483647,0,0,1,1,2,2,3,3,4,4,5,5,6,6,7,7,8,8,9,9,10,10,11,11,12,12,13,13,14,14,15,15,16,16,17,17,18,18,19,19,20,20,21,21,22,22,23,23,24,24,25,25,26,26,27,27,28,28,29,29,30,30],"right_children":[2,4,6,8,10,12,14,16,18,20,22,24,26,28,30,32,34,36,38,40,42,44,46,48,50,52,54,56,58,60,62,-1,-1,-1,-1,-1,-1,-1,-1,-1,-1,-1,-1,-1,-1,-1,-1,-1,-1,-1,-1,-1,-1,-1,-1,-1,-1,-1,-1,-1,-1,-1,-1],"split_conditions":[1.3176315E-1,4.5948184E-1,2.093169E0,8.100766E-2,9.658201E-1,1.981979E0,5.8824074E-1,9.198135E-1,1E0,1E0,2.124696E0,2.1540065E-1,4.706893E-1,8.8068676E-1,5.250224E-1,3.2972807E-1,2.2317715E0,2.2799033E-1,3.6011374E-1,2.1938873E-2,5.8730924E-1,6.5631464E-2,9.8195165E-1,1.3768333E0,9.6785945E-1,1.422287E-1,6.3E1,2.3286004E0,3.8935357E-1,9.2E1,5.5E1,-7.190236E-2,-2.5656799E-2,-2.61135E-2,-8.751871E-2,-6.426921E-2,-9.562432E-3,-2.5847629E-2,-8.322795E-2,-3.3897076E-2,3.947241E-2,-4.8797462E-2,2.210033E-2,-1.581111E-2,6.936071E-2,-4.827709E-2,-8.481823E-2,2.0140796E-3,6.880713E-2,8.0660746E-2,5.8436126E-2,1.4149918E-2,7.364636E-2,5.2779734E-2,4.073472E-4,5.249512E-2,1.731925E-2,3.9490636E-2,-3.7729617E-2,6.773804E-2,1.0292072E-2,4.347877E-2,-1.4825633E-3],"split_indices":[1,6,4,1,5,4,1,5,0,0,4,1,6,2,6,6,4,6,2,1,6,1,5,4,2,6,3,4,6,3,3,0,0,0,0,0,0,0,0,0,0,0,0,0,0,0,0,0,0,0,0,0,0,0,0,0,0,0,0,0,0,0,0],"split_type":[0,0,0,0,0,0,0,0,0,0,0,0,0,0,0,0,0,0,0,0,0,0,0,0,0,0,0,0,0,0,0,0,0,0,0,0,0,0,0,0,0,0,0,0,0,0,0,0,0,0,0,0,0,0,0,0,0,0,0,0,0,0,0],"sum_hessian":[5.3688853E3,2.3375842E3,3.0313013E3,1.8061285E3,5.3145575E2,1.4007202E3,1.6305809E3,1.4784435E3,3.276851E2,2.9076562E2,2.4069011E2,1.0510009E3,3.4971933E2,1.299902E3,3.3067896E2,4.58107E2,1.0203364E3,2.6651828E2,6.116681E1,2.3934697E2,5.1418648E1,2.1338945E1,2.1935117E2,7.754534E1,9.7345557E2,1.7141905E2,1.7830026E2,9.3906995E2,3.608321E2,2.6986987E2,6.0809074E1,3.6871246E2,8.939454E1,4.200574E1,9.783307E2,8.107179E1,1.854465E2,9.030444E0,5.2136364E1,2.0381422E1,2.1896555E2,3.565924E1,1.5759405E1,6.33884E0,1.5000105E1,4.458968E1,1.7476149E2,2.9895382E1,4.764996E1,9.4227783E2,3.1177706E1,6.438259E0,1.649808E2,1.6163878E2,1.6661482E1,2.5482288E2,6.84247E2,3.2450024E1,3.2838205E2,2.6262903E2,7.240834E0,4.378047E1,1.70286E1],"tree_param":{"num_deleted":"0","num_feature":"7","num_nodes":"63","size_leaf_vector":"0"}},{"base_weights":[1.2985479E-5,-1.1030617E0,8.890615E-1,-1.3301423E0,-3.5224012E-1,1.4133098E0,4.234988E-1,-1.4896123E0,-6.7997104E-1,3.9890003E-1,-1.2528253E0,1.4929073E0,1.1725024E0,8.791046E-1,5.332728E-2,-1.1668664E0,-1.6097826E0,-5.070319E-1,-1.38581E0,6.360137E-1,-6.538876E-1,9.579796E-1,-1.4769721E0,4.0690106E-1,1.5072652E0,1.2574341E0,3.3357581E-1,1.2360894E-1,1.0785341E0,5.860694E-1,-2.6769677E-1,-6.9478445E-2,-2.2975145E-2,-3.6563806E-2,-8.2887076E-2,-6.1277904E-2,-9.159778E-3,-3.472747E-2,-7.848468E-2,-3.586108E-2,3.7434697E-2,-5.2293845E-2,2.5184367E-2,-8.250051E-3,6.478116E-2,-4.5088094E-2,-8.191562E-2,-1.7166298E-2,6.1785378E-2,4.161456E-2,7.5966865E-2,6.611029E-2,1.7292103E-2,-7.995899E-3,6.7734204E-2,2.2492329E-2,-4.208482E-2,-2.162761E-2,5.776837E-2,3.882588E-2,-1.1846426E-2,-2.7646556E-2,3.7505325E-2],"categories":[],"categories_nodes":[],"categories_segments":[],"categories_sizes":[],"default_left":[1,1,0,0,0,0,1,0,0,0,0,0,0,0,0,1,0,1,1,0,0,0,0,0,0,0,0,0,0,0,0,0,0,0,0,0,0,0,0,0,0,0,0,0,0,0,0,0,0,0,0,0,0,0,0,0,0,0,0,0,0,0,0],"id":3,"left_children":[1,3,5,7,9,11,13,15,17,19,21,23,25,27,29,31,33,35,37,39,41,43,45,47,49,51,53,55,57,59,61,-1,-1,-1,-1,-1,-1,-1,-1,-1,-1,-1,-1,-1,-1,-1,-1,-1,-1,-1,-1,-1,-1,-1,-1,-1,-1,-1,-1,-1,-1,-1,-1],"loss_changes":[5.2720015E3,4.0857666E2,7.259238E2,1.8993652E2,3.782841E2,2.5078125E1,2.6608942E2,5.5447754E1,4.3800766E1,7.661728E1,1.2738779E2,1.5732422E1,2.4687897E1,1.0643628E2,1.4923831E2,6.3108704E1,4.405591E1,6.828039E1,7.9563904E0,3.8604424E1,2.621232E1,9.316702E0,1.997934E1,9.781162E0,7.162842E0,1.8414886E1,1.7226479E1,4.7253384E1,6.5454895E1,5.1607086E1,1.5852515E2,0E0,0E0,0E0,0E0,0E0,0E0,0E0,0E0,0E0,0E0,0E0,0E0,0E0,0E0,0E0,0E0,0E0,0E0,0E0,0E0,0E0,0E0,0E0,0E0,0E0,0E0,0E0,0E0,0E0,0E0,0E0,0E0],"parents":[2147483647,0,0,1,1,2,2,3,3,4,4,5,5,6,6,7,7,8,8,9,9,10,10,11,11,12,12,13,13,14,14,15,15,16,16,17,17,18,18,19,19,20,20,21,21,22,22,23,23,24,24,25,25,26,26,27,27,28,28,29,29,30,30],"right_children":[2,4,6,8,10,12,14,16,18,20,22,24,26,28,30,32,34,36,38,40,42,44,46,48,50,52,54,56,58,60,62,-1,-1,-1,-1,-1,-1,-1,-1,-1,-1,-1,-1,-1,-1,-1,-1,-1,-1,-1,-1,-1,-1,-1,-1,-1,-1,-1,-1,-1,-1,-1,-1],"split_conditions":[1.3833906E-1,4.5948184E-1,2.093169E0,8.100766E-2,9.658201E-1,1.981979E0,4.222901E-1,9.0812176E-1,1E0,1E0,2.124696E0,1.535214E-1,6.4E1,1.930735E-1,9.333472E-1,3.112771E-1,2.3362398E0,2.2799033E-1,2.391195E0,2.1938873E-2,5.902694E-1,6.921381E-2,9.8347926E-1,3E1,6.5888876E-1,9.997784E-1,7.733737E-1,1.7891802E1,1.6040228E-1,1E0,5.5570924E-1,-6.9478445E-2,-2.2975145E-2,-3.6563806E-2,-8.2887076E-2,-6.1277904E-2,-9.159778E-3,-3.472747E-2,-7.848468E-2,-3.586108E-2,3.7434697E-2,-5.2293845E-2,2.5184367E-2,-8.250051E-3,6.478116E-2,-4.5088094E-2,-8.191562E-2,-1.7166298E-2,6.1785378E-2,4.161456E-2,7.5966865E-2,6.611029E-2,1.7292103E-2,-7.995899E-3,6.7734204E-2,2.2492329E-2,-4.208482E-2,-2.162761E-2,5.776837E-2,3.882588E-2,-1.1846426E-2,-2.7646556E-2,3.7505325E-2],"split_indices":[1,6,4,1,5,4,6,5,0,0,4,1,3,1,5,6,4,6,4,1,6,1,5,3,4,5,1,4,2,0,1,0,0,0,0,0,0,0,0,0,0,0,0,0,0,0,0,0,0,0,0,0,0,0,0,0,0,0,0,0,0,0,0],"split_type":[0,0,0,0,0,0,0,0,0,0,0,0,0,0,0,0,0,0,0,0,0,0,0,0,0,0,0,0,0,0,0,0,0,0,0,0,0,0,0,0,0,0,0,0,0,0,0,0,0,0,0,0,0,0,0,0,0,0,0,0,0,0,0],"sum_hessian":[5.3738257E3,2.3981338E3,2.975692E3,1.8406659E3,5.5746783E2,1.3986744E3,1.5770176E3,1.4770844E3,3.6358145E2,3.04257E2,2.5321086E2,1.047297E3,3.5137744E2,7.0631396E2,8.707036E2,4.0366257E2,1.0734219E3,2.934106E2,7.0170845E1,2.4865062E2,5.5606354E1,2.3007673E1,2.3020319E2,1.4048275E1,1.0332487E3,3.186218E2,3.275567E1,1.4784703E2,5.584669E2,3.2708224E2,5.4362134E2,3.0627286E2,9.738971E1,5.6407288E1,1.0170145E3,9.0290375E1,2.0312024E2,1.5747916E1,5.4422928E1,1.8700588E1,2.2995004E2,4.1611843E1,1.39945135E1,5.436741E0,1.7570932E1,5.1868988E1,1.783342E2,7.6811423E0,6.367132E0,1.9384216E1,1.0138645E3,2.9706396E2,2.1557812E1,2.2651674E1,1.01039915E1,1.1090068E2,3.6946358E1,2.6798058E1,5.316689E2,2.6566235E2,6.141987E1,4.2497964E2,1.18641716E2],"tree_param":{"num_deleted":"0","num_feature":"7","num_nodes":"63","size_leaf_vector":"0"}},{"base_weights":[-4.4119754E-3,-1.0531161E0,8.3386964E-1,-1.3695452E0,-5.43133E-1,1.3394374E0,3.9242995E-1,-1.4364389E0,4.569338E-3,-1.7760082E-1,-1.0347122E0,1.4106385E0,1.1206863E0,8.048964E-1,2.6375392E-2,-1.102743E0,-1.5673299E0,6.0680664E-1,-1.3171034E0,-1.1886128E0,1.5627237E-1,5.6204695E-1,-1.3396113E0,8.2243204E-1,1.4517131E0,1.3004322E0,8.7631255E-1,4.6441436E-1,1.1960506E0,2.720667E-1,-7.534078E-1,-6.7937516E-2,9.6467073E-4,-2.1318926E-2,-8.052426E-2,-1.0220093E-2,6.617055E-2,-3.62403E-2,-7.381533E-2,-6.709266E-2,-2.6936686E-2,2.1467151E-2,-4.872099E-2,-6.646348E-2,4.899165E-2,-4.7410924E-2,-7.613092E-2,-1.3692586E-3,6.7120425E-2,7.3984854E-2,5.8209058E-2,-7.1312236E-3,6.696933E-2,5.5709343E-2,1.8963441E-2,-1.5815059E-2,3.5564188E-2,9.279652E-3,6.333091E-2,3.8576603E-2,-1.2985744E-3,-5.58877E-2,2.3318153E-2],"categories":[],"categories_nodes":[],"categories_segments":[],"categories_sizes":[],"default_left":[0,0,0,1,0,0,1,0,0,1,0,1,0,1,0,1,0,1,0,0,0,0,0,0,0,0,0,1,0,0,0,0,0,0,0,0,0,0,0,0,0,0,0,0,0,0,0,0,0,0,0,0,0,0,0,0,0,0,0,0,0,0,0],"id":4,"left_children":[1,3,5,7,9,11,13,15,17,19,21,23,25,27,29,31,33,35,37,39,41,43,45,47,49,51,53,55,57,59,61,-1,-1,-1,-1,-1,-1,-1,-1,-1,-1,-1,-1,-1,-1,-1,-1,-1,-1,-1,-1,-1,-1,-1,-1,-1,-1,-1,-1,-1,-1,-1,-1],"loss_changes":[4.66824E3,3.799392E2,6.5811084E2,1.3375903E2,1.624184E2,1.9839111E1,2.3807098E2,5.8877197E1,5.5358234E1,1.7577995E2,1.8853656E2,2.3780273E1,1.3908081E1,9.818805E1,1.6046669E2,1.1328854E2,4.8268555E1,2.8041697E1,9.829483E-1,1.2149658E1,1.21434456E2,5.0724777E1,2.177533E1,3.0870419E1,6.04126E0,1.1170685E1,1.7105873E1,7.693756E1,2.4322723E1,9.481683E1,8.970757E1,0E0,0E0,0E0,0E0,0E0,0E0,0E0,0E0,0E0,0E0,0E0,0E0,0E0,0E0,0E0,0E0,0E0,0E0,0E0,0E0,0E0,0E0,0E0,0E0,0E0,0E0,0E0,0E0,0E0,0E0,0E0,0E0],"parents":[2147483647,0,0,1,1,2,2,3,3,4,4,5,5,6,6,7,7,8,8,9,9,10,10,11,11,12,12,13,13,14,14,15,15,16,16,17,17,18,18,19,19,20,20,21,21,22,22,23,23,24,24,25,25,26,26,27,27,28,28,29,29,30,30],"right_children":[2,4,6,8,10,12,14,16,18,20,22,24,26,28,30,32,34,36,38,40,42,44,46,48,50,52,54,56,58,60,62,-1,-1,-1,-1,-1,-1,-1,-1,-1,-1,-1,-1,-1,-1,-1,-1,-1,-1,-1,-1,-1,-1,-1,-1,-1,-1,-1,-1,-1,-1,-1,-1],"split_conditions":[1.3833906E-1,5.6226373E-2,2.093169E0,5.8730924E-1,9.429945E-1,1.981979E0,4.3282288E-1,9.1899276E-1,9.6650296E-1,2.1947858E-1,2.2695293E0,2.122002E-1,5.007455E-1,3.5629058E-1,1E0,3.7297735E-1,2.2247043E0,2.5347989E0,9.8138577E-1,3.3E1,1E0,2.105621E-1,9.69162E-1,1.3768333E0,6.4E1,1.18929E-1,9.302681E-1,2.0993845E0,2.6154745E-1,9.277004E-1,5.3979105E-1,-6.7937516E-2,9.6467073E-4,-2.1318926E-2,-8.052426E-2,-1.0220093E-2,6.617055E-2,-3.62403E-2,-7.381533E-2,-6.709266E-2,-2.6936686E-2,2.1467151E-2,-4.872099E-2,-6.646348E-2,4.899165E-2,-4.7410924E-2,-7.613092E-2,-1.3692586E-3,6.7120425E-2,7.3984854E-2,5.8209058E-2,-7.1312236E-3,6.696933E-2,5.5709343E-2,1.8963441E-2,-1.5815059E-2,3.5564188E-2,9.279652E-3,6.333091E-2,3.8576603E-2,-1.2985744E-3,-5.58877E-2,2.3318153E-2],"split_indices":[1,1,4,6,5,4,6,5,5,6,4,1,6,1,0,6,4,4,5,3,0,6,5,4,3,6,2,4,2,5,1,0,0,0,0,0,0,0,0,0,0,0,0,0,0,0,0,0,0,0,0,0,0,0,0,0,0,0,0,0,0,0,0],"split_type":[0,0,0,0,0,0,0,0,0,0,0,0,0,0,0,0,0,0,0,0,0,0,0,0,0,0,0,0,0,0,0,0,0,0,0,0,0,0,0,0,0,0,0,0,0,0,0,0,0,0,0,0,0,0,0,0,0,0,0,0,0,0,0],"sum_hessian":[5.308194E3,2.358018E3,2.9501758E3,1.4541046E3,9.039135E2,1.374252E3,1.5759238E3,1.3865597E3,6.754485E1,5.1920233E2,3.8471118E2,1.0326779E3,3.415741E2,7.404235E2,8.3550024E2,3.9329956E2,9.9326013E2,4.6773006E1,2.0771847E1,1.2825853E2,3.9094382E2,6.1546783E1,3.231644E2,6.877756E1,9.6390027E2,1.943218E2,1.4725229E2,3.9702158E2,3.4340198E2,6.358196E2,1.9968068E2,3.2006226E2,7.323732E1,3.659634E1,9.566638E2,2.2273632E1,2.4499374E1,5.57678E0,1.5195067E1,1.0292438E2,2.5334152E1,3.1539404E2,7.554975E1,1.0740929E1,5.0805855E1,1.0493135E2,2.1823305E2,2.6467714E1,4.2309845E1,8.746311E2,8.926914E1,5.03774E0,1.8928406E2,9.875071E1,4.8501583E1,9.531382E1,3.0170776E2,2.2653702E1,3.2074826E2,2.3702094E2,3.9879865E2,1.5381862E2,4.5862072E1],"tree_param":{"num_deleted":"0","num_feature":"7","num_nodes":"63","size_leaf_vector":"0"}},{"base_weights":[1.144625E-3,-1.1428692E0,7.944517E-1,-1.3069167E0,-2.4714473E-1,1.2999605E0,3.1804428E-1,-9.968414E-1,-1.534974E0,5.7124895E-1,-1.3055606E0,1.3932678E0,9.542566E-1,6.101688E-1,-2.1426013E-1,-1.3026491E0,-3.0660632E-1,-7.218005E-2,-1.6213399E0,7.602523E-1,-4.1865253E-1,2.9457763E-2,-1.4398116E0,3.1996316E-1,1.4316984E0,1.0413584E0,-4.7558537E-1,5.000492E-1,1.2685643E0,-6.1349446E-1,9.827039E-1,-7.219273E-2,-4.6191122E-2,-1.7880548E-3,-5.572796E-2,-5.5827092E-2,2.1959698E-2,-6.1560225E-2,-8.2267396E-2,-6.96326E-2,4.2275667E-2,-3.443369E-2,3.6477618E-2,-4.513591E-2,-8.04365E-2,-2.9291201E-2,4.798832E-2,7.30738E-2,5.6429762E-2,6.6209935E-2,4.0389664E-2,-6.7350596E-2,2.288009E-2,2.8978257E-2,-2.924381E-2,5.97236E-3,6.641649E-2,-1.7807024E-2,-6.0869325E-2,6.4196676E-2,1.3847189E-2],"categories":[],"categories_nodes":[],"categories_segments":[],"categories_sizes":[],"default_left":[1,1,0,0,0,0,0,1,0,0,0,0,0,0,0,0,0,0,1,0,0,0,0,0,0,0,0,0,0,0,1,0,0,0,0,0,0,0,0,0,0,0,0,0,0,0,0,0,0,0,0,0,0,0,0,0,0,0,0,0,0],"id":5,"left_children":[1,3,5,7,9,11,13,15,17,19,21,23,25,27,29,31,33,35,37,39,41,-1,43,45,47,49,51,53,55,57,59,-1,-1,-1,-1,-1,-1,-1,-1,-1,-1,-1,-1,-1,-1,-1,-1,-1,-1,-1,-1,-1,-1,-1,-1,-1,-1,-1,-1,-1,-1],"loss_changes":[4.83259E3,3.2007593E2,7.56845E2,1.2877637E2,2.9417737E2,4.787085E1,2.5205754E2,1.6503967E2,1.3378882E2,3.619102E1,3.8500122E1,4.8994873E1,4.1264618E1,7.522565E1,2.7528455E2,2.770343E1,5.2905037E1,3.2607334E1,7.3476562E0,3.0794998E1,1.023276E1,0E0,1.1114746E1,2.5326756E1,8.794922E0,1.933496E1,1.646002E1,7.78116E1,1.0093079E1,6.665135E1,3.0290573E1,0E0,0E0,0E0,0E0,0E0,0E0,0E0,0E0,0E0,0E0,0E0,0E0,0E0,0E0,0E0,0E0,0E0,0E0,0E0,0E0,0E0,0E0,0E0,0E0,0E0,0E0,0E0,0E0,0E0,0E0],"parents":[2147483647,0,0,1,1,2,2,3,3,4,4,5,5,6,6,7,7,8,8,9,9,10,10,11,11,12,12,13,13,14,14,15,15,16,16,17,17,18,18,19,19,20,20,22,22,23,23,24,24,25,25,26,26,27,27,28,28,29,29,30,30],"right_children":[2,4,6,8,10,12,14,16,18,20,22,24,26,28,30,32,34,36,38,40,42,-1,44,46,48,50,52,54,56,58,60,-1,-1,-1,-1,-1,-1,-1,-1,-1,-1,-1,-1,-1,-1,-1,-1,-1,-1,-1,-1,-1,-1,-1,-1,-1,-1,-1,-1,-1,-1],"split_conditions":[1.1825194E-1,4.9850166E-1,2.1375349E0,9.429945E-1,9.618514E-1,2.023669E0,9.549729E-1,3.280913E-1,2.3127027E0,1E0,2.11219E0,1.5562311E-1,9.6345E-1,6.029921E-1,5.4707915E-1,6.249321E-2,7.552589E-1,2.3116858E-1,2.4459043E0,1.1298051E-2,6.692869E-1,2.9457763E-2,9.8347926E-1,2.0096087E-1,6.3E1,4.706893E-1,6.029921E-1,6.4E1,2.9329026E-1,1E0,4.9850166E-1,-7.219273E-2,-4.6191122E-2,-1.7880548E-3,-5.572796E-2,-5.5827092E-2,2.1959698E-2,-6.1560225E-2,-8.2267396E-2,-6.96326E-2,4.2275667E-2,-3.443369E-2,3.6477618E-2,-4.513591E-2,-8.04365E-2,-2.9291201E-2,4.798832E-2,7.30738E-2,5.6429762E-2,6.6209935E-2,4.0389664E-2,-6.7350596E-2,2.288009E-2,2.8978257E-2,-2.924381E-2,5.97236E-3,6.641649E-2,-1.7807024E-2,-6.0869325E-2,6.4196676E-2,1.3847189E-2],"split_indices":[1,6,4,5,5,4,5,6,4,0,4,1,2,1,1,1,2,6,4,1,6,0,5,6,3,6,1,3,2,0,6,0,0,0,0,0,0,0,0,0,0,0,0,0,0,0,0,0,0,0,0,0,0,0,0,0,0,0,0,0,0],"split_type":[0,0,0,0,0,0,0,0,0,0,0,0,0,0,0,0,0,0,0,0,0,0,0,0,0,0,0,0,0,0,0,0,0,0,0,0,0,0,0,0,0,0,0,0,0,0,0,0,0,0,0,0,0,0,0,0,0,0,0,0,0],"sum_hessian":[5.322849E3,2.1794553E3,3.1433938E3,1.8416984E3,3.3775702E2,1.5242772E3,1.6191167E3,7.827767E2,1.0589216E3,1.9073569E2,1.4702133E2,1.197922E3,3.2635522E2,1.0453115E3,5.738052E2,5.418316E2,2.4094507E2,5.9137417E1,9.9978424E2,1.6035152E2,3.0384167E1,9.503786E0,1.3751755E2,4.173237E1,1.1561897E3,3.0787228E2,1.8482964E1,8.970374E2,1.4827408E2,4.3065298E2,1.4315216E2,3.92659E2,1.4917259E2,1.81235E2,5.9710068E1,1.9049614E1,4.0087803E1,6.0988483E1,9.387958E2,5.5243216E0,1.548272E2,2.4923233E1,5.4609337E0,3.4419926E1,1.0309762E2,1.7310204E1,2.4422165E1,1.0492838E3,1.0690586E2,1.3713559E2,1.7073668E2,9.3284445E0,9.154518E0,8.3621564E2,6.0821785E1,7.4786963E0,1.4079538E2,3.0308173E2,1.2757127E2,9.975566E1,4.3396503E1],"tree_param":{"num_deleted":"0","num_feature":"7","num_nodes":"61","size_leaf_vector":"0"}},{"base_weights":[-4.8425775E-3,-1.0725482E0,7.030864E-1,-1.1615318E0,2.7384177E-1,1.1830322E0,2.506615E-1,-8.223238E-1,-1.4014089E0,6.512808E-1,-1.1410202E0,1.3063089E0,9.245281E-1,6.3629165E-2,1.005946E0,-1.191487E0,-1.16854645E-1,-9.981959E-3,-1.4824256E0,1.0746846E0,-4.0162325E-2,1.3934039E-3,-7.012605E-2,2.4380375E-1,1.3515525E0,1.195919E0,7.135176E-1,3.9332736E-1,-6.442837E-1,1.1863363E0,5.225711E-1,-6.8901815E-2,-4.7340285E-2,8.308498E-3,-5.660316E-2,-5.818334E-2,1.9637099E-2,-5.083319E-2,-7.5472645E-2,6.7839645E-2,2.425632E-2,-4.8988637E-2,7.289644E-3,-2.4628896E-2,5.8196593E-2,4.8687126E-2,6.959923E-2,-2.5248934E-2,6.195243E-2,4.475911E-2,5.5420822E-3,4.041526E-2,7.4856887E-3,-1.9421512E-2,-6.6199735E-2,3.6690876E-2,6.6285774E-2,3.311244E-2,-5.0091434E-2],"categories":[],"categories_nodes":[],"categories_segments":[],"categories_sizes":[],"default_left":[1,1,0,0,0,0,0,1,0,0,0,0,0,0,1,0,0,0,1,0,0,0,0,0,0,0,0,0,0,0,0,0,0,0,0,0,0,0,0,0,0,0,0,0,0,0,0,0,0,0,0,0,0,0,0,0,0,0,0],"id":6,"left_children":[1,3,5,7,9,11,13,15,17,19,21,23,25,27,29,31,33,35,37,39,41,-1,-1,43,45,47,49,51,53,55,57,-1,-1,-1,-1,-1,-1,-1,-1,-1,-1,-1,-1,-1,-1,-1,-1,-1,-1,-1,-1,-1,-1,-1,-1,-1,-1,-1,-1],"loss_changes":[3.9590408E3,2.5050586E2,6.8359326E2,1.5824731E2,7.030919E1,4.748633E1,2.2913771E2,2.1182794E2,1.2918237E2,3.0335392E1,8.535458E0,4.929004E1,2.7597626E1,3.040319E2,2.7454865E1,2.3078796E1,8.084269E1,3.0223515E1,1.2098633E1,1.0021194E1,7.1774607E0,0E0,0E0,2.9964848E1,1.37647705E1,1.645929E1,3.0773361E1,8.971196E1,7.147307E1,1.3765961E1,1.9675343E1,0E0,0E0,0E0,0E0,0E0,0E0,0E0,0E0,0E0,0E0,0E0,0E0,0E0,0E0,0E0,0E0,0E0,0E0,0E0,0E0,0E0,0E0,0E0,0E0,0E0,0E0,0E0,0E0],"parents":[2147483647,0,0,1,1,2,2,3,3,4,4,5,5,6,6,7,7,8,8,9,9,10,10,11,11,12,12,13,13,14,14,15,15,16,16,17,17,18,18,19,19,20,20,23,23,24,24,25,25,26,26,27,27,28,28,29,29,30,30],"right_children":[2,4,6,8,10,12,14,16,18,20,22,24,26,28,30,32,34,36,38,40,42,-1,-1,44,46,48,50,52,54,56,58,-1,-1,-1,-1,-1,-1,-1,-1,-1,-1,-1,-1,-1,-1,-1,-1,-1,-1,-1,-1,-1,-1,-1,-1,-1,-1,-1,-1],"split_conditions":[1.1401705E-1,5.8437383E-1,2.1517704E0,9.4227207E-1,9.780757E-1,1.981979E0,5.3115636E-1,3.366233E-1,2.2247043E0,3.2831082E0,2.2317715E0,1.5562311E-1,4.6719795E-1,8.5761684E-1,4.905527E-1,4.28149E-2,1E0,1.4575454E0,2.3362398E0,5.6256056E-1,1.8709412E-2,1.3934039E-3,-7.012605E-2,7.9711384E-1,6.112769E-1,1.13778E-1,9.4107866E-1,2.4894392E0,1E0,5.956795E-1,7E1,-6.8901815E-2,-4.7340285E-2,8.308498E-3,-5.660316E-2,-5.818334E-2,1.9637099E-2,-5.083319E-2,-7.5472645E-2,6.7839645E-2,2.425632E-2,-4.8988637E-2,7.289644E-3,-2.4628896E-2,5.8196593E-2,4.8687126E-2,6.959923E-2,-2.5248934E-2,6.195243E-2,4.475911E-2,5.5420822E-3,4.041526E-2,7.4856887E-3,-1.9421512E-2,-6.6199735E-2,3.6690876E-2,6.6285774E-2,3.311244E-2,-5.0091434E-2],"split_indices":[1,6,4,5,5,4,1,6,4,4,4,1,6,2,6,1,0,4,4,2,1,0,0,2,2,6,2,4,0,2,3,0,0,0,0,0,0,0,0,0,0,0,0,0,0,0,0,0,0,0,0,0,0,0,0,0,0,0,0],"split_type":[0,0,0,0,0,0,0,0,0,0,0,0,0,0,0,0,0,0,0,0,0,0,0,0,0,0,0,0,0,0,0,0,0,0,0,0,0,0,0,0,0,0,0,0,0,0,0,0,0,0,0,0,0,0,0,0,0,0,0],"sum_hessian":[5.2358013E3,2.0872598E3,3.1485413E3,1.9579922E3,1.2926762E2,1.527019E3,1.6215222E3,8.1290234E2,1.1450898E3,1.02471306E2,2.6796322E1,1.0312013E3,4.9581775E2,1.3005493E3,3.209729E2,5.3319775E2,2.7970462E2,6.3066814E1,1.0820231E3,6.321033E1,3.926098E1,5.062184E0,2.1734137E1,4.2378128E1,9.888232E2,2.1483734E2,2.809804E2,8.876063E2,4.129429E2,2.3268361E2,8.828929E1,2.999095E2,2.3328825E2,2.193809E2,6.032372E1,1.5829758E1,4.7237057E1,6.146202E1,1.02056104E3,4.187259E1,2.1337742E1,5.7810626E0,3.3479916E1,2.3797539E1,1.858059E1,9.801618E1,8.90807E2,5.0480814E0,2.0978926E2,2.1552837E2,6.545204E1,3.2746896E2,5.601374E2,3.0115506E2,1.11787865E2,5.6267216E1,1.764164E2,8.139665E1,6.892643E0],"tree_param":{"num_deleted":"0","num_feature":"7","num_nodes":"59","size_leaf_vector":"0"}},{"base_weights":[-7.6900497E-3,-1.0706953E0,7.063473E-1,-1.2077296E0,-1.5857212E-1,1.200223E0,2.6374862E-1,-8.963674E-1,-1.4138317E0,6.0104287E-1,-1.1535829E0,1.2880429E0,8.7549967E-1,9.544678E-2,1.0907842E0,-1.2244927E0,-3.050136E-1,-9.3601115E-2,-1.4885962E0,-5.262823E-2,8.41737E-1,1.8918447E-2,-1.2581288E0,4.5410472E-1,1.3387933E0,9.4992864E-1,-3.7596726E-1,4.2541155E-1,-5.6379575E-1,1.2316722E0,6.564275E-1,-6.798735E-2,-4.5438815E-2,-2.1536763E-4,-5.2298732E-2,-4.9028795E-2,1.8427297E-2,-6.360582E-2,-7.734793E-2,-2.9086484E-2,1.785431E-2,5.2424192E-2,-1.2647687E-2,-2.884691E-2,-7.3340885E-2,-9.837816E-3,6.490493E-2,6.7262314E-2,9.109162E-3,6.1477285E-2,3.6139883E-2,-5.2464902E-2,3.709739E-2,2.8385898E-2,-1.2129564E-2,-1.5665105E-2,-6.186957E-2,6.7019346E-3,6.346448E-2,4.120866E-2,-1.8682899E-2],"categories":[],"categories_nodes":[],"categories_segments":[],"categories_sizes":[],"default_left":[0,1,0,0,0,0,1,1,0,1,0,0,0,0,1,0,0,0,0,0,0,0,0,0,0,0,0,0,0,0,0,0,0,0,0,0,0,0,0,0,0,0,0,0,0,0,0,0,0,0,0,0,0,0,0,0,0,0,0,0,0],"id":7,"left_children":[1,3,5,7,9,11,13,15,17,19,21,23,25,27,29,31,33,35,37,39,41,-1,43,45,47,49,51,53,55,57,59,-1,-1,-1,-1,-1,-1,-1,-1,-1,-1,-1,-1,-1,-1,-1,-1,-1,-1,-1,-1,-1,-1,-1,-1,-1,-1,-1,-1,-1,-1],"loss_changes":[3.972215E3,2.6264258E2,6.839774E2,1.16039795E2,2.091545E2,4.1056885E1,2.2987407E2,1.4143158E2,1.082583E2,2.4755493E1,1.9654266E1,4.85813E1,2.9979263E1,2.991129E2,1.628238E1,1.882074E1,5.840081E1,2.4925095E1,1.1162598E1,9.574792E0,2.6258797E1,0E0,1.5121704E1,3.7711437E1,7.9277344E0,1.8192871E1,1.4755501E1,8.723508E1,7.7015274E1,8.490021E0,1.2497156E1,0E0,0E0,0E0,0E0,0E0,0E0,0E0,0E0,0E0,0E0,0E0,0E0,0E0,0E0,0E0,0E0,0E0,0E0,0E0,0E0,0E0,0E0,0E0,0E0,0E0,0E0,0E0,0E0,0E0,0E0],"parents":[2147483647,0,0,1,1,2,2,3,3,4,4,5,5,6,6,7,7,8,8,9,9,10,10,11,11,12,12,13,13,14,14,15,15,16,16,17,17,18,18,19,19,20,20,22,22,23,23,24,24,25,25,26,26,27,27,28,28,29,29,30,30],"right_children":[2,4,6,8,10,12,14,16,18,20,22,24,26,28,30,32,34,36,38,40,42,-1,44,46,48,50,52,54,56,58,60,-1,-1,-1,-1,-1,-1,-1,-1,-1,-1,-1,-1,-1,-1,-1,-1,-1,-1,-1,-1,-1,-1,-1,-1,-1,-1,-1,-1,-1,-1],"split_conditions":[1.1401705E-1,5.16845E-1,2.1375349E0,9.375251E-1,9.5707035E-1,2.023669E0,5.9634066E-1,3.092829E-1,2.2695293E0,2.4807634E0,2.1309307E0,1.2662541E0,9.647936E-1,8.5606587E-1,4.9445683E-1,5.312203E-2,7.245723E-1,2.3116858E-1,9.678603E-1,3.1084178E-2,1E0,1.8918447E-2,9.780757E-1,2.3542912E-1,2E0,4.706893E-1,6.6412383E-1,1E0,1E0,2.6154745E-1,6.1E1,-6.798735E-2,-4.5438815E-2,-2.1536763E-4,-5.2298732E-2,-4.9028795E-2,1.8427297E-2,-6.360582E-2,-7.734793E-2,-2.9086484E-2,1.785431E-2,5.2424192E-2,-1.2647687E-2,-2.884691E-2,-7.3340885E-2,-9.837816E-3,6.490493E-2,6.7262314E-2,9.109162E-3,6.1477285E-2,3.6139883E-2,-5.2464902E-2,3.709739E-2,2.8385898E-2,-1.2129564E-2,-1.5665105E-2,-6.186957E-2,6.7019346E-3,6.346448E-2,4.120866E-2,-1.8682899E-2],"split_indices":[1,6,4,5,5,4,1,6,4,4,4,4,2,2,6,1,2,6,5,1,0,0,5,1,0,6,1,0,0,2,3,0,0,0,0,0,0,0,0,0,0,0,0,0,0,0,0,0,0,0,0,0,0,0,0,0,0,0,0,0,0],"split_type":[0,0,0,0,0,0,0,0,0,0,0,0,0,0,0,0,0,0,0,0,0,0,0,0,0,0,0,0,0,0,0,0,0,0,0,0,0,0,0,0,0,0,0,0,0,0,0,0,0,0,0,0,0,0,0,0,0,0,0,0,0],"sum_hessian":[5.231313E3,2.1018044E3,3.1295083E3,1.8269984E3,2.7480603E2,1.4782665E3,1.6512418E3,7.2981024E2,1.0971881E3,1.5606117E2,1.1874487E2,1.1612463E3,3.1702008E2,1.3729598E3,2.7828207E2,4.6868158E2,2.6112866E2,5.892423E1,1.0382639E3,4.2209904E1,1.13851265E2,7.4185567E0,1.1132632E2,6.7185844E1,1.0940605E3,2.994516E2,1.756846E1,9.152251E2,4.577347E2,2.0873962E2,6.9542435E1,3.258003E2,1.4288127E2,1.8646205E2,7.4666595E1,1.9800459E1,3.912377E1,2.2531467E2,8.129493E2,1.823786E1,2.3972044E1,9.5800316E1,1.805095E1,2.6990404E1,8.4335915E1,3.836605E1,2.8819796E1,1.0878282E3,6.232311E0,1.3223994E2,1.6721167E2,1.10027685E1,6.565692E0,7.546171E2,1.6060797E2,3.3472415E2,1.2301057E2,7.067942E0,2.0167169E2,5.9975536E1,9.566899E0],"tree_param":{"num_deleted":"0","num_feature":"7","num_nodes":"61","size_leaf_vector":"0"}},{"base_weights":[-3.7987544E-3,-9.3467724E-1,6.9693696E-1,-1.0913539E0,-1.12189844E-1,1.1182884E0,2.7650818E-1,-1.2837211E0,-6.4530706E-1,5.338291E-1,-9.4480294E-1,1.2225156E0,8.528116E-1,1.22002654E-1,1.0835595E0,-1.0338649E0,-1.3968391E0,-3.407712E-1,-9.871756E-1,-6.969451E-2,5.935772E-1,3.4587103E-1,-1.1966168E0,6.4194816E-1,1.2635003E0,9.4197416E-1,5.3937007E-2,4.351287E-1,-5.0417626E-1,1.1225501E0,1.6933575E-4,-6.1877925E-2,-2.2658559E-2,-1.8133821E-2,-7.19537E-2,-5.3704526E-2,8.187462E-3,2.3957765E-2,-6.686952E-2,3.9834548E-2,1.1438777E-2,-4.4434406E-2,6.44669E-2,-3.111423E-2,-7.089773E-2,3.4331903E-3,5.965E-2,6.481136E-2,4.6979137E-2,5.081435E-2,8.652561E-3,5.098864E-2,-1.8321386E-2,2.564433E-2,-2.621889E-2,3.3562694E-2,-3.248919E-2,4.392005E-2,6.5051824E-2],"categories":[],"categories_nodes":[],"categories_segments":[],"categories_sizes":[],"default_left":[0,1,0,0,0,0,1,0,0,0,0,0,0,0,0,0,0,1,0,0,0,0,0,0,0,0,0,0,0,1,0,0,0,0,0,0,0,0,0,0,0,0,0,0,0,0,0,0,0,0,0,0,0,0,0,0,0,0,0],"id":8,"left_children":[1,3,5,7,9,11,13,15,17,19,21,23,25,27,29,31,33,35,37,-1,39,41,43,45,47,49,51,53,55,57,-1,-1,-1,-1,-1,-1,-1,-1,-1,-1,-1,-1,-1,-1,-1,-1,-1,-1,-1,-1,-1,-1,-1,-1,-1,-1,-1,-1,-1],"loss_changes":[3.3467356E3,2.8382922E2,5.182362E2,1.5797852E2,1.9075172E2,3.940149E1,1.8273451E2,3.5074463E1,5.7933853E1,2.3840332E1,5.075525E1,2.4108276E1,2.953653E1,2.417825E2,9.915405E0,4.7523834E1,3.820166E1,1.102565E2,1.3577979E2,0E0,1.422937E1,3.150212E1,1.5621765E1,2.2376009E1,9.141235E0,2.1172668E1,1.7737015E1,6.1585968E1,7.0807526E1,8.762726E0,0E0,0E0,0E0,0E0,0E0,0E0,0E0,0E0,0E0,0E0,0E0,0E0,0E0,0E0,0E0,0E0,0E0,0E0,0E0,0E0,0E0,0E0,0E0,0E0,0E0,0E0,0E0,0E0,0E0],"parents":[2147483647,0,0,1,1,2,2,3,3,4,4,5,5,6,6,7,7,8,8,9,9,10,10,11,11,12,12,13,13,14,14,15,15,16,16,17,17,18,18,20,20,21,21,22,22,23,23,24,24,25,25,26,26,27,27,28,28,29,29],"right_children":[2,4,6,8,10,12,14,16,18,20,22,24,26,28,30,32,34,36,38,-1,40,42,44,46,48,50,52,54,56,58,-1,-1,-1,-1,-1,-1,-1,-1,-1,-1,-1,-1,-1,-1,-1,-1,-1,-1,-1,-1,-1,-1,-1,-1,-1,-1,-1,-1,-1],"split_conditions":[1.3176315E-1,5.0257814E-1,2.1517704E0,6.249321E-2,9.591983E-1,2.000053E0,6.2706184E-1,9.231264E-1,7.646205E-1,1.0497556E-2,2.2391324E0,1.3768333E0,6.3E1,8.5761684E-1,8.9E1,3.112771E-1,2.2247043E0,2.506427E-1,2.3680892E0,-6.969451E-2,5.6256056E-1,7.702964E-2,9.8138577E-1,2.3940408E-1,6.4E1,9.562823E-1,4.3120238E-1,6.4E1,3.9874503E-1,2.3680892E0,1.6933575E-4,-6.1877925E-2,-2.2658559E-2,-1.8133821E-2,-7.19537E-2,-5.3704526E-2,8.187462E-3,2.3957765E-2,-6.686952E-2,3.9834548E-2,1.1438777E-2,-4.4434406E-2,6.44669E-2,-3.111423E-2,-7.089773E-2,3.4331903E-3,5.965E-2,6.481136E-2,4.6979137E-2,5.081435E-2,8.652561E-3,5.098864E-2,-1.8321386E-2,2.564433E-2,-2.621889E-2,3.3562694E-2,-3.248919E-2,4.392005E-2,6.5051824E-2],"split_indices":[1,6,4,1,5,4,1,5,2,1,4,4,3,2,3,6,4,6,4,0,2,1,5,1,3,2,6,3,6,4,0,0,0,0,0,0,0,0,0,0,0,0,0,0,0,0,0,0,0,0,0,0,0,0,0,0,0,0,0],"split_type":[0,0,0,0,0,0,0,0,0,0,0,0,0,0,0,0,0,0,0,0,0,0,0,0,0,0,0,0,0,0,0,0,0,0,0,0,0,0,0,0,0,0,0,0,0,0,0,0,0,0,0,0,0,0,0,0,0,0,0],"sum_hessian":[5.1286724E3,2.2024875E3,2.9261846E3,1.8497915E3,3.52696E2,1.4606598E3,1.4655249E3,1.2910992E3,5.5869226E2,1.988041E2,1.5389192E2,1.0462808E3,4.1437903E2,1.2310066E3,2.3451828E2,4.055207E2,8.855786E2,2.9653564E2,2.6215662E2,5.305257E0,1.9349884E2,2.506215E1,1.2882977E2,7.0089775E1,9.76191E2,3.7261252E2,4.1766502E1,8.208425E2,4.1016412E2,2.2631003E2,8.208254E0,2.9937564E2,1.06145065E2,3.512372E1,8.504549E2,1.2040227E2,1.7613336E2,5.0470604E1,2.11686E2,1.2353391E2,6.996492E1,1.08814535E1,1.4180696E1,3.689785E1,9.193192E1,3.4903095E1,3.5186684E1,8.8388654E2,9.23044E1,3.394815E2,3.3130997E1,1.2233264E1,2.953324E1,7.5973914E2,6.11034E1,4.4811245E1,3.6535287E2,9.807542E1,1.2823462E2],"tree_param":{"num_deleted":"0","num_feature":"7","num_nodes":"59","size_leaf_vector":"0"}},{"base_weights":[-1.0106718E-2,-1.0110447E0,5.8977985E-1,-6.5475565E-1,-1.3047794E0,1.061108E0,2.0068707E-1,-1.066964E0,1.391835E-1,-2.3664812E-2,-1.3589058E0,1.1484272E0,7.473174E-1,4.911298E-2,9.5580316E-1,-6.511086E-1,-1.1664133E0,3.3984378E-1,-6.984744E-1,-5.6852084E-2,4.3818405E-1,-1.3792257E0,-4.544973E-1,2.179561E-1,1.1982355E0,8.438007E-1,-9.2260666E-2,2.892068E-1,-7.361791E-1,1.0602641E0,6.9335755E-3,-4.563419E-2,-1.5974687E-2,-6.433452E-2,-4.311734E-2,-4.8008732E-2,2.3579564E-2,-5.0654183E-3,-5.8457207E-2,3.63958E-2,-4.2609077E-2,-5.0027866E-2,-7.049769E-2,2.2130622E-2,-6.0071748E-2,-3.063181E-2,5.0602328E-2,4.3434653E-2,6.158023E-2,4.590126E-2,-6.565094E-3,8.308626E-3,-4.7864582E-2,2.1649053E-2,-1.9539794E-2,-4.1841313E-2,2.2748707E-2,4.0064625E-2,6.0707893E-2,-9.82728E-3,3.5120483E-2],"categories":[],"categories_nodes":[],"categories_segments":[],"categories_sizes":[],"default_left":[0,0,0,1,0,0,1,0,0,0,0,1,0,0,1,1,0,0,0,0,0,1,0,1,0,0,0,0,1,1,0,0,0,0,0,0,0,0,0,0,0,0,0,0,0,0,0,0,0,0,0,0,0,0,0,0,0,0,0,0,0],"id":9,"left_children":[1,3,5,7,9,11,13,15,17,19,21,23,25,27,29,31,33,35,37,-1,39,41,43,45,47,49,51,53,55,57,59,-1,-1,-1,-1,-1,-1,-1,-1,-1,-1,-1,-1,-1,-1,-1,-1,-1,-1,-1,-1,-1,-1,-1,-1,-1,-1,-1,-1,-1,-1],"loss_changes":[3.0466582E3,1.9813464E2,5.816072E2,2.8199673E2,7.216553E1,3.8445557E1,1.990073E2,2.268988E1,4.985764E1,2.2724407E1,1.7731323E1,5.1660034E1,2.5605316E1,2.7349792E2,2.8804993E1,9.396675E0,1.5578857E1,4.135853E1,1.6008713E1,0E0,1.2311888E1,9.95166E0,1.6240213E1,3.8970947E1,1.0621216E1,2.058496E1,7.6220202E0,1.0876676E2,4.1102524E1,9.46283E0,4.3600245E0,0E0,0E0,0E0,0E0,0E0,0E0,0E0,0E0,0E0,0E0,0E0,0E0,0E0,0E0,0E0,0E0,0E0,0E0,0E0,0E0,0E0,0E0,0E0,0E0,0E0,0E0,0E0,0E0,0E0,0E0],"parents":[2147483647,0,0,1,1,2,2,3,3,4,4,5,5,6,6,7,7,8,8,9,9,10,10,11,11,12,12,13,13,14,14,15,15,16,16,17,17,18,18,20,20,21,21,22,22,23,23,24,24,25,25,26,26,27,27,28,28,29,29,30,30],"right_children":[2,4,6,8,10,12,14,16,18,20,22,24,26,28,30,32,34,36,38,-1,40,42,44,46,48,50,52,54,56,58,60,-1,-1,-1,-1,-1,-1,-1,-1,-1,-1,-1,-1,-1,-1,-1,-1,-1,-1,-1,-1,-1,-1,-1,-1,-1,-1,-1,-1,-1,-1],"split_conditions":[1.0254792E-1,9.483947E-1,2.1375349E0,3.6985296E-1,2.11219E0,2.023669E0,5.716591E-1,7.740311E-1,1E0,1.3768333E0,6.200082E-1,1.5562311E-1,9.994354E-1,9.704632E-1,5.788796E-1,1.58675E0,2.6961592E-1,1.951101E-2,4.9251908E-1,-5.6852084E-2,9.99994E-1,2.3680892E0,9.7367567E-1,2.6071623E-1,6.112769E-1,6.8E1,9.716426E-1,1E0,3.3275814E0,2.2695293E0,2.833104E0,-4.563419E-2,-1.5974687E-2,-6.433452E-2,-4.311734E-2,-4.8008732E-2,2.3579564E-2,-5.0654183E-3,-5.8457207E-2,3.63958E-2,-4.2609077E-2,-5.0027866E-2,-7.049769E-2,2.2130622E-2,-6.0071748E-2,-3.063181E-2,5.0602328E-2,4.3434653E-2,6.158023E-2,4.590126E-2,-6.565094E-3,8.308626E-3,-4.7864582E-2,2.1649053E-2,-1.9539794E-2,-4.1841313E-2,2.2748707E-2,4.0064625E-2,6.0707893E-2,-9.82728E-3,3.5120483E-2],"split_indices":[1,5,4,6,4,4,1,5,0,4,6,1,5,5,6,4,6,1,2,0,5,4,5,6,2,3,2,0,4,4,4,0,0,0,0,0,0,0,0,0,0,0,0,0,0,0,0,0,0,0,0,0,0,0,0,0,0,0,0,0,0],"split_type":[0,0,0,0,0,0,0,0,0,0,0,0,0,0,0,0,0,0,0,0,0,0,0,0,0,0,0,0,0,0,0,0,0,0,0,0,0,0,0,0,0,0,0,0,0,0,0,0,0,0,0,0,0,0,0,0,0,0,0,0,0],"sum_hessian":[5.0719707E3,1.9003931E3,3.1715776E3,8.602144E2,1.0401787E3,1.4334448E3,1.7381329E3,5.6600446E2,2.9420996E2,4.2223763E1,9.979549E2,1.1193116E3,3.1413312E2,1.448451E3,2.8968185E2,1.1069041E2,4.5531403E2,2.3783182E2,5.637813E1,1.1951179E1,3.0272585E1,9.7551245E2,2.2442467E1,5.7145756E1,1.0621659E3,2.8174973E2,3.238338E1,1.1097805E3,3.3867062E2,2.6084775E2,2.8834099E1,6.0900406E1,4.979E1,3.23943E2,1.3137103E2,2.1306078E1,2.1652574E2,2.5385418E1,3.0992712E1,2.5077663E1,5.194923E0,7.573822E1,8.9977423E2,1.038136E1,1.2061107E1,2.8042616E1,2.910314E1,1.0014995E2,9.62016E2,2.6187448E2,1.9875261E1,2.555621E1,6.8271704E0,9.163897E2,1.9339076E2,3.1255832E2,2.6112316E1,9.954341E1,1.6130434E2,2.286249E1,5.9716077E0],"tree_param":{"num_deleted":"0","num_feature":"7","num_nodes":"61","size_leaf_vector":"0"}},{"base_weights":[4.1560372E-3,-8.688093E-1,6.547001E-1,-5.19256E-1,-1.1986606E0,1.0913692E0,3.0264565E-1,-9.466507E-1,1.838493E-1,2.622099E-1,-1.3149302E0,1.1446855E0,7.7764297E-1,5.966946E-1,-3.1722102E-2,-1.1577524E0,-5.985381E-1,3.8152903E-1,-6.028095E-1,-2.6718616E-1,8.125511E-1,-9.829565E-1,-1.3718917E0,4.8453248E-1,1.1785119E0,9.580917E-1,2.7121046E-1,-5.0836426E-1,6.705E-1,-2.7879572E-1,9.6281666E-1,-6.145922E-2,-4.0037323E-2,-5.083285E-2,-1.14179505E-2,-1.8054944E-2,2.534529E-2,-4.180313E-2,2.2990786E-2,4.420051E-3,-4.2824637E-2,-3.6856126E-2,5.2939832E-2,-6.286059E-2,-1.5036546E-2,-4.1745555E-2,-6.910945E-2,-9.461428E-3,5.311639E-2,6.029569E-2,4.1105807E-2,6.862804E-2,4.0133473E-2,-1.036445E-2,4.331874E-2,1.814597E-2,-4.3892946E-2,3.6934834E-2,-4.0506865E-3,-5.2555944E-3,-4.666219E-2,5.552202E-2,1.6981814E-2],"categories":[],"categories_nodes":[],"categories_segments":[],"categories_sizes":[],"default_left":[1,0,0,1,0,0,0,0,0,0,0,0,0,0,0,0,0,0,0,0,0,0,0,0,0,0,0,0,0,0,1,0,0,0,0,0,0,0,0,0,0,0,0,0,0,0,0,0,0,0,0,0,0,0,0,0,0,0,0,0,0,0,0],"id":10,"left_children":[1,3,5,7,9,11,13,15,17,19,21,23,25,27,29,31,33,35,37,39,41,43,45,47,49,51,53,55,57,59,61,-1,-1,-1,-1,-1,-1,-1,-1,-1,-1,-1,-1,-1,-1,-1,-1,-1,-1,-1,-1,-1,-1,-1,-1,-1,-1,-1,-1,-1,-1,-1,-1],"loss_changes":[2.8427688E3,2.4582898E2,4.4061157E2,3.125494E2,1.8700891E2,2.0518433E1,1.5628654E2,4.6829346E1,6.147332E1,2.4064335E1,1.7903687E1,2.3810547E1,1.7015167E1,6.931735E1,1.8324654E2,9.2543335E0,3.787259E1,2.954498E1,2.0084084E1,8.975728E0,1.6189167E1,2.8180527E1,3.637085E0,2.1580473E1,9.14502E0,7.8510437E0,1.4719561E1,1.7547585E1,4.071219E1,6.778874E1,1.3275543E1,0E0,0E0,0E0,0E0,0E0,0E0,0E0,0E0,0E0,0E0,0E0,0E0,0E0,0E0,0E0,0E0,0E0,0E0,0E0,0E0,0E0,0E0,0E0,0E0,0E0,0E0,0E0,0E0,0E0,0E0,0E0,0E0],"parents":[2147483647,0,0,1,1,2,2,3,3,4,4,5,5,6,6,7,7,8,8,9,9,10,10,11,11,12,12,13,13,14,14,15,15,16,16,17,17,18,18,19,19,20,20,21,21,22,22,23,23,24,24,25,25,26,26,27,27,28,28,29,29,30,30],"right_children":[2,4,6,8,10,12,14,16,18,20,22,24,26,28,30,32,34,36,38,40,42,44,46,48,50,52,54,56,58,60,62,-1,-1,-1,-1,-1,-1,-1,-1,-1,-1,-1,-1,-1,-1,-1,-1,-1,-1,-1,-1,-1,-1,-1,-1,-1,-1,-1,-1,-1,-1,-1,-1],"split_conditions":[1.3176315E-1,9.506785E-1,2.093169E0,3.6985296E-1,2.2474463E0,2.023669E0,9.357287E-1,5.6226373E-2,1E0,7.9114385E-2,9.6718955E-1,1.8227327E-1,9.302681E-1,1.6040228E-1,6.3454825E-1,2.8945562E-1,2.1646123E-1,3.1084178E-2,5.8730924E-1,2.0532517E0,2.3453884E-1,4.2796645E-1,2.3208227E0,1.6340274E0,6.6E1,3.286539E-1,6.50667E-1,1.1432261E1,6.3E1,5.7E1,5.227304E-1,-6.145922E-2,-4.0037323E-2,-5.083285E-2,-1.14179505E-2,-1.8054944E-2,2.534529E-2,-4.180313E-2,2.2990786E-2,4.420051E-3,-4.2824637E-2,-3.6856126E-2,5.2939832E-2,-6.286059E-2,-1.5036546E-2,-4.1745555E-2,-6.910945E-2,-9.461428E-3,5.311639E-2,6.029569E-2,4.1105807E-2,6.862804E-2,4.0133473E-2,-1.036445E-2,4.331874E-2,1.814597E-2,-4.3892946E-2,3.6934834E-2,-4.0506865E-3,-5.2555944E-3,-4.666219E-2,5.552202E-2,1.6981814E-2],"split_indices":[1,5,4,6,4,4,5,1,0,1,5,1,2,2,1,6,6,1,6,4,6,6,4,4,3,1,1,4,3,3,6,0,0,0,0,0,0,0,0,0,0,0,0,0,0,0,0,0,0,0,0,0,0,0,0,0,0,0,0,0,0,0,0],"split_type":[0,0,0,0,0,0,0,0,0,0,0,0,0,0,0,0,0,0,0,0,0,0,0,0,0,0,0,0,0,0,0,0,0,0,0,0,0,0,0,0,0,0,0,0,0,0,0,0,0,0,0,0,0,0,0,0,0,0,0,0,0,0,0],"sum_hessian":[5.003733E3,2.136469E3,2.867264E3,1.0385067E3,1.0979623E3,1.278894E3,1.58837E3,6.456754E2,3.9283133E2,8.0851234E1,1.0171111E3,1.0908586E3,1.8803535E2,8.44722E2,7.43648E2,4.004871E2,2.4518832E2,3.1435257E2,7.847875E1,4.1472054E1,3.937918E1,1.5163487E2,8.654762E2,5.3918232E1,1.0369404E3,1.3797954E2,5.0055817E1,5.2517048E1,7.922049E2,5.9624286E2,1.4740515E2,3.316795E2,6.880757E1,1.1431857E2,1.3086975E2,4.51343E1,2.692183E2,6.452772E1,1.3951037E1,2.63952E1,1.5076853E1,5.1261063E0,3.4253075E1,1.075549E2,4.4079975E1,1.782847E1,8.476477E2,2.5202436E1,2.8715796E1,9.606929E2,7.6247574E1,3.5494404E1,1.0248513E2,2.8108717E1,2.19471E1,1.5644491E1,3.687256E1,7.263122E2,6.589273E1,4.7211023E2,1.2413263E2,1.1854211E2,2.8863043E1],"tree_param":{"num_deleted":"0","num_feature":"7","num_nodes":"63","size_leaf_vector":"0"}},{"base_weights":[-6.7909756E-3,-8.902784E-1,7.0841765E-1,-1.1465409E0,-3.8481346E-1,1.1510733E0,3.5196128E-1,-1.2180926E0,-8.2340576E-2,-1.7904817E-1,-1.1442826E0,1.2237175E0,9.6340215E-1,7.253345E-1,2.4420515E-2,-9.1286933E-1,-1.3547835E0,4.7999492E-1,-1.1817181E0,-1.0659841E0,5.3671382E-2,-7.355062E-1,-1.3888185E0,7.9719365E-1,1.2655635E0,1.0235339E0,4.0744746E-1,4.1962546E-1,1.0947908E0,2.263464E-1,-6.396605E-1,-5.642537E-2,-7.773274E-3,-1.7011499E-2,-6.98042E-2,-1.23609025E-2,4.791572E-2,-2.483823E-2,-6.638738E-2,-5.8138806E-2,-7.3946514E-3,3.1191438E-2,-1.830254E-2,-1.4340294E-3,-5.0603624E-2,-4.3464988E-3,-7.294556E-2,4.369195E-3,5.5989172E-2,6.389794E-2,4.2149566E-2,1.8412663E-3,5.19615E-2,-8.695412E-3,4.7208175E-2,3.287123E-2,-1.9705292E-2,-3.672767E-2,5.6257095E-2,3.4914557E-2,-3.5092651E-3,-4.8486363E-2,2.4375545E-2],"categories":[],"categories_nodes":[],"categories_segments":[],"categories_sizes":[],"default_left":[1,0,0,1,0,0,1,0,0,1,0,0,0,0,0,1,0,1,0,0,0,0,0,0,0,0,0,0,0,0,0,0,0,0,0,0,0,0,0,0,0,0,0,0,0,0,0,0,0,0,0,0,0,0,0,0,0,0,0,0,0,0,0],"id":11,"left_children":[1,3,5,7,9,11,13,15,17,19,21,23,25,27,29,31,33,35,37,39,41,43,45,47,49,51,53,55,57,59,61,-1,-1,-1,-1,-1,-1,-1,-1,-1,-1,-1,-1,-1,-1,-1,-1,-1,-1,-1,-1,-1,-1,-1,-1,-1,-1,-1,-1,-1,-1,-1,-1],"loss_changes":[3.2294836E3,2.957295E2,4.4525903E2,1.153927E2,1.2023844E2,1.5991455E1,1.9149681E2,5.80542E1,6.030357E1,1.254727E2,1.5383591E1,1.51311035E1,1.1489807E1,8.219092E1,1.121461E2,7.2118835E1,4.056653E1,2.2720797E1,2.6399918E0,1.1055054E1,1.1563976E2,1.2394863E1,9.140884E0,1.9020546E1,3.2271729E0,4.9292297E0,1.1529383E1,7.80578E1,1.9188751E1,8.978623E1,7.302568E1,0E0,0E0,0E0,0E0,0E0,0E0,0E0,0E0,0E0,0E0,0E0,0E0,0E0,0E0,0E0,0E0,0E0,0E0,0E0,0E0,0E0,0E0,0E0,0E0,0E0,0E0,0E0,0E0,0E0,0E0,0E0,0E0],"parents":[2147483647,0,0,1,1,2,2,3,3,4,4,5,5,6,6,7,7,8,8,9,9,10,10,11,11,12,12,13,13,14,14,15,15,16,16,17,17,18,18,19,19,20,20,21,21,22,22,23,23,24,24,25,25,26,26,27,27,28,28,29,29,30,30],"right_children":[2,4,6,8,10,12,14,16,18,20,22,24,26,28,30,32,34,36,38,40,42,44,46,48,50,52,54,56,58,60,62,-1,-1,-1,-1,-1,-1,-1,-1,-1,-1,-1,-1,-1,-1,-1,-1,-1,-1,-1,-1,-1,-1,-1,-1,-1,-1,-1,-1,-1,-1,-1,-1],"split_conditions":[1.4074348E-1,6.5631464E-2,2.0813649E0,5.7073826E-1,1E0,1.9638389E0,4.3282288E-1,9.231264E-1,9.658201E-1,2.2799033E-1,7.4326986E-1,2.4340461E-1,6.3E1,3.6809328E-1,1E0,3.6985296E-1,2.1921616E0,2.5347989E0,9.787021E-1,3.8E1,9.117121E-1,2.734871E0,2.1849122E0,2.4537978E-1,9.6785945E-1,1.422287E-1,7.044798E-1,1.9791397E2,1.2781915E-1,9.32629E-1,5.716591E-1,-5.642537E-2,-7.773274E-3,-1.7011499E-2,-6.98042E-2,-1.23609025E-2,4.791572E-2,-2.483823E-2,-6.638738E-2,-5.8138806E-2,-7.3946514E-3,3.1191438E-2,-1.830254E-2,-1.4340294E-3,-5.0603624E-2,-4.3464988E-3,-7.294556E-2,4.369195E-3,5.5989172E-2,6.389794E-2,4.2149566E-2,1.8412663E-3,5.19615E-2,-8.695412E-3,4.7208175E-2,3.287123E-2,-1.9705292E-2,-3.672767E-2,5.6257095E-2,3.4914557E-2,-3.5092651E-3,-4.8486363E-2,2.4375545E-2],"split_indices":[1,1,4,6,0,4,6,5,5,6,2,1,3,1,0,6,4,4,5,3,5,4,4,6,2,6,1,4,2,5,1,0,0,0,0,0,0,0,0,0,0,0,0,0,0,0,0,0,0,0,0,0,0,0,0,0,0,0,0,0,0,0,0],"split_type":[0,0,0,0,0,0,0,0,0,0,0,0,0,0,0,0,0,0,0,0,0,0,0,0,0,0,0,0,0,0,0,0,0,0,0,0,0,0,0,0,0,0,0,0,0,0,0,0,0,0,0,0,0,0,0,0,0,0,0,0,0,0,0],"sum_hessian":[5.108932E3,2.2854734E3,2.8234587E3,1.5157463E3,7.69727E2,1.2584534E3,1.5650052E3,1.4201199E3,9.562652E1,6.0661163E2,1.6311539E2,9.032868E2,3.5516656E2,7.307676E2,8.342377E2,4.416406E2,9.7847925E2,6.363856E1,3.1987955E1,1.2533955E2,4.8127206E2,6.2554478E1,1.00560905E2,8.249468E1,8.207921E2,3.1974237E2,3.54242E1,4.01051E2,3.2971658E2,6.4022485E2,1.9401283E2,3.4338626E2,9.825435E1,3.8635117E1,9.398441E2,2.5441591E1,3.819697E1,6.394808E0,2.5593147E1,1.131445E2,1.2195043E1,2.038596E2,2.7741248E2,1.7903042E1,4.4651436E1,5.2519736E0,9.530894E1,2.6173899E1,5.6320786E1,7.9543555E2,2.535659E1,5.059078E0,3.146833E2,1.7329428E1,1.809477E1,3.1050366E2,9.054734E1,5.002467E0,3.247141E2,2.4652051E2,3.937043E2,1.5017665E2,4.3836166E1],"tree_param":{"num_deleted":"0","num_feature":"7","num_nodes":"63","size_leaf_vector":"0"}},{"base_weights":[-6.829918E-3,-8.224207E-1,6.0517305E-1,-1.011148E0,-2.2158065E-1,1.0503147E0,2.6643297E-1,-6.2383646E-1,-1.1800814E0,3.175512E-1,-9.578875E-1,5.460844E-1,1.0810581E0,1.0959537E-1,8.644789E-1,-9.719021E-1,-1.0535643E-1,-3.4168103E-1,-1.2653502E0,4.7422352E-1,-3.747547E-1,3.238156E-1,-1.1696625E0,-6.706043E-2,1.1686395E0,1.2066004E0,9.311893E-1,3.5170934E-1,-5.243449E-1,9.6933633E-1,1.5662742E-1,-2.4451254E-2,-5.4093987E-2,8.26576E-3,-4.401148E-2,-4.4311687E-2,1.2230362E-3,-5.441053E-2,-6.741257E-2,-3.189498E-2,2.997668E-2,-1.3431274E-4,-5.542623E-2,4.3174814E-2,-3.927604E-2,-3.3266753E-2,-6.545409E-2,-2.4445329E-2,3.6152795E-2,2.9462684E-2,6.2390227E-2,4.4347942E-2,6.161917E-2,5.385239E-2,3.807015E-2,2.4237499E-2,-1.27538815E-2,1.8918744E-3,-3.7810024E-2,5.300034E-2,2.0143801E-2,2.1099078E-2,-2.9547552E-2],"categories":[],"categories_nodes":[],"categories_segments":[],"categories_sizes":[],"default_left":[1,0,0,0,0,0,0,0,0,0,0,0,0,0,1,0,0,0,0,1,0,0,0,0,0,0,0,0,0,0,0,0,0,0,0,0,0,0,0,0,0,0,0,0,0,0,0,0,0,0,0,0,0,0,0,0,0,0,0,0,0,0,0],"id":12,"left_children":[1,3,5,7,9,11,13,15,17,19,21,23,25,27,29,31,33,35,37,39,41,43,45,47,49,51,53,55,57,59,61,-1,-1,-1,-1,-1,-1,-1,-1,-1,-1,-1,-1,-1,-1,-1,-1,-1,-1,-1,-1,-1,-1,-1,-1,-1,-1,-1,-1,-1,-1,-1,-1],"loss_changes":[2.4379045E3,2.372041E2,4.2047046E2,1.0349768E2,1.994853E2,1.8096313E1,1.4865594E2,8.759262E1,7.87865E1,3.1677576E1,5.8015747E1,2.729297E1,2.0234497E1,1.9320016E2,2.4293427E1,1.4905029E1,4.131859E1,2.0691067E1,1.3298096E1,3.344734E1,1.4781283E1,1.9173834E1,1.1957657E1,1.2640842E1,8.898239E-1,3.9698486E0,1.2102875E1,7.363392E1,4.538198E1,1.4296204E1,8.915438E0,0E0,0E0,0E0,0E0,0E0,0E0,0E0,0E0,0E0,0E0,0E0,0E0,0E0,0E0,0E0,0E0,0E0,0E0,0E0,0E0,0E0,0E0,0E0,0E0,0E0,0E0,0E0,0E0,0E0,0E0,0E0,0E0],"parents":[2147483647,0,0,1,1,2,2,3,3,4,4,5,5,6,6,7,7,8,8,9,9,10,10,11,11,12,12,13,13,14,14,15,15,16,16,17,17,18,18,19,19,20,20,21,21,22,22,23,23,24,24,25,25,26,26,27,27,28,28,29,29,30,30],"right_children":[2,4,6,8,10,12,14,16,18,20,22,24,26,28,30,32,34,36,38,40,42,44,46,48,50,52,54,56,58,60,62,-1,-1,-1,-1,-1,-1,-1,-1,-1,-1,-1,-1,-1,-1,-1,-1,-1,-1,-1,-1,-1,-1,-1,-1,-1,-1,-1,-1,-1,-1,-1,-1],"split_conditions":[1.3176315E-1,4.5948184E-1,2.0813649E0,9.0614593E-1,9.6650296E-1,1.3768333E0,5.716591E-1,2.6278567E-1,2.4459043E0,1E0,2.2247043E0,2.3940408E-1,1.9063109E0,8.8068676E-1,5.6299037E-1,7.1193707E-1,7.245723E-1,2.2525978E-1,9.611961E-1,2.1938873E-2,5.6E1,9.9992496E-1,9.8347926E-1,3.3E1,4.714562E-1,5.9016395E-1,4.7430718E-1,1E0,2.2247043E0,6.3E1,9.9166113E-1,-2.4451254E-2,-5.4093987E-2,8.26576E-3,-4.401148E-2,-4.4311687E-2,1.2230362E-3,-5.441053E-2,-6.741257E-2,-3.189498E-2,2.997668E-2,-1.3431274E-4,-5.542623E-2,4.3174814E-2,-3.927604E-2,-3.3266753E-2,-6.545409E-2,-2.4445329E-2,3.6152795E-2,2.9462684E-2,6.2390227E-2,4.4347942E-2,6.161917E-2,5.385239E-2,3.807015E-2,2.4237499E-2,-1.27538815E-2,1.8918744E-3,-3.7810024E-2,5.300034E-2,2.0143801E-2,2.1099078E-2,-2.9547552E-2],"split_indices":[1,6,4,5,5,4,1,6,4,0,4,1,4,2,6,5,2,6,5,1,3,5,5,3,2,2,6,0,4,3,5,0,0,0,0,0,0,0,0,0,0,0,0,0,0,0,0,0,0,0,0,0,0,0,0,0,0,0,0,0,0,0,0],"split_type":[0,0,0,0,0,0,0,0,0,0,0,0,0,0,0,0,0,0,0,0,0,0,0,0,0,0,0,0,0,0,0,0,0,0,0,0,0,0,0,0,0,0,0,0,0,0,0,0,0,0,0,0,0,0,0,0,0,0,0,0,0,0,0],"sum_hessian":[4.882174E3,2.0928184E3,2.7893555E3,1.5920603E3,5.007581E2,1.2044608E3,1.5848945E3,4.8493906E2,1.1071212E3,2.8941443E2,2.1134366E2,7.0295334E1,1.1341655E3,1.256548E3,3.2834656E2,2.8963022E2,1.9530885E2,1.02666504E2,1.0044547E3,2.3626212E2,5.315231E1,2.989348E1,1.8145018E2,3.5864864E1,3.4430466E1,6.133354E2,5.2083014E2,9.095996E2,3.4694833E2,2.8566086E2,4.2685715E1,5.473829E1,2.3489192E2,1.4533012E2,4.9978737E1,4.0705643E1,6.1960865E1,3.2472452E2,6.7973016E2,2.3511112E1,2.12751E2,3.5934746E1,1.7217564E1,2.02592E1,9.634281E0,4.0547657E1,1.4090251E2,2.3629961E1,1.2234904E1,5.153899E0,2.9276566E1,4.8422554E1,5.6491284E2,2.7728183E2,2.4354834E2,7.461944E2,1.6340518E2,1.0155172E2,2.4539662E2,2.4549454E2,4.0166317E1,3.182494E1,1.0860775E1],"tree_param":{"num_deleted":"0","num_feature":"7","num_nodes":"63","size_leaf_vector":"0"}},{"base_weights":[-7.63496E-3,-8.713495E-1,5.336987E-1,-5.09634E-1,-1.1402801E0,9.400408E-1,1.4497644E-1,-9.5955586E-1,1.1333143E-1,-1.289446E-1,-1.2227908E0,1.0519009E0,7.138576E-1,-4.0777706E-2,6.52738E-1,-4.8674002E-1,-1.0407755E0,4.295627E-1,-3.808131E-1,-1.0604645E0,9.8023735E-2,-1.2487842E0,-4.8653502E-2,4.0446535E-1,1.1213845E0,8.399149E-1,1.4045802E-1,2.5715765E-1,-6.1195225E-1,9.077075E-1,8.883972E-2,-3.7319846E-2,4.6514417E-3,-5.511098E-2,-2.7325293E-2,4.8653446E-2,-1.0969395E-2,1.1277302E-2,-4.0933516E-2,-6.530603E-2,-2.1825632E-2,2.6361344E-2,-2.8333265E-2,-4.961125E-2,-6.601279E-2,1.8293817E-2,-4.8830763E-2,-2.3143806E-2,4.285967E-2,4.337242E-2,5.726778E-2,4.478147E-2,-4.9875225E-3,6.0637034E-2,-6.0650255E-3,2.0448484E-2,-2.2565706E-2,-3.5346687E-2,3.2045387E-2,3.4789246E-2,5.6462087E-2,-9.622298E-3,2.591059E-2],"categories":[],"categories_nodes":[],"categories_segments":[],"categories_sizes":[],"default_left":[1,0,0,1,0,0,0,0,0,0,0,0,0,0,1,1,0,0,1,0,0,0,0,0,0,0,0,0,0,0,0,0,0,0,0,0,0,0,0,0,0,0,0,0,0,0,0,0,0,0,0,0,0,0,0,0,0,0,0,0,0,0,0],"id":13,"left_children":[1,3,5,7,9,11,13,15,17,19,21,23,25,27,29,31,33,35,37,39,41,43,45,47,49,51,53,55,57,59,61,-1,-1,-1,-1,-1,-1,-1,-1,-1,-1,-1,-1,-1,-1,-1,-1,-1,-1,-1,-1,-1,-1,-1,-1,-1,-1,-1,-1,-1,-1,-1,-1],"loss_changes":[2.2706672E3,1.814303E2,4.7141583E2,2.242542E2,8.9327515E1,3.6173706E1,1.4404662E2,1.7329071E1,5.2708084E1,1.7442707E1,3.0195312E1,4.3380005E1,3.5013718E1,1.9056502E2,5.8730286E1,1.0602039E1,1.1408417E1,7.269818E1,3.516307E1,1.9055405E0,1.9372232E1,1.6473999E1,9.017038E0,3.8093468E1,4.359375E0,2.093863E1,2.5070312E1,7.9349335E1,4.613214E1,1.24335785E1,1.5616041E1,0E0,0E0,0E0,0E0,0E0,0E0,0E0,0E0,0E0,0E0,0E0,0E0,0E0,0E0,0E0,0E0,0E0,0E0,0E0,0E0,0E0,0E0,0E0,0E0,0E0,0E0,0E0,0E0,0E0,0E0,0E0,0E0],"parents":[2147483647,0,0,1,1,2,2,3,3,4,4,5,5,6,6,7,7,8,8,9,9,10,10,11,11,12,12,13,13,14,14,15,15,16,16,17,17,18,18,19,19,20,20,21,21,22,22,23,23,24,24,25,25,26,26,27,27,28,28,29,29,30,30],"right_children":[2,4,6,8,10,12,14,16,18,20,22,24,26,28,30,32,34,36,38,40,42,44,46,48,50,52,54,56,58,60,62,-1,-1,-1,-1,-1,-1,-1,-1,-1,-1,-1,-1,-1,-1,-1,-1,-1,-1,-1,-1,-1,-1,-1,-1,-1,-1,-1,-1,-1,-1,-1,-1],"split_conditions":[1.11738004E-1,9.375251E-1,2.1849122E0,3.366233E-1,2.3127027E0,2.000053E0,4.2470354E-1,7.202655E-1,5.6256056E-1,1.4575454E0,6.2774175E-1,2.122002E-1,9.428067E-1,9.506785E-1,4.924219E-1,2.105621E-1,8.7192275E-2,3.5105047E0,2.811824E0,1.0217415E-1,9.998171E-1,9.6718955E-1,9.780757E-1,2.0424819E-1,6.112769E-1,7.1E1,4.2437154E-1,1.9791397E2,6.570166E-1,8.221281E-1,2.4984937E0,-3.7319846E-2,4.6514417E-3,-5.511098E-2,-2.7325293E-2,4.8653446E-2,-1.0969395E-2,1.1277302E-2,-4.0933516E-2,-6.530603E-2,-2.1825632E-2,2.6361344E-2,-2.8333265E-2,-4.961125E-2,-6.601279E-2,1.8293817E-2,-4.8830763E-2,-2.3143806E-2,4.285967E-2,4.337242E-2,5.726778E-2,4.478147E-2,-4.9875225E-3,6.0637034E-2,-6.0650255E-3,2.0448484E-2,-2.2565706E-2,-3.5346687E-2,3.2045387E-2,3.4789246E-2,5.6462087E-2,-9.622298E-3,2.591059E-2],"split_indices":[1,5,4,6,4,4,1,5,2,4,6,1,2,5,6,6,1,4,4,6,5,5,5,6,2,3,6,4,6,2,4,0,0,0,0,0,0,0,0,0,0,0,0,0,0,0,0,0,0,0,0,0,0,0,0,0,0,0,0,0,0,0,0],"split_type":[0,0,0,0,0,0,0,0,0,0,0,0,0,0,0,0,0,0,0,0,0,0,0,0,0,0,0,0,0,0,0,0,0,0,0,0,0,0,0,0,0,0,0,0,0,0,0,0,0,0,0,0,0,0,0,0,0,0,0,0,0,0,0],"sum_hessian":[4.8544478E3,1.8700752E3,2.9843723E3,7.987032E2,1.0713721E3,1.4584236E3,1.5259489E3,4.6344836E2,3.352548E2,8.100882E1,9.903633E2,9.7338184E2,4.8504172E2,1.1179056E3,4.0804318E2,6.8965004E1,3.9448337E2,2.0450871E2,1.307461E2,1.5151591E1,6.585722E1,9.688511E2,2.15122E1,9.5001E1,8.7838086E2,3.9724564E2,8.779608E1,7.3504315E2,3.8286252E2,2.805716E2,1.2747161E2,4.7433773E1,2.1531227E1,3.4977216E2,4.4711216E1,1.11024506E2,9.34842E1,5.5027325E1,7.571877E1,1.0086953E1,5.0646386E0,4.014293E1,2.5714294E1,2.1433661E2,7.5451447E2,1.5288426E1,6.223773E0,3.257364E1,6.2427357E1,7.8972824E1,7.99408E2,3.7505484E2,2.2190796E1,1.6514027E1,7.128205E1,6.056802E2,1.2936299E2,3.562875E2,2.6575037E1,1.455128E2,1.3505878E2,7.735042E1,5.012119E1],"tree_param":{"num_deleted":"0","num_feature":"7","num_nodes":"63","size_leaf_vector":"0"}},{"base_weights":[8.3018E-3,-7.663137E-1,5.7060605E-1,-1.0303729E0,-3.5617387E-1,9.196586E-1,1.950166E-1,-1.103038E0,-3.0078253E-1,-2.587718E-2,-7.0301926E-1,1.0427297E0,6.471561E-1,3.5836536E-2,7.953189E-1,-6.9093037E-1,-1.1944324E0,2.8892922E-1,-1.1277846E0,-8.836098E-1,3.290551E-1,4.7090143E-1,-1.017604E0,6.719207E-1,1.0947435E0,9.8136276E-1,3.9801958E-1,3.1682912E-1,-5.624169E-1,9.3192047E-1,2.1552188E-2,-4.6286102E-2,-8.48664E-3,-2.2414913E-2,-6.1780423E-2,-1.7075956E-2,4.2810094E-2,-2.5124699E-2,-6.32585E-2,-5.5050414E-2,-2.5115786E-2,2.7130783E-2,-2.8700441E-2,-3.0159323E-2,3.6225557E-2,-1.8486138E-2,-5.617867E-2,7.7600884E-3,4.1308627E-2,5.585694E-2,3.870493E-2,5.093015E-2,7.1035693E-3,5.8502194E-2,7.912109E-3,3.2861732E-2,5.875086E-3,-3.5177425E-2,1.9676577E-2,-1.2490656E-2,4.817257E-2,-7.994554E-3,3.1490993E-2],"categories":[],"categories_nodes":[],"categories_segments":[],"categories_sizes":[],"default_left":[0,0,0,0,0,0,1,0,0,1,1,0,0,0,1,0,0,1,0,0,0,0,0,0,0,0,0,0,0,0,1,0,0,0,0,0,0,0,0,0,0,0,0,0,0,0,0,0,0,0,0,0,0,0,0,0,0,0,0,0,0,0,0],"id":14,"left_children":[1,3,5,7,9,11,13,15,17,19,21,23,25,27,29,31,33,35,37,39,41,43,45,47,49,51,53,55,57,59,61,-1,-1,-1,-1,-1,-1,-1,-1,-1,-1,-1,-1,-1,-1,-1,-1,-1,-1,-1,-1,-1,-1,-1,-1,-1,-1,-1,-1,-1,-1,-1,-1],"loss_changes":[2.07539E3,2.166742E2,3.617517E2,6.4273926E1,9.007818E1,4.730481E1,1.2716413E2,4.090149E1,5.4826347E1,1.2324358E2,1.4213179E2,1.824121E1,3.688939E1,1.7721669E2,2.9462555E1,2.4741821E1,2.7262207E1,2.3907389E1,3.3778572E0,9.267998E0,5.5544395E1,2.2705378E1,2.0375214E1,9.725243E0,5.319824E0,5.8106537E0,4.7610924E1,4.8587402E1,4.573333E1,9.073639E0,4.8329687E0,0E0,0E0,0E0,0E0,0E0,0E0,0E0,0E0,0E0,0E0,0E0,0E0,0E0,0E0,0E0,0E0,0E0,0E0,0E0,0E0,0E0,0E0,0E0,0E0,0E0,0E0,0E0,0E0,0E0,0E0,0E0,0E0],"parents":[2147483647,0,0,1,1,2,2,3,3,4,4,5,5,6,6,7,7,8,8,9,9,10,10,11,11,12,12,13,13,14,14,15,15,16,16,17,17,18,18,19,19,20,20,21,21,22,22,23,23,24,24,25,25,26,26,27,27,28,28,29,29,30,30],"right_children":[2,4,6,8,10,12,14,16,18,20,22,24,26,28,30,32,34,36,38,40,42,44,46,48,50,52,54,56,58,60,62,-1,-1,-1,-1,-1,-1,-1,-1,-1,-1,-1,-1,-1,-1,-1,-1,-1,-1,-1,-1,-1,-1,-1,-1,-1,-1,-1,-1,-1,-1,-1,-1],"split_conditions":[1.3176315E-1,5.6226373E-2,2.1921616E0,5.4035234E-1,7.245723E-1,2.0133283E0,5.230307E-1,8.784529E-1,9.644879E-1,2.506427E-1,2.3362398E0,6.436897E-1,4.689163E-1,8.5606587E-1,5.465099E-1,2.8945562E-1,2.2247043E0,2.5347989E0,9.787021E-1,2.7E1,1E0,2.105621E-1,8.9184076E-1,2.4340461E-1,6.8E1,7.8E1,2.7687177E-1,2.4894392E0,6.3638014E-1,6.1525875E-1,2.833104E0,-4.6286102E-2,-8.48664E-3,-2.2414913E-2,-6.1780423E-2,-1.7075956E-2,4.2810094E-2,-2.5124699E-2,-6.32585E-2,-5.5050414E-2,-2.5115786E-2,2.7130783E-2,-2.8700441E-2,-3.0159323E-2,3.6225557E-2,-1.8486138E-2,-5.617867E-2,7.7600884E-3,4.1308627E-2,5.585694E-2,3.870493E-2,5.093015E-2,7.1035693E-3,5.8502194E-2,7.912109E-3,3.2861732E-2,5.875086E-3,-3.5177425E-2,1.9676577E-2,-1.2490656E-2,4.817257E-2,-7.994554E-3,3.1490993E-2],"split_indices":[1,1,4,6,2,4,1,5,5,6,4,2,6,2,6,6,4,4,5,3,0,6,5,1,3,3,1,4,6,5,4,0,0,0,0,0,0,0,0,0,0,0,0,0,0,0,0,0,0,0,0,0,0,0,0,0,0,0,0,0,0,0,0],"split_type":[0,0,0,0,0,0,0,0,0,0,0,0,0,0,0,0,0,0,0,0,0,0,0,0,0,0,0,0,0,0,0,0,0,0,0,0,0,0,0,0,0,0,0,0,0,0,0,0,0,0,0,0,0,0,0,0,0,0,0,0,0,0,0],"sum_hessian":[4.7627686E3,2.0030529E3,2.7597156E3,1.2176101E3,7.8544275E2,1.4296383E3,1.3300773E3,1.1068584E3,1.1075169E2,4.0286954E2,3.825732E2,9.829012E2,4.4673718E2,1.0521437E3,2.7793356E2,2.02468E2,9.043904E2,6.503074E1,4.572095E1,1.1747906E2,2.853905E2,8.074902E1,3.018242E2,1.22624344E2,8.602768E2,1.8953906E2,2.5719812E2,7.162159E2,3.3592773E2,2.3605566E2,4.1877907E1,1.3905133E2,6.341668E1,4.7921062E1,8.5646936E2,3.0988783E1,3.4041958E1,9.074981E0,3.664597E1,7.361767E1,4.3861385E1,2.311308E2,5.4259697E1,1.5160953E1,6.558807E1,4.305871E1,2.5876547E2,2.8651743E1,9.39726E1,8.0179236E2,5.8484474E1,1.8128175E2,8.257309E0,6.0031567E1,1.9716655E2,2.6365552E2,4.525604E2,2.9294308E2,4.298466E1,5.954813E0,2.3010085E2,3.2823853E1,9.054056E0],"tree_param":{"num_deleted":"0","num_feature":"7","num_nodes":"63","size_leaf_vector":"0"}},{"base_weights":[-4.2205895E-3,-7.528465E-1,5.824491E-1,-1.0422492E0,-3.728943E-1,9.93493E-1,2.709689E-1,-7.705123E-1,-1.2506955E0,-1.9331424E-1,-1.037546E0,1.0333583E0,5.7966584E-1,5.901506E-1,-7.0164923E-4,-1.0471094E0,1.2673019E-1,-2.0000084E-1,-1.2882127E0,-4.7966427E-1,3.5415727E-1,1.1537175E-2,-1.0960027E0,7.470909E-1,1.0730957E0,8.489815E-1,-3.0430377E-2,-5.266713E-1,6.729372E-1,2.0534521E-1,-6.896943E-1,-4.215993E-2,-6.004063E-2,-1.7254459E-2,2.3166604E-2,-4.2250957E-2,8.162334E-3,-6.475734E-2,-3.2397717E-2,-4.861368E-2,-1.4616464E-2,3.605835E-2,-8.017307E-3,-3.2570485E-2,-6.564661E-2,-6.933059E-3,4.5726873E-2,5.7483412E-2,4.5882545E-2,1.9353678E-2,5.0260704E-2,-1.659224E-2,3.3375762E-2,-4.447936E-2,-2.3054518E-3,6.7965924E-3,4.1149672E-2,3.182816E-3,4.337614E-2,-4.2634018E-2,2.5741896E-2],"categories":[],"categories_nodes":[],"categories_segments":[],"categories_sizes":[],"default_left":[0,0,0,0,0,0,0,1,0,1,0,0,0,0,0,0,0,0,0,1,0,0,0,0,1,0,0,0,0,1,0,0,0,0,0,0,0,0,0,0,0,0,0,0,0,0,0,0,0,0,0,0,0,0,0,0,0,0,0,0,0],"id":15,"left_children":[1,3,5,7,9,11,13,15,17,19,21,23,25,27,29,31,33,35,37,39,41,-1,43,45,47,49,51,53,55,57,59,-1,-1,-1,-1,-1,-1,-1,-1,-1,-1,-1,-1,-1,-1,-1,-1,-1,-1,-1,-1,-1,-1,-1,-1,-1,-1,-1,-1,-1,-1],"loss_changes":[2.1035808E3,2.310033E2,3.4353204E2,6.666467E1,1.0858152E2,1.8492432E1,1.325859E2,1.2940576E2,2.6312988E1,1.12848015E2,1.4609146E1,1.1191406E1,1.7107903E1,6.535602E1,1.1754484E2,1.1469727E1,1.9794695E1,5.8601785E0,2.0493164E0,4.3305237E1,4.6833374E1,0E0,1.7014084E1,1.9674896E1,9.937012E0,4.818321E0,7.1224527E0,8.518487E0,5.2665527E1,5.9745632E1,3.7859947E1,0E0,0E0,0E0,0E0,0E0,0E0,0E0,0E0,0E0,0E0,0E0,0E0,0E0,0E0,0E0,0E0,0E0,0E0,0E0,0E0,0E0,0E0,0E0,0E0,0E0,0E0,0E0,0E0,0E0,0E0],"parents":[2147483647,0,0,1,1,2,2,3,3,4,4,5,5,6,6,7,7,8,8,9,9,10,10,11,11,12,12,13,13,14,14,15,15,16,16,17,17,18,18,19,19,20,20,22,22,23,23,24,24,25,25,26,26,27,27,28,28,29,29,30,30],"right_children":[2,4,6,8,10,12,14,16,18,20,22,24,26,28,30,32,34,36,38,40,42,-1,44,46,48,50,52,54,56,58,60,-1,-1,-1,-1,-1,-1,-1,-1,-1,-1,-1,-1,-1,-1,-1,-1,-1,-1,-1,-1,-1,-1,-1,-1,-1,-1,-1,-1,-1,-1],"split_conditions":[1.4074348E-1,5.312203E-2,2.0813649E0,9.5707035E-1,1E0,6.4E1,4.3282288E-1,4.035456E-1,2.1921616E0,4.5761222E-1,2.17816E0,2.1646123E-1,4.5418575E-1,1.6040228E-1,5.6E1,8.784529E-1,3.1084178E-2,9.911409E-1,6.518935E-1,2.0424819E-1,9.475794E-1,1.1537175E-2,6.780876E-1,2.5098127E-1,4.88611E-1,6.817899E-1,7.6447755E-1,2.372857E-1,2.0240945E-1,6.3638014E-1,6.9911677E-1,-4.215993E-2,-6.004063E-2,-1.7254459E-2,2.3166604E-2,-4.2250957E-2,8.162334E-3,-6.475734E-2,-3.2397717E-2,-4.861368E-2,-1.4616464E-2,3.605835E-2,-8.017307E-3,-3.2570485E-2,-6.564661E-2,-6.933059E-3,4.5726873E-2,5.7483412E-2,4.5882545E-2,1.9353678E-2,5.0260704E-2,-1.659224E-2,3.3375762E-2,-4.447936E-2,-2.3054518E-3,6.7965924E-3,4.1149672E-2,3.182816E-3,4.337614E-2,-4.2634018E-2,2.5741896E-2],"split_indices":[1,1,4,5,0,3,6,6,4,6,4,6,6,2,3,5,1,5,6,6,5,0,2,1,6,1,1,6,1,6,1,0,0,0,0,0,0,0,0,0,0,0,0,0,0,0,0,0,0,0,0,0,0,0,0,0,0,0,0,0,0],"split_type":[0,0,0,0,0,0,0,0,0,0,0,0,0,0,0,0,0,0,0,0,0,0,0,0,0,0,0,0,0,0,0,0,0,0,0,0,0,0,0,0,0,0,0,0,0,0,0,0,0,0,0,0,0,0,0,0,0,0,0,0,0],"sum_hessian":[4.7876177E3,2.1033425E3,2.6842751E3,1.1929504E3,9.103921E2,1.1562472E3,1.5280281E3,5.198954E2,6.730551E2,7.1775507E2,1.9263702E2,1.0532838E3,1.02963425E2,7.0203973E2,8.259883E2,3.9726242E2,1.2263296E2,2.3422539E1,6.4963257E2,4.7134576E2,2.4640929E2,8.35777E0,1.8427925E2,1.3080014E2,9.2248364E2,7.115973E1,3.1803698E1,4.8078697E1,6.53961E2,6.3637805E2,1.8961023E2,1.7353178E2,2.2373064E2,5.1050114E1,7.158285E1,7.9606056E0,1.5461932E1,6.4166046E2,7.9720807E0,1.2870851E2,3.4263724E2,1.4358466E2,1.0282464E2,6.1742344E1,1.225369E2,2.082306E1,1.0997708E2,6.137516E2,3.087321E2,1.8864275E1,5.2295452E1,2.25778E1,9.225896E0,2.6907373E1,2.1171324E1,1.4324315E2,5.107179E2,5.2511346E2,1.1126459E2,1.6726906E2,2.2341175E1],"tree_param":{"num_deleted":"0","num_feature":"7","num_nodes":"61","size_leaf_vector":"0"}},{"base_weights":[-3.0413305E-3,-8.846009E-1,5.0863224E-1,-1.0053349E0,-8.116711E-2,9.0081006E-1,1.3919923E-1,-7.547618E-1,-1.1953005E0,5.2699256E-1,-9.23348E-1,1.0053741E0,6.151327E-1,1.53787425E-2,9.872676E-1,-9.451057E-1,-1.02699295E-1,4.8645325E-2,-1.2545917E0,-1.0786582E-1,7.7940243E-1,-3.618348E-1,-1.168631E0,3.0687872E-1,1.0650866E0,9.838081E-1,3.6894608E-1,2.8406063E-1,-5.700096E-1,1.0836422E0,6.35209E-1,-5.354895E-2,-3.4644507E-2,1.7058732E-2,-2.7767602E-2,-4.412923E-2,3.1498652E-2,-4.0425688E-2,-6.396037E-2,-5.098275E-2,5.843848E-3,5.5672694E-2,2.014314E-2,2.6650151E-2,-2.7800117E-2,6.564274E-3,-6.381687E-2,-9.835149E-3,5.4422505E-2,3.7957434E-2,5.4650743E-2,2.551178E-2,5.870499E-2,5.3978253E-2,5.3689354E-3,2.0158498E-2,-1.3553508E-2,-3.572466E-2,2.2567129E-2,2.5790531E-2,5.8632195E-2,3.8135763E-2,-1.5422247E-2],"categories":[],"categories_nodes":[],"categories_segments":[],"categories_sizes":[],"default_left":[0,1,0,0,0,0,1,1,0,1,0,0,0,0,1,0,0,0,1,0,0,0,0,0,0,0,0,0,0,0,0,0,0,0,0,0,0,0,0,0,0,0,0,0,0,0,0,0,0,0,0,0,0,0,0,0,0,0,0,0,0,0,0],"id":16,"left_children":[1,3,5,7,9,11,13,15,17,19,21,23,25,27,29,31,33,35,37,39,41,43,45,47,49,51,53,55,57,59,61,-1,-1,-1,-1,-1,-1,-1,-1,-1,-1,-1,-1,-1,-1,-1,-1,-1,-1,-1,-1,-1,-1,-1,-1,-1,-1,-1,-1,-1,-1,-1,-1],"loss_changes":[2.162815E3,1.7073218E2,4.394383E2,7.196411E1,1.1887089E2,4.3336792E1,1.6415906E2,8.216858E1,6.41532E1,2.169358E1,1.2976112E1,4.4536133E1,3.5656555E1,2.1489633E2,6.0693817E0,1.5541931E1,3.0505596E1,2.247929E1,8.073975E0,8.160459E0,1.1703613E1,5.6869006E0,9.584526E0,3.410764E1,7.633301E0,1.3666153E1,4.4411407E1,6.202777E1,6.3752426E1,7.2259216E0,5.6763134E0,0E0,0E0,0E0,0E0,0E0,0E0,0E0,0E0,0E0,0E0,0E0,0E0,0E0,0E0,0E0,0E0,0E0,0E0,0E0,0E0,0E0,0E0,0E0,0E0,0E0,0E0,0E0,0E0,0E0,0E0,0E0,0E0],"parents":[2147483647,0,0,1,1,2,2,3,3,4,4,5,5,6,6,7,7,8,8,9,9,10,10,11,11,12,12,13,13,14,14,15,15,16,16,17,17,18,18,19,19,20,20,21,21,22,22,23,23,24,24,25,25,26,26,27,27,28,28,29,29,30,30],"right_children":[2,4,6,8,10,12,14,16,18,20,22,24,26,28,30,32,34,36,38,40,42,44,46,48,50,52,54,56,58,60,62,-1,-1,-1,-1,-1,-1,-1,-1,-1,-1,-1,-1,-1,-1,-1,-1,-1,-1,-1,-1,-1,-1,-1,-1,-1,-1,-1,-1,-1,-1,-1,-1],"split_conditions":[1.0254792E-1,5.16845E-1,2.1921616E0,9.4227207E-1,9.578376E-1,2.0387433E0,6.3454825E-1,3.6985296E-1,2.1723535E0,2.4984937E0,9.8195165E-1,1.3768333E0,4.613895E-1,8.5761684E-1,4.9445683E-1,5.312203E-2,5.0634974E-1,2.1646123E-1,2.3448825E0,2.1E1,4.5573077E-1,2.726849E0,2.1309307E0,2.3940408E-1,6.161291E-1,7.1086943E-1,2.7687177E-1,1E0,3.3275814E0,4.4785118E-1,6.3E1,-5.354895E-2,-3.4644507E-2,1.7058732E-2,-2.7767602E-2,-4.412923E-2,3.1498652E-2,-4.0425688E-2,-6.396037E-2,-5.098275E-2,5.843848E-3,5.5672694E-2,2.014314E-2,2.6650151E-2,-2.7800117E-2,6.564274E-3,-6.381687E-2,-9.835149E-3,5.4422505E-2,3.7957434E-2,5.4650743E-2,2.551178E-2,5.870499E-2,5.3978253E-2,5.3689354E-3,2.0158498E-2,-1.3553508E-2,-3.572466E-2,2.2567129E-2,2.5790531E-2,5.8632195E-2,3.8135763E-2,-1.5422247E-2],"split_indices":[1,6,4,5,5,4,1,6,4,4,5,4,6,2,6,1,2,6,4,3,2,4,4,1,2,2,1,0,4,2,3,0,0,0,0,0,0,0,0,0,0,0,0,0,0,0,0,0,0,0,0,0,0,0,0,0,0,0,0,0,0,0,0],"split_type":[0,0,0,0,0,0,0,0,0,0,0,0,0,0,0,0,0,0,0,0,0,0,0,0,0,0,0,0,0,0,0,0,0,0,0,0,0,0,0,0,0,0,0,0,0,0,0,0,0,0,0,0,0,0,0,0,0,0,0,0,0,0,0],"sum_hessian":[4.792849E3,1.759936E3,3.0329128E3,1.5297982E3,2.3013785E2,1.4704713E3,1.5624415E3,6.618121E2,8.679862E2,1.3385332E2,9.6284546E1,1.0746187E3,3.958526E2,1.364272E3,1.9816959E2,5.119261E2,1.4988597E2,3.9497456E1,8.284887E2,3.8241463E1,9.561185E1,3.0025024E1,6.625952E1,8.5114914E1,9.895038E2,1.5729704E2,2.3855556E2,9.3543854E2,4.288334E2,1.539487E2,4.422089E1,3.393302E2,1.7259589E2,7.580117E1,7.408479E1,1.4981054E1,2.4516403E1,4.5097427E1,7.833913E2,6.8626137E0,3.1378849E1,4.9627327E1,4.5984524E1,5.042261E0,2.4982763E1,5.053198E0,6.120632E1,5.2218094E1,3.2896816E1,8.5130455E1,9.0437335E2,4.6143246E1,1.111538E2,6.3342125E1,1.7521342E2,7.7041205E2,1.6502652E2,3.759507E2,5.2882683E1,2.1781015E1,1.3216768E2,3.9125946E1,5.0949454E0],"tree_param":{"num_deleted":"0","num_feature":"7","num_nodes":"63","size_leaf_vector":"0"}},{"base_weights":[-5.7662646E-3,-8.985165E-1,5.3665996E-1,-9.8535115E-1,1.7909543E-1,9.475261E-1,1.4316253E-1,-6.5284896E-1,-1.1617056E0,5.664511E-1,-1.1588645E0,1.0580668E0,6.6957426E-1,1.0757595E-2,1.0020447E0,-8.9499164E-1,9.096691E-2,-2.1410713E-1,-1.2261484E0,1.0346552E0,-1.1478662E-1,-2.486067E-2,-6.454513E-2,3.793965E-1,1.1064038E0,8.2320476E-1,-5.7028074E-2,2.8851444E-1,-5.70788E-1,5.860986E-1,1.0901189E0,-5.517101E-2,-3.281901E-2,1.5249244E-2,-4.6510763E-2,-5.606499E-2,1.2355618E-2,-4.8100285E-2,-6.5813124E-2,7.010974E-2,3.666719E-2,-5.35773E-2,1.906358E-3,-2.0354161E-2,5.0011516E-2,3.9342802E-2,5.692789E-2,6.0003947E-2,3.225034E-2,-2.9227559E-2,4.3488897E-2,3.0587086E-2,2.9100052E-3,-3.56233E-2,9.1437455E-3,-1.5330123E-2,4.5684848E-2,5.6797087E-2,-1.2667733E-3],"categories":[],"categories_nodes":[],"categories_segments":[],"categories_sizes":[],"default_left":[1,1,0,0,0,0,0,1,0,0,1,0,0,0,0,0,0,0,0,0,0,0,0,0,0,0,0,0,0,0,0,0,0,0,0,0,0,0,0,0,0,0,0,0,0,0,0,0,0,0,0,0,0,0,0,0,0,0,0],"id":17,"left_children":[1,3,5,7,9,11,13,15,17,19,21,23,25,27,29,31,33,35,37,39,41,-1,-1,43,45,47,49,51,53,55,57,-1,-1,-1,-1,-1,-1,-1,-1,-1,-1,-1,-1,-1,-1,-1,-1,-1,-1,-1,-1,-1,-1,-1,-1,-1,-1,-1,-1],"loss_changes":[2.3607952E3,1.7259253E2,4.9015723E2,9.923828E1,7.2306305E1,4.4868164E1,1.762798E2,1.0693935E2,6.770508E1,3.4528656E1,2.0984688E0,3.4339355E1,4.7466583E1,2.1728517E2,6.9461517E0,2.1540314E1,3.2326702E1,3.0438221E1,2.3534912E1,6.063553E0,6.6015987E0,0E0,0E0,3.5548447E1,9.261719E0,2.2779816E1,3.7214497E1,6.773416E1,4.655893E1,1.1493538E1,8.703003E0,0E0,0E0,0E0,0E0,0E0,0E0,0E0,0E0,0E0,0E0,0E0,0E0,0E0,0E0,0E0,0E0,0E0,0E0,0E0,0E0,0E0,0E0,0E0,0E0,0E0,0E0,0E0,0E0],"parents":[2147483647,0,0,1,1,2,2,3,3,4,4,5,5,6,6,7,7,8,8,9,9,10,10,11,11,12,12,13,13,14,14,15,15,16,16,17,17,18,18,19,19,20,20,23,23,24,24,25,25,26,26,27,27,28,28,29,29,30,30],"right_children":[2,4,6,8,10,12,14,16,18,20,22,24,26,28,30,32,34,36,38,40,42,-1,-1,44,46,48,50,52,54,56,58,-1,-1,-1,-1,-1,-1,-1,-1,-1,-1,-1,-1,-1,-1,-1,-1,-1,-1,-1,-1,-1,-1,-1,-1,-1,-1,-1,-1],"split_conditions":[1.0699999E-1,5.7073826E-1,2.1849122E0,9.198135E-1,9.764246E-1,2.023669E0,6.2706184E-1,3.813372E-1,2.254295E0,3.2831082E0,2.1517704E0,1.7969951E-1,9.428067E-1,9.549729E-1,5.8483726E-1,4.28149E-2,1E0,1.4575454E0,9.611961E-1,4.103373E-1,1.6325852E-2,-2.486067E-2,-6.454513E-2,2.4811392E-1,6.112769E-1,3.286539E-1,6.8757457E-1,2.5610838E0,3.05352E0,8.550334E-1,6.4605665E-1,-5.517101E-2,-3.281901E-2,1.5249244E-2,-4.6510763E-2,-5.606499E-2,1.2355618E-2,-4.8100285E-2,-6.5813124E-2,7.010974E-2,3.666719E-2,-5.35773E-2,1.906358E-3,-2.0354161E-2,5.0011516E-2,3.9342802E-2,5.692789E-2,6.0003947E-2,3.225034E-2,-2.9227559E-2,4.3488897E-2,3.0587086E-2,2.9100052E-3,-3.56233E-2,9.1437455E-3,-1.5330123E-2,4.5684848E-2,5.6797087E-2,-1.2667733E-3],"split_indices":[1,6,4,5,5,4,1,6,4,4,4,1,2,5,2,1,0,4,5,2,1,0,0,6,2,1,1,4,4,5,6,0,0,0,0,0,0,0,0,0,0,0,0,0,0,0,0,0,0,0,0,0,0,0,0,0,0,0,0],"split_type":[0,0,0,0,0,0,0,0,0,0,0,0,0,0,0,0,0,0,0,0,0,0,0,0,0,0,0,0,0,0,0,0,0,0,0,0,0,0,0,0,0,0,0,0,0,0,0,0,0,0,0,0,0,0,0,0,0,0,0],"sum_hessian":[4.873151E3,1.8415636E3,3.0315872E3,1.7043145E3,1.3724911E2,1.4823741E3,1.549213E3,5.92294E2,1.1120205E3,1.0688209E2,3.036703E1,1.0585748E3,4.2379932E2,1.343164E3,2.0604912E2,4.4667853E2,1.4561545E2,7.1084274E1,1.0409362E3,6.3038147E1,4.3843937E1,5.8446736E0,2.4522354E1,7.0970505E1,9.876043E2,3.497222E2,7.407712E1,9.0934705E2,4.338169E2,3.7343296E1,1.6870581E2,2.3648401E2,2.1019452E2,1.20965096E2,2.4650358E1,2.3476387E1,4.7607887E1,2.6775818E2,7.7317804E2,2.6752197E1,3.628595E1,5.2138867E0,3.863005E1,3.1460396E1,3.951011E1,9.261924E1,8.949851E2,1.10432304E2,2.392899E2,4.7442753E1,2.6634369E1,3.776667E2,5.3168036E2,3.6521613E2,6.8600784E1,1.0042288E1,2.730101E1,1.620312E2,6.6746173E0],"tree_param":{"num_deleted":"0","num_feature":"7","num_nodes":"59","size_leaf_vector":"0"}},{"base_weights":[6.6937404E-3,-8.152729E-1,4.6860904E-1,-5.094972E-1,-1.1047074E0,8.2716954E-1,1.3968867E-1,-8.417825E-1,1.377982E-1,1.1861731E-1,-1.1693006E0,9.491191E-1,6.327121E-1,1.7281552E-3,7.6778406E-1,-6.295691E-1,-1.0267441E0,2.990588E-1,-5.4104763E-1,-8.058857E-1,4.8551303E-1,-1.1919848E0,-5.3269285E-1,1.2628625E-1,1.0202044E0,7.13382E-1,-2.034197E-1,2.3370825E-1,-6.7619526E-1,8.7234527E-1,1.7222561E-1,-4.3526284E-2,-1.3671959E-2,-2.8466556E-2,-5.5089332E-2,-3.3646878E-2,2.0649998E-2,4.4586915E-3,-4.780337E-2,-5.793984E-2,-1.610198E-2,3.543624E-2,-2.6436687E-2,-4.1540254E-2,-6.0788065E-2,6.6712433E-3,-5.5943917E-2,-2.2808224E-2,4.991145E-2,3.6804885E-2,5.3408522E-2,4.4509944E-2,2.262524E-2,1.4948182E-2,-3.6558755E-2,1.7896697E-2,-1.6985934E-2,-4.193854E-2,8.7814955E-3,3.046116E-2,5.325615E-2,-6.624613E-3,3.02842E-2],"categories":[],"categories_nodes":[],"categories_segments":[],"categories_sizes":[],"default_left":[1,0,0,1,0,0,0,0,0,0,0,0,0,0,1,0,0,0,0,0,0,1,0,0,0,0,0,0,0,1,1,0,0,0,0,0,0,0,0,0,0,0,0,0,0,0,0,0,0,0,0,0,0,0,0,0,0,0,0,0,0,0,0],"id":18,"left_children":[1,3,5,7,9,11,13,15,17,19,21,23,25,27,29,31,33,35,37,39,41,43,45,47,49,51,53,55,57,59,61,-1,-1,-1,-1,-1,-1,-1,-1,-1,-1,-1,-1,-1,-1,-1,-1,-1,-1,-1,-1,-1,-1,-1,-1,-1,-1,-1,-1,-1,-1,-1,-1],"loss_changes":[1.7477894E3,1.460133E2,3.4746344E2,1.737376E2,6.730237E1,3.2832275E1,1.3329628E2,2.0295776E1,3.023096E1,1.5158795E1,1.1025269E1,5.0434387E1,3.6998642E1,1.986685E2,1.7101288E1,2.1305115E1,9.103577E0,2.493049E1,1.3968789E1,1.8031054E0,7.572118E0,5.6782227E0,1.1703079E1,3.594676E1,1.0055298E1,2.2592804E1,1.3171573E1,6.716713E1,4.4749817E1,1.1292252E1,5.709648E0,0E0,0E0,0E0,0E0,0E0,0E0,0E0,0E0,0E0,0E0,0E0,0E0,0E0,0E0,0E0,0E0,0E0,0E0,0E0,0E0,0E0,0E0,0E0,0E0,0E0,0E0,0E0,0E0,0E0,0E0,0E0,0E0],"parents":[2147483647,0,0,1,1,2,2,3,3,4,4,5,5,6,6,7,7,8,8,9,9,10,10,11,11,12,12,13,13,14,14,15,15,16,16,17,17,18,18,19,19,20,20,21,21,22,22,23,23,24,24,25,25,26,26,27,27,28,28,29,29,30,30],"right_children":[2,4,6,8,10,12,14,16,18,20,22,24,26,28,30,32,34,36,38,40,42,44,46,48,50,52,54,56,58,60,62,-1,-1,-1,-1,-1,-1,-1,-1,-1,-1,-1,-1,-1,-1,-1,-1,-1,-1,-1,-1,-1,-1,-1,-1,-1,-1,-1,-1,-1,-1,-1,-1],"split_conditions":[1.0254792E-1,9.506785E-1,2.1921616E0,3.813372E-1,2.1723535E0,4.6719795E-1,5.230307E-1,8.741371E-1,1E0,2.1646123E-1,5.902694E-1,1.8227327E-1,6.3E1,8.7820095E-1,5.48817E-1,2.105621E-1,2.726849E0,2.1938873E-2,4.404224E-1,9.764246E-1,9.99994E-1,2.3362398E0,9.787021E-1,2.745098E-1,6.305855E-1,2.0387433E0,2.0483153E0,1E0,2.852826E0,2.3680892E0,2.4459043E0,-4.3526284E-2,-1.3671959E-2,-2.8466556E-2,-5.5089332E-2,-3.3646878E-2,2.0649998E-2,4.4586915E-3,-4.780337E-2,-5.793984E-2,-1.610198E-2,3.543624E-2,-2.6436687E-2,-4.1540254E-2,-6.0788065E-2,6.6712433E-3,-5.5943917E-2,-2.2808224E-2,4.991145E-2,3.6804885E-2,5.3408522E-2,4.4509944E-2,2.262524E-2,1.4948182E-2,-3.6558755E-2,1.7896697E-2,-1.6985934E-2,-4.193854E-2,8.7814955E-3,3.046116E-2,5.325615E-2,-6.624613E-3,3.02842E-2],"split_indices":[1,5,4,6,4,6,1,5,0,6,6,1,3,2,6,6,4,1,2,5,5,4,5,6,2,4,4,0,4,4,4,0,0,0,0,0,0,0,0,0,0,0,0,0,0,0,0,0,0,0,0,0,0,0,0,0,0,0,0,0,0,0,0],"split_type":[0,0,0,0,0,0,0,0,0,0,0,0,0,0,0,0,0,0,0,0,0,0,0,0,0,0,0,0,0,0,0,0,0,0,0,0,0,0,0,0,0,0,0,0,0,0,0,0,0,0,0,0,0,0,0,0,0,0,0,0,0,0,0],"sum_hessian":[4.601328E3,1.6551915E3,2.9461367E3,8.062168E2,8.489748E2,1.4088335E3,1.5373032E3,5.325401E2,2.736767E2,4.253683E1,8.064379E2,8.6345593E2,5.4537756E2,1.2612694E3,2.760338E2,2.5005101E2,2.8248904E2,2.2159583E2,5.2080875E1,1.1745089E1,3.0791744E1,7.778484E2,2.8589558E1,6.888372E1,7.945722E2,4.9752338E2,4.785418E1,9.401967E2,3.210727E2,2.3441348E2,4.1620327E1,1.4828046E2,1.0177056E2,4.1023228E1,2.4146584E2,2.273601E1,1.9885982E2,2.099079E1,3.1090088E1,5.984847E0,5.760241E0,2.548445E1,5.3072953E0,5.026293E1,7.2758545E2,1.3743912E1,1.4845645E1,4.158327E1,2.7300447E1,1.1713257E2,6.7743964E2,2.9509924E2,2.0242413E2,2.4738504E1,2.3115673E1,7.730919E2,1.6710478E2,2.6962805E2,5.144465E1,1.00881165E2,1.3353232E2,2.4847244E1,1.6773083E1],"tree_param":{"num_deleted":"0","num_feature":"7","num_nodes":"63","size_leaf_vector":"0"}},{"base_weights":[-1.2422139E-2,-7.898928E-1,4.2116103E-1,-4.9654716E-1,-1.098539E0,7.6161194E-1,7.742355E-2,-8.514302E-1,1.2040997E-1,1.3214621E-1,-1.1677877E0,8.8590616E-1,5.3165245E-1,-3.453154E-2,8.749288E-1,-5.4408896E-1,-9.88295E-1,2.372057E-1,-7.416486E-1,-4.1289903E-2,3.6366287E-1,-8.8378245E-1,-1.1988453E0,1.2595226E-1,9.3712276E-1,6.9293636E-1,2.6095523E-2,2.188966E-1,-5.410355E-1,6.283875E-1,1.0405219E0,-3.8046617E-2,-7.8904135E-3,-2.6848054E-2,-5.3631734E-2,3.4334786E-2,-6.45545E-3,1.6621097E-4,-5.460134E-2,3.039085E-2,-2.8948337E-2,-5.9697278E-2,-2.0086644E-2,-6.0273767E-2,-3.4398228E-2,-2.1942811E-2,4.0226206E-2,4.8772447E-2,2.2372171E-2,5.434339E-2,2.3774108E-2,-1.7424734E-2,3.427547E-2,1.5101432E-2,-2.7713632E-2,-3.4959823E-2,8.055913E-3,3.5150543E-2,-8.435762E-3,5.678205E-2,3.7429262E-2],"categories":[],"categories_nodes":[],"categories_segments":[],"categories_sizes":[],"default_left":[1,0,0,1,0,0,0,0,0,0,0,0,0,0,1,1,0,0,0,0,0,0,0,0,0,0,0,0,0,1,0,0,0,0,0,0,0,0,0,0,0,0,0,0,0,0,0,0,0,0,0,0,0,0,0,0,0,0,0,0,0],"id":19,"left_children":[1,3,5,7,9,11,13,15,17,19,21,23,25,27,29,31,33,35,37,-1,39,41,43,45,47,49,51,53,55,57,59,-1,-1,-1,-1,-1,-1,-1,-1,-1,-1,-1,-1,-1,-1,-1,-1,-1,-1,-1,-1,-1,-1,-1,-1,-1,-1,-1,-1,-1,-1],"loss_changes":[1.5335708E3,1.4692181E2,3.417254E2,1.8333966E2,6.7723816E1,4.1465332E1,1.2988545E2,2.1815887E1,3.1034124E1,9.866641E0,5.562256E0,3.6893616E1,4.2160385E1,1.6394977E2,6.656952E0,1.3781136E1,1.3373291E1,4.4656067E1,9.612265E0,0E0,8.506681E0,1.1153713E1,1.4533691E0,2.3806871E1,1.628009E1,3.307419E1,3.1399446E1,5.489088E1,4.741307E1,4.5486164E0,2.0822296E0,0E0,0E0,0E0,0E0,0E0,0E0,0E0,0E0,0E0,0E0,0E0,0E0,0E0,0E0,0E0,0E0,0E0,0E0,0E0,0E0,0E0,0E0,0E0,0E0,0E0,0E0,0E0,0E0,0E0,0E0],"parents":[2147483647,0,0,1,1,2,2,3,3,4,4,5,5,6,6,7,7,8,8,9,9,10,10,11,11,12,12,13,13,14,14,15,15,16,16,17,17,18,18,20,20,21,21,22,22,23,23,24,24,25,25,26,26,27,27,28,28,29,29,30,30],"right_children":[2,4,6,8,10,12,14,16,18,20,22,24,26,28,30,32,34,36,38,-1,40,42,44,46,48,50,52,54,56,58,60,-1,-1,-1,-1,-1,-1,-1,-1,-1,-1,-1,-1,-1,-1,-1,-1,-1,-1,-1,-1,-1,-1,-1,-1,-1,-1,-1,-1,-1,-1],"split_conditions":[1.0254792E-1,9.564255E-1,2.2317715E0,3.6985296E-1,2.1723535E0,2.023669E0,6.2706184E-1,8.2697994E-1,7.552589E-1,1.4575454E0,9.6718955E-1,1.6100141E-1,9.302681E-1,9.506785E-1,2.4070244E0,2.105621E-1,2.726849E0,3.0949578E0,2.641132E0,-4.1289903E-2,9.99994E-1,3.436814E-1,6.2774175E-1,2.4811392E-1,6.6E1,3.286539E-1,6.4259183E-1,8.767145E-1,3.05352E0,5.8437383E-1,1E0,-3.8046617E-2,-7.8904135E-3,-2.6848054E-2,-5.3631734E-2,3.4334786E-2,-6.45545E-3,1.6621097E-4,-5.460134E-2,3.039085E-2,-2.8948337E-2,-5.9697278E-2,-2.0086644E-2,-6.0273767E-2,-3.4398228E-2,-2.1942811E-2,4.0226206E-2,4.8772447E-2,2.2372171E-2,5.434339E-2,2.3774108E-2,-1.7424734E-2,3.427547E-2,1.5101432E-2,-2.7713632E-2,-3.4959823E-2,8.055913E-3,3.5150543E-2,-8.435762E-3,5.678205E-2,3.7429262E-2],"split_indices":[1,5,4,6,4,4,1,5,2,4,5,1,2,5,4,6,4,4,4,0,5,6,6,6,3,1,1,2,4,6,0,0,0,0,0,0,0,0,0,0,0,0,0,0,0,0,0,0,0,0,0,0,0,0,0,0,0,0,0,0,0],"split_type":[0,0,0,0,0,0,0,0,0,0,0,0,0,0,0,0,0,0,0,0,0,0,0,0,0,0,0,0,0,0,0,0,0,0,0,0,0,0,0,0,0,0,0,0,0,0,0,0,0,0,0,0,0,0,0,0,0,0,0,0,0],"sum_hessian":[4.547343E3,1.6277518E3,2.919591E3,8.358994E2,7.918524E2,1.466197E3,1.453394E3,5.304161E2,3.0548334E2,4.2134308E1,7.497181E2,9.499124E2,5.162846E2,1.2753193E3,1.7807472E2,1.6496007E2,3.65456E2,2.6967178E2,3.5811554E1,7.701399E0,3.443291E1,7.680781E1,6.729103E2,6.0195038E1,8.897174E2,3.9113364E2,1.25150986E2,8.503943E2,4.249251E2,7.347586E1,1.0459887E2,1.0503019E2,5.992988E1,5.86994E1,3.067566E2,1.20695984E2,1.4897578E2,1.1772155E1,2.40394E1,2.763123E1,6.801681E0,4.5837788E1,3.097002E1,6.6294714E2,9.963117E0,3.304409E1,2.7150946E1,8.242158E2,6.550157E1,1.3769414E2,2.5343948E2,8.0113045E1,4.503794E1,7.683859E2,8.2008354E1,3.4680994E2,7.811517E1,6.729396E1,6.1818986E0,7.6713844E1,2.7885025E1],"tree_param":{"num_deleted":"0","num_feature":"7","num_nodes":"61","size_leaf_vector":"0"}},{"base_weights":[-5.173731E-3,-7.8902674E-1,3.8613302E-1,-4.8320088E-1,-1.0445776E0,8.4107125E-1,1.2011681E-1,-7.942774E-1,2.0138308E-1,2.2639683E-2,-1.1045091E0,1.950591E-1,8.928973E-1,2.758669E-1,-2.9638186E-1,-9.5865047E-1,-5.901976E-1,5.7610697E-1,-6.8323754E-2,-4.313043E-2,3.197767E-1,-1.1364127E0,-3.7019226E-1,-2.1726191E-1,5.0330054E-2,9.955733E-1,7.3922586E-1,3.4556675E-1,-4.271911E-1,-5.2479815E-1,5.4731774E-1,-3.2814946E-2,-5.314156E-2,-1.8110787E-2,-5.1838513E-2,5.725636E-2,4.1646343E-3,6.9057676E-3,-3.4328613E-2,4.3072388E-2,-4.916456E-3,-3.7598003E-2,-5.8286794E-2,1.2621929E-2,-5.40273E-2,-3.0920213E-2,4.0547736E-2,3.2293085E-2,5.1253278E-2,3.927126E-2,8.699222E-3,2.2549521E-2,-1.242563E-2,1.8494217E-2,-3.8022E-2,-1.6453795E-2,-5.064261E-2,3.7415203E-2,-2.1047032E-2],"categories":[],"categories_nodes":[],"categories_segments":[],"categories_sizes":[],"default_left":[0,0,0,1,0,0,0,0,0,0,0,0,0,0,0,0,0,0,0,0,0,1,0,0,0,0,0,0,1,0,1,0,0,0,0,0,0,0,0,0,0,0,0,0,0,0,0,0,0,0,0,0,0,0,0,0,0,0,0],"id":20,"left_children":[1,3,5,7,9,11,13,15,17,19,21,23,25,27,29,31,33,35,37,-1,39,41,43,45,-1,47,49,51,53,55,57,-1,-1,-1,-1,-1,-1,-1,-1,-1,-1,-1,-1,-1,-1,-1,-1,-1,-1,-1,-1,-1,-1,-1,-1,-1,-1,-1,-1],"loss_changes":[1.3698013E3,1.1571417E2,3.6039883E2,1.4471538E2,5.178479E1,3.661908E1,1.2209319E2,1.5097168E1,2.155381E1,1.1851853E1,1.7530273E1,2.7956669E1,1.5311584E1,6.725569E1,9.903467E1,7.3983307E0,2.109665E1,2.4917873E1,1.6007473E1,0E0,7.7120986E0,7.3964233E0,1.5039747E1,2.351273E1,0E0,5.5964355E0,1.0602661E1,7.8180374E1,3.3210213E1,3.823356E1,2.1655117E1,0E0,0E0,0E0,0E0,0E0,0E0,0E0,0E0,0E0,0E0,0E0,0E0,0E0,0E0,0E0,0E0,0E0,0E0,0E0,0E0,0E0,0E0,0E0,0E0,0E0,0E0,0E0,0E0],"parents":[2147483647,0,0,1,1,2,2,3,3,4,4,5,5,6,6,7,7,8,8,9,9,10,10,11,11,12,12,13,13,14,14,15,15,16,16,17,17,18,18,20,20,21,21,22,22,23,23,25,25,26,26,27,27,28,28,29,29,30,30],"right_children":[2,4,6,8,10,12,14,16,18,20,22,24,26,28,30,32,34,36,38,-1,40,42,44,46,-1,48,50,52,54,56,58,-1,-1,-1,-1,-1,-1,-1,-1,-1,-1,-1,-1,-1,-1,-1,-1,-1,-1,-1,-1,-1,-1,-1,-1,-1,-1,-1,-1],"split_conditions":[9.166807E-2,9.436195E-1,2.0813649E0,3.9700675E-1,2.1921616E0,1.3768333E0,9.69162E-1,4.0276807E-2,3.05352E0,1.4575454E0,5.902694E-1,2.5098127E-1,1.9299451E0,6.3E1,5.716591E-1,8.1024265E-1,7.2731066E-1,4.993851E-1,4.9251908E-1,-4.313043E-2,1.9465977E0,2.3680892E0,9.787021E-1,3.6E1,5.0330054E-2,5.9016395E-1,6.6E1,1.9791397E2,3.454672E-1,1E0,5.6299037E-1,-3.2814946E-2,-5.314156E-2,-1.8110787E-2,-5.1838513E-2,5.725636E-2,4.1646343E-3,6.9057676E-3,-3.4328613E-2,4.3072388E-2,-4.916456E-3,-3.7598003E-2,-5.8286794E-2,1.2621929E-2,-5.40273E-2,-3.0920213E-2,4.0547736E-2,3.2293085E-2,5.1253278E-2,3.927126E-2,8.699222E-3,2.2549521E-2,-1.242563E-2,1.8494217E-2,-3.8022E-2,-1.6453795E-2,-5.064261E-2,3.7415203E-2,-2.1047032E-2],"split_indices":[1,5,4,6,4,4,5,1,4,4,6,1,4,3,1,5,2,2,2,0,4,4,5,3,0,2,3,4,6,0,6,0,0,0,0,0,0,0,0,0,0,0,0,0,0,0,0,0,0,0,0,0,0,0,0,0,0,0,0],"split_type":[0,0,0,0,0,0,0,0,0,0,0,0,0,0,0,0,0,0,0,0,0,0,0,0,0,0,0,0,0,0,0,0,0,0,0,0,0,0,0,0,0,0,0,0,0,0,0,0,0,0,0,0,0,0,0,0,0,0,0],"sum_hessian":[4.4638716E3,1.4860493E3,2.9778223E3,6.777978E2,8.082515E2,1.0979528E3,1.8798695E3,4.6592163E2,2.1187613E2,4.3008556E1,7.65243E2,8.189499E1,1.0160578E3,1.3684674E3,5.1140204E2,2.560182E2,2.0990346E2,8.819884E1,1.23677284E2,1.0329934E1,3.267862E1,7.328553E2,3.2387672E1,5.4790043E1,2.7104948E1,6.058073E2,4.1025046E2,1.2454994E3,1.22968E2,4.0274432E2,1.0865772E2,6.74796E1,1.8853859E2,1.4016054E2,6.974291E1,4.0320156E1,4.787868E1,9.3300095E1,3.0377193E1,1.3773805E1,1.8904816E1,5.3823574E1,6.7903174E2,1.760307E1,1.4784603E1,3.9700203E1,1.5089837E1,4.889718E1,5.5691016E2,3.7889258E2,3.1357904E1,1.057992E3,1.8750748E2,3.6221737E1,8.674626E1,2.886589E2,1.1408543E2,9.016821E1,1.8489508E1],"tree_param":{"num_deleted":"0","num_feature":"7","num_nodes":"59","size_leaf_vector":"0"}},{"base_weights":[-1.8562141E-3,-6.195974E-1,5.258945E-1,-9.3816924E-1,-2.7439302E-1,9.214878E-1,2.8575405E-1,-1.0101448E0,-2.1863882E-1,-4.7550347E-1,2.1158439E-1,5.8224946E-1,9.5770335E-1,6.172984E-1,2.4927074E-2,-7.2935545E-1,-1.1166264E0,2.1018305E-1,-1.0956421E0,-3.4726468E-1,-9.98584E-1,4.2797324E-1,-6.3872325E-1,7.258745E-2,7.25497E-1,9.943664E-1,6.246788E-1,-1.3385113E-1,7.254796E-1,1.8911281E-1,-6.094729E-1,-4.4522483E-2,-1.71107E-3,-2.3731185E-2,-5.7559755E-2,-1.0898566E-2,3.3049364E-2,-2.466614E-2,-6.0521394E-2,-4.598638E-2,-7.88067E-3,-1.9571593E-2,-5.7284366E-2,2.9773176E-2,-9.876969E-3,-1.5138834E-2,-5.2855458E-2,-3.8127944E-2,4.3090697E-2,5.6864828E-2,3.0247597E-2,5.398955E-2,4.4732433E-2,4.062949E-2,-4.5447913E-3,-4.3386076E-2,6.5052058E-3,1.2868637E-2,4.0294215E-2,4.3962323E-3,4.4813585E-2,-3.876089E-2,1.3689878E-2],"categories":[],"categories_nodes":[],"categories_segments":[],"categories_sizes":[],"default_left":[0,0,0,0,1,0,0,0,0,0,0,0,0,0,0,0,0,1,1,1,0,0,0,0,0,0,0,0,0,1,0,0,0,0,0,0,0,0,0,0,0,0,0,0,0,0,0,0,0,0,0,0,0,0,0,0,0,0,0,0,0,0,0],"id":21,"left_children":[1,3,5,7,9,11,13,15,17,19,21,23,25,27,29,31,33,35,37,39,41,43,45,47,49,51,53,55,57,59,61,-1,-1,-1,-1,-1,-1,-1,-1,-1,-1,-1,-1,-1,-1,-1,-1,-1,-1,-1,-1,-1,-1,-1,-1,-1,-1,-1,-1,-1,-1,-1,-1],"loss_changes":[1.4630114E3,2.2711224E2,2.29638E2,5.5442688E1,9.721944E1,1.0667786E1,1.3033511E2,2.8390991E1,3.7467747E1,4.681984E1,5.3916977E1,6.568018E0,9.439819E0,5.4026764E1,8.809869E1,3.0368149E1,1.5129761E1,1.3141335E1,1.6620598E0,6.133052E1,1.1868881E1,2.452863E1,8.049147E0,1.45034685E1,2.8204384E0,5.3427124E0,1.1423985E1,1.64606E1,2.1632874E1,4.7992313E1,2.5671288E1,0E0,0E0,0E0,0E0,0E0,0E0,0E0,0E0,0E0,0E0,0E0,0E0,0E0,0E0,0E0,0E0,0E0,0E0,0E0,0E0,0E0,0E0,0E0,0E0,0E0,0E0,0E0,0E0,0E0,0E0,0E0,0E0],"parents":[2147483647,0,0,1,1,2,2,3,3,4,4,5,5,6,6,7,7,8,8,9,9,10,10,11,11,12,12,13,13,14,14,15,15,16,16,17,17,18,18,19,19,20,20,21,21,22,22,23,23,24,24,25,25,26,26,27,27,28,28,29,29,30,30],"right_children":[2,4,6,8,10,12,14,16,18,20,22,24,26,28,30,32,34,36,38,40,42,44,46,48,50,52,54,56,58,60,62,-1,-1,-1,-1,-1,-1,-1,-1,-1,-1,-1,-1,-1,-1,-1,-1,-1,-1,-1,-1,-1,-1,-1,-1,-1,-1,-1,-1,-1,-1,-1,-1],"split_conditions":[1.5562311E-1,5.312203E-2,2.0336275E0,5.4035234E-1,4.8646313E-1,6.112769E-1,4.2621434E-1,9.117121E-1,9.7367567E-1,1E0,1E0,2.4340461E-1,6.3E1,2.6154745E-1,5.7E1,3.7974152E-1,2.2247043E0,2.5970855E0,2.1517704E0,2.1334961E-1,4.714562E-1,9.8347926E-1,8.000156E-1,2.3116858E-1,3.3401224E-1,1.8800256E0,4.8646313E-1,9.631118E-2,2.0240945E-1,6.570166E-1,6.8757457E-1,-4.4522483E-2,-1.71107E-3,-2.3731185E-2,-5.7559755E-2,-1.0898566E-2,3.3049364E-2,-2.466614E-2,-6.0521394E-2,-4.598638E-2,-7.88067E-3,-1.9571593E-2,-5.7284366E-2,2.9773176E-2,-9.876969E-3,-1.5138834E-2,-5.2855458E-2,-3.8127944E-2,4.3090697E-2,5.6864828E-2,3.0247597E-2,5.398955E-2,4.4732433E-2,4.062949E-2,-4.5447913E-3,-4.3386076E-2,6.5052058E-3,1.2868637E-2,4.0294215E-2,4.3962323E-3,4.4813585E-2,-3.876089E-2,1.3689878E-2],"split_indices":[1,1,4,6,6,2,6,5,5,0,0,1,3,2,3,6,4,4,4,6,2,5,2,6,1,4,6,2,1,6,1,0,0,0,0,0,0,0,0,0,0,0,0,0,0,0,0,0,0,0,0,0,0,0,0,0,0,0,0,0,0,0,0],"split_type":[0,0,0,0,0,0,0,0,0,0,0,0,0,0,0,0,0,0,0,0,0,0,0,0,0,0,0,0,0,0,0,0,0,0,0,0,0,0,0,0,0,0,0,0,0,0,0,0,0,0,0,0,0,0,0,0,0,0,0,0,0,0,0],"sum_hessian":[4.4855815E3,2.0665156E3,2.4190657E3,1.0738217E3,9.9269403E2,9.127001E2,1.5063656E3,9.758065E2,9.801521E1,7.0214795E2,2.9054605E2,8.96845E1,8.2301556E2,6.6266595E2,8.4369965E2,2.7045972E2,7.053468E2,6.63385E1,3.167671E1,5.6523773E2,1.3691022E2,2.3200212E2,5.854391E1,2.0007244E1,6.967725E1,7.3960565E2,8.340993E1,8.3393166E1,5.7927277E2,6.7079626E2,1.7290338E2,2.1934624E2,5.1113472E1,3.6791576E1,6.6855524E2,3.4288883E1,3.2049618E1,5.918442E0,2.5758268E1,1.3970084E2,4.2553693E2,2.7415754E1,1.0949445E2,1.830388E2,4.8963318E1,3.3427048E1,2.5116863E1,9.737245E0,1.027E1,1.3867896E1,5.5809357E1,3.9305853E2,3.4654712E2,6.5954575E1,1.7455353E1,2.1454948E1,6.1938217E1,8.55297E1,4.9374307E2,5.878102E2,8.29861E1,1.4568758E2,2.721581E1],"tree_param":{"num_deleted":"0","num_feature":"7","num_nodes":"63","size_leaf_vector":"0"}},{"base_weights":[-5.798231E-3,-5.9194237E-1,4.6886173E-1,-8.884175E-1,-2.7039936E-1,8.678206E-1,2.356803E-1,-6.440573E-1,-1.0955336E0,-1.2537622E-1,-8.680371E-1,9.2601377E-1,6.6116244E-1,5.3511006E-1,-1.3862884E-2,-9.263762E-1,-3.0289074E-2,-4.8433997E-2,-1.1492355E0,-3.5045895E-1,3.6650515E-1,-1.8888181E-1,-9.898246E-1,5.03869E-1,9.629234E-1,7.527137E-1,2.090716E-1,6.7349637E-1,6.728514E-2,-1.566855E-1,5.8983445E-1,-2.709308E-2,-5.23094E-2,8.245396E-3,-5.083272E-2,1.641995E-2,-2.2947274E-2,-5.807655E-2,-3.7614804E-2,-3.9134864E-2,-9.170606E-3,4.1969895E-2,5.728751E-3,-2.4865944E-2,1.5883949E-2,-3.3958293E-3,-5.2559286E-2,-2.6227718E-2,4.162551E-2,5.042789E-2,3.8350783E-2,1.0788632E-2,3.996885E-2,2.5811786E-2,-3.0005379E-2,1.4535147E-2,3.849421E-2,-2.0430597E-2,2.8281985E-2,-1.8259075E-2,2.2874989E-2,4.5426898E-2,-5.5226698E-3],"categories":[],"categories_nodes":[],"categories_segments":[],"categories_sizes":[],"default_left":[1,1,0,0,0,0,1,1,0,1,0,0,0,0,0,0,0,0,0,1,0,0,0,0,0,0,0,0,0,0,0,0,0,0,0,0,0,0,0,0,0,0,0,0,0,0,0,0,0,0,0,0,0,0,0,0,0,0,0,0,0,0,0],"id":22,"left_children":[1,3,5,7,9,11,13,15,17,19,21,23,25,27,29,31,33,35,37,39,41,43,45,47,49,51,53,55,57,59,61,-1,-1,-1,-1,-1,-1,-1,-1,-1,-1,-1,-1,-1,-1,-1,-1,-1,-1,-1,-1,-1,-1,-1,-1,-1,-1,-1,-1,-1,-1,-1,-1],"loss_changes":[1.2077177E3,1.8492188E2,2.2293219E2,5.0417847E1,8.0774055E1,1.0023621E1,1.1322084E2,8.068913E1,3.0607117E1,8.340195E1,1.4872101E1,1.0228088E1,8.030121E0,4.454538E1,7.143181E1,1.4130585E1,2.8623465E1,4.4274116E0,1.6575317E0,3.715214E1,2.809349E1,4.676463E0,8.648499E0,1.9830605E1,4.869446E0,3.9395752E0,8.933873E0,1.9383743E1,3.7784283E1,8.594994E1,3.547626E1,0E0,0E0,0E0,0E0,0E0,0E0,0E0,0E0,0E0,0E0,0E0,0E0,0E0,0E0,0E0,0E0,0E0,0E0,0E0,0E0,0E0,0E0,0E0,0E0,0E0,0E0,0E0,0E0,0E0,0E0,0E0,0E0],"parents":[2147483647,0,0,1,1,2,2,3,3,4,4,5,5,6,6,7,7,8,8,9,9,10,10,11,11,12,12,13,13,14,14,15,15,16,16,17,17,18,18,19,19,20,20,21,21,22,22,23,23,24,24,25,25,26,26,27,27,28,28,29,29,30,30],"right_children":[2,4,6,8,10,12,14,16,18,20,22,24,26,28,30,32,34,36,38,40,42,44,46,48,50,52,54,56,58,60,62,-1,-1,-1,-1,-1,-1,-1,-1,-1,-1,-1,-1,-1,-1,-1,-1,-1,-1,-1,-1,-1,-1,-1,-1,-1,-1,-1,-1,-1,-1,-1,-1],"split_conditions":[1.5095538E-1,5.312203E-2,2.0387433E0,9.5707035E-1,1E0,1.9593482E0,4.3282288E-1,3.4699726E-1,2.1921616E0,4.706893E-1,4.2595437E-1,2.3542912E-1,5.7E1,1.9791397E2,6.2774175E-1,8.1024265E-1,5.686191E-1,1.938655E0,5.8437383E-1,2.2799033E-1,9.019112E-1,3.9700675E-1,2.17816E0,1.8373667E-1,4.9445683E-1,6.305855E-1,5.3371125E-1,2.0240945E-1,3.6262986E-1,5.4707915E-1,9.1762036E-1,-2.709308E-2,-5.23094E-2,8.245396E-3,-5.083272E-2,1.641995E-2,-2.2947274E-2,-5.807655E-2,-3.7614804E-2,-3.9134864E-2,-9.170606E-3,4.1969895E-2,5.728751E-3,-2.4865944E-2,1.5883949E-2,-3.3958293E-3,-5.2559286E-2,-2.6227718E-2,4.162551E-2,5.042789E-2,3.8350783E-2,1.0788632E-2,3.996885E-2,2.5811786E-2,-3.0005379E-2,1.4535147E-2,3.849421E-2,-2.0430597E-2,2.8281985E-2,-1.8259075E-2,2.2874989E-2,4.5426898E-2,-5.5226698E-3],"split_indices":[1,1,4,5,0,4,6,6,4,6,2,1,3,4,6,5,2,4,6,6,5,6,4,6,6,2,6,1,1,1,2,0,0,0,0,0,0,0,0,0,0,0,0,0,0,0,0,0,0,0,0,0,0,0,0,0,0,0,0,0,0,0,0],"split_type":[0,0,0,0,0,0,0,0,0,0,0,0,0,0,0,0,0,0,0,0,0,0,0,0,0,0,0,0,0,0,0,0,0,0,0,0,0,0,0,0,0,0,0,0,0,0,0,0,0,0,0,0,0,0,0,0,0,0,0,0,0,0,0],"sum_hessian":[4.3388887E3,1.9413381E3,2.3975505E3,1.00912384E3,9.3221436E2,8.833951E2,1.5141555E3,4.648238E2,5.443E2,7.511497E2,1.8106465E2,6.865793E2,1.9681575E2,6.8775995E2,8.2639557E2,3.1802872E2,1.4679507E2,2.6646105E1,5.1765393E2,5.1553204E2,2.3561766E2,2.7919703E1,1.5314494E2,5.6381443E1,6.301979E2,1.631183E2,3.3697437E1,5.304184E2,1.573416E2,6.688901E2,1.5750546E2,7.6865456E1,2.4116327E2,1.23239395E2,2.355568E1,1.3997233E1,1.2648871E1,5.0023267E2,1.7421246E1,1.426739E2,3.7285815E2,8.108424E1,1.5453342E2,1.7364792E1,1.0554911E1,9.6885195E0,1.4345642E2,1.35095625E1,4.287188E1,5.0777045E2,1.2242741E2,1.3492147E1,1.4962616E2,2.4687933E1,9.009505E0,1.07502014E2,4.2291635E2,8.057635E1,7.676524E1,4.9967282E2,1.6921729E2,1.0803911E2,4.946635E1],"tree_param":{"num_deleted":"0","num_feature":"7","num_nodes":"63","size_leaf_vector":"0"}},{"base_weights":[-5.0018365E-3,-6.577154E-1,3.9673692E-1,-4.0204215E-1,-1.0075768E0,7.200902E-1,1.01846896E-1,-7.3721045E-1,1.5154807E-1,3.0999333E-1,-1.1190914E0,8.4800106E-1,4.909613E-1,3.310476E-1,-1.8230695E-1,-9.01399E-1,-4.6233281E-1,4.125067E-1,-2.0211218E-1,-4.2301573E-2,9.081766E-1,-1.1295084E0,-1.2213814E-2,3.6822623E-1,9.0451044E-1,9.677171E-1,3.6004853E-1,4.5258594E-1,-1.8217184E-1,-4.0342957E-1,6.306021E-1,-2.6812444E-2,-5.0081115E-2,-1.6323088E-2,-5.104981E-2,4.1211803E-2,-2.37913E-3,1.5478482E-2,-3.110732E-2,2.4981486E-2,-2.4831325E-2,6.206227E-2,3.9252946E-3,-4.234625E-2,-5.7522204E-2,-1.3810418E-2,3.534996E-2,2.9861912E-2,4.747079E-2,5.256483E-2,-1.2056277E-3,3.7616823E-2,3.0944506E-3,2.8260041E-2,-5.482164E-3,-3.576766E-2,1.2633515E-2,-2.4285426E-2,2.8663594E-2,4.1628566E-2,1.2190383E-2],"categories":[],"categories_nodes":[],"categories_segments":[],"categories_sizes":[],"default_left":[1,0,0,0,0,0,0,0,0,0,0,0,0,0,0,0,0,0,1,0,0,1,0,0,0,0,0,0,0,0,1,0,0,0,0,0,0,0,0,0,0,0,0,0,0,0,0,0,0,0,0,0,0,0,0,0,0,0,0,0,0],"id":23,"left_children":[1,3,5,7,9,11,13,15,17,19,21,23,25,27,29,31,33,35,37,39,41,43,-1,45,47,49,51,53,55,57,59,-1,-1,-1,-1,-1,-1,-1,-1,-1,-1,-1,-1,-1,-1,-1,-1,-1,-1,-1,-1,-1,-1,-1,-1,-1,-1,-1,-1,-1,-1],"loss_changes":[1.1256155E3,1.4588702E2,2.5329837E2,1.7574722E2,1.01708496E2,3.6724487E1,9.06486E1,2.6201141E1,3.3105568E1,1.1547859E1,5.522217E0,2.1678589E1,2.8135513E1,4.8128212E1,1.1199907E2,1.2937012E1,1.6563507E1,3.910312E1,3.2987995E1,8.946231E0,5.508789E0,2.7438354E0,0E0,1.9240467E1,9.445496E0,8.126541E0,4.201952E1,3.9511612E1,3.454012E1,3.960193E1,1.021273E1,0E0,0E0,0E0,0E0,0E0,0E0,0E0,0E0,0E0,0E0,0E0,0E0,0E0,0E0,0E0,0E0,0E0,0E0,0E0,0E0,0E0,0E0,0E0,0E0,0E0,0E0,0E0,0E0,0E0,0E0],"parents":[2147483647,0,0,1,1,2,2,3,3,4,4,5,5,6,6,7,7,8,8,9,9,10,10,11,11,12,12,13,13,14,14,15,15,16,16,17,17,18,18,19,19,20,20,21,21,23,23,24,24,25,25,26,26,27,27,28,28,29,29,30,30],"right_children":[2,4,6,8,10,12,14,16,18,20,22,24,26,28,30,32,34,36,38,40,42,44,-1,46,48,50,52,54,56,58,60,-1,-1,-1,-1,-1,-1,-1,-1,-1,-1,-1,-1,-1,-1,-1,-1,-1,-1,-1,-1,-1,-1,-1,-1,-1,-1,-1,-1,-1,-1],"split_conditions":[1.1825194E-1,9.644879E-1,2.1983464E0,3.813372E-1,2.2247043E0,4.8646313E-1,9.351099E-1,5.6226373E-2,5.6256056E-1,7.9114385E-2,6.518935E-1,2.2277619E-1,2.6738703E-1,1.9791397E2,5.3115636E-1,8.1024265E-1,8.139843E-1,3.48048E0,2.7538018E0,1.9465977E0,9.5099247E-1,2.3680892E0,-1.2213814E-2,2.0096087E-1,6.305855E-1,1E0,1.9908508E0,1E0,2.5516835E-1,6.570166E-1,4.905527E-1,-2.6812444E-2,-5.0081115E-2,-1.6323088E-2,-5.104981E-2,4.1211803E-2,-2.37913E-3,1.5478482E-2,-3.110732E-2,2.4981486E-2,-2.4831325E-2,6.206227E-2,3.9252946E-3,-4.234625E-2,-5.7522204E-2,-1.3810418E-2,3.534996E-2,2.9861912E-2,4.747079E-2,5.256483E-2,-1.2056277E-3,3.7616823E-2,3.0944506E-3,2.8260041E-2,-5.482164E-3,-3.576766E-2,1.2633515E-2,-2.4285426E-2,2.8663594E-2,4.1628566E-2,1.2190383E-2],"split_indices":[1,5,4,6,4,6,5,1,2,1,6,1,1,4,1,5,2,4,4,4,2,4,0,6,2,0,4,0,1,6,6,0,0,0,0,0,0,0,0,0,0,0,0,0,0,0,0,0,0,0,0,0,0,0,0,0,0,0,0,0,0],"split_type":[0,0,0,0,0,0,0,0,0,0,0,0,0,0,0,0,0,0,0,0,0,0,0,0,0,0,0,0,0,0,0,0,0,0,0,0,0,0,0,0,0,0,0,0,0,0,0,0,0,0,0,0,0,0,0,0,0,0,0,0,0],"sum_hessian":[4.2906377E3,1.6344594E3,2.6561782E3,9.4558795E2,6.8887146E2,1.2662576E3,1.3899208E3,5.8878156E2,3.568064E2,5.3615208E1,6.352562E2,8.108825E2,4.5537506E2,7.692626E2,6.206582E2,3.6718008E2,2.2160146E2,2.0521562E2,1.5159077E2,3.4327564E1,1.9287642E1,6.274931E2,7.763134E0,8.6236374E1,7.246461E2,9.672643E1,3.5864865E2,6.2206586E2,1.4719673E2,4.8832947E2,1.3232872E2,8.044394E1,2.8673615E2,1.795242E2,4.207726E1,1.078818E2,9.733382E1,6.845838E1,8.3132385E1,1.5609001E1,1.8718565E1,1.3408692E1,5.878949E0,4.6141567E1,5.8135156E2,2.9777151E1,5.645922E1,9.4221176E1,6.304249E2,8.915367E1,7.572757E0,1.5421931E2,2.0442932E2,5.1825397E2,1.0381188E2,6.58319E1,8.136482E1,4.5085168E2,3.747779E1,8.6177605E1,4.6151108E1],"tree_param":{"num_deleted":"0","num_feature":"7","num_nodes":"61","size_leaf_vector":"0"}},{"base_weights":[-5.9472206E-3,-7.677167E-1,3.2126784E-1,-5.163772E-1,-1.0330228E0,6.5257853E-1,3.0614E-2,-8.2903147E-1,-1.3731363E-3,7.146502E-2,-1.082084E0,7.854894E-1,4.5584208E-1,-1.2916726E-1,5.08783E-1,-4.6772516E-1,-9.529251E-1,2.7686986E-1,-6.613359E-1,-5.2899957E-2,3.9507562E-1,-1.0959153E0,-1.1330843E-2,2.724322E-1,8.887816E-1,5.414769E-1,-3.145079E-1,1.1736025E-1,-7.072702E-1,7.192405E-1,4.444743E-2,-3.5102557E-2,-3.983574E-3,-2.7586117E-2,-5.061503E-2,4.2907692E-2,-1.3929266E-2,-1.1315657E-2,-4.3116596E-2,3.9992582E-2,-1.19996155E-2,-3.5444066E-2,-5.581051E-2,-1.6831452E-2,3.9883446E-2,4.626023E-2,2.8496912E-2,4.7181543E-2,2.0835323E-2,2.9067924E-2,-2.5383968E-2,2.5191238E-2,-6.692347E-3,-4.1631553E-2,2.5117004E-2,2.6959306E-2,4.8057873E-2,8.925955E-3,-4.6738736E-2],"categories":[],"categories_nodes":[],"categories_segments":[],"categories_sizes":[],"default_left":[0,0,0,1,0,0,1,0,0,0,0,0,0,0,1,1,0,0,0,0,0,1,0,0,0,0,0,0,0,0,0,0,0,0,0,0,0,0,0,0,0,0,0,0,0,0,0,0,0,0,0,0,0,0,0,0,0,0,0],"id":24,"left_children":[1,3,5,7,9,11,13,15,17,19,21,23,25,27,29,31,33,35,37,-1,39,41,-1,43,45,47,49,51,53,55,57,-1,-1,-1,-1,-1,-1,-1,-1,-1,-1,-1,-1,-1,-1,-1,-1,-1,-1,-1,-1,-1,-1,-1,-1,-1,-1,-1,-1],"loss_changes":[1.0490092E3,8.378851E1,2.8346997E2,1.0488008E2,3.3358154E1,3.5614014E1,1.1995867E2,1.7697174E1,4.555053E1,1.0308418E1,6.710449E0,4.319467E1,3.6918167E1,1.678266E2,3.839582E1,9.53334E0,6.6080933E0,5.6579105E1,6.237221E0,0E0,5.7859135E0,3.7527466E0,0E0,4.4671936E1,7.3910522E0,2.4779968E1,1.0048767E1,8.025632E1,5.379654E1,1.1265274E1,1.6408112E1,0E0,0E0,0E0,0E0,0E0,0E0,0E0,0E0,0E0,0E0,0E0,0E0,0E0,0E0,0E0,0E0,0E0,0E0,0E0,0E0,0E0,0E0,0E0,0E0,0E0,0E0,0E0,0E0],"parents":[2147483647,0,0,1,1,2,2,3,3,4,4,5,5,6,6,7,7,8,8,9,9,10,10,11,11,12,12,13,13,14,14,15,15,16,16,17,17,18,18,20,20,21,21,23,23,24,24,25,25,26,26,27,27,28,28,29,29,30,30],"right_children":[2,4,6,8,10,12,14,16,18,20,22,24,26,28,30,32,34,36,38,-1,40,42,-1,44,46,48,50,52,54,56,58,-1,-1,-1,-1,-1,-1,-1,-1,-1,-1,-1,-1,-1,-1,-1,-1,-1,-1,-1,-1,-1,-1,-1,-1,-1,-1,-1,-1],"split_conditions":[8.100766E-2,9.5707035E-1,2.2317715E0,3.5190168E-1,2.0532517E0,4.706893E-1,3.7275204E-1,8.070779E-1,5.6256056E-1,1.2662541E0,6.518935E-1,2.3213725E-1,6.3E1,8.462588E-1,4.9445683E-1,1.8694733E-1,2.698373E0,3.48048E0,2.852826E0,-5.2899957E-2,1.9428414E0,2.2317715E0,-1.1330843E-2,2.4811392E-1,6.4E1,2.596496E-1,9.257711E-1,2.641132E0,6.2774175E-1,8.2635736E-1,6.3E1,-3.5102557E-2,-3.983574E-3,-2.7586117E-2,-5.061503E-2,4.2907692E-2,-1.3929266E-2,-1.1315657E-2,-4.3116596E-2,3.9992582E-2,-1.19996155E-2,-3.5444066E-2,-5.581051E-2,-1.6831452E-2,3.9883446E-2,4.626023E-2,2.8496912E-2,4.7181543E-2,2.0835323E-2,2.9067924E-2,-2.5383968E-2,2.5191238E-2,-6.692347E-3,-4.1631553E-2,2.5117004E-2,2.6959306E-2,4.8057873E-2,8.925955E-3,-4.6738736E-2],"split_indices":[1,5,4,6,4,6,1,5,2,4,6,1,3,2,6,6,4,4,4,0,4,4,0,6,3,1,5,4,6,2,3,0,0,0,0,0,0,0,0,0,0,0,0,0,0,0,0,0,0,0,0,0,0,0,0,0,0,0,0],"split_type":[0,0,0,0,0,0,0,0,0,0,0,0,0,0,0,0,0,0,0,0,0,0,0,0,0,0,0,0,0,0,0,0,0,0,0,0,0,0,0,0,0,0,0,0,0,0,0,0,0,0,0,0,0,0,0,0,0,0,0],